\data\
ngram 1=576
ngram 2=3633
ngram 3=15357

\1-grams:
-0.797884	</s>
-0.797884	<s>	-1.335844
-4.963514	あ	-0.225690
-4.486393	あっ	-0.601843
-3.486393	ある	-0.840920
-4.963514	あれ	-0.296123
-4.963514	あー	-0.225690
-3.922121	い	-0.812474
-3.019031	いい	-0.750569
-3.247511	いる	-1.355968
-2.902816	うさぎ	-1.719611
-4.264544	お	-0.299255
-3.039235	おいしい	-0.892087
-2.787423	おじいさん	-1.540365
-2.748670	おばあさん	-1.578154
-4.662484	おん	-0.300992
-2.781670	お母さん	-1.545969
-2.756688	お父さん	-1.570328
-3.641295	お腹	-1.327043
-3.060424	お茶	-1.161412
-4.486393	お願い	-0.601928
-4.009271	か	-0.433012
-4.963514	かかっ	-0.300813
-1.801847	から	-1.118881
-1.458500	が	-1.226108
-4.662484	き	-0.476904
-2.796197	きれい	-1.006246
-4.486393	ください	-0.526720
-4.486393	こ	-0.322594
-4.486393	ここ	-0.280679
-4.361454	この	-0.299672
-3.884333	これ	-0.544412
-2.493692	ごはん	-1.631162
-3.759394	さ	-0.698871
-3.516356	し	-0.902622
-4.963514	じ	-0.297777
-4.963514	す	-0.297777
-3.157334	すぐ	-0.469574
-1.378505	する	-2.903531
-4.963514	ず	-0.225690
-4.662484	せ	-0.297773
-4.963514	ぜ	-0.225690
-4.963514	ぞ	-0.225690
-3.300756	た	-0.690309
-3.178184	たくさん	-0.458668
-3.922121	だ	-0.593605
-4.486393	ち	-0.322589
-4.963514	つ	-0.301016
-3.291416	て	-0.744097
-1.726725	で	-0.970326
-2.627054	です	-1.789871
-1.644616	と	-0.858455
-3.164173	とても	-0.451202
-4.662484	どう	-0.299961
-4.963514	どうして	-0.300004
-4.963514	どこ	-0.298576
-4.361454	な	-0.287755
-4.118416	なっ	-0.652773
-4.361454	なる	-0.401731
-1.497685	に	-1.256271
-4.662484	ね	-0.401781
-2.127190	の	-0.934002
-1.949414	は	-1.020059
-4.963514	ば	-0.291073
-4.662484	ひ	-0.300936
-4.963514	ぶ	-0.301021
-2.778823	へ	-1.341862
-4.264544	ま	-0.276263
-4.486393	ます	-0.526720
-3.112256	まだ	-0.451108
-2.249184	まで	-1.703426
-2.799161	みんな	-1.528936
-2.028007	も	-0.834143
-3.178184	もう	-0.431530
-4.118416	や	-0.274090
-4.963514	やる	-0.297777
-3.247511	ゆっくり	-0.454378
-4.118416	よ	-0.447522
-4.662484	よかっ	-0.476904
-3.019031	よく	-0.470610
-4.662484	よろしく	-0.477107
-4.662484	り	-0.301016
-3.922121	れ	-0.812474
-4.486393	れる	-0.319680
-4.486393	わ	-0.297730
-4.963514	ゐ	-0.301016
-1.161767	を	-1.659293
-4.486393	ん	-0.322538
-4.963514	アレルギー	-0.292804
-4.662484	インターネット	-0.213821
-2.802146	カフェ	-1.264234
-3.787423	キーボード	-0.532987
-2.990386	ギター	-0.988528
-4.963514	ク	-0.296123
-2.784537	グラフ	-1.771186
-3.049700	ケーキ	-1.171512
-3.532150	ケーブル	-1.113823
-4.963514	ゲーム	-0.225690
-4.963514	コーヒー	-0.300439
-4.963514	サッカー	-0.225690
-3.039235	ジュース	-1.181383
-4.963514	ジョギング	-0.225690
-3.023995	スケジュール	-1.913478
-4.963514	ストレッチ	-0.270025
-2.817386	スライド	-2.118214
-3.532150	センサー	-1.113823
-3.171122	タクシー	-1.483981
-4.662484	チーム	-0.401781
-4.963514	テスト	-0.292804
-4.486393	テニス	-0.207293
-2.811226	データ	-1.826292
-4.486393	トイレ	-0.276276
-4.963514	ネ	-0.225690
-3.157334	バス	-1.195321
-4.963514	バスケットボール	-0.291073
-4.662484	パソコン	-0.224565
-2.995031	パン	-1.223219
-4.963514	ビール	-0.270025
-2.990386	ピアノ	-1.227628
-3.849571	プリンター	-0.827517
-2.836409	プログラム	-2.099329
-3.009271	プロジェクト	-1.928037
-2.817386	プール	-1.190814
-3.034095	ペン	-1.186235
-2.787423	ホテル	-1.222390
-4.963514	ホーム	-0.301016
-3.817386	マウス	-0.690099
-3.039235	マニュアル	-1.898414
-4.963514	マラソン	-0.225690
-2.950677	メール	-1.607683
-3.849571	モニター	-0.827517
-3.532150	モーター	-1.113823
-2.811226	レストラン	-1.255576
-2.784537	レポート	-2.150839
-3.532150	ロボット	-1.113823
-4.486393	上	-0.200392
-2.859710	上司	-1.292072
-4.486393	下	-0.281174
-4.963514	乗り	-0.225690
-2.576124	乗る	-2.313826
-3.023995	予算	-1.913478
-4.185363	二	-0.602008
-4.486393	亜	-0.602041
-2.805151	京都	-1.194450
-3.963514	人	-0.375757
-4.662484	今	-0.472214
-4.963514	今年	-0.296939
-2.778823	今日	-0.711564
-3.112256	仕事	-1.039241
-4.118416	他	-0.500379
-2.999726	企画	-1.641088
-4.963514	休み	-0.225690
-3.583303	休憩	-1.379382
-2.633100	会社	-1.230178
-4.963514	会議	-0.301021
-4.486393	似	-0.601838
-3.565574	体	-0.747978
-2.842940	体育館	-1.225405
-4.486393	何	-0.397278
-2.863143	作る	-2.028464
-2.873609	作成	-1.506406
-2.790328	使う	-1.798735
-4.963514	保存	-0.285650
-3.516356	信号	-0.966638
-2.856304	修正	-1.778292
-3.082700	傘	-1.140478
-2.397666	元気	-2.068642
-2.764857	兄	-1.300535
-2.735627	先生	-1.293035
-2.675712	先輩	-1.382226
-3.708241	光る	-1.203414
-4.662484	入っ	-0.300590
-4.963514	入学	-0.225690
-2.884333	公園	-1.078189
-4.662484	円	-0.225679
-2.999726	写真	-0.837142
-4.963514	冬休み	-0.225690
-4.963514	出す	-0.225690
-3.583303	出勤	-1.379382
-3.583303	出席	-1.379382
-3.565574	出張	-1.032829
-4.963514	刃	-0.296123
-2.895328	分析	-2.053324
-2.842940	切る	-2.048512
-2.902816	勉強	-1.738201
-3.708241	動く	-1.203414
-4.963514	動画	-0.300605
-4.118416	化	-0.442578
-2.842940	化学	-1.496422
-2.846243	北海道	-1.163567
-4.662484	医	-0.290434
-2.710661	午前	-0.752847
-2.720476	午後	-0.723104
-4.361454	卒業	-0.320285
-2.802146	卒論	-2.133348
-2.775993	単位	-1.855818
-4.963514	博物館	-0.296939
-4.963514	印	-0.297777
-4.963514	印刷	-0.297777
-4.486393	参加	-0.322443
-2.735627	友達	-1.333971
-3.350730	取り	-1.609218
-4.963514	取る	-0.225690
-4.963514	叙	-0.225690
-3.034095	古い	-0.794571
-4.963514	可	-0.225690
-2.842940	台所	-1.225405
-4.662484	史	-0.225184
-2.899056	同僚	-1.432026
-4.060424	名	-0.617787
-3.009271	名刺	-1.928037
-4.486393	名前	-0.526720
-4.185363	呼ぶ	-0.769758
-2.852924	咲く	-2.038603
-4.662484	員	-0.401781
-3.034095	商品	-1.903494
-4.264544	問題	-0.235420
-3.532150	回路	-1.113823
-4.361454	図	-0.268184
-2.647544	図書館	-1.412804
-4.486393	地	-0.310731
-4.486393	基	-0.383894
-3.532150	基板	-1.113823
-2.611331	報告	-2.020374
-4.963514	塩	-0.301025
-4.963514	増え	-0.300808
-2.884333	変更	-1.578080
-2.836409	夕方	-0.687931
-4.963514	外国	-0.300983
-4.963514	多	-0.300354
-4.486393	多い	-0.526720
-2.718001	夜	-0.667326
-4.361454	夢	-0.440844
-4.118416	大	-0.331501
-2.981243	大きい	-0.854099
-4.963514	大丈夫	-0.300978
-2.617161	大学	-1.288013
-2.849571	大阪	-0.982099
-4.963514	天気	-0.296939
-2.887967	太陽	-1.088881
-3.049700	契約	-1.888073
-2.762117	妹	-1.386342
-2.751326	姉	-1.396807
-2.870092	始まる	-2.021570
-4.185363	娘	-0.365947
-4.963514	嫁	-0.286999
-4.662484	子	-0.472214
-2.770389	子供	-1.461979
-2.820499	学校	-1.052762
-2.673479	学生	-1.651697
-3.055029	安い	-0.840237
-2.895328	完了	-1.739895
-2.873609	実行	-1.761258
-2.959193	実験	-1.660839
-2.836409	家	-1.033286
-2.751326	家族	-1.313578
-2.773182	宿題	-2.162120
-3.055029	寒い	-0.806955
-2.918191	寝る	-1.973878
-2.863143	対応	-1.394867
-4.486393	将来	-0.598807
-4.963514	小	-0.301025
-3.004473	小さい	-0.791165
-3.192662	少し	-0.413264
-4.963514	尾	-0.296123
-2.839662	屋上	-1.228518
-2.902816	山	-1.240837
-2.959193	川	-1.262675
-2.645451	工場	-1.358846
-4.963514	差	-0.296123
-2.210698	帰る	-2.678243
-2.981243	帽子	-1.236314
-3.049700	広い	-0.752121
-2.808178	店	-1.136814
-4.662484	府	-0.286994
-4.963514	座	-0.225690
-2.877154	座る	-2.014565
-2.778823	庭	-1.286510
-3.019031	弁当	-1.200476
-2.738205	弟	-1.326240
-4.662484	強い	-0.401781
-2.846243	弾く	-1.743610
-2.778823	彼	-1.218408
-2.764857	彼女	-1.562359
-4.963514	待つ	-0.225690
-2.664661	後輩	-1.481128
-4.963514	得	-0.300997
-4.963514	御	-0.300595
-3.029015	忘れ物	-1.191034
-4.963514	忙しい	-0.297777
-4.662484	悪い	-0.401781
-2.891632	情報	-1.743652
-4.662484	意	-0.401781
-4.361454	愛	-0.473435
-2.802146	成績	-2.133348
-4.662484	手	-0.401781
-3.082700	手紙	-1.140478
-2.866604	承認	-1.768152
-2.880729	担当	-1.045554
-4.963514	持	-0.291073
-2.863143	持つ	-2.028464
-4.963514	挨拶	-0.225690
-4.963514	授業	-0.296123
-2.805151	描く	-2.086028
-2.902816	提出	-2.045900
-3.071419	提案	-1.866622
-3.458364	撮り	-1.504483
-2.826793	撮る	-2.064539
-4.662484	教え	-0.300590
-2.662484	教室	-1.337623
-2.671258	教授	-1.474694
-2.759394	教科書	-2.175821
-4.963514	散歩	-0.225690
-2.866604	数学	-1.586677
-4.662484	文化	-0.300406
-3.065887	料理	-0.872083
-3.112256	新しい	-0.868427
-4.662484	新幹線	-0.292833
-3.082700	新聞	-1.066587
-4.963514	旅行	-0.225690
-4.963514	旗	-0.270025
-3.787423	日本	-0.386512
-4.963514	日本語	-0.286999
-2.689356	明日	-0.762425
-2.887967	星	-1.245560
-2.999726	映画	-0.885071
-2.698696	昨日	-0.754429
-2.590602	昼	-0.835330
-4.662484	時	-0.472214
-3.077023	時計	-1.145807
-4.486393	時間	-0.270005
-3.143970	晩	-1.824679
-4.963514	晴れ	-0.300808
-4.963514	暇	-0.301011
-3.019031	暑い	-0.838107
-4.963514	書	-0.292804
-4.662484	書い	-0.300590
-2.839662	書く	-1.750092
-3.044436	書類	-1.893275
-2.891632	月	-1.060564
-4.662484	月曜日	-0.470213
-3.231120	有名	-1.185404
-3.077023	服	-1.145807
-2.562113	朝	-0.860607
-4.963514	期	-0.301002
-2.934130	木	-1.286587
-3.049700	本	-1.097289
-3.532150	材料	-1.113823
-4.963514	来	-0.300808
-2.189728	来る	-2.398837
-2.787423	東京	-1.131049
-4.662484	柄	-0.208949
-4.963514	根	-0.300912
-4.963514	案	-0.225690
-2.918191	森	-1.301827
-2.880729	検討	-1.754254
-4.963514	機	-0.301006
-3.516356	機械	-0.966691
-3.583303	欠席	-1.379382
-4.963514	欧	-0.300992
-2.859710	止まる	-2.031870
-2.211465	歩く	-2.677476
-4.963514	歯	-0.296123
-4.963514	歯医者	-0.297777
-4.486393	歴史	-0.381948
-4.662484	死	-0.285072
-3.583303	残業	-1.379382
-2.746030	毎日	-0.705024
-2.677957	毎晩	-0.729878
-2.694001	毎朝	-0.747635
-2.910436	比較	-2.038347
-4.963514	毛	-0.285650
-4.486393	気	-0.265845
-3.621091	気持ち	-1.063792
-3.143970	水	-1.083251
-4.963514	水泳	-0.225690
-4.963514	永	-0.225690
-4.963514	江	-0.225690
-2.799161	決める	-2.091977
-2.852924	決定	-1.781620
-4.963514	泣い	-0.300813
-2.873609	泣く	-1.720180
-3.372449	泳ぎ	-1.588029
-2.873609	泳ぐ	-2.018082
-2.833180	洗う	-2.058199
-4.662484	派	-0.473869
-2.891632	海	-1.327274
-4.662484	温泉	-0.225651
-2.859710	測る	-2.031870
-2.914296	測定	-2.034521
-4.963514	湖	-0.296939
-4.662484	湯	-0.225628
-2.784537	準備	-1.671346
-4.963514	無	-0.301025
-2.839662	焼く	-2.051765
-4.963514	片付ける	-0.225690
-2.899056	物理	-1.736353
-2.922121	犬	-1.700643
-4.963514	狭い	-0.225690
-3.004473	猫	-1.327407
-2.880729	玄関	-1.189600
-4.662484	王	-0.300997
-2.873609	申請	-1.761258
-4.963514	画面	-0.301016
-2.846243	病院	-1.099874
-2.918191	発表	-1.360873
-2.852924	登録	-1.781620
-4.185363	目	-0.285580
-3.077023	目標	-1.145807
-2.833180	直す	-2.058199
-4.963514	相	-0.225690
-2.863143	相談	-1.771558
-4.963514	眼科	-0.301021
-3.112256	眼鏡	-1.112806
-2.884333	着る	-2.007445
-2.866604	研究	-1.410185
-2.826793	確かめる	-2.064539
-2.902816	確認	-1.732534
-4.963514	磨	-0.301016
-2.887967	社長	-1.264919
-4.662484	祖	-0.401781
-2.846243	神社	-1.163567
-4.361454	私	-0.272832
-4.264544	科学	-0.513023
-4.361454	種	-0.184416
-4.963514	穂	-0.291073
-2.930090	空	-1.148165
-2.866604	空く	-2.025030
-2.891632	空港	-1.179300
-2.899056	窓	-1.172295
-2.859710	立つ	-2.031870
-2.895328	笑う	-1.996542
-2.877154	管理	-1.585152
-4.662484	約束	-0.279077
-4.963514	紅茶	-0.225690
-3.124665	紙	-1.101224
-4.963514	終わり	-0.300004
-2.887967	終わる	-2.003841
-2.866604	組み立てる	-2.025030
-2.859710	組む	-2.031870
-4.662484	絵	-0.446117
-4.662484	練習	-0.225679
-3.708241	繋がる	-1.203414
-2.887967	繋ぐ	-2.003841
-4.963514	美	-0.225690
-2.842940	美術館	-1.170487
-4.662484	義	-0.300378
-4.060424	者	-0.381987
-2.846243	聴く	-2.045234
-4.963514	背	-0.285650
-3.157334	自転車	-1.198815
-4.963514	良	-0.301025
-4.662484	良い	-0.225679
-2.713094	花	-1.237070
-2.842940	英語	-1.403991
-4.963514	茶	-0.301025
-2.999726	荷物	-1.218764
-4.963514	葉	-0.285650
-3.044436	薬	-1.176475
-2.918191	虫	-1.704504
-2.209931	行く	-2.679008
-4.361454	行っ	-0.476682
-3.532150	装置	-1.113823
-2.914296	製作	-1.732195
-3.300756	見	-1.365951
-2.808178	見る	-2.083022
-4.963514	見学	-0.301025
-3.029015	見積	-1.908515
-4.662484	観光	-0.477107
-2.946481	観察	-2.002632
-2.802146	解く	-2.089013
-4.185363	言う	-0.526456
-4.361454	言っ	-0.476682
-2.877154	計画	-1.757770
-2.914296	計算	-1.564876
-2.918191	記録	-1.435212
-2.922121	設計	-1.263987
-2.906609	試す	-1.985358
-4.963514	詩	-0.270025
-4.963514	話す	-0.225690
-2.866604	説明	-1.595324
-2.767614	読む	-1.651591
-4.118416	読書	-0.302897
-4.963514	誰	-0.300987
-2.895328	課長	-1.435630
-2.759394	課題	-2.175821
-2.814295	調べる	-2.076948
-2.887967	調整	-2.060623
-2.775993	論文	-2.159327
-4.963514	謂う	-0.225690
-3.077023	財布	-1.145807
-3.383730	買い	-1.577033
-2.796197	買う	-2.094922
-3.009271	資料	-1.627358
-3.029015	赤い	-0.829270
-4.963514	赤ちゃん	-0.297777
-2.197845	走る	-2.691073
-2.899056	起きる	-1.992846
-3.432035	趣味	-0.997865
-4.963514	身	-0.225690
-4.963514	車	-0.297777
-3.583303	退勤	-1.379382
-4.963514	退院	-0.291073
-2.842940	送る	-2.048512
-4.963514	通勤	-0.300898
-2.823635	連絡	-1.603796
-4.963514	週末	-0.297777
-4.963514	進学	-0.301021
-4.963514	遅れ	-0.300808
-3.383730	遊び	-1.577033
-2.891632	遊ぶ	-2.000207
-4.963514	遊ん	-0.292804
-2.808178	運ぶ	-2.083022
-4.963514	運動	-0.300997
-4.662484	運転	-0.477112
-4.662484	道	-0.473869
-4.118416	部	-0.442930
-2.884333	部下	-1.446266
-2.852924	部屋	-1.215929
-2.849571	部長	-1.301832
-4.185363	都	-0.374693
-3.532150	配線	-1.113823
-4.963514	酢	-0.225690
-4.963514	野球	-0.225690
-3.065887	野菜	-1.078415
-4.662484	金曜日	-0.291628
-4.662484	銀行	-0.300387
-3.124665	鍵	-1.101224
-3.065887	長い	-0.767093
-2.859710	閉める	-2.031870
-4.963514	開け	-0.300808
-2.778823	開ける	-2.112181
-4.963514	開発	-0.300458
-4.963514	間に合う	-0.301025
-4.662484	間違い	-0.225651
-4.963514	降っ	-0.300808
-4.361454	降りる	-0.623630
-2.877154	降る	-2.014565
-4.963514	院	-0.301021
-2.671258	院生	-1.653874
-4.963514	隣	-0.286999
-4.486393	難しい	-0.225645
-2.918191	雨	-1.301827
-2.934130	雪	-1.286587
-4.662484	雲	-0.277125
-3.501116	電池	-0.770380
-3.516356	電源	-0.961217
-3.143970	電話	-0.988307
-3.171122	電車	-1.483981
-3.014124	青い	-0.876917
-3.247511	静か	-1.723250
-4.963514	面白い	-0.301025
-3.071419	靴	-1.151071
-3.004473	鞄	-1.214264
-2.981243	音楽	-1.157596
-3.565574	頭	-1.110715
-2.891632	風	-1.327274
-4.963514	風呂	-0.285650
-2.887967	飛ぶ	-2.003841
-3.372449	食べ	-1.297493
-2.873609	食べる	-2.018082
-4.963514	食事	-0.225690
-2.833180	食堂	-1.041048
-3.055029	食材	-1.166491
-3.432035	飲み	-1.530037
-2.839662	飲む	-2.051765
-2.946481	馬	-1.676731
-2.823635	駅	-1.027437
-3.082700	高い	-0.894318
-4.963514	魏	-0.297777
-4.963514	魔	-0.301006
-2.715541	魚	-1.411447
-2.902816	鳥	-1.543586
-2.906609	鳴く	-1.985358
-4.662484	黄	-0.301016
-3.817386	黒板	-0.705076

\2-grams:
-4.175715	<s> ある	-0.288065
-4.175715	<s> あれ
-4.175715	<s> い	-0.266268
-2.795503	<s> いい	-0.361911
-2.356171	<s> うさぎ	-1.465459
-3.573655	<s> お	-0.079181
-2.833292	<s> おいしい	-0.421324
-2.048610	<s> おじいさん	0.047642
-1.993871	<s> おばあさん	0.032185
-3.874685	<s> おん
-2.029587	<s> お母さん	0.034762
-1.999623	<s> お父さん	0.029963
-2.853495	<s> お腹
-2.573655	<s> お茶	0.276206
-4.175715	<s> お願い	0.301030
-3.698593	<s> から	-0.397099
-3.698593	<s> が	-0.299993
-2.713317	<s> きれい	-0.473819
-4.175715	<s> こ	-0.204120
-3.698593	<s> ここ
-3.698593	<s> この	-0.096910
-3.096533	<s> これ
-2.562931	<s> ごはん	0.806469
-4.175715	<s> さ	0.045757
-3.874685	<s> し	-0.227244
-4.175715	<s> す
-2.376374	<s> すぐ	-0.019624
-2.397563	<s> たくさん	-0.018483
-4.175715	<s> ち	-0.204120
-4.175715	<s> つ
-3.698593	<s> で	-0.298439
-2.874685	<s> と	-0.442392
-2.376374	<s> とても	-0.000000
-4.175715	<s> どう	-0.176091
-4.175715	<s> どうして
-4.175715	<s> どこ
-3.874685	<s> に	-0.300745
-3.330617	<s> の	-0.294034
-4.175715	<s> は	-0.300250
-3.874685	<s> ま	-0.191886
-2.330617	<s> まだ	-0.015363
-2.048610	<s> みんな	0.036212
-4.175715	<s> も	-0.300578
-2.390385	<s> もう	-0.000000
-3.874685	<s> や	-0.221849
-2.468145	<s> ゆっくり	-0.021048
-4.175715	<s> よ	-0.255273
-3.874685	<s> よかっ
-2.267230	<s> よく	-0.085278
-4.175715	<s> よろしく	0.176091
-4.175715	<s> り	-0.176091
-3.397563	<s> を	-0.295321
-2.216673	<s> カフェ	-0.202868
-3.029587	<s> キーボード	-0.173544
-2.468145	<s> ギター	0.123508
-4.175715	<s> ク
-2.795503	<s> グラフ	0.309630
-2.607513	<s> ケーキ	0.316270
-2.744351	<s> ケーブル
-4.175715	<s> コーヒー
-2.584650	<s> ジュース	0.305937
-2.562931	<s> スケジュール	0.321233
-4.175715	<s> ストレッチ
-2.795503	<s> スライド	0.751279
-2.744351	<s> センサー
-3.874685	<s> タクシー	1.204120
-4.175715	<s> テスト
-3.874685	<s> テニス	-0.124939
-2.795503	<s> データ	0.283301
-3.698593	<s> トイレ
-3.698593	<s> バス	0.832509
-4.175715	<s> バスケットボール
-4.175715	<s> パソコン	-0.176091
-2.573655	<s> パン	0.338014
-4.175715	<s> ビール
-2.503617	<s> ピアノ	0.279632
-3.061771	<s> プリンター
-2.795503	<s> プログラム	0.732394
-2.562931	<s> プロジェクト	0.335792
-2.184489	<s> プール	-0.151958
-2.607513	<s> ペン	0.330993
-2.197991	<s> ホテル	-0.369936
-3.029587	<s> マウス	0.000000
-2.562931	<s> マニュアル	0.306170
-2.562931	<s> メール	-0.079181
-3.061771	<s> モニター
-2.744351	<s> モーター
-2.267230	<s> レストラン	-0.349910
-2.795503	<s> レポート	0.783904
-2.744351	<s> ロボット
-4.175715	<s> 上	-0.221849
-2.075344	<s> 上司	-0.169461
-2.562931	<s> 予算	0.321233
-3.573655	<s> 二	0.124939
-2.256637	<s> 京都	-0.228331
-4.175715	<s> 人	-0.271067
-3.874685	<s> 今
-4.175715	<s> 今年
-1.996738	<s> 今日	-0.044865
-2.631647	<s> 仕事	0.138303
-3.330617	<s> 他
-2.552465	<s> 企画	0.329675
-2.267230	<s> 会社	-0.068336
-2.813987	<s> 体	-0.412663
-2.256637	<s> 体育館	-0.306978
-4.175715	<s> 何	-0.079181
-2.920442	<s> 作成	-1.211807
-2.744351	<s> 信号	-0.272066
-2.920442	<s> 修正	-1.214028
-2.552465	<s> 傘	0.236387
-2.026496	<s> 兄	-0.095637
-1.985383	<s> 先生	-0.259389
-1.892413	<s> 先輩	-0.292256
-2.283620	<s> 公園	-0.176091
-4.175715	<s> 円	-0.176091
-2.494473	<s> 写真	-0.121734
-4.175715	<s> 刃
-4.175715	<s> 動画
-2.058443	<s> 化学	0.003205
-2.324456	<s> 北海道	-0.205012
-4.175715	<s> 医	-0.176091
-1.922862	<s> 午前
-1.932677	<s> 午後	0.000000
-2.795503	<s> 卒論	0.766413
-2.777775	<s> 単位	0.761761
-4.175715	<s> 印刷
-1.988194	<s> 友達	-0.256649
-2.853495	<s> 古い	-0.359022
-2.272625	<s> 台所	-0.159460
-2.111257	<s> 同僚	0.000000
-2.562931	<s> 名刺	0.335792
-2.562931	<s> 商品	0.311249
-2.744351	<s> 回路
-4.175715	<s> 図	-0.234083
-2.231232	<s> 図書館	-0.010691
-4.175715	<s> 基	-0.079181
-2.744351	<s> 基板
-2.920442	<s> 報告	-1.242874
-2.920442	<s> 変更	-1.210038
-2.048610	<s> 夕方	-0.000000
-4.175715	<s> 外国
-4.175715	<s> 多
-1.932677	<s> 夜	-0.021398
-3.476745	<s> 大	-0.032185
-2.813987	<s> 大きい	-0.446903
-2.216673	<s> 大学	-0.088785
-2.278088	<s> 大阪	-0.305000
-4.175715	<s> 天気
-2.468145	<s> 太陽	-0.380211
-2.562931	<s> 契約	0.295829
-2.029587	<s> 妹	-0.119610
-2.017352	<s> 姉	-0.121044
-3.874685	<s> 娘	-0.124939
-3.874685	<s> 子
-2.014347	<s> 子供	0.030735
-2.236195	<s> 学校	-0.362493
-1.885680	<s> 学生
-2.999623	<s> 安い	-0.320643
-2.920442	<s> 完了	-1.207528
-2.920442	<s> 実行	-1.211227
-2.261901	<s> 家	-0.391207
-1.993871	<s> 家族	-0.114141
-2.795503	<s> 宿題	0.795185
-2.945266	<s> 寒い	-0.318096
-2.920442	<s> 対応	-1.214028
-3.698593	<s> 将来
-2.777775	<s> 小さい	-0.347741
-2.404863	<s> 少し	0.000000
-4.175715	<s> 尾
-2.272625	<s> 屋上	-0.214339
-2.476745	<s> 山	-0.494706
-2.476745	<s> 川	-0.309148
-2.246296	<s> 工場	-0.039509
-2.542246	<s> 帽子	0.323080
-2.920442	<s> 広い	-0.287242
-2.241216	<s> 店	-0.326012
-2.216673	<s> 庭	-0.466898
-2.619412	<s> 弁当	0.355699
-2.014347	<s> 弟	-0.139662
-2.055141	<s> 彼	-0.060698
-2.020379	<s> 彼女	0.042198
-1.881248	<s> 後輩	-0.236604
-4.175715	<s> 御
-2.595931	<s> 忘れ物	0.325573
-4.175715	<s> 忙しい
-2.103833	<s> 情報
-3.874685	<s> 愛	0.176091
-2.795503	<s> 成績	0.766413
-2.573655	<s> 手紙	0.255273
-2.920442	<s> 承認	-1.212376
-2.126497	<s> 担当	-0.462746
-4.175715	<s> 授業
-2.562931	<s> 提案	0.274378
-2.272625	<s> 教室	-0.093556
-1.885680	<s> 教授	-0.171748
-2.795503	<s> 教科書	0.808886
-2.078805	<s> 数学
-4.175715	<s> 文化	-0.176091
-2.573655	<s> 料理	0.112519
-3.096533	<s> 新しい	-0.327359
-4.175715	<s> 新幹線	-0.176091
-2.595931	<s> 新聞	0.270361
-4.175715	<s> 旗
-3.096533	<s> 日本	-0.176091
-4.175715	<s> 日本語
-1.901557	<s> 明日	-0.000000
-2.476745	<s> 星	-0.464788
-2.522502	<s> 映画	0.054235
-1.910897	<s> 昨日	-0.000000
-1.879050	<s> 昼	0.065353
-4.175715	<s> 時	0.176091
-2.619412	<s> 時計	0.301030
-2.607513	<s> 晩	0.246291
-4.175715	<s> 暇
-2.853495	<s> 暑い	-0.361384
-2.562931	<s> 書類	0.301030
-2.459711	<s> 月	-0.296446
-4.175715	<s> 月曜日	0.176091
-2.573655	<s> 服	0.260601
-1.833292	<s> 朝	0.051153
-2.476745	<s> 木	-0.442844
-2.451439	<s> 本	0.173631
-2.744351	<s> 材料
-2.193443	<s> 東京	-0.252246
-2.476745	<s> 森	-0.321148
-2.920442	<s> 検討	-1.210038
-2.728557	<s> 機械
-4.175715	<s> 欧
-4.175715	<s> 歯
-4.175715	<s> 歯医者
-4.175715	<s> 歴史	-0.204120
-3.874685	<s> 死
-1.960871	<s> 毎日	-0.019791
-1.890157	<s> 毎晩	-0.000000
-1.906202	<s> 毎朝	0.000000
-4.175715	<s> 気	-0.221849
-2.853495	<s> 気持ち	-0.439333
-2.698593	<s> 水	0.307190
-2.920442	<s> 決定	-1.214561
-2.476745	<s> 海	-0.216520
-4.175715	<s> 温泉	-0.176091
-2.573655	<s> 準備	-1.191603
-4.175715	<s> 無
-2.111257	<s> 物理
-2.362801	<s> 犬	-1.442424
-2.397563	<s> 猫	-1.057706
-2.283620	<s> 玄関	-0.185046
-4.175715	<s> 王	-0.176091
-2.920442	<s> 申請	-1.211227
-4.175715	<s> 画面
-2.236195	<s> 病院	-0.237174
-2.920442	<s> 登録	-1.214561
-3.698593	<s> 目	-0.243038
-2.503617	<s> 目標	0.197811
-2.920442	<s> 相談	-1.212936
-4.175715	<s> 眼科
-2.698593	<s> 眼鏡	0.336746
-2.920442	<s> 確認	-1.206203
-2.107529	<s> 社長	-0.232402
-2.278088	<s> 神社	-0.092514
-3.573655	<s> 私
-4.175715	<s> 科学	0.066947
-2.459711	<s> 空	-0.225609
-2.256637	<s> 空港	-0.188272
-2.312392	<s> 窓	-0.330601
-2.920442	<s> 管理	-1.211227
-4.175715	<s> 約束	-0.176091
-2.573655	<s> 紙	0.216019
-4.175715	<s> 終わり
-3.874685	<s> 絵
-2.272625	<s> 美術館	-0.227047
-3.874685	<s> 義
-4.175715	<s> 背
-3.698593	<s> 自転車	0.832509
-4.175715	<s> 良
-2.241216	<s> 花	0.294118
-2.061771	<s> 英語	-0.212161
-2.542246	<s> 荷物	0.305530
-4.175715	<s> 葉
-2.619412	<s> 薬	0.331699
-2.369535	<s> 虫	-1.450031
-2.744351	<s> 装置
-4.175715	<s> 製作	-0.297204
-3.698593	<s> 見	-0.574031
-2.562931	<s> 見積	0.316270
-4.175715	<s> 観光	0.176091
-4.175715	<s> 言う	-0.243038
-2.920442	<s> 計画	-1.210638
-4.175715	<s> 計算	-0.297237
-4.175715	<s> 記録	-0.297237
-4.175715	<s> 設計	-0.297237
-4.175715	<s> 詩
-2.920442	<s> 説明	-1.212936
-4.175715	<s> 読書	-0.213880
-4.175715	<s> 誰
-2.107529	<s> 課長
-2.795503	<s> 課題	0.808886
-2.795503	<s> 論文	0.792392
-2.542246	<s> 財布	0.232573
-4.175715	<s> 買い	1.290035
-2.562931	<s> 資料	-0.261521
-2.777775	<s> 赤い	-0.381016
-4.175715	<s> 赤ちゃん
-2.795503	<s> 趣味	-0.943682
-2.896961	<s> 連絡	-0.958330
-4.175715	<s> 運動
-4.175715	<s> 道	0.176091
-2.096533	<s> 部下
-2.246296	<s> 部屋	-0.193479
-2.075344	<s> 部長	-0.335792
-4.175715	<s> 都	-0.255273
-2.744351	<s> 配線
-2.607513	<s> 野菜	0.295950
-4.175715	<s> 金曜日	-0.176091
-4.175715	<s> 銀行	-0.176091
-2.644236	<s> 鍵	0.278167
-2.945266	<s> 長い	-0.294490
-4.175715	<s> 開け
-4.175715	<s> 院
-1.883459	<s> 院生
-4.175715	<s> 難しい	-0.221849
-2.468145	<s> 雨	-0.471785
-2.476745	<s> 雪	-0.227244
-4.175715	<s> 雲	-0.176091
-2.728557	<s> 電池	-0.194697
-2.728557	<s> 電源
-2.631647	<s> 電話	0.109144
-3.874685	<s> 電車	1.204120
-2.795503	<s> 青い	-0.406540
-2.595931	<s> 靴	0.285610
-2.542246	<s> 鞄	0.301030
-2.542246	<s> 音楽	0.318404
-2.777775	<s> 頭
-2.468145	<s> 風	0.341717
-2.278088	<s> 食堂	-0.253257
-2.584650	<s> 食材	0.291046
-2.397563	<s> 馬	-1.422782
-2.241216	<s> 駅	-0.340539
-3.061771	<s> 高い	-0.347043
-4.175715	<s> 魏
-4.175715	<s> 魔
-2.175715	<s> 魚	0.237145
-2.330617	<s> 鳥	-1.165662
-3.029587	<s> 黒板
-0.301030	あ </s>
-0.124939	あっ た	-0.162727
-0.100115	ある </s>
-1.531479	ある と	-0.300259
-1.531479	ある 大学	-0.277965
-1.531479	ある 週末
-0.301030	あれ は	-0.300640
-0.301030	あー </s>
-0.113943	い た	-0.126908
-1.113943	い て	-0.293343
-0.220446	いい </s>
-2.012837	いい の	-0.300451
-2.012837	いい よ
-2.012837	いい 夢	-0.221849
-1.535716	いい 太陽	-0.225965
-1.535716	いい 星	-0.221153
-1.535716	いい 月	-0.222532
-2.012837	いい 木	0.066947
-2.012837	いい 森	0.129960
-1.711807	いい 海	0.010724
-2.012837	いい 湯	-0.176091
-1.535716	いい 花	-0.383297
-2.012837	いい 雨	0.064458
-1.410777	いい 雪	-0.240817
-2.012837	いい 風	0.098679
-0.024824	いる </s>
-1.732394	いる 人	-0.124939
-0.248642	うさぎ が	-0.116654
-0.377990	うさぎ を	-0.357663
-1.000000	お ひ	-0.176091
-1.000000	お 休み
-1.000000	お 元気	-0.299858
-1.000000	お 時間	-0.221849
-1.000000	お 風呂
-0.180736	おいしい </s>
-1.496007	おいしい 太陽	-0.225965
-1.973128	おいしい 川	0.111492
-1.274158	おいしい 星	-0.397245
-1.496007	おいしい 月	-0.222532
-1.672098	おいしい 木	-0.109144
-1.672098	おいしい 空	-0.088521
-1.496007	おいしい 雨	-0.236572
-1.973128	おいしい 雪	0.157123
-1.672098	おいしい 風	-0.077412
-0.631218	おじいさん が	-0.515179
-0.374607	おじいさん と	-0.248968
-0.740363	おじいさん に	-0.227765
-0.865301	おじいさん も	-0.128539
-0.669007	おばあさん が	-0.490425
-0.338819	おばあさん と	-0.171327
-0.748188	おばあさん に	-0.217217
-0.903090	おばあさん も	-0.128539
-0.602060	おん じ
-0.602060	おん や	-0.221849
-0.674611	お母さん が	-0.514594
-0.360616	お母さん と	-0.161095
-0.716003	お母さん に	-0.225674
-0.870905	お母さん も	-0.128539
-0.712334	お父さん が	-0.601178
-0.348252	お父さん と	-0.185412
-0.686005	お父さん に	-0.227812
-0.895265	お父さん も	-0.128539
-0.020203	お腹 が	-0.122992
-1.327359	お茶 が	-0.227253
-0.815476	お茶 と	-0.313848
-1.230449	お茶 は	-0.149014
-1.151268	お茶 も	-0.260315
-0.213416	お茶 を	-0.282541
-0.124939	お願い し	-0.559308
-0.335792	か </s>
-1.113943	か ある	0.385351
-1.113943	か どう	-0.176091
-1.113943	か 来る	-0.300301
-0.301030	かかっ た	0.138303
-2.345514	から お茶	-0.492185
-2.190612	から ごはん	-0.575663
-3.190612	から だ	0.146128
-2.889582	から の	-0.475963
-2.111431	から カフェ	-1.062434
-2.588552	から ギター	-0.274432
-2.713491	から ケーキ	-0.060481
-2.491642	から ジュース	-0.320123
-1.713491	から タクシー	-0.162303
-1.713491	から バス	-0.503951
-2.345514	から パン	-0.417014
-2.149219	から ピアノ	-0.615025
-2.287522	から プール	-0.914315
-2.491642	から ペン	-0.185637
-2.149219	から ホテル	-1.032813
-2.412461	から レストラン	-0.811791
-3.190612	から 下	-0.221849
-2.014521	から 京都	-1.142850
-2.412461	から 仕事	-0.356547
-2.076668	から 会社	-1.109577
-1.911858	から 体育館	-1.218713
-2.713491	から 傘	-0.237643
-2.412461	から 公園	-0.806390
-2.588552	から 写真	-0.353128
-2.044484	から 北海道	-1.112258
-2.014521	から 台所	-1.136652
-2.190612	から 図書館	-1.009832
-2.345514	から 大学	-0.880025
-2.076668	から 大阪	-1.086360
-1.848189	から 太陽	-0.985633
-2.889582	から 始まる	1.619789
-2.412461	から 学校	-0.811557
-2.345514	から 家	-0.865025
-2.412461	から 屋上	-0.809560
-1.792672	から 山	-1.056464
-1.911858	から 川	-0.888508
-2.111431	から 工場	-1.078343
-1.194977	から 帰る	0.753583
-2.491642	から 帽子	-0.278980
-2.111431	から 店	-1.062434
-2.190612	から 庭	-0.998641
-2.713491	から 弁当	-0.095975
-2.236369	から 忘れ物	-0.472322
-2.889582	から 手紙	-0.087150
-2.236369	から 教室	-0.969738
-2.713491	から 料理	-0.206609
-2.713491	から 新聞	-0.135404
-1.828884	から 星	-0.999305
-2.889582	から 映画	-0.096049
-2.412461	から 昼	-0.704995
-2.345514	から 時計	-0.480638
-2.889582	から 晩	1.348954
-1.868393	から 月	-0.962895
-2.713491	から 服	-0.165367
-2.588552	から 朝	-0.578034
-1.911858	から 木	-0.933053
-2.588552	から 本	-0.334271
-3.190612	から 来
-1.129914	から 来る	0.233667
-2.111431	から 東京	-1.065159
-1.848189	から 森	-0.930738
-1.182012	から 歩く	0.739979
-2.889582	から 水	0.031714
-1.685462	から 海	-1.030669
-2.236369	から 玄関	-0.949695
-2.190612	から 病院	-0.992175
-2.588552	から 目標	-0.329224
-2.588552	から 眼鏡	-0.233130
-2.149219	から 神社	-1.026072
-1.868393	から 空	-0.953823
-2.287522	から 空港	-0.906551
-2.412461	から 窓	-0.804411
-2.889582	から 紙	-0.126403
-2.287522	から 美術館	-0.911918
-1.713491	から 自転車	-0.503951
-1.775638	から 花	-0.630161
-3.190612	から 英語	0.753328
-2.713491	から 荷物	-0.106650
-2.287522	から 薬	-0.424733
-1.212888	から 行く	0.772077
-2.889582	から 読む	-0.295567
-2.190612	から 財布	-0.604700
-1.173578	から 走る	0.745224
-2.287522	から 部屋	-0.910609
-2.889582	から 野菜	0.005140
-3.190612	から 金曜日	-0.176091
-2.889582	から 鍵	-0.005830
-2.588552	から 降りる
-1.828884	から 雨	-1.014723
-1.828884	から 雪	-0.922058
-2.412461	から 電話	-0.124939
-1.713491	から 電車	-0.162303
-2.491642	から 靴	-0.306231
-2.111431	から 鞄	-0.663151
-2.345514	から 音楽	-0.425969
-1.792672	から 風	-1.015264
-2.149219	から 食堂	-1.028029
-2.236369	から 食材	-0.512660
-2.412461	から 駅	-0.811320
-2.412461	から 魚	-0.532037
-3.525563	が あっ	0.301030
-2.747412	が ある	-0.158717
-2.923503	が い	-0.062148
-3.525563	が いい	0.099023
-2.203344	が いる	-0.087150
-2.571321	が お茶	-0.589095
-3.525563	が かかっ
-1.809560	が きれい	-1.549540
-2.923503	が ごはん	-0.233241
-3.525563	が で	-0.299147
-3.224533	が よく	-0.294191
-2.622473	が カフェ	-0.789432
-2.826593	が ギター	-0.353613
-2.622473	が ケーキ	-0.412663
-3.048442	が ジュース	-0.144032
-2.680465	が パン	-0.417014
-2.747412	が ピアノ	-0.380942
-2.622473	が プール	-0.761704
-2.747412	が ペン	-0.252583
-2.571321	が ホテル	-0.846666
-2.349472	が レストラン	-1.043771
-3.525563	が 二	0.124939
-2.446382	が 京都	-0.969526
-3.525563	が 今日	-0.298676
-2.571321	が 仕事	-0.511449
-1.576173	が 会社	-1.592709
-2.747412	が 体育館	-0.710683
-2.127623	が 作成	-0.657025
-2.127623	が 修正	-0.602060
-2.923503	が 傘	-0.334553
-0.960897	が 元気	-0.298682
-2.270291	が 光る
-3.525563	が 入っ	-0.176091
-2.525563	が 公園	-0.899286
-3.048442	が 写真	-0.256218
-2.826593	が 分析	1.293731
-2.826593	が 勉強	0.812913
-2.270291	が 動く
-2.446382	が 北海道	-0.983766
-2.571321	が 台所	-0.861307
-1.747412	が 咲く	0.328614
-3.525563	が 問題	-0.249877
-1.601284	が 図書館	-1.567488
-3.525563	が 基	-0.079181
-2.048442	が 報告	-0.436366
-3.525563	が 増え
-2.127623	が 変更	-0.667491
-3.224533	が 多い	0.124939
-3.048442	が 大きい	-0.136838
-1.606485	が 大学	-1.592215
-2.923503	が 大阪	-0.586266
-1.777375	が 始まる	0.341035
-2.747412	が 学校	-0.687674
-2.127623	が 完了	-0.640456
-2.127623	が 実行	-0.619093
-2.826593	が 実験	0.757565
-2.571321	が 家	-0.840299
-1.844322	が 寝る	0.359022
-2.127623	が 対応	-0.698970
-3.224533	が 小さい	-0.046997
-2.246809	が 屋上	-1.084321
-1.611749	が 工場	-1.571396
-1.769688	が 帰る	0.990155
-2.747412	が 帽子	-0.345927
-2.379435	が 店	-1.002848
-1.801287	が 座る	0.357511
-2.571321	が 庭	-0.845098
-2.747412	が 弁当	-0.339013
-3.525563	が 強い	0.176091
-3.048442	が 忘れ物	-0.074382
-3.525563	が 悪い	0.176091
-2.826593	が 手紙	-0.388180
-2.127623	が 承認	-0.612200
-2.826593	が 提出	1.286307
-1.627936	が 教室	-1.571798
-2.923503	が 料理	-0.303519
-2.571321	が 新聞	-0.533344
-2.680465	が 映画	-0.522018
-2.747412	が 昼	-0.704995
-2.747412	が 時計	-0.422646
-2.680465	が 晩	0.922985
-1.801287	が 有名	-0.285518
-2.826593	が 服	-0.341459
-2.923503	が 朝	-0.578034
-3.048442	が 本	-0.237361
-1.809560	が 来る	0.573849
-2.411620	が 東京	-0.971392
-2.127623	が 検討	-0.626098
-1.769688	が 止まる	0.343782
-1.769688	が 歩く	0.989388
-2.826593	が 比較	1.278754
-3.525563	が 気	-0.221849
-3.048442	が 水	-0.093224
-2.127623	が 決定	-0.598732
-1.826593	が 泣く	-0.087781
-1.762135	が 泳ぐ	0.322570
-2.826593	が 測定	1.274927
-2.127623	が 準備	-0.860921
-2.446382	が 玄関	-0.931013
-2.127623	が 申請	-0.619093
-2.747412	が 病院	-0.707570
-2.680465	が 発表	0.759668
-2.127623	が 登録	-0.598732
-3.048442	が 目標	-0.232314
-2.127623	が 相談	-0.608793
-2.923503	が 眼鏡	-0.233130
-2.826593	が 研究	0.332438
-2.127623	が 確認	-0.647817
-2.349472	が 神社	-1.020147
-1.793169	が 空く	0.360008
-2.571321	が 空港	-0.832509
-2.571321	が 窓	-0.859485
-1.835367	が 立つ	0.408240
-1.844322	が 笑う	0.381686
-2.127623	が 管理	-0.660486
-2.680465	が 紙	-0.552372
-1.809560	が 終わる	0.354905
-2.270291	が 繋がる
-2.446382	が 美術館	-0.945539
-3.224533	が 花	-0.322551
-3.048442	が 荷物	-0.106650
-2.923503	が 薬	-0.169461
-1.726223	が 行く	0.948168
-2.826593	が 製作	0.801632
-2.826593	が 観察	1.243038
-2.127623	が 計画	-0.622582
-2.747412	が 計算	0.856578
-2.826593	が 記録	0.437449
-2.747412	が 設計	0.555548
-2.127623	が 説明	-0.669491
-2.826593	が 調整	1.301030
-2.923503	が 財布	-0.262277
-1.719383	が 走る	0.953499
-1.826593	が 起きる	0.360616
-2.622473	が 趣味	-0.848439
-2.127623	が 連絡	-0.608177
-1.826593	が 遊ぶ	0.367977
-2.446382	が 部屋	-0.939446
-2.680465	が 野菜	-0.420829
-3.048442	が 鍵	-0.130768
-3.525563	が 降っ
-1.809560	が 降る	0.365629
-3.525563	が 雲	-0.176091
-2.923503	が 電話	-0.239578
-1.809560	が 静か
-3.224533	が 靴	-0.005201
-2.680465	が 鞄	-0.452298
-3.525563	が 音楽	0.176091
-1.809560	が 飛ぶ	0.354905
-2.525563	が 食堂	-0.878665
-2.680465	が 食材	-0.415750
-2.525563	が 駅	-0.882676
-3.525563	が 高い	0.285966
-2.923503	が 魚	-0.385909
-1.862805	が 鳴く	0.388600
-0.176091	き た	-0.284943
-0.391207	きれい </s>
-0.479844	きれい です	-0.235069
-2.204120	きれい 太陽	0.075065
-1.726999	きれい 川	-0.189538
-1.903090	きれい 星	-0.096215
-1.602060	きれい 月	-0.319442
-2.204120	きれい 木	0.066947
-1.903090	きれい 森	-0.046132
-1.602060	きれい 海	-0.211125
-1.726999	きれい 空	-0.213460
-1.903090	きれい 花	-0.258358
-1.726999	きれい 雨	-0.236572
-1.602060	きれい 雪	-0.240817
-0.124939	ください </s>
-0.397940	こ </s>
-0.698970	こ ば
-0.778151	ここ から	-0.300750
-0.778151	ここ で	-0.300795
-0.778151	ここ は	-0.300250
-0.903090	この 姉	-0.298437
-0.903090	この 差
-0.903090	この 星	-0.297542
-0.903090	この 種	-0.243038
-0.903090	これ が	-0.300771
-0.903090	これ は	-0.300250
-1.204120	これ も	-0.300578
-0.359022	これ を	-0.332403
-1.274447	ごはん が	-0.625193
-1.199813	ごはん と	-0.304029
-1.080626	ごはん は	0.411401
-0.934498	ごはん も	-0.273192
-0.181901	ごはん を	-0.608394
-2.177536	ごはん 食べ	-0.444121
-1.301030	さ ひ	-0.176091
-1.301030	さ ま	-0.249877
-0.259637	さ れ
-0.823909	さ れる
-0.505150	し た	-0.293061
-1.505150	し ち	-0.079181
-0.359022	し て	-0.489638
-1.028029	し ます
-0.301030	じ の	-0.300451
-0.301030	す の	-0.300451
-1.973128	すぐ に	-0.298749
-1.973128	すぐ ギター	0.123508
-1.973128	すぐ ジュース	0.156998
-1.672098	すぐ スケジュール	1.467361
-1.496007	すぐ ピアノ	-0.137904
-1.496007	すぐ プロジェクト	1.356981
-1.371068	すぐ マニュアル	1.230449
-1.496007	すぐ メール	0.942008
-1.496007	すぐ 予算	1.342423
-1.973128	すぐ 企画	1.194977
-1.672098	すぐ 名刺	1.481920
-1.672098	すぐ 商品	1.457377
-1.371068	すぐ 契約	1.220108
-1.973128	すぐ 弁当	0.205055
-1.973128	すぐ 忘れ物	0.226648
-1.973128	すぐ 手紙	0.088941
-1.371068	すぐ 提案	1.198657
-1.973128	すぐ 新聞	0.165626
-1.973128	すぐ 映画	0.080042
-1.672098	すぐ 時計	-0.054669
-1.274158	すぐ 書類	1.146128
-1.973128	すぐ 本	0.063669
-1.973128	すぐ 泣く	-0.297542
-1.973128	すぐ 眼鏡	0.164810
-1.973128	すぐ 紙	0.049688
-1.973128	すぐ 薬	0.228479
-1.371068	すぐ 見積	1.240549
-1.194977	すぐ 資料	0.516630
-1.973128	すぐ 靴	0.170890
-1.672098	すぐ 音楽
-0.000790	する </s>
-3.585461	する の	-0.300451
-3.585461	する 科学	0.066947
-3.585461	する 記録	-0.297237
-0.301030	ず </s>
-0.602060	せ ず
-0.602060	せ の	-0.299872
-0.301030	ぜ </s>
-0.301030	ぞ </s>
-0.196295	た </s>
-1.740363	た から	-0.300750
-1.439333	た と	-0.298906
-1.439333	た な	-0.057992
-1.740363	た よ
-1.740363	た わ	-0.221849
-1.439333	た ん	0.096910
-1.740363	た 娘	-0.191886
-1.740363	た 酢
-1.963788	たくさん ごはん	0.164699
-1.963788	たくさん だ	0.146128
-1.963788	たくさん ギター	0.123508
-1.963788	たくさん ジュース	0.156998
-1.963788	たくさん スケジュール	1.643453
-1.963788	たくさん ピアノ	0.163126
-1.264818	たくさん プロジェクト	1.180890
-1.486667	たくさん マニュアル	1.327359
-1.361728	たくさん メール	0.845098
-1.361728	たくさん 予算	1.245513
-1.963788	たくさん 仕事	0.187521
-1.486667	たくさん 企画	0.893947
-1.662758	たくさん 写真	-0.131279
-1.486667	たくさん 名刺	1.356981
-1.963788	たくさん 契約	1.618048
-1.963788	たくさん 帽子	0.198141
-1.963788	たくさん 忘れ物	0.226648
-1.361728	たくさん 提案	1.198657
-1.963788	たくさん 晩	1.525045
-1.662758	たくさん 書類	1.447158
-1.486667	たくさん 眼鏡	-0.136220
-1.963788	たくさん 荷物	0.194380
-1.963788	たくさん 薬	0.228479
-1.486667	たくさん 見積	1.337459
-1.662758	たくさん 資料	0.884607
-1.963788	たくさん 鍵	0.170262
-1.963788	たくさん 電話	0.158362
-1.662758	たくさん 鞄	-0.026329
-1.662758	たくさん 音楽
-1.486667	たくさん 食材	-0.114720
-1.963788	たくさん 魚	0.012031
-0.191886	だ </s>
-1.146128	だ な	-0.154902
-1.146128	だ よ	-0.255273
-0.397940	ち </s>
-0.698970	ち せ	-0.176091
-0.301030	つ わ	-0.221849
-1.755875	て ある	0.385351
-1.755875	て あー
-1.056905	て い	-0.141329
-0.278754	て いる	0.227244
-1.454845	て から	-0.476561
-1.454845	て き
-1.454845	て ください	0.124939
-1.755875	て て	-0.285518
-1.454845	て も	-0.300125
-1.755875	て 座
-2.965907	で </s>
-2.965907	で あっ	0.124939
-2.363847	で ある	0.054358
-3.266937	で い	0.335792
-1.576741	で うさぎ	-1.463293
-2.062817	で おじいさん	-0.992318
-2.187756	で おばあさん	-0.847675
-2.187756	で お母さん	-0.865301
-2.225544	で お父さん	-0.820739
-2.965907	で お茶	-0.066216
-2.266937	で ごはん	-0.575663
-3.266937	で で	-0.299147
-2.965907	で の	-0.297546
-2.664877	で は	-0.362879
-2.187756	で みんな	-0.846337
-2.567967	で も	-0.421426
-2.363847	で ギター	-0.529705
-2.567967	で ケーキ	-0.236572
-2.789816	で ジュース	-0.144032
-1.789816	で タクシー	-0.162303
-1.789816	で バス	-0.503951
-2.225544	で パン	-0.593105
-2.567967	で ピアノ	-0.313995
-2.488786	で ペン	-0.252583
-2.789816	で 仕事	-0.113509
-3.266937	で 使う	1.400826
-2.488786	で 傘	-0.480681
-2.062817	で 兄	-0.984088
-2.187756	で 先生	-0.892095
-2.567967	で 写真	-0.432309
-1.868997	で 分析	0.656909
-1.868997	で 勉強	0.176091
-3.266937	で 参加	-0.079181
-2.152994	で 友達	-0.907411
-2.120809	で 咲く	0.937852
-1.868997	で 報告	-0.359977
-1.988183	で 太陽	-1.230043
-2.152994	で 妹	-0.935606
-2.120809	で 姉	-0.950782
-2.225544	で 始まる	1.017729
-2.266937	で 子供	-0.825793
-1.868997	で 実験	0.120743
-2.266937	で 家族	-0.838812
-2.363847	で 寝る	1.094976
-1.944718	で 山	-1.259637
-2.225544	で 川	-1.031599
-2.090846	で 帰る	1.549463
-2.363847	で 帽子	-0.455071
-2.312694	で 座る	1.089905
-2.421839	で 弁当	-0.397005
-2.090846	で 弟	-1.000997
-1.988183	で 彼	-1.092545
-2.090846	で 彼女	-0.953646
-2.567967	で 忘れ物	-0.250474
-2.664877	で 手紙	-0.308999
-1.868997	で 提出	0.649485
-2.363847	で 料理	-0.558791
-2.965907	で 新聞	-0.010465
-1.965907	で 星	-1.246499
-2.266937	で 映画	-0.660321
-2.363847	で 昼	-0.814140
-3.266937	で 晩	1.525045
-3.266937	で 書い	-0.176091
-2.120809	で 月	-1.121506
-3.266937	で 有名	-0.293343
-2.789816	で 服	-0.165367
-2.789816	で 朝	-0.481124
-2.011664	で 木	-1.202663
-2.421839	で 本	-0.538391
-2.120809	で 来る	1.122034
-2.152994	で 森	-1.094507
-2.152994	で 止まる	0.961082
-2.036488	で 歩く	1.497544
-1.868997	で 比較	0.641932
-2.789816	で 水	-0.093224
-2.062817	で 泣く	0.389340
-2.152994	で 泳ぐ	0.947294
-2.266937	で 海	-1.004566
-1.868997	で 測定	0.638105
-1.613724	で 犬	-1.439615
-1.804539	で 猫	-1.318942
-1.868997	で 発表	-0.257365
-2.789816	で 目標	-0.232314
-2.789816	で 眼鏡	-0.136220
-1.868997	で 研究	-0.304384
-2.152994	で 空	-1.094030
-2.062817	で 空く	0.869922
-1.924514	で 立つ	0.745482
-2.090846	で 笑う	0.867762
-2.789816	で 紙	-0.251342
-2.090846	で 終わる	0.875061
-1.789816	で 自転車	-0.503951
-1.965907	で 花	-1.167649
-2.664877	で 荷物	-0.203560
-2.488786	で 薬	-0.315589
-1.594839	で 虫	-1.447707
-1.988183	で 行く	1.453318
-1.868997	で 製作	0.164810
-1.868997	で 観察	0.606216
-1.868997	で 計算	-0.053246
-1.868997	で 記録	-0.199374
-1.868997	で 設計	-0.308518
-1.868997	で 調整	0.664208
-2.664877	で 財布	-0.262277
-1.965907	で 走る	1.444194
-2.152994	で 起きる	0.922058
-2.152994	で 遊ぶ	0.929419
-2.664877	で 野菜	-0.216709
-2.488786	で 鍵	-0.373806
-2.152994	で 降る	0.943777
-1.965907	で 雨	-1.240033
-2.312694	で 雪	-0.963619
-2.965907	で 電話	-0.017729
-1.789816	で 電車	-0.162303
-2.664877	で 靴	-0.227050
-2.664877	で 鞄	-0.248178
-2.421839	で 音楽	-0.425969
-2.011664	で 風	-1.205882
-2.120809	で 飛ぶ	0.903090
-2.488786	で 食材	-0.357758
-1.623484	で 馬	-1.420298
-1.604179	で 魚	-1.359037
-1.613724	で 鳥	-1.454199
-2.225544	で 鳴く	0.981517
-0.014043	です </s>
-1.865301	です か	-0.333215
-2.342423	です よ
-3.353147	と </s>
-2.273965	と お茶	-0.703038
-2.398904	と ごはん	-0.534271
-2.751087	と さ	0.045757
-2.751087	と し	0.124939
-2.751087	と する	2.330188
-2.751087	と なっ	0.176091
-3.353147	と なる
-3.052117	と は	-0.296720
-2.654177	と も	-0.422338
-3.353147	と や	-0.221849
-3.052117	と よく	-0.466821
-2.450057	と カフェ	-0.930761
-2.353147	と ギター	-0.616855
-1.972935	と グラフ	0.309630
-2.353147	と ケーキ	-0.499813
-2.398904	と ジュース	-0.541972
-2.030927	と スケジュール	0.602060
-1.991419	と スライド	0.769008
-1.955207	と データ	0.266268
-2.398904	と パン	-0.513924
-2.450057	と ピアノ	-0.490086
-1.938173	と プログラム	0.698970
-2.030927	と プロジェクト	0.616619
-2.574995	と プール	-0.827125
-2.311754	と ペン	-0.486667
-2.239203	と ホテル	-1.108839
-2.010724	と マニュアル	0.567691
-1.876025	と メール	0.052706
-2.149027	と レストラン	-1.181114
-2.074393	と レポート	0.880814
-2.052117	と 予算	0.622263
-2.273965	と 京都	-1.078228
-2.450057	と 仕事	-0.465692
-1.905989	と 企画	0.033609
-2.508049	と 会社	-0.889239
-2.273965	と 体育館	-1.074732
-2.508049	と 作成	-0.145142
-2.508049	と 修正	-0.090177
-2.239203	と 傘	-0.781711
-2.398904	と 公園	-0.968592
-2.398904	と 写真	-0.654158
-2.654177	と 分析	1.293731
-2.654177	と 勉強	0.812913
-2.273965	と 北海道	-1.074732
-2.030927	と 卒論	0.821930
-1.905989	と 単位	0.253605
-2.508049	と 台所	-0.880649
-1.972935	と 名刺	0.561101
-2.574995	と 呼ぶ
-1.955207	と 咲く	0.698970
-1.972935	と 商品	0.536558
-2.508049	と 図書館	-0.888647
-2.273965	と 報告	-0.058947
-2.508049	と 変更	-0.155608
-2.311754	と 大学	-1.056116
-2.273965	と 大阪	-0.806180
-1.991419	と 契約	0.538867
-3.052117	と 妹	-0.359187
-3.353147	と 姉	-0.176091
-1.955207	と 始まる	0.681937
-2.311754	と 学校	-1.045640
-2.508049	と 完了	-0.128573
-2.508049	と 実行	-0.107210
-2.654177	と 実験	0.757565
-2.398904	と 家	-0.971769
-1.876025	と 宿題	0.701763
-1.972935	と 寝る	0.651278
-2.508049	と 対応	-0.187087
-2.398904	と 屋上	-0.971143
-2.353147	と 工場	-1.020806
-1.938173	と 帰る	1.322219
-2.122698	と 帽子	-0.756101
-2.353147	と 店	-1.011837
-1.876025	と 座る	0.598543
-2.010724	と 庭	-1.297487
-2.074393	と 弁当	-0.794945
-2.751087	と 弟	-0.575692
-3.353147	と 彼	-0.295567
-2.177055	と 忘れ物	-0.676442
-1.938173	と 成績	0.732989
-2.398904	と 手紙	-0.610029
-2.508049	と 承認	-0.100316
-2.654177	と 提出	1.286307
-2.030927	と 提案	0.555204
-2.398904	と 教室	-0.980790
-1.861785	と 教科書	0.701676
-2.177055	と 料理	-0.285790
-2.450057	と 新聞	-0.487587
-2.398904	と 映画	-0.618928
-2.450057	と 昼	-0.814140
-2.398904	と 時計	-0.577548
-2.508049	と 晩	0.922985
-3.353147	と 書い	-0.176091
-1.991419	と 書類	0.544068
-3.353147	と 月	-0.297597
-2.398904	と 服	-0.127579
-2.353147	と 朝	-0.920457
-2.450057	と 本	-0.589543
-1.938173	と 来る	0.866761
-2.311754	と 東京	-1.048248
-2.508049	と 検討	-0.114215
-1.921783	と 止まる	0.660052
-2.030927	と 歩く	1.410394
-2.654177	と 比較	1.278754
-2.149027	と 水	-0.721613
-2.508049	と 決定	-0.086849
-1.955207	と 泣く	0.204815
-2.010724	と 泳ぐ	0.731694
-2.654177	と 測定	1.274927
-2.508049	と 準備	-0.349038
-2.508049	と 玄関	-0.878665
-2.508049	と 申請	-0.107210
-2.450057	と 病院	-0.928688
-2.574995	と 発表	0.680487
-2.508049	と 登録	-0.086849
-2.508049	と 目標	-0.533344
-2.508049	と 相談	-0.096910
-2.239203	と 眼鏡	-0.680288
-2.654177	と 研究	0.332438
-2.508049	と 確認	-0.135934
-2.574995	と 神社	-0.825935
-1.955207	と 空く	0.685397
-2.574995	と 空港	-0.823735
-2.239203	と 窓	-1.097616
-1.938173	と 立つ	0.675846
-1.972935	と 笑う	0.673942
-2.508049	と 管理	-0.148603
-2.751087	と 紙	-0.348252
-2.010724	と 終わる	0.717453
-2.311754	と 美術館	-1.043643
-2.353147	と 花	-0.886822
-2.149027	と 荷物	-0.735039
-2.273965	と 薬	-0.584434
-2.030927	と 行く	1.411926
-2.654177	と 製作	0.801632
-1.955207	と 見積	0.524546
-2.654177	と 観察	1.243038
-3.353147	と 言う	0.124939
-3.052117	と 言っ	-0.176091
-2.508049	と 計画	-0.110698
-2.654177	と 計算	0.583577
-2.574995	と 記録	0.680487
-2.654177	と 設計	0.328304
-2.398904	と 説明	0.044628
-2.751087	と 読書	-0.025554
-1.955207	と 課題	0.791853
-2.654177	と 調整	1.301030
-2.010724	と 論文	0.828604
-3.353147	と 謂う
-2.574995	と 財布	-0.408405
-2.097874	と 資料	0.082974
-2.030927	と 走る	1.423990
-1.991419	と 起きる	0.687975
-2.508049	と 連絡	-0.096294
-1.955207	と 遊ぶ	0.660574
-2.508049	と 部屋	-0.880141
-2.177055	と 野菜	-0.721859
-2.353147	と 鍵	-0.570101
-1.921783	と 降る	0.642747
-2.654177	と 電話	-0.318759
-3.353147	と 青い	-0.278754
-2.311754	と 靴	-0.607261
-2.353147	と 鞄	-0.590600
-2.654177	と 音楽	-0.301030
-1.991419	と 飛ぶ	0.698970
-2.311754	と 食堂	-1.044670
-2.654177	と 食材	-0.290811
-2.398904	と 駅	-0.972562
-2.508049	と 魚	-0.590029
-1.921783	と 鳴く	0.613540
-1.982271	とても ギター	0.123508
-1.982271	とても ジュース	0.156998
-1.204120	とても スケジュール	1.099385
-1.982271	とても パン	0.185046
-1.380211	とても プロジェクト	1.260071
-1.681241	とても マニュアル	1.452298
-1.505150	とても メール	0.942008
-1.505150	とても 予算	1.342423
-1.505150	とても 企画	0.893947
-1.982271	とても 写真	0.044812
-1.681241	とても 名刺	1.481920
-1.681241	とても 商品	1.457377
-1.982271	とても 契約	1.618048
-1.681241	とても 弁当	0.028964
-1.982271	とても 忘れ物	0.226648
-1.681241	とても 提案	1.420506
-1.681241	とても 映画	-0.096049
-1.982271	とても 晩	1.525045
-1.681241	とても 書類	1.447158
-1.505150	とても 服	-0.165367
-1.982271	とても 水	0.207806
-1.982271	とても 目標	0.068716
-1.982271	とても 良い	-0.176091
-1.681241	とても 荷物	0.018289
-1.681241	とても 薬	0.052388
-1.982271	とても 見積	1.638489
-1.283301	とても 資料	0.583577
-1.982271	とても 鍵	0.170262
-1.982271	とても 電話	0.158362
-1.982271	とても 面白い
-1.982271	とても 靴	0.170890
-1.681241	とても 音楽
-1.982271	とても 食材	0.186310
-0.602060	どう か	-0.032185
-0.602060	どう です	-0.295067
-0.301030	どうして です	-0.295067
-0.301030	どこ まで	-0.300204
-0.544068	な </s>
-0.845098	な も	-0.299219
-0.845098	な 時	0.176091
-0.477121	なっ た	-0.162727
-0.352183	なっ て	-0.063669
-0.301030	なる </s>
-0.778151	なる か	-0.266268
-2.785899	に ある	0.209260
-2.581779	に お茶	-0.543338
-3.183839	に が	-0.474394
-2.581779	に ごはん	-0.488513
-3.183839	に なっ	-0.301030
-3.183839	に なる	0.176091
-2.882809	に は	-0.296326
-3.007748	に も	-0.296487
-3.484869	に よく	-0.290730
-2.530627	に ギター	-0.575462
-1.768866	に グラフ	-0.016706
-2.338741	に ケーキ	-0.634512
-2.308778	に ジュース	-0.746092
-1.893804	に スライド	0.547159
-1.760593	に データ	-0.051153
-2.370926	に パン	-0.660052
-2.581779	に ピアノ	-0.490086
-1.940801	に プログラム	0.574031
-2.254420	に ペン	-0.662758
-1.803628	に レポート	0.491648
-1.097479	に 乗る
-2.639771	に 仕事	-0.414539
-2.405688	に 休憩	0.283997
-2.123141	に 作成	-0.318759
-2.142446	に 修正	-0.548814
-2.639771	に 傘	-0.538673
-3.484869	に 入学
-2.370926	に 写真	-0.800286
-2.405688	に 出勤	0.283997
-2.405688	に 出席	0.283997
-2.405688	に 出張	-0.159701
-2.785899	に 分析	1.293731
-2.785899	に 勉強	0.812913
-1.768866	に 卒論	0.440077
-1.752475	に 単位	-0.024359
-3.484869	に 参加	-0.204120
-2.308778	に 咲く	0.909823
-3.484869	に 問題	-0.191886
-2.053505	に 報告	-0.392162
-3.484869	に 塩
-2.142446	に 変更	-0.614245
-3.484869	に 多い	0.301030
-3.484869	に 妹	-0.183096
-3.183839	に 姉	0.160851
-2.308778	に 始まる	0.892790
-2.142446	に 完了	-0.587211
-2.142446	に 実行	-0.565848
-2.785899	に 実験	0.757565
-1.752475	に 宿題	0.452762
-2.308778	に 寝る	0.845098
-2.123141	に 対応	-0.344694
-1.278043	に 帰る	0.544068
-2.370926	に 帽子	-0.646957
-2.308778	に 座る	0.885785
-2.484869	に 弁当	-0.535308
-3.484869	に 弟	-0.177752
-2.530627	に 忘れ物	-0.472322
-1.841416	に 成績	0.511140
-2.370926	に 手紙	-0.756157
-2.142446	に 承認	-0.558954
-2.785899	に 提出	1.286307
-1.768866	に 教科書	0.482550
-2.785899	に 料理	-0.382700
-2.484869	に 新聞	-0.574737
-2.581779	に 映画	-0.573170
-2.581779	に 昼	-0.814140
-2.443476	に 時計	-0.656729
-2.639771	に 晩	0.922985
-2.405688	に 服	-0.677251
-2.484869	に 朝	-0.920457
-2.785899	に 本	-0.413452
-1.220051	に 来る	0.030953
-2.142446	に 検討	-0.572853
-2.405688	に 欠席	0.283997
-2.308778	に 止まる	0.903090
-1.291744	に 歩く	0.556917
-2.405688	に 残業	0.283997
-2.785899	に 比較	1.278754
-2.530627	に 水	-0.119553
-2.142446	に 決定	-0.545487
-2.280749	に 泣く	0.389340
-2.308778	に 泳ぐ	0.889302
-2.785899	に 測定	1.274927
-2.142446	に 準備	-0.807676
-2.142446	に 申請	-0.565848
-2.785899	に 発表	0.379457
-2.142446	に 登録	-0.545487
-2.581779	に 目標	-0.584497
-2.142446	に 相談	-0.555548
-2.484869	に 眼鏡	-0.575552
-2.785899	に 研究	0.332438
-2.142446	に 確認	-0.594572
-2.308778	に 空く	0.896251
-2.308778	に 立つ	0.903090
-2.308778	に 笑う	0.867762
-2.142446	に 管理	-0.607241
-2.581779	に 紙	-0.603525
-2.308778	に 終わる	0.875061
-2.484869	に 花	-0.886822
-2.443476	に 荷物	-0.583771
-2.443476	に 薬	-0.549672
-1.278043	に 行く	0.544833
-3.007748	に 行っ	-0.301030
-2.785899	に 製作	0.801632
-2.785899	に 観察	1.243038
-2.142446	に 計画	-0.569336
-2.785899	に 計算	0.583577
-2.785899	に 記録	0.437449
-2.785899	に 設計	0.328304
-2.142446	に 説明	-0.616246
-1.728994	に 課題	0.443398
-2.785899	に 調整	1.301030
-1.706718	に 論文	0.405002
-2.639771	に 財布	-0.466397
-1.272681	に 走る	0.551569
-2.308778	に 起きる	0.864066
-2.405688	に 退勤	0.283997
-2.142446	に 連絡	-0.554931
-3.484869	に 遅れ
-2.308778	に 遊ぶ	0.871427
-2.484869	に 野菜	-0.559132
-2.443476	に 鍵	-0.607890
-2.308778	に 降る	0.885785
-2.443476	に 電話	-0.619789
-2.484869	に 靴	-0.569473
-2.443476	に 鞄	-0.628389
-2.206115	に 音楽	-0.823909
-2.308778	に 飛ぶ	0.875061
-2.706718	に 食材	-0.357758
-2.484869	に 魚	-0.728332
-2.308778	に 鳴く	0.856578
-0.176091	ね </s>
-2.574610	の </s>
-2.574610	の が	-0.476084
-2.875640	の こ	-0.079181
-2.574610	の だ	-0.029963
-2.875640	の です	1.196295
-2.875640	の は	-0.300250
-2.875640	の インターネット	-0.176091
-1.168070	の グラフ	0.460416
-1.143246	の スライド	0.408856
-2.574610	の チーム
-1.284575	の データ	0.079181
-1.185444	の プログラム	0.431364
-1.097489	の レポート	0.396514
-2.875640	の 上司	-0.297727
-2.574610	の 人	-0.028029
-2.574610	の 先生	-0.296038
-2.574610	の 先輩	-0.296665
-2.875640	の 入っ	-0.176091
-2.574610	の 卒業	-0.154902
-1.194399	の 卒論	0.474157
-1.203542	の 単位	0.034762
-2.574610	の 友達	-0.296038
-2.875640	の 古い	-0.296576
-2.273580	の 名	0.221849
-2.398519	の 名前
-2.875640	の 問題	-0.249877
-2.574610	の 図	-0.057992
-2.875640	の 地	-0.079181
-2.875640	の 夜	-0.298957
-2.398519	の 夢	-0.301030
-2.398519	の 妹	-0.276518
-2.875640	の 姉	-0.176091
-2.398519	の 娘	-0.425969
-2.875640	の 家族	-0.298453
-1.203542	の 宿題	0.511883
-2.875640	の 対応	-0.297676
-2.875640	の 山	-0.297426
-2.574610	の 弟	-0.472100
-2.574610	の 後輩	-0.472842
-2.875640	の 得
-2.574610	の 意
-2.875640	の 愛	-0.124939
-1.168070	の 成績	0.448350
-2.875640	の 担当	-0.290811
-2.875640	の 挨拶
-1.151364	の 教科書	0.474432
-2.875640	の 文化	-0.176091
-2.574610	の 映画	-0.287935
-2.875640	の 案
-2.574610	の 歴史	-0.255273
-2.574610	の 目	-0.146128
-2.875640	の 相
-2.574610	の 祖
-2.875640	の 管理	-0.297542
-2.875640	の 紅茶
-2.875640	の 美
-2.875640	の 観光	0.176091
-2.875640	の 設計	-0.297237
-1.143246	の 課題	0.466463
-1.194399	の 論文	0.500136
-2.875640	の 身
-2.574610	の 運転
-2.574610	の 部	-0.380211
-2.875640	の 隣
-2.398519	の 駅	-0.234083
-2.092643	は </s>
-1.268734	は いい	-1.385276
-1.254494	は おいしい	-1.331363
-1.233972	は きれい	-1.593148
-3.046885	は です	1.196295
-2.745855	は と	-0.299100
-3.046885	は の	-0.270488
-3.046885	は まだ	-0.296990
-3.046885	は ゆっくり	-0.295498
-3.046885	は よく	-0.297624
-3.046885	は インターネット	-0.176091
-3.046885	は キーボード	-0.277549
-3.046885	は ギター	-0.296709
-3.046885	は ゲーム
-3.046885	は サッカー
-3.046885	は ジョギング
-3.046885	は テニス	-0.221849
-3.046885	は パソコン	-0.176091
-3.046885	は ホーム
-3.046885	は マラソン
-3.046885	は メール	-0.296874
-3.046885	は 二	0.124939
-3.046885	は 今日	-0.298676
-3.046885	は 会社	-0.299078
-2.745855	は 何	0.096910
-3.046885	は 兄	-0.298374
-3.046885	は 公園	-0.251138
-3.046885	は 円	-0.176091
-3.046885	は 写真	-0.292430
-3.046885	は 冬休み
-3.046885	は 出張	-0.284640
-3.046885	は 勉強	-0.297302
-1.247545	は 古い	-1.359022
-3.046885	は 図書館	-0.288680
-2.745855	は 大	-0.187087
-1.201787	は 大きい	-0.896846
-3.046885	は 大阪	-0.297917
-3.046885	は 学校	-0.298086
-1.227341	は 安い	-1.277260
-1.240705	は 寒い	-1.306828
-3.046885	は 寝る	1.748188
-1.240705	は 小さい	-1.382789
-1.240705	は 広い	-1.335792
-3.046885	は 弟	-0.242324
-3.046885	は 強い	0.176091
-3.046885	は 彼	-0.298307
-3.046885	は 散歩
-3.046885	は 料理	-0.290930
-1.276033	は 新しい	-1.197281
-3.046885	は 新幹線	-0.176091
-3.046885	は 旅行
-2.745855	は 日本	-0.263241
-1.220810	は 暑い	-1.351023
-3.046885	は 月曜日	0.176091
-3.046885	は 東京	-0.298307
-3.046885	は 水泳
-3.046885	は 泣い
-3.046885	は 温泉	-0.176091
-3.046885	は 狭い
-3.046885	は 王	-0.176091
-3.046885	は 研究	-0.294244
-3.046885	は 約束	-0.176091
-3.046885	は 自転車	-0.294596
-3.046885	は 英語	-0.297825
-3.046885	は 茶
-3.046885	は 言う	0.124939
-3.046885	は 言っ
-2.745855	は 読書	-0.104735
-1.268734	は 赤い	-1.373887
-3.046885	は 進学
-3.046885	は 道	0.176091
-3.046885	は 野球
-3.046885	は 銀行	-0.176091
-1.254494	は 長い	-1.312674
-2.745855	は 難しい	-0.124939
-3.046885	は 電池	-0.287666
-1.240705	は 青い	-1.369216
-3.046885	は 音楽	-0.279202
-3.046885	は 食事
-1.254494	は 高い	-1.212344
-2.745855	は 黄
-0.301030	ば と	-0.300837
-0.602060	ひ この	-0.243038
-0.602060	ひ さ	-0.278754
-0.301030	ぶ 湯	-0.176091
-2.204120	へ の	-0.299872
-2.204120	へ 嫁
-0.726999	へ 帰る	1.262221
-0.726999	へ 来る	0.806763
-0.726999	へ 歩く	1.261455
-0.712758	へ 行く	1.249198
-0.726999	へ 走る	1.275051
-0.653213	ま </s>
-0.954243	ま さ	-0.278754
-0.954243	ま ぶ
-0.954243	ま 赤い	-0.287528
-0.124939	ます </s>
-2.033424	まだ ギター	0.123508
-1.732394	まだ ケーキ	0.064458
-2.033424	まだ ジュース	0.156998
-2.033424	まだ スケジュール	1.643453
-2.033424	まだ ピアノ	0.163126
-1.431364	まだ プロジェクト	1.260071
-1.431364	まだ マニュアル	1.230449
-1.732394	まだ メール	1.066947
-1.556303	まだ 予算	1.342423
-1.334454	まだ 企画	0.717855
-2.033424	まだ 傘	0.063387
-1.732394	まだ 名刺	1.481920
-1.732394	まだ 商品	1.457377
-2.033424	まだ 大丈夫
-1.732394	まだ 契約	1.441957
-2.033424	まだ 帽子	0.198141
-2.033424	まだ 忘れ物	0.226648
-2.033424	まだ 料理	0.094421
-1.732394	まだ 新聞	-0.010465
-1.556303	まだ 映画	-0.220988
-1.556303	まだ 時計	-0.179608
-2.033424	まだ 晩	1.525045
-1.556303	まだ 書類	1.322219
-2.033424	まだ 服	0.135663
-2.033424	まだ 目標	0.068716
-2.033424	まだ 眼鏡	0.164810
-1.732394	まだ 紙	-0.126403
-2.033424	まだ 荷物	0.194380
-1.732394	まだ 薬	0.052388
-1.431364	まだ 見積	1.240549
-2.033424	まだ 財布	0.135663
-1.431364	まだ 資料	0.662758
-2.033424	まだ 間に合う
-2.033424	まだ 電話	0.158362
-2.033424	まだ 靴	0.170890
-2.033424	まだ 鞄	0.149762
-1.556303	まだ 音楽	-0.124939
-2.720986	まで </s>
-2.720986	まで に	-0.300745
-2.720986	まで も	-0.300578
-0.703952	まで 帰る	0.732394
-0.720986	まで 来る	0.293804
-0.712386	まで 歩く	0.739979
-0.703952	まで 行く	0.733159
-0.699796	まで 走る	0.741107
-0.728933	みんな が	-0.643964
-0.337242	みんな と	-0.165522
-0.728933	みんな に	-0.231521
-0.853872	みんな も	-0.128539
-2.380663	も </s>
-2.079633	も ある	-0.267862
-2.982723	も いい	0.099023
-2.982723	も いる	0.954243
-2.982723	も きれい	-0.126294
-2.505602	も さ	-0.255273
-2.982723	も し	-0.051153
-2.982723	も なっ	-0.045757
-2.982723	も やる
-2.982723	も よろしく	0.176091
-2.982723	も わ	-0.221849
-2.982723	も データ	-0.298004
-1.982723	も 作る	1.062411
-2.137625	も 作成	-0.145142
-1.752274	も 使う	0.446583
-2.137625	も 修正	-0.090177
-2.283753	も 分析	1.293731
-1.778603	も 切る	0.893403
-2.283753	も 勉強	0.812913
-2.982723	も 参加	-0.079181
-1.806632	も 咲く	0.909823
-1.903542	も 報告	-0.058947
-2.079633	も 変更	0.068716
-1.806632	も 始まる	0.892790
-2.137625	も 完了	-0.128573
-2.137625	も 実行	-0.107210
-2.283753	も 実験	0.757565
-1.806632	も 寝る	0.845098
-2.079633	も 対応	0.053246
-1.806632	も 帰る	1.549463
-1.806632	も 座る	0.885785
-2.028481	も 弾く	0.646730
-2.137625	も 承認	-0.100316
-2.982723	も 担当	-0.297650
-1.982723	も 持つ	1.062411
-1.941331	も 描く	1.082187
-2.283753	も 提出	1.286307
-1.806632	も 撮る	0.935759
-2.982723	も 映画	-0.278980
-2.982723	も 晴れ
-1.982723	も 書く	0.611820
-1.806632	も 来る	1.094005
-2.137625	も 検討	-0.114215
-1.806632	も 止まる	0.903090
-1.806632	も 歩く	1.548696
-2.283753	も 比較	1.278754
-2.982723	も 毛
-2.982723	も 気持ち	-0.282547
-1.836595	も 決める	0.991226
-2.137625	も 決定	-0.086849
-1.806632	も 泣く	0.415669
-1.806632	も 泳ぐ	0.889302
-1.806632	も 洗う	0.929419
-2.283753	も 測定	1.274927
-2.137625	も 準備	-0.349038
-1.868780	も 焼く	0.980977
-2.137625	も 申請	-0.107210
-2.283753	も 発表	0.379457
-2.137625	も 登録	-0.086849
-2.137625	も 相談	-0.096910
-1.806632	も 着る	0.878665
-2.283753	も 研究	0.332438
-2.137625	も 確認	-0.135934
-1.806632	も 空く	0.896251
-1.806632	も 立つ	0.903090
-1.806632	も 笑う	0.867762
-2.137625	も 管理	-0.148603
-1.806632	も 終わる	0.875061
-2.982723	も 練習	-0.176091
-1.868780	も 聴く	0.974446
-2.982723	も 良い	-0.176091
-1.806632	も 行く	1.550228
-2.283753	も 製作	0.801632
-1.681693	も 見る	0.836143
-2.283753	も 観察	1.243038
-2.505602	も 言う	-0.176091
-2.982723	も 言っ	-0.221849
-2.137625	も 計画	-0.110698
-2.283753	も 計算	0.583577
-2.283753	も 記録	0.437449
-2.283753	も 設計	0.328304
-2.137625	も 説明	-0.157608
-1.868780	も 読む	0.359022
-2.283753	も 調整	1.301030
-1.806632	も 買う	0.966142
-1.806632	も 走る	1.562293
-1.806632	も 起きる	0.864066
-1.836595	も 送る	0.947760
-2.137625	も 連絡	-0.096294
-1.806632	も 遊ぶ	0.871427
-1.806632	も 運ぶ	0.954243
-1.836595	も 閉める	0.931119
-1.836595	も 開ける	1.011429
-2.982723	も 間違い	-0.176091
-1.806632	も 降る	0.885785
-1.806632	も 飛ぶ	0.875061
-1.806632	も 食べる	0.889302
-1.903542	も 飲む	1.013161
-1.806632	も 鳴く	0.856578
-1.676694	もう いい	-0.292514
-1.977724	もう たくさん	-0.296284
-1.676694	もう スケジュール	1.467361
-1.676694	もう プロジェクト	1.481920
-1.676694	もう マニュアル	1.452298
-1.375664	もう メール	0.845098
-1.375664	もう 予算	1.245513
-1.977724	もう 仕事	0.187521
-1.676694	もう 企画	1.018885
-1.676694	もう 写真	-0.131279
-1.500602	もう 名刺	1.356981
-1.199572	もう 商品	1.089400
-1.676694	もう 契約	1.441957
-1.977724	もう 帽子	0.198141
-1.676694	もう 弁当	0.028964
-1.977724	もう 忘れ物	0.226648
-1.977724	もう 手紙	0.088941
-1.977724	もう 提案	1.596597
-1.977724	もう 料理	0.094421
-1.977724	もう 昼	-0.160927
-1.977724	もう 時計	0.121422
-1.977724	もう 晩	1.525045
-1.500602	もう 書類	1.322219
-1.977724	もう 水	0.207806
-1.977724	もう 眼鏡	0.164810
-1.977724	もう 紙	0.049688
-1.977724	もう 花	-0.146460
-1.676694	もう 荷物	0.018289
-1.676694	もう 見積	1.462398
-1.500602	もう 資料	0.759668
-1.977724	もう 野菜	0.181231
-1.977724	もう 靴	0.170890
-1.977724	もう 音楽	0.176091
-1.977724	もう 食材	0.186310
-0.778151	や </s>
-1.079181	や が	-0.300252
-1.079181	や と	-0.300066
-0.778151	や ま	-0.367977
-1.079181	や 博物館
-0.301030	やる の	-0.299872
-1.897627	ゆっくり お	-0.255273
-1.596597	ゆっくり ジュース	-0.019093
-1.198657	ゆっくり スケジュール	1.166331
-1.897627	ゆっくり パン	0.185046
-1.897627	ゆっくり ピアノ	0.163126
-1.596597	ゆっくり プロジェクト	1.481920
-1.897627	ゆっくり ペン	0.291485
-1.897627	ゆっくり マニュアル	1.628389
-1.295567	ゆっくり メール	0.845098
-1.295567	ゆっくり 企画	0.797037
-1.295567	ゆっくり 名刺	1.260071
-1.897627	ゆっくり 商品	1.633468
-1.420506	ゆっくり 契約	1.317018
-1.897627	ゆっくり 忘れ物	0.226648
-1.897627	ゆっくり 新聞	0.165626
-1.897627	ゆっくり 昼	-0.160927
-1.897627	ゆっくり 晩	1.525045
-1.596597	ゆっくり 書類	1.447158
-1.897627	ゆっくり 本	0.063669
-1.420506	ゆっくり 荷物	-0.106650
-1.897627	ゆっくり 見積	1.638489
-1.420506	ゆっくり 資料	0.759668
-1.897627	ゆっくり 野菜	0.181231
-1.596597	ゆっくり 靴	-0.005201
-1.596597	ゆっくり 音楽
-1.596597	ゆっくり 食材	0.010219
-1.897627	ゆっくり 魚	0.012031
-0.301030	よ </s>
-1.000000	よ ね	0.176091
-1.000000	よ ゐ
-0.176091	よかっ た	-0.461034
-2.107210	よく お茶	0.109875
-2.107210	よく する	2.439333
-2.107210	よく なる
-2.107210	よく ケーキ	0.240549
-2.107210	よく ジュース	0.156998
-1.408240	よく スケジュール	1.166331
-1.806180	よく パン	0.008955
-1.806180	よく ピアノ	-0.012965
-1.262112	よく プロジェクト	1.055951
-1.630089	よく マニュアル	1.327359
-1.152967	よく メール	0.544068
-1.329059	よく 予算	1.099385
-1.630089	よく 企画	0.893947
-1.630089	よく 似
-2.107210	よく 使う	1.400826
-1.408240	よく 名刺	1.180890
-1.630089	よく 商品	1.332438
-1.505150	よく 契約	1.220108
-2.107210	よく 弁当	0.205055
-2.107210	よく 忘れ物	0.226648
-1.806180	よく 提案	1.420506
-2.107210	よく 料理	0.094421
-2.107210	よく 新聞	0.165626
-2.107210	よく 映画	0.080042
-2.107210	よく 時計	0.121422
-2.107210	よく 書類	1.623249
-2.107210	よく 水	0.207806
-1.806180	よく 目標	-0.107375
-2.107210	よく 眼鏡	0.164810
-2.107210	よく 紙	0.049688
-2.107210	よく 荷物	0.194380
-1.630089	よく 見積	1.337459
-1.806180	よく 財布	-0.040429
-1.630089	よく 資料	0.759668
-2.107210	よく 遊ん
-2.107210	よく 野菜	0.181231
-2.107210	よく 靴	0.170890
-2.107210	よく 鞄	0.149762
-2.107210	よく 食材	0.186310
-1.806180	よく 魚	-0.164060
-0.176091	よろしく お願い	0.124939
-0.602060	り あ
-0.602060	り り	-0.176091
-0.414973	れ た	-0.338819
-0.335792	れ て	-0.188608
-0.397940	れる </s>
-0.698970	れる まで	-0.300204
-0.778151	わ ち	-0.079181
-0.778151	わ の	-0.299872
-0.778151	わ よ
-0.301030	ゐ こ	-0.079181
-3.808346	を </s>
-3.808346	を ください	0.301030
-3.507316	を し	-0.227244
-3.507316	を と	-0.299680
-3.808346	を よく	-0.297624
-3.808346	を バス	-0.294596
-3.808346	を 亜	0.301030
-1.743888	を 作る	0.035618
-2.174878	を 作成	-0.885505
-1.697756	を 使う	-0.412088
-2.118150	を 修正	-0.886057
-3.808346	を 出す
-1.951014	を 分析	0.208559
-1.743888	を 切る	0.055666
-1.969497	を 勉強	-0.254033
-3.507316	を 卒業	-0.330993
-2.195562	を 取り
-3.808346	を 取る
-3.808346	を 基	-0.204120
-1.804025	を 報告	-0.953604
-2.206286	を 変更	-0.865301
-2.228562	を 完了	-0.816548
-2.164893	を 実行	-0.857332
-2.067983	を 実験	-0.212472
-2.164893	を 対応	-0.937209
-3.808346	を 小
-2.037494	を 帰る	0.975432
-1.721986	を 弾く	0.030430
-3.808346	を 待つ
-2.145588	を 承認	-0.869324
-3.030195	を 担当	-0.577830
-1.743888	を 持つ	0.035618
-1.684494	を 描く	0.034263
-1.963248	を 提出	0.213200
-2.303196	を 撮り
-1.721986	を 撮る	0.049974
-3.507316	を 教え
-1.718441	を 書く	0.033424
-2.052471	を 来る	0.534697
-3.808346	を 根
-2.185097	を 検討	-0.844593
-1.995433	を 歩く	0.933272
-3.808346	を 毎日	-0.298864
-1.975837	を 比較	0.218056
-1.687772	を 決める	0.043466
-2.109376	を 決定	-0.891329
-2.217281	を 泳ぎ
-1.729165	を 洗う	0.050754
-1.704542	を 測る
-1.982271	を 測定	0.220570
-2.109376	を 準備	-1.153518
-1.729165	を 焼く	0.044319
-3.808346	を 片付ける
-2.164893	を 申請	-0.857332
-2.009005	を 発表	-0.229337
-2.109376	を 登録	-0.891329
-1.678012	を 直す
-2.136248	を 相談	-0.875061
-1.787157	を 着る	0.057480
-1.933285	を 研究	-0.429114
-1.671625	を 確かめる
-2.252044	を 確認	-0.801046
-2.185097	を 管理	-0.878981
-1.711436	を 組み立てる
-1.704542	を 組む
-1.732799	を 繋ぐ
-1.736464	を 聴く	0.045027
-2.044918	を 行く	0.983496
-1.988802	を 製作	-0.246291
-2.174878	を 見	-0.661181
-1.718441	を 見る	0.064941
-2.037494	を 観察	0.243038
-1.646978	を 解く
-2.174878	を 計画	-0.851061
-1.995433	を 計算	-0.457816
-2.009005	を 記録	-0.590580
-2.023016	を 設計	-0.685936
-1.751441	を 試す
-3.808346	を 話す
-2.164893	を 説明	-0.576737
-1.656058	を 読む	-0.650186
-1.659127	を 調べる
-1.939114	を 調整	0.204120
-2.240144	を 買い	0.011281
-1.687772	を 買う	0.046410
-2.023016	を 走る	0.974021
-3.507316	を 趣味	-0.452988
-1.736464	を 送る	0.048305
-2.044918	を 連絡	-0.964056
-2.228562	を 遊び
-1.701136	を 運ぶ	0.047773
-1.755268	を 閉める	0.050305
-1.665331	を 開ける	0.041393
-2.240144	を 食べ	0.021719
-1.774922	を 食べる	0.055995
-2.276867	を 飲み
-1.725561	を 飲む	0.040745
-0.698970	ん </s>
-0.397940	ん だ	0.243038
-0.301030	アレルギー で	-0.299147
-0.602060	インターネット </s>
-0.602060	インターネット と	-0.300645
-0.650365	カフェ から	-0.136017
-0.500602	カフェ で	-0.174204
-0.926571	カフェ に	-0.525999
-1.005752	カフェ は	0.536340
-1.482874	カフェ へ	0.948847
-0.951395	カフェ まで	1.036140
-1.278754	カフェ を	-0.460957
-1.278754	キーボード </s>
-0.801632	キーボード が	-0.293981
-1.278754	キーボード で	-0.299854
-0.278754	キーボード を	-0.203055
-2.004321	ギター </s>
-1.305351	ギター が	-0.226024
-2.004321	ギター で	-0.300795
-1.226170	ギター と	-0.333668
-0.890378	ギター は	0.286463
-1.305351	ギター も	-0.265740
-0.204981	ギター を	-0.260658
-0.301030	ク は	-0.300250
-2.184691	グラフ </s>
-0.008600	グラフ を	-0.678743
-1.337459	ケーキ が	-0.227253
-1.462398	ケーキ と	-0.295213
-1.094421	ケーキ は	-0.078271
-1.161368	ケーキ も	-0.263775
-0.147128	ケーキ を	-0.286066
-0.985277	ケーブル が	-0.293981
-0.082187	ケーブル を	-0.119435
-0.301030	ゲーム </s>
-0.301030	コーヒー 研究	-0.290811
-0.301030	サッカー </s>
-1.347330	ジュース が	-0.227253
-1.347330	ジュース と	-0.292865
-1.171239	ジュース は	-0.118656
-0.870209	ジュース も	-0.216483
-0.185962	ジュース を	-0.256538
-0.301030	ジョギング </s>
-0.004963	スケジュール を	-0.137099
-0.301030	ストレッチ を	-0.300962
-0.003091	スライド を	-0.653037
-0.985277	センサー が	-0.293981
-0.082187	センサー を	-0.119435
-1.806180	タクシー から	-0.299909
-0.020850	タクシー に	-1.756229
-0.176091	チーム </s>
-0.301030	テスト で	-0.300089
-0.778151	テニス </s>
-0.778151	テニス が	-0.299993
-0.778151	テニス 部	-0.255273
-0.009143	データ を	-0.655678
-2.158362	データ 化	-0.079181
-0.778151	トイレ が	-0.300252
-0.778151	トイレ は	-0.300640
-0.778151	トイレ も	-0.297400
-0.301030	ネ </s>
-1.832509	バス から	-0.299909
-1.832509	バス と	-0.299873
-0.047179	バス に	-1.756229
-1.832509	バス の	-0.299872
-0.301030	バスケットボール と	-0.300259
-0.602060	パソコン </s>
-0.602060	パソコン 教室	-0.298937
-1.389166	パン が	-0.227253
-1.213075	パン と	-0.285941
-1.213075	パン は	-0.121023
-0.949833	パン も	-0.219765
-0.171682	パン を	-0.337394
-0.301030	ビール を	-0.300962
-1.296665	ピアノ が	-0.226024
-1.041393	ピアノ と	-0.281935
-1.092545	ピアノ は	-0.040896
-1.150537	ピアノ も	-0.254820
-0.182722	ピアノ を	-0.284821
-0.698970	プリンター が	-0.293981
-0.176091	プリンター を	-0.203055
-0.003229	プログラム を	-0.636851
-0.004799	プロジェクト を	-0.147160
-0.678900	プール から	-0.124949
-0.445986	プール で	-0.121572
-0.966142	プール に	-0.486490
-2.170262	プール の	-0.300451
-0.994170	プール は	0.536340
-1.471292	プール へ	0.948847
-1.056318	プール まで	1.123291
-1.392110	プール を	-0.381495
-1.352183	ペン が	-0.227253
-1.477121	ペン と	-0.294236
-1.255273	ペン は	-0.157235
-1.176091	ペン も	-0.256826
-0.128168	ペン を	-0.344876
-0.654589	ホテル から	-0.111581
-0.526559	ホテル で	-0.159333
-0.943385	ホテル に	-0.525999
-1.022566	ホテル は	0.536340
-1.499687	ホテル へ	0.948847
-0.994537	ホテル まで	1.056344
-1.084714	ホテル を	-0.535559
-2.198657	ホテル 社長	-0.293968
-0.301030	ホーム 上	-0.221849
-0.753328	マウス が	-0.293981
-1.230449	マウス に	-0.300603
-0.230449	マウス を	-0.203055
-0.005140	マニュアル を	-0.126799
-0.301030	マラソン </s>
-2.021189	メール </s>
-0.012589	メール を	-0.185225
-0.698970	モニター が	-0.293981
-0.176091	モニター を	-0.203055
-0.985277	モーター が	-0.293981
-0.082187	モーター を	-0.119435
-0.629118	レストラン から	-0.181059
-0.510428	レストラン で	-0.122560
-1.027058	レストラン に	-0.443025
-0.997095	レストラン は	0.536340
-1.474216	レストラン へ	0.948847
-1.131794	レストラン まで	1.174443
-0.969066	レストラン を	-0.602505
-0.002867	レポート を	-0.681232
-0.985277	ロボット が	-0.293981
-0.082187	ロボット を	-0.119435
-0.778151	上 </s>
-0.778151	上 から	-0.300750
-0.778151	上 に	-0.300318
-2.120574	上司 </s>
-0.841820	上司 が	-0.233954
-0.281725	上司 と	-0.404901
-0.841820	上司 に	-0.235952
-0.841820	上司 も	-0.232650
-0.778151	下 に	-0.300318
-0.778151	下 は	-0.300640
-0.778151	下 へ	-0.298307
-0.301030	乗り </s>
-0.001776	乗る </s>
-0.004963	予算 を	-0.137099
-0.204120	二 人	0.045757
-0.903090	二 期
-0.124939	亜 種	-0.096910
-0.690482	京都 から	-0.129972
-0.548375	京都 で	-0.136468
-2.181844	京都 と	-0.298713
-0.951395	京都 に	-0.506694
-1.005752	京都 は	0.536340
-1.482874	京都 へ	0.948847
-0.880814	京都 まで	0.980623
-1.102662	京都 を	-0.510735
-0.875061	人 </s>
-1.176091	人 で	-0.297966
-1.176091	人 と	-0.300645
-0.477121	人 の	-0.294034
-1.176091	人 乗り
-0.176091	今 は	-0.300250
-0.301030	今年 も	-0.300578
-0.676107	今日 から	-0.358742
-0.489020	今日 に	-0.357383
-2.267172	今日 の	-0.300451
-2.267172	今日 は	-0.300640
-2.267172	今日 も	-0.300578
-1.790050	今日 カフェ	-0.216096
-1.665112	今日 ホテル	-0.299653
-1.966142	今日 レストラン	-0.360840
-2.267172	今日 京都	-0.249520
-2.267172	今日 休憩	1.096910
-1.966142	今日 会社	-0.212797
-2.267172	今日 出勤	1.096910
-2.267172	今日 出席	1.096910
-2.267172	今日 出張	0.653213
-2.267172	今日 北海道	-0.244375
-2.267172	今日 台所	-0.191439
-1.790050	今日 大学	-0.541923
-1.790050	今日 屋上	-0.260412
-1.966142	今日 店	-0.431998
-2.267172	今日 庭	-0.190332
-1.790050	今日 教室	-0.292064
-2.267172	今日 東京	-0.264227
-2.267172	今日 欠席	1.096910
-2.267172	今日 残業	1.096910
-1.966142	今日 玄関	-0.157608
-1.790050	今日 病院	-0.549354
-1.966142	今日 窓	-0.140544
-1.790050	今日 美術館	-0.243038
-2.267172	今日 退勤	1.096910
-1.790050	今日 部屋	-0.228189
-1.790050	今日 食堂	-0.522879
-2.267172	今日 駅	-0.244302
-1.284431	仕事 が	-0.227253
-1.886491	仕事 だ	0.146128
-1.187521	仕事 と	-0.341261
-1.284431	仕事 は	-0.185094
-1.187521	仕事 も	-0.273031
-0.170487	仕事 を	-0.268924
-0.301030	他 に	-0.351043
-1.000000	他 の	-0.299872
-1.000000	他 は	-0.300640
-0.014086	企画 を	-0.150462
-1.973128	企画 書
-0.301030	休み </s>
-0.017729	休憩 する	1.342423
-2.348305	会社 </s>
-0.933332	会社 から	-0.194228
-0.247934	会社 で	-0.124861
-1.172214	会社 に	-0.465301
-1.172214	会社 は	0.536340
-1.649335	会社 へ	0.948847
-1.093032	会社 まで	1.016835
-1.503207	会社 を	-0.423168
-2.348305	会社 社長	-0.293968
-0.301030	会議 員	0.176091
-0.124939	似 て	-0.277549
-1.462398	体 </s>
-0.119975	体 が	-0.122406
-1.462398	体 と	-0.299873
-1.462398	体 は	-0.272845
-0.695857	体育館 から	-0.105279
-0.574813	体育館 で	-0.160884
-1.101622	体育館 に	-0.368391
-0.966924	体育館 は	0.536340
-1.444045	体育館 へ	0.948847
-0.762804	体育館 まで	0.916165
-1.063834	体育館 を	-0.510735
-0.397940	何 か	0.034762
-0.698970	何 病院	-0.297917
-0.003433	作る </s>
-2.100371	作成 </s>
-0.845098	作成 が	-0.237715
-0.083337	作成 する	0.719173
-0.008715	使う </s>
-2.178977	使う の	-0.300451
-0.301030	保存 が	-0.300771
-1.014240	信号 が	-0.293981
-1.491362	信号 だ	0.146128
-0.111150	信号 を	-0.119435
-0.858671	修正 が	-0.237715
-0.072551	修正 する	0.695040
-1.306425	傘 が	-0.227253
-1.130334	傘 と	-0.390755
-0.867092	傘 は	0.122606
-0.954243	傘 も	-0.243103
-0.245727	傘 を	-0.299998
-2.569374	元気 で	-0.300560
-0.853371	元気 です	-0.226951
-0.071063	元気 に	-1.017667
-2.214844	兄 </s>
-0.683365	兄 が	-0.494989
-0.363585	兄 と	-0.202827
-0.737723	兄 に	-0.234006
-2.214844	兄 は	-0.300640
-0.892625	兄 も	-0.128539
-2.243038	先生 </s>
-0.686736	先生 が	-0.492810
-0.397940	先生 と	-0.179353
-0.640978	先生 に	-0.235290
-0.920819	先生 も	-0.128539
-2.243038	先生 を	-0.300895
-2.301030	先輩 </s>
-0.346787	先輩 が	-0.667046
-2.301030	先輩 で	-0.299854
-0.443697	先輩 と	-0.483199
-1.124939	先輩 に	-0.287012
-1.124939	先輩 も	-0.262295
-0.023481	光る </s>
-0.602060	入っ た	-0.293061
-0.602060	入っ て	0.023481
-0.301030	入学 </s>
-0.679226	公園 から	-0.103483
-0.554287	公園 で	-0.182568
-0.964462	公園 に	-0.385535
-0.906470	公園 は	0.539029
-1.411620	公園 へ	0.948847
-1.069197	公園 まで	1.174443
-2.110590	公園 も	-0.297400
-1.156347	公園 を	-0.495298
-2.110590	公園 店	-0.298163
-0.602060	円 </s>
-0.602060	円 派	0.176091
-1.707570	写真 </s>
-1.309630	写真 が	-0.226024
-2.008600	写真 で	-0.300795
-1.406540	写真 と	-0.292079
-1.008600	写真 は	0.064614
-0.967207	写真 も	-0.223022
-0.260412	写真 を	-0.263714
-2.008600	写真 写真	-0.292430
-2.008600	写真 史	-0.176091
-2.008600	写真 日本	-0.282547
-0.301030	冬休み </s>
-0.301030	出す </s>
-0.017729	出勤 する	1.342423
-0.017729	出席 する	1.342423
-1.431364	出張 </s>
-0.051153	出張 する	1.342423
-0.301030	刃 は	-0.300640
-0.003696	分析 する	0.668481
-0.003278	切る </s>
-0.011281	勉強 する	0.679665
-2.068186	勉強 と	-0.300259
-0.023481	動く </s>
-0.301030	動画 資料	-0.291485
-1.000000	化 </s>
-0.397940	化 さ	0.045757
-0.698970	化 も	-0.475763
-0.029735	化学 の	-0.364285
-1.656418	化学 を	-0.388107
-2.133539	化学 実験	-0.296793
-2.133539	化学 者	-0.221849
-0.728041	北海道 から	-0.198807
-0.586712	北海道 で	-0.139290
-0.912566	北海道 に	-0.446623
-2.143015	北海道 の	-0.299872
-0.966924	北海道 は	0.536340
-1.444045	北海道 へ	0.948847
-0.864261	北海道 まで	0.998352
-1.063834	北海道 を	-0.510735
-0.602060	医 と	-0.300837
-0.602060	医 化学	-0.291343
-0.715596	午前 から	-0.316175
-0.441889	午前 に	-0.381418
-2.328380	午前 の	-0.299872
-2.328380	午前 カフェ	-0.246291
-1.851258	午前 プール	-0.232000
-2.328380	午前 ホテル	-0.248501
-1.851258	午前 レストラン	-0.224754
-1.851258	午前 京都	-0.233130
-2.328380	午前 休憩	1.096910
-2.027350	午前 会社	-0.212797
-2.328380	午前 公園	-0.199040
-2.328380	午前 出勤	1.096910
-2.328380	午前 出席	1.096910
-2.328380	午前 出張	0.653213
-2.027350	午前 北海道	-0.140286
-1.726320	午前 台所	-0.297894
-2.328380	午前 図書館	-0.233067
-2.027350	午前 大学	-0.416985
-1.726320	午前 学校	-0.298086
-2.027350	午前 屋上	-0.424415
-2.027350	午前 工場	-0.209614
-2.027350	午前 店	-0.385183
-1.629410	午前 庭	-0.389166
-2.027350	午前 教室	-0.440091
-2.328380	午前 欠席	1.096910
-2.328380	午前 残業	1.096910
-2.328380	午前 玄関	-0.254518
-2.328380	午前 病院	-0.188326
-2.328380	午前 神社	-0.244375
-2.328380	午前 美術館	-0.237687
-2.328380	午前 退勤	1.096910
-1.726320	午前 部屋	-0.307370
-2.027350	午前 食堂	-0.155505
-1.851258	午前 駅	-0.217394
-0.722222	午後 から	-0.341784
-0.466950	午後 に	-0.386078
-2.023252	午後 の	-0.299292
-2.023252	午後 カフェ	-0.119186
-2.324282	午後 プール	-0.251342
-2.023252	午後 ホテル	-0.424592
-1.847161	午後 レストラン	-0.224754
-1.847161	午後 京都	-0.233130
-2.324282	午後 休憩	1.096910
-1.847161	午後 会社	-0.309707
-2.023252	午後 体育館	-0.379429
-2.324282	午後 公園	-0.251138
-2.324282	午後 出勤	1.096910
-2.324282	午後 出席	1.096910
-2.324282	午後 出張	0.653213
-1.847161	午後 北海道	-0.237196
-2.324282	午後 台所	-0.191439
-1.722222	午後 図書館	-0.379704
-1.722222	午後 大学	-0.374084
-2.023252	午後 大阪	-0.380211
-1.847161	午後 学校	-0.218904
-2.324282	午後 家	-0.206392
-1.847161	午後 屋上	-0.260412
-2.324282	午後 工場	-0.278330
-2.324282	午後 店	-0.255907
-2.023252	午後 東京	-0.168792
-2.324282	午後 欠席	1.096910
-2.324282	午後 残業	1.096910
-2.324282	午後 玄関	-0.215009
-2.324282	午後 病院	-0.248324
-2.324282	午後 神社	-0.222473
-1.847161	午後 空港	-0.235528
-2.324282	午後 窓	-0.264203
-2.324282	午後 退勤	1.096910
-2.023252	午後 部屋	-0.429942
-1.847161	午後 食堂	-0.252415
-0.845098	卒業 が	-0.300123
-0.544068	卒業 し	0.301030
-0.845098	卒業 を	-0.296755
-0.002985	卒論 を	-0.666080
-2.193125	単位 は	-0.300640
-0.008433	単位 を	-0.686167
-0.301030	博物館 も	-0.297400
-0.301030	印 の	-0.300451
-0.301030	印刷 の	-0.300451
-0.397940	参加 </s>
-0.698970	参加 し	-0.138303
-2.243038	友達 </s>
-0.674836	友達 が	-0.478242
-2.243038	友達 です	1.196295
-0.373806	友達 と	-0.177969
-0.698970	友達 に	-0.215901
-0.920819	友達 も	-0.128539
-0.010465	取り に	-0.827029
-0.301030	取る </s>
-0.301030	叙 </s>
-0.191886	古い </s>
-1.991226	古い 名	-0.146128
-1.991226	古い 山	0.057480
-1.514105	古い 川	-0.189538
-1.991226	古い 星	0.079877
-1.690196	古い 木	-0.109144
-1.389166	古い 森	-0.267980
-1.991226	古い 海	0.186815
-1.690196	古い 空	-0.088521
-1.514105	古い 花	-0.383297
-1.991226	古い 雨	0.064458
-1.991226	古い 雪	0.157123
-1.690196	古い 風	-0.077412
-0.301030	可 </s>
-0.651653	台所 から	-0.105719
-0.563231	台所 で	-0.108135
-0.938895	台所 に	-0.486490
-0.966924	台所 は	0.536340
-1.444045	台所 へ	0.948847
-0.841985	台所 まで	0.980623
-1.297917	台所 を	-0.422888
-0.602060	史 </s>
-0.602060	史 資料	-0.291485
-0.800428	同僚 が	-0.233954
-0.308329	同僚 と	-0.359621
-0.800428	同僚 に	-0.235952
-0.800428	同僚 も	-0.232650
-0.522879	名 </s>
-0.301030	名 は	-0.540152
-0.004799	名刺 を	-0.147160
-0.124939	名前 </s>
-0.066947	呼ぶ </s>
-0.003354	咲く </s>
-0.176091	員 </s>
-0.005080	商品 を	-0.130259
-0.954243	問題 </s>
-0.954243	問題 だ	0.146128
-0.954243	問題 の	-0.300451
-0.653213	問題 を	-0.297981
-0.985277	回路 が	-0.293981
-0.082187	回路 を	-0.119435
-0.544068	図 </s>
-0.845098	図 が	-0.300252
-0.845098	図 は	-0.300640
-0.839052	図書館 から	-0.131607
-0.247628	図書館 で	-0.178031
-1.251233	図書館 に	-0.394720
-1.154323	図書館 は	0.536340
-1.552263	図書館 へ	0.907455
-1.154323	図書館 まで	1.077533
-1.485316	図書館 を	-0.359467
-0.397940	地 </s>
-0.698970	地 と	-0.300259
-0.698970	基 に	-0.297747
-0.397940	基 亜	0.124939
-0.985277	基板 が	-0.293981
-0.082187	基板 を	-0.119435
-1.100753	報告 が	-0.238464
-0.040056	報告 する	0.422299
-0.301030	塩 湖
-0.301030	増え て	0.023481
-0.834633	変更 が	-0.237715
-2.089905	変更 さ	0.045757
-0.085584	変更 する	0.731763
-0.740363	夕方 から	-0.316697
-0.432154	夕方 に	-0.349041
-1.916454	夕方 カフェ	-0.119186
-2.217484	夕方 プール	-0.251342
-2.217484	夕方 ホテル	-0.192278
-2.217484	夕方 レストラン	-0.184749
-2.217484	夕方 京都	-0.201972
-2.217484	夕方 休憩	1.096910
-2.217484	夕方 体育館	-0.203338
-2.217484	夕方 出勤	1.096910
-2.217484	夕方 出席	1.096910
-2.217484	夕方 出張	0.653213
-1.916454	夕方 北海道	-0.140286
-2.217484	夕方 台所	-0.191439
-2.217484	夕方 大学	-0.240893
-1.740363	夕方 大阪	-0.224940
-2.217484	夕方 学校	-0.191466
-2.217484	夕方 家	-0.252904
-1.916454	夕方 工場	-0.209614
-1.916454	夕方 教室	-0.195154
-1.916454	夕方 東京	-0.390273
-2.217484	夕方 欠席	1.096910
-2.217484	夕方 残業	1.096910
-2.217484	夕方 玄関	-0.254518
-1.916454	夕方 病院	-0.118690
-1.615424	夕方 神社	-0.329742
-1.916454	夕方 窓	-0.364940
-2.217484	夕方 美術館	-0.223088
-2.217484	夕方 退勤	1.096910
-2.217484	夕方 部屋	-0.192797
-1.740363	夕方 駅	-0.495440
-0.301030	外国 人	-0.124939
-0.301030	多 店	-0.298163
-0.124939	多い </s>
-2.322219	夜 </s>
-0.765917	夜 から	-0.302149
-0.403141	夜 に	-0.374026
-1.845098	夜 カフェ	-0.216096
-2.021189	夜 プール	-0.427433
-2.322219	夜 ホテル	-0.248501
-1.845098	夜 レストラン	-0.224754
-2.021189	夜 京都	-0.136220
-2.322219	夜 休憩	1.096910
-2.322219	夜 会社	-0.247191
-2.021189	夜 体育館	-0.379429
-1.845098	夜 公園	-0.231833
-2.322219	夜 出勤	1.096910
-2.322219	夜 出席	1.096910
-2.322219	夜 出張	0.653213
-2.021189	夜 北海道	-0.140286
-2.021189	夜 台所	-0.121803
-2.021189	夜 図書館	-0.203612
-2.021189	夜 大学	-0.197993
-2.322219	夜 大阪	-0.204120
-1.720159	夜 学校	-0.298086
-1.845098	夜 家	-0.242604
-2.021189	夜 屋上	-0.163502
-1.720159	夜 工場	-0.634029
-2.322219	夜 店	-0.255907
-1.845098	夜 庭	-0.243038
-2.322219	夜 欠席	1.096910
-2.322219	夜 残業	1.096910
-2.322219	夜 神社	-0.222473
-2.322219	夜 空港	-0.190892
-2.322219	夜 窓	-0.188848
-2.322219	夜 退勤	1.096910
-2.322219	夜 食堂	-0.246471
-2.021189	夜 駅	-0.120484
-0.301030	夢 は	-0.299859
-0.778151	夢 を	-0.300962
-0.812913	大 の	-0.299292
-1.113943	大 仕事	-0.295353
-1.113943	大 問題	-0.249877
-1.113943	大 学校	-0.298086
-1.113943	大 磨
-1.113943	大 間違い	-0.176091
-0.182165	大きい </s>
-2.033424	大きい が	-0.300900
-2.033424	大きい ぜ
-1.556303	大きい 太陽	-0.225965
-1.556303	大きい 山	-0.243550
-1.732394	大きい 月	-0.097593
-1.732394	大きい 木	-0.109144
-1.431364	大きい 海	-0.211125
-1.732394	大きい 花	-0.258358
-1.732394	大きい 雨	-0.111633
-1.556303	大きい 雪	-0.143907
-1.732394	大きい 風	-0.077412
-0.301030	大丈夫 だ	0.146128
-0.888367	大学 から	-0.264924
-0.272066	大学 で	-0.146234
-1.086734	大学 に	-0.432141
-1.888367	大学 の	-0.297546
-1.189397	大学 は	0.536340
-1.666518	大学 へ	0.948847
-1.286307	大学 まで	1.148114
-1.286307	大学 を	-0.515174
-2.365488	大学 史	-0.176091
-2.365488	大学 教授	-0.298864
-2.146128	大阪 </s>
-0.698970	大阪 から	-0.130157
-0.640978	大阪 で	-0.198208
-0.890856	大阪 に	-0.525999
-0.970037	大阪 は	0.536340
-1.447158	大阪 へ	0.948847
-0.890856	大阪 まで	1.016835
-1.104735	大阪 を	-0.484406
-2.146128	大阪 府	-0.176091
-2.146128	大阪 駅	-0.295081
-0.301030	天気 も	-0.300578
-2.100371	太陽 </s>
-1.401401	太陽 から	-0.125778
-0.237048	太陽 が	-0.298683
-2.100371	太陽 と	-0.300837
-0.924279	太陽 は	0.536340
-1.401401	太陽 まで	1.378563
-0.821617	太陽 を	-0.264102
-0.005264	契約 を	-0.119794
-2.214844	妹 </s>
-0.623779	妹 が	-0.514533
-0.415503	妹 と	-0.184056
-0.670776	妹 に	-0.207978
-0.892625	妹 も	-0.128539
-2.225309	姉 </s>
-0.602060	姉 が	-0.458364
-0.392800	姉 と	-0.175101
-0.733948	姉 に	-0.230558
-0.903090	姉 も	-0.128539
-0.003488	始まる </s>
-0.477121	娘 </s>
-0.653213	娘 が	-0.474394
-0.954243	娘 に	-0.299748
-0.301030	嫁 に	-0.300603
-0.176091	子 は	-0.476341
-0.638624	子供 が	-0.579668
-0.407485	子供 と	-0.159626
-0.675347	子供 に	-0.225550
-0.884607	子供 も	-0.128539
-2.206826	子供 使う	-0.298144
-2.170262	学校 </s>
-0.651748	学校 から	-0.217151
-2.170262	学校 し	-0.287242
-0.517049	学校 で	-0.150399
-0.939813	学校 に	-0.506694
-0.994170	学校 は	0.536340
-1.471292	学校 へ	0.948847
-1.128869	学校 まで	1.174443
-1.128869	学校 を	-0.484406
-0.344611	学生 が	-0.667046
-0.423792	学生 と	-0.496164
-1.122762	学生 に	-0.287012
-1.122762	学生 も	-0.262295
-0.144244	安い </s>
-1.963788	安い 太陽	0.075065
-1.963788	安い 山	0.057480
-1.486667	安い 星	-0.221153
-1.662758	安い 月	-0.097593
-1.662758	安い 森	-0.046132
-1.963788	安い 海	0.186815
-1.963788	安い 空	0.087570
-1.963788	安い 花	-0.082267
-1.963788	安い 雨	0.064458
-1.662758	安い 雪	-0.018968
-0.820274	完了 が	-0.237715
-0.079912	完了 する	0.740363
-0.841638	実行 が	-0.237715
-0.075721	実行 する	1.078956
-0.012837	実験 する	0.736041
-2.012837	実験 を	-0.300895
-1.553276	家 </s>
-0.708178	家 から	-0.130687
-0.511883	家 で	-0.114368
-0.979245	家 に	-0.405552
-1.854306	家 の	-0.298129
-0.979245	家 は	0.536340
-1.456366	家 へ	0.948847
-1.076155	家 まで	1.148114
-1.201094	家 を	-0.495158
-2.227887	家族 </s>
-0.625827	家族 が	-0.461661
-0.428546	家族 と	-0.174097
-0.659685	家族 に	-0.249368
-2.227887	家族 は	-0.300640
-0.905667	家族 も	-0.128539
-0.002793	宿題 を	-0.691047
-0.162303	寒い </s>
-1.968483	寒い 太陽	0.075065
-1.968483	寒い 川	0.111492
-1.667453	寒い 星	-0.096215
-1.667453	寒い 月	-0.097593
-1.968483	寒い 木	0.066947
-1.667453	寒い 森	-0.046132
-1.968483	寒い 海	0.186815
-1.968483	寒い 空	0.087570
-1.667453	寒い 雨	-0.111633
-1.667453	寒い 雪	-0.018968
-1.667453	寒い 風	-0.077412
-0.003895	寝る </s>
-2.113943	対応 </s>
-0.858671	対応 が	-0.237715
-1.812913	対応 し	0.301030
-0.092754	対応 する	0.715057
-0.124939	将来 の	-0.600322
-0.301030	小 穂
-0.201645	小さい </s>
-1.544068	小さい 太陽	-0.225965
-2.021189	小さい 子供	-0.187626
-1.720159	小さい 山	-0.118612
-1.720159	小さい 川	-0.064599
-2.021189	小さい 星	0.079877
-1.720159	小さい 月	-0.097593
-2.021189	小さい 木	0.066947
-1.544068	小さい 森	-0.171070
-1.544068	小さい 海	-0.114215
-1.720159	小さい 空	-0.088521
-2.021189	小さい 雨	0.064458
-1.544068	小さい 雪	-0.143907
-2.021189	小さい 風	0.098679
-1.973128	少し お茶	0.109875
-1.973128	少し ごはん	0.164699
-1.672098	少し ギター	-0.052583
-1.672098	少し ケーキ	0.064458
-1.496007	少し ジュース	-0.144032
-1.496007	少し スケジュール	1.342423
-1.672098	少し パン	0.008955
-1.973128	少し ピアノ	0.163126
-1.973128	少し プロジェクト	1.658011
-1.672098	少し ペン	0.115393
-1.672098	少し マニュアル	1.452298
-1.672098	少し メール	1.066947
-1.496007	少し 予算	1.342423
-1.973128	少し 企画	1.194977
-1.371068	少し 名刺	1.260071
-1.371068	少し 商品	1.235528
-1.973128	少し 契約	1.618048
-1.973128	少し 帽子	0.198141
-1.973128	少し 弁当	0.205055
-1.973128	少し 手紙	0.088941
-1.496007	少し 提案	1.295567
-1.973128	少し 新聞	0.165626
-1.973128	少し 時間	-0.221849
-1.973128	少し 書類	1.623249
-1.973128	少し 服	0.135663
-1.973128	少し 朝	-0.180094
-1.973128	少し 目標	0.068716
-1.672098	少し 荷物	0.018289
-1.672098	少し 見積	1.462398
-1.496007	少し 資料	0.759668
-1.973128	少し 野菜	0.181231
-1.973128	少し 鍵	0.170262
-1.973128	少し 靴	0.170890
-1.973128	少し 音楽	0.176091
-1.973128	少し 食材	0.186310
-0.301030	尾 は	-0.276161
-0.803705	屋上 から	-0.153050
-0.405765	屋上 で	-0.179429
-0.942008	屋上 に	-0.486490
-0.970037	屋上 は	0.536340
-1.447158	屋上 へ	0.948847
-1.104735	屋上 まで	1.174443
-1.191886	屋上 を	-0.426414
-1.383815	山 から	-0.125778
-0.250276	山 が	-0.275939
-0.906694	山 は	0.536340
-1.383815	山 まで	1.378563
-0.760566	山 を	-0.291425
-2.082785	山 体	-0.285790
-1.326336	川 から	-0.125778
-0.212393	川 が	-0.261699
-0.849215	川 は	0.536340
-1.326336	川 まで	1.378563
-0.983913	川 を	-0.302757
-0.857332	工場 から	-0.188149
-0.258907	工場 で	-0.209688
-1.293061	工場 に	-0.368391
-1.158362	工場 は	0.536340
-1.635484	工場 へ	0.948847
-1.104005	工場 まで	1.036140
-1.334454	工場 を	-0.456377
-2.334454	工場 見学
-0.301030	差 は	-0.272845
-0.000767	帰る </s>
-1.402261	帽子 が	-0.227253
-1.305351	帽子 と	-0.343428
-1.004321	帽子 は	0.072834
-1.101231	帽子 も	-0.247726
-0.165472	帽子 を	-0.291933
-0.176091	広い </s>
-1.982271	広い 太陽	0.075065
-1.681241	広い 山	-0.118612
-1.681241	広い 川	-0.064599
-1.982271	広い 星	0.079877
-1.982271	広い 月	0.078498
-1.505150	広い 木	-0.234083
-1.982271	広い 森	0.129960
-1.982271	広い 海	0.186815
-1.681241	広い 空	-0.088521
-1.982271	広い 花	-0.082267
-1.982271	広い 雨	0.064458
-1.982271	広い 雪	0.157123
-1.982271	広い 風	0.098679
-0.719446	店 から	-0.140027
-2.181844	店 が	-0.300252
-0.482874	店 で	-0.173465
-1.005752	店 に	-0.465301
-1.005752	店 は	0.536340
-1.482874	店 へ	0.948847
-0.951395	店 まで	1.036140
-1.181844	店 を	-0.527413
-2.181844	店 化	-0.255273
-0.602060	府 に	-0.300318
-0.602060	府 会議
-0.301030	座 </s>
-0.003545	座る </s>
-0.647817	庭 から	-0.164204
-0.522879	庭 で	-0.201045
-1.124939	庭 に	-0.394720
-1.028029	庭 は	0.536340
-1.505150	庭 へ	0.948847
-1.028029	庭 まで	1.077533
-0.861697	庭 を	-0.711650
-1.366423	弁当 が	-0.227253
-1.366423	弁当 と	-0.294041
-1.065393	弁当 は	-0.033741
-1.065393	弁当 も	-0.249764
-0.162303	弁当 を	-0.338216
-1.939519	弟 </s>
-0.607081	弟 が	-0.483037
-0.427636	弟 と	-0.193474
-0.709070	弟 に	-0.212535
-1.939519	弟 は	-0.300250
-0.898127	弟 も	-0.127866
-0.176091	強い </s>
-0.009908	弾く </s>
-2.123852	弾く の	-0.299872
-2.204120	彼 </s>
-0.660052	彼 が	-0.481950
-0.418790	彼 と	-0.229626
-0.741722	彼 に	-0.219968
-1.903090	彼 の	-0.299292
-1.602060	彼 は	-0.299468
-0.881901	彼 も	-0.128539
-0.718153	彼女 が	-0.520187
-0.358257	彼女 と	-0.185058
-0.665447	彼女 に	-0.223578
-0.887296	彼女 も	-0.128539
-0.301030	待つ </s>
-2.008600	後輩 </s>
-0.355388	後輩 が	-0.667046
-0.423139	後輩 と	-0.504597
-1.133539	後輩 に	-0.287012
-1.133539	後輩 も	-0.262295
-0.301030	得 や	-0.221849
-0.301030	御 写真	-0.296751
-1.356981	忘れ物 が	-0.227253
-1.055951	忘れ物 と	-0.284143
-1.180890	忘れ物 は	-0.111477
-1.356981	忘れ物 も	-0.273994
-0.152861	忘れ物 を	-0.281267
-0.301030	忙しい の	-0.299872
-0.176091	悪い </s>
-0.014723	情報 の	-0.328480
-1.778151	情報 を	-0.291196
-0.176091	意 </s>
-0.477121	愛 の	-0.298129
-0.477121	愛 猫	-0.467881
-0.002985	成績 を	-0.666080
-0.176091	手 </s>
-1.306425	手紙 が	-0.227253
-1.130334	手紙 と	-0.286937
-1.005395	手紙 は	-0.033019
-0.908485	手紙 も	-0.234234
-0.227244	手紙 を	-0.236249
-0.848531	承認 が	-0.237715
-0.074420	承認 する	0.706939
-1.411620	担当 </s>
-0.831836	担当 が	-0.233954
-1.809560	担当 し	-0.314394
-2.110590	担当 する	2.439333
-0.386314	担当 と	-0.358790
-0.831836	担当 に	-0.235952
-1.633468	担当 は	-0.299468
-0.831836	担当 も	-0.232650
-0.301030	持 と	-0.300259
-0.003433	持つ </s>
-0.301030	挨拶 </s>
-0.301030	授業 は	-0.300640
-0.003006	描く </s>
-0.003760	提出 する	0.675905
-0.005532	提案 を	-0.105436
-0.013364	撮り に	-0.732473
-0.003159	撮る </s>
-0.602060	教え た	0.138303
-0.602060	教え て	0.023481
-0.870905	教室 から	-0.135952
-0.272740	教室 で	-0.238453
-1.087614	教室 に	-0.506694
-1.141972	教室 は	0.536340
-1.619093	教室 へ	0.948847
-1.171935	教室 まで	1.099809
-2.318063	教室 も	-0.299219
-1.363821	教室 を	-0.426414
-2.303196	教授 </s>
-0.348954	教授 が	-0.667046
-0.428135	教授 と	-0.496164
-1.127105	教授 に	-0.287012
-1.127105	教授 も	-0.262295
-0.002706	教科書 を	-0.703011
-0.301030	散歩 </s>
-2.107210	数学 で	-0.300795
-0.024425	数学 の	-0.345122
-1.630089	数学 を	-0.290782
-0.602060	文化 研究	-0.294244
-0.602060	文化 部	-0.079181
-1.638489	料理 </s>
-1.240549	料理 が	-0.226024
-1.337459	料理 と	-0.291292
-1.939519	料理 の	-0.299292
-1.036429	料理 は	-0.035182
-1.161368	料理 も	-0.261801
-0.223516	料理 を	-0.233678
-1.939519	料理 研究	-0.290811
-0.132238	新しい </s>
-1.903090	新しい 信号	-0.286790
-1.903090	新しい 太陽	0.075065
-1.903090	新しい 星	0.079877
-1.903090	新しい 森	0.129960
-1.301030	新しい 海	-0.211125
-1.903090	新しい 空	0.087570
-1.903090	新しい 花	-0.082267
-1.602060	新しい 風	-0.077412
-0.602060	新幹線 の	-0.299872
-0.602060	新幹線 は	-0.300250
-1.311754	新聞 が	-0.227253
-1.436693	新聞 と	-0.295799
-1.068716	新聞 は	-0.080220
-1.068716	新聞 も	-0.259321
-0.181420	新聞 を	-0.273291
-1.913814	新聞 部	-0.079181
-0.301030	旅行 </s>
-0.301030	旗 を	-0.300962
-1.079181	日本 で	-0.298911
-1.380211	日本 と	-0.300837
-1.380211	日本 に	-0.300888
-0.681241	日本 の	-0.296379
-1.380211	日本 写真	-0.296751
-1.079181	日本 名	-0.176091
-1.380211	日本 大学	-0.299154
-1.380211	日本 設計	-0.297237
-1.380211	日本 食堂	-0.298004
-0.301030	日本語 に	-0.297747
-0.685547	明日 から	-0.335608
-0.434491	明日 に	-0.400099
-1.871184	明日 プール	-0.232000
-1.746245	明日 ホテル	-0.299653
-2.047275	明日 レストラン	-0.434269
-1.871184	明日 京都	-0.233130
-2.348305	明日 休憩	1.096910
-2.348305	明日 会社	-0.247191
-1.871184	明日 公園	-0.231833
-2.348305	明日 出勤	1.096910
-2.348305	明日 出席	1.096910
-2.348305	明日 出張	0.653213
-2.348305	明日 北海道	-0.244375
-2.348305	明日 台所	-0.247920
-2.348305	明日 図書館	-0.233067
-1.746245	明日 大学	-0.374084
-2.348305	明日 大阪	-0.241262
-1.871184	明日 学校	-0.218904
-2.348305	明日 家	-0.206392
-2.348305	明日 屋上	-0.226784
-2.348305	明日 工場	-0.278330
-1.746245	明日 店	-0.328701
-2.047275	明日 庭	-0.366423
-2.047275	明日 教室	-0.195154
-2.348305	明日 東京	-0.264227
-2.348305	明日 欠席	1.096910
-2.348305	明日 残業	1.096910
-1.746245	明日 玄関	-0.333699
-2.348305	明日 病院	-0.188326
-2.047275	明日 神社	-0.420466
-2.348305	明日 窓	-0.188848
-2.047275	明日 美術館	-0.413779
-2.348305	明日 退勤	1.096910
-2.047275	明日 食堂	-0.422562
-2.047275	明日 駅	-0.120484
-1.397940	星 から	-0.125778
-0.233587	星 が	-0.298683
-2.096910	星 で	-0.300560
-0.920819	星 は	0.536340
-1.397940	星 まで	1.378563
-0.795880	星 を	-0.276923
-1.703291	映画 </s>
-1.402261	映画 が	-0.227253
-1.159223	映画 と	-0.285143
-2.004321	映画 の	-0.299872
-1.159223	映画 は	-0.080867
-1.226170	映画 も	-0.261801
-0.233469	映画 を	-0.329749
-2.004321	映画 会社	-0.299078
-1.305351	映画 化	-0.146128
-0.717195	昨日 から	-0.321026
-0.437354	昨日 に	-0.406529
-2.039414	昨日 カフェ	-0.119186
-1.863323	昨日 プール	-0.232000
-2.340444	昨日 ホテル	-0.192278
-1.863323	昨日 レストラン	-0.224754
-2.340444	昨日 京都	-0.249520
-2.340444	昨日 休憩	1.096910
-1.738384	昨日 会社	-0.388888
-2.340444	昨日 公園	-0.199040
-2.340444	昨日 出勤	1.096910
-2.340444	昨日 出席	1.096910
-2.340444	昨日 出張	0.653213
-2.340444	昨日 北海道	-0.211094
-1.863323	昨日 台所	-0.218713
-2.340444	昨日 図書館	-0.233067
-2.039414	昨日 大学	-0.197993
-1.738384	昨日 大阪	-0.304121
-1.863323	昨日 学校	-0.492496
-2.039414	昨日 家	-0.145694
-2.039414	昨日 屋上	-0.163502
-2.039414	昨日 工場	-0.412180
-2.340444	昨日 店	-0.209092
-2.039414	昨日 庭	-0.366423
-1.863323	昨日 教室	-0.292064
-2.039414	昨日 東京	-0.440319
-2.340444	昨日 欠席	1.096910
-2.340444	昨日 残業	1.096910
-2.039414	昨日 病院	-0.118690
-2.340444	昨日 神社	-0.244375
-2.039414	昨日 空港	-0.138618
-1.863323	昨日 美術館	-0.243038
-2.340444	昨日 退勤	1.096910
-2.039414	昨日 食堂	-0.155505
-2.039414	昨日 駅	-0.120484
-0.890501	昼 から	-0.284963
-0.559508	昼 ごはん	0.371357
-0.577236	昼 に	-0.412123
-1.832509	昼 カフェ	-0.295278
-2.434569	昼 プール	-0.251342
-2.434569	昼 ホテル	-0.192278
-1.735599	昼 京都	-0.379258
-2.434569	昼 休憩	1.096910
-2.133539	昼 体育館	-0.441316
-2.133539	昼 公園	-0.134923
-2.434569	昼 出勤	1.096910
-2.434569	昼 出席	1.096910
-2.434569	昼 出張	0.653213
-2.434569	昼 台所	-0.191439
-2.434569	昼 図書館	-0.275968
-2.434569	昼 大学	-0.263922
-2.133539	昼 大阪	-0.380211
-2.133539	昼 学校	-0.121994
-1.832509	昼 家	-0.321785
-2.434569	昼 屋上	-0.248324
-2.434569	昼 工場	-0.236089
-1.957448	昼 店	-0.249520
-2.434569	昼 庭	-0.267172
-2.434569	昼 教室	-0.264000
-2.434569	昼 東京	-0.214181
-2.434569	昼 欠席	1.096910
-2.434569	昼 残業	1.096910
-2.434569	昼 玄関	-0.215009
-2.434569	昼 病院	-0.188326
-2.434569	昼 神社	-0.222473
-2.133539	昼 空港	-0.138618
-2.133539	昼 美術館	-0.413779
-2.434569	昼 退勤	1.096910
-2.133539	昼 部屋	-0.131279
-2.434569	昼 食堂	-0.246471
-1.957448	昼 駅	-0.217394
-0.176091	時 は	-0.300250
-1.214844	時計 が	-0.226332
-1.135663	時計 と	-0.288526
-0.959571	時計 は	0.012658
-1.135663	時計 も	-0.256326
-0.206244	時計 を	-0.276230
-0.778151	時間 が	-0.300900
-0.778151	時間 です	1.196295
-0.778151	時間 に	-0.300888
-0.006531	晩 ごはん	0.423188
-0.301030	晴れ て	-0.285518
-0.301030	暇 な	-0.234083
-0.173925	暑い </s>
-1.698970	暑い 太陽	-0.101027
-1.522879	暑い 山	-0.243550
-1.698970	暑い 川	-0.064599
-1.698970	暑い 星	-0.096215
-2.000000	暑い 木	0.066947
-1.698970	暑い 海	0.010724
-1.522879	暑い 空	-0.213460
-1.698970	暑い 花	-0.258358
-2.000000	暑い 雨	0.064458
-2.000000	暑い 雪	0.157123
-1.698970	暑い 風	-0.077412
-0.301030	書 で	-0.300560
-0.602060	書い た	0.138303
-0.602060	書い て	-0.293343
-0.009760	書く </s>
-2.130334	書く の	-0.299872
-0.005201	書類 を	-0.123310
-1.404834	月 から	-0.125778
-0.234572	月 が	-0.303092
-2.103804	月 で	-0.299147
-2.103804	月 と	-0.300837
-2.103804	月 の	-0.300451
-0.927712	月 は	0.536340
-1.404834	月 まで	1.378563
-0.927712	月 を	-0.306765
-2.103804	月 科学	0.066947
-0.176091	月曜日 から	-0.300189
-1.755875	有名 </s>
-0.039872	有名 です	-0.226951
-1.755875	有名 に	-0.300745
-1.311754	服 が	-0.227253
-1.436693	服 と	-0.294823
-0.913814	服 は	-0.003538
-1.010724	服 も	-0.247726
-0.197811	服 を	-0.284211
-0.815940	朝 から	-0.345905
-0.614294	朝 ごはん	0.399385
-0.572902	朝 に	-0.420155
-1.857332	朝 カフェ	-0.295278
-2.158362	朝 プール	-0.375045
-2.459392	朝 ホテル	-0.192278
-2.158362	朝 レストラン	-0.127844
-2.459392	朝 京都	-0.249520
-2.459392	朝 休憩	1.096910
-2.158362	朝 会社	-0.212797
-2.158362	朝 公園	-0.134923
-2.459392	朝 出勤	1.096910
-2.459392	朝 出席	1.096910
-2.459392	朝 出張	0.653213
-1.982271	朝 北海道	-0.237196
-2.158362	朝 台所	-0.424012
-2.459392	朝 大学	-0.240893
-2.459392	朝 大阪	-0.241262
-1.982271	朝 学校	-0.218904
-2.459392	朝 家	-0.206392
-2.459392	朝 屋上	-0.226784
-2.459392	朝 庭	-0.190332
-2.158362	朝 教室	-0.195154
-1.982271	朝 東京	-0.265702
-2.459392	朝 欠席	1.096910
-2.459392	朝 残業	1.096910
-2.459392	朝 玄関	-0.215009
-2.158362	朝 病院	-0.364417
-1.857332	朝 神社	-0.329742
-2.459392	朝 空港	-0.261025
-1.760422	朝 窓	-0.383582
-1.857332	朝 美術館	-0.322219
-2.459392	朝 退勤	1.096910
-2.459392	朝 部屋	-0.192797
-2.158362	朝 食堂	-0.155505
-2.158362	朝 駅	-0.120484
-0.301030	期 目	-0.204120
-1.350248	木 から	-0.125778
-0.243038	木 が	-0.256846
-0.873127	木 は	0.536340
-1.350248	木 まで	1.378563
-0.793946	木 を	-0.253109
-1.342423	本 が	-0.227253
-1.099385	本 と	-0.284943
-0.944483	本 は	0.068248
-0.944483	本 も	-0.228931
-0.245513	本 を	-0.216973
-1.944483	本 退院
-0.985277	材料 が	-0.293981
-0.082187	材料 を	-0.119435
-0.301030	来 て	0.023481
-0.002192	来る </s>
-2.775246	来る よ
-0.741722	東京 から	-0.118211
-0.479844	東京 で	-0.140892
-1.090177	東京 に	-0.419544
-1.028029	東京 は	0.536340
-1.425969	東京 へ	1.000000
-0.973671	東京 まで	1.036140
-1.162727	東京 を	-0.557306
-2.204120	東京 府	-0.176091
-2.204120	東京 映画	-0.292344
-1.602060	東京 都	-0.255273
-0.602060	柄 </s>
-0.602060	柄 に	-0.300603
-0.301030	根 体	-0.285790
-0.301030	案 </s>
-1.365488	森 から	-0.125778
-0.201135	森 が	-0.298683
-0.888367	森 は	0.536340
-1.365488	森 まで	1.378563
-0.950515	森 を	-0.178963
-0.834633	検討 が	-0.237715
-0.077068	検討 する	0.723329
-0.301030	機 科学	0.066947
-1.014240	機械 が	-0.293981
-0.111150	機械 を	-0.119435
-1.491362	機械 開発
-0.017729	欠席 する	1.342423
-0.301030	欧 名
-0.003406	止まる </s>
-0.000768	歩く </s>
-0.301030	歯 は	-0.275334
-0.301030	歯医者 の	-0.299292
-0.397940	歴史 が	-0.469809
-0.698970	歴史 研究	-0.290811
-0.602060	死 が	-0.300900
-0.602060	死 海	0.186815
-0.017729	残業 する	1.342423
-0.613000	毎日 から	-0.353665
-0.510804	毎日 に	-0.329657
-2.002166	毎日 カフェ	-0.422382
-2.303196	毎日 プール	-0.198954
-2.002166	毎日 ホテル	-0.424592
-2.303196	毎日 レストラン	-0.184749
-2.303196	毎日 休憩	1.096910
-2.303196	毎日 会社	-0.247191
-2.303196	毎日 出勤	1.096910
-2.303196	毎日 出席	1.096910
-2.303196	毎日 出張	0.653213
-1.826075	毎日 北海道	-0.237196
-2.002166	毎日 台所	-0.424012
-2.303196	毎日 図書館	-0.233067
-1.826075	毎日 大学	-0.294903
-1.826075	毎日 大阪	-0.542292
-2.303196	毎日 学校	-0.191466
-2.002166	毎日 家	-0.145694
-2.303196	毎日 屋上	-0.248324
-2.002166	毎日 工場	-0.412180
-2.002166	毎日 店	-0.152610
-2.303196	毎日 庭	-0.190332
-2.002166	毎日 教室	-0.195154
-1.826075	毎日 東京	-0.515211
-2.303196	毎日 欠席	1.096910
-2.303196	毎日 残業	1.096910
-2.002166	毎日 病院	-0.118690
-2.002166	毎日 神社	-0.398564
-2.303196	毎日 空港	-0.190892
-2.303196	毎日 窓	-0.264203
-2.002166	毎日 美術館	-0.399179
-2.303196	毎日 行っ	-0.221849
-2.303196	毎日 退勤	1.096910
-2.303196	毎日 部屋	-0.253851
-1.826075	毎日 食堂	-0.252415
-2.303196	毎日 駅	-0.244302
-0.732020	毎晩 から	-0.293032
-0.446410	毎晩 に	-0.326183
-2.365488	毎晩 カフェ	-0.191068
-2.064458	毎晩 プール	-0.135090
-2.365488	毎晩 ホテル	-0.248501
-1.888367	毎晩 レストラン	-0.224754
-2.365488	毎晩 京都	-0.249520
-2.365488	毎晩 休憩	1.096910
-2.365488	毎晩 会社	-0.270788
-1.888367	毎晩 体育館	-0.566255
-2.064458	毎晩 公園	-0.134923
-2.365488	毎晩 出勤	1.096910
-2.365488	毎晩 出席	1.096910
-2.365488	毎晩 出張	0.653213
-2.064458	毎晩 北海道	-0.387185
-1.888367	毎晩 台所	-0.218713
-2.064458	毎晩 図書館	-0.203612
-2.064458	毎晩 大学	-0.197993
-2.064458	毎晩 大阪	-0.417353
-2.365488	毎晩 学校	-0.191466
-2.365488	毎晩 家	-0.252904
-1.888367	毎晩 屋上	-0.260412
-2.064458	毎晩 工場	-0.209614
-1.888367	毎晩 店	-0.510122
-2.064458	毎晩 庭	-0.366423
-1.763428	毎晩 教室	-0.371246
-2.365488	毎晩 東京	-0.264227
-2.365488	毎晩 欠席	1.096910
-2.365488	毎晩 残業	1.096910
-2.064458	毎晩 玄関	-0.430609
-2.064458	毎晩 病院	-0.424415
-2.064458	毎晩 神社	-0.420466
-2.365488	毎晩 空港	-0.190892
-2.365488	毎晩 窓	-0.188848
-2.064458	毎晩 美術館	-0.413779
-2.365488	毎晩 退勤	1.096910
-2.064458	毎晩 部屋	-0.131279
-1.888367	毎晩 食堂	-0.252415
-1.888367	毎晩 駅	-0.217394
-0.605990	毎朝 から	-0.343138
-0.471292	毎朝 に	-0.398158
-2.045323	毎朝 カフェ	-0.367160
-2.346353	毎朝 プール	-0.198954
-2.045323	毎朝 ホテル	-0.123562
-2.346353	毎朝 レストラン	-0.184749
-2.346353	毎朝 京都	-0.249520
-2.346353	毎朝 休憩	1.096910
-1.647383	毎朝 会社	-0.455835
-2.045323	毎朝 体育館	-0.158015
-2.346353	毎朝 公園	-0.251138
-2.346353	毎朝 出勤	1.096910
-2.346353	毎朝 出席	1.096910
-2.346353	毎朝 出張	0.653213
-2.045323	毎朝 北海道	-0.140286
-1.744293	毎朝 図書館	-0.379704
-1.869232	毎朝 大学	-0.294903
-2.045323	毎朝 大阪	-0.417353
-2.045323	毎朝 学校	-0.424131
-1.869232	毎朝 家	-0.242604
-2.045323	毎朝 工場	-0.209614
-1.869232	毎朝 庭	-0.243038
-2.346353	毎朝 教室	-0.238239
-2.346353	毎朝 東京	-0.214181
-2.346353	毎朝 欠席	1.096910
-2.346353	毎朝 残業	1.096910
-2.045323	毎朝 玄関	-0.391101
-2.045323	毎朝 病院	-0.424415
-2.346353	毎朝 神社	-0.244375
-2.346353	毎朝 空港	-0.261025
-2.346353	毎朝 窓	-0.188848
-2.346353	毎朝 美術館	-0.237687
-2.346353	毎朝 退勤	1.096910
-2.346353	毎朝 部屋	-0.192797
-2.346353	毎朝 食堂	-0.221849
-2.346353	毎朝 駅	-0.244302
-0.003826	比較 する	0.683458
-0.301030	毛 が	-0.300252
-0.778151	気 が	-0.300900
-0.778151	気 に	-0.300745
-0.778151	気 は	-0.275334
-0.057992	気持ち が	-0.122992
-1.380211	気持ち 悪い	0.176091
-1.152288	水 が	-0.219199
-1.249198	水 と	-0.292669
-1.073107	水 は	-0.118656
-1.550228	水 も	-0.290046
-0.161062	水 を	-0.291485
-0.301030	水泳 </s>
-0.301030	永 </s>
-0.301030	江 </s>
-0.002964	決める </s>
-0.861999	決定 が	-0.237715
-0.071948	決定 する	0.691145
-0.301030	泣い た	0.138303
-0.010550	泣く </s>
-2.096910	泣く すぐ	-0.296385
-0.010995	泳ぎ に	-0.807724
-0.003517	泳ぐ </s>
-0.003205	洗う </s>
-0.176091	派 の	-0.475963
-1.390935	海 から	-0.125778
-0.170827	海 が	-0.340880
-0.913814	海 は	0.536340
-1.390935	海 まで	1.378563
-1.089905	海 を	-0.242403
-0.602060	温泉 </s>
-0.602060	温泉 部	-0.079181
-0.003406	測る </s>
-0.003860	測定 する	0.687284
-0.301030	湖 も	-0.297400
-0.602060	湯 </s>
-0.602060	湯 だ	-0.268845
-0.596456	準備 が	-0.023685
-0.142198	準備 する	0.691145
-2.187521	準備 も	-0.300578
-0.301030	無 保存
-0.003253	焼く </s>
-0.301030	片付ける </s>
-0.014977	物理 の	-0.321641
-1.770852	物理 を	-0.291196
-0.236305	犬 が	-0.077894
-0.396006	犬 を	-0.303311
-0.301030	狭い </s>
-0.206872	猫 が	-0.093887
-0.515326	猫 を	-0.385356
-1.977724	猫 アレルギー
-1.676694	猫 家	-0.123418
-0.745482	玄関 から	-0.113313
-0.463757	玄関 で	-0.172185
-0.993267	玄関 に	-0.419544
-0.931119	玄関 は	0.536340
-1.408240	玄関 へ	0.948847
-0.961082	玄関 まで	1.099809
-1.262112	玄関 を	-0.422747
-0.602060	王 永
-0.602060	王 都	-0.255273
-0.841638	申請 が	-0.237715
-0.075721	申請 する	0.715057
-0.301030	画面 下	-0.221849
-0.640978	病院 から	-0.124182
-2.146128	病院 が	-0.300123
-0.566344	病院 で	-0.161674
-2.146128	病院 です	-0.295067
-0.942008	病院 に	-0.486490
-0.970037	病院 は	0.536340
-1.447158	病院 へ	0.948847
-0.970037	病院 まで	1.077533
-1.243038	病院 を	-0.690516
-2.060698	発表 </s>
-2.060698	発表 さ	-0.230449
-1.759668	発表 し	-0.314394
-0.031314	発表 する	0.706939
-0.861999	登録 が	-0.237715
-0.071948	登録 する	0.691145
-0.698970	目 </s>
-0.698970	目 が	-0.300382
-1.000000	目 と	-0.299293
-1.000000	目 は	-0.275334
-1.311754	目標 が	-0.227253
-1.311754	目標 と	-0.294432
-0.913814	目標 は	0.076538
-0.834633	目標 も	-0.218674
-0.241716	目標 を	-0.255655
-0.003205	直す </s>
-0.301030	相 </s>
-0.851937	相談 が	-0.237715
-0.073786	相談 する	0.702936
-0.301030	眼科 医	-0.176091
-1.278754	眼鏡 が	-0.227253
-1.579784	眼鏡 と	-0.297355
-0.977724	眼鏡 は	-0.040896
-1.035716	眼鏡 も	-0.253814
-0.181844	眼鏡 を	-0.263419
-0.003604	着る </s>
-2.110590	研究 </s>
-0.035043	研究 する	1.025554
-1.633468	研究 家	-0.589739
-1.809560	研究 者	-0.301030
-0.003159	確かめる </s>
-0.812913	確認 が	-0.237715
-0.081414	確認 する	0.749137
-0.301030	磨 上	-0.221849
-1.792392	社長 </s>
-0.814668	社長 が	-0.233954
-0.315270	社長 と	-0.378406
-0.814668	社長 に	-0.235952
-0.814668	社長 も	-0.232650
-0.176091	祖 </s>
-0.781287	神社 から	-0.141476
-0.461774	神社 で	-0.137278
-0.912566	神社 に	-0.506694
-2.143015	神社 の	-0.298711
-0.966924	神社 は	0.536340
-1.444045	神社 へ	0.948847
-0.938895	神社 まで	1.056344
-1.364864	神社 を	-0.381214
-0.903090	私 が	-0.300252
-0.903090	私 の	-0.299872
-0.903090	私 は	-0.300640
-0.903090	私 も	-0.299672
-0.845098	科学 を	-0.295936
-0.243038	科学 者	0.012234
-0.903090	種 </s>
-0.903090	種 が	-0.300900
-0.903090	種 で	-0.299147
-0.903090	種 と	-0.299873
-0.301030	穂 と	-0.299873
-1.361728	空 から	-0.125778
-0.228189	空 が	-0.275939
-2.060698	空 の	-0.299872
-0.884607	空 は	0.536340
-1.361728	空 まで	1.378563
-0.946754	空 を	-0.266452
-2.060698	空 印
-0.003461	空く </s>
-0.649752	空港 から	-0.089420
-0.494850	空港 で	-0.147092
-1.055517	空港 に	-0.368391
-0.920819	空港 は	0.536340
-1.397940	空港 へ	0.948847
-0.982967	空港 まで	1.123291
-1.318759	空港 を	-0.465072
-0.642747	窓 から	-0.138560
-0.558426	窓 で	-0.164127
-1.089905	窓 に	-0.340362
-0.913814	窓 は	0.536340
-1.390935	窓 へ	0.948847
-1.048512	窓 まで	1.174443
-0.975962	窓 を	-0.611944
-0.003406	立つ </s>
-0.003696	笑う </s>
-0.841638	管理 が	-0.237715
-0.084073	管理 する	0.723329
-2.096910	管理 下	-0.221849
-0.602060	約束 する	2.439333
-0.602060	約束 の	-0.300451
-0.301030	紅茶 </s>
-1.267172	紙 が	-0.227253
-1.267172	紙 と	-0.292865
-0.827839	紙 は	0.127807
-0.914989	紙 も	-0.242586
-0.256448	紙 を	-0.276142
-0.301030	終わり です	-0.299051
-0.003634	終わる </s>
-0.003461	組み立てる </s>
-0.003406	組む </s>
-0.176091	絵 を	-0.291542
-0.602060	練習 </s>
-0.602060	練習 練習	-0.176091
-0.023481	繋がる </s>
-0.003634	繋ぐ </s>
-0.301030	美 </s>
-0.784400	美術館 から	-0.122160
-0.492916	美術館 で	-0.167719
-0.867374	美術館 に	-0.544482
-0.970037	美術館 は	0.536340
-1.447158	美術館 へ	0.948847
-1.032185	美術館 まで	1.123291
-2.146128	美術館 や	-0.263241
-1.104735	美術館 を	-0.484406
-0.602060	義 家	-0.294913
-0.602060	義 愛	-0.124939
-0.477121	者 </s>
-0.778151	者 で	-0.297966
-1.079181	者 の	-0.299292
-1.079181	者 は	-0.300250
-0.003303	聴く </s>
-0.301030	背 が	-0.300900
-1.832509	自転車 から	-0.299909
-1.832509	自転車 と	-0.300259
-0.047179	自転車 に	-1.756229
-1.832509	自転車 通勤
-0.301030	良 持
-0.602060	良い </s>
-0.602060	良い ね	0.176091
-1.572872	花 から	-0.125778
-0.402610	花 が	-0.289657
-1.317599	花 と	-0.284143
-1.095750	花 は	0.536340
-1.572872	花 まで	1.378563
-1.192660	花 も	-0.214281
-0.523654	花 を	-0.234033
-2.271842	花 時計	-0.273707
-2.271842	花 柄	-0.176091
-2.133539	英語 </s>
-1.656418	英語 で	-0.396528
-0.040117	英語 の	-0.285428
-1.531479	英語 を	-0.290989
-0.301030	茶 江
-1.384712	荷物 が	-0.227253
-1.141674	荷物 と	-0.324278
-1.083682	荷物 は	-0.038762
-1.141674	荷物 も	-0.255825
-0.167228	荷物 を	-0.295684
-0.301030	葉 が	-0.300771
-1.342423	薬 が	-0.227253
-1.467361	薬 と	-0.391928
-1.041393	薬 は	-0.038762
-1.166331	薬 も	-0.255323
-0.152091	薬 を	-0.314272
-0.246898	虫 が	-0.066985
-0.380981	虫 を	-0.375840
-0.000765	行く </s>
-0.301030	行っ た	0.208884
-0.778151	行っ て	0.023481
-0.985277	装置 が	-0.293981
-0.082187	装置 を	-0.119435
-0.011582	製作 する	0.691145
-2.056905	製作 は	-0.300640
-1.204120	見 て	-0.374459
-0.047773	見 に	-0.845512
-0.003026	見る </s>
-0.301030	見学 可
-0.005021	見積 を	-0.133692
-0.176091	観光 地	0.096910
-0.004156	観察 する	0.719173
-0.002985	解く </s>
-0.204120	言う </s>
-0.903090	言う て	-0.293343
-0.301030	言っ た	0.087150
-0.778151	言っ て	0.023481
-0.838149	計画 が	-0.237715
-0.076388	計画 する	0.719173
-2.060698	計算 し	-0.138303
-0.019305	計算 する	0.695040
-2.060698	計算 機
-2.060698	記録 し	-0.051153
-0.027274	記録 する	0.702936
-2.060698	記録 も	-0.297400
-2.060698	記録 写真	-0.296751
-2.060698	設計 </s>
-2.060698	設計 し	-0.138303
-0.035392	設計 する	0.710979
-2.060698	設計 図	-0.154902
-2.060698	設計 者	-0.263241
-0.003793	試す </s>
-0.301030	詩 を	-0.292644
-0.301030	話す </s>
-0.851937	説明 が	-0.237715
-1.806180	説明 し	-0.227244
-0.086021	説明 する	0.715057
-0.013788	読む </s>
-2.204120	読む か	-0.032185
-2.204120	読む 気	-0.221849
-0.564271	読書 </s>
-1.041393	読書 で	-0.300560
-1.041393	読書 と	-0.298131
-0.740363	読書 を	-0.300827
-0.301030	誰 か	-0.266268
-0.804032	課長 が	-0.233954
-0.304634	課長 と	-0.364368
-0.804032	課長 に	-0.235952
-0.804032	課長 も	-0.232650
-0.002706	課題 を	-0.703011
-0.003069	調べる </s>
-0.003634	調整 する	0.661181
-0.002811	論文 を	-0.688614
-0.301030	謂う </s>
-1.311754	財布 が	-0.227253
-1.311754	財布 と	-0.293257
-1.068716	財布 は	-0.080867
-0.913814	財布 も	-0.232650
-0.197811	財布 を	-0.319463
-0.011281	買い に	-0.727958
-0.002944	買う </s>
-1.662758	資料 も	-0.298765
-0.019305	資料 を	-0.140478
-0.213075	赤い </s>
-1.514105	赤い 太陽	-0.013573
-1.991226	赤い 山	0.057480
-1.690196	赤い 川	-0.064599
-1.690196	赤い 星	-0.096215
-1.690196	赤い 月	0.086770
-1.389166	赤い 木	-0.330993
-1.514105	赤い 森	-0.171070
-1.991226	赤い 海	0.186815
-1.991226	赤い 空	0.087570
-1.690196	赤い 花	-0.258358
-1.292256	赤い 風	-0.378442
-0.301030	赤ちゃん の	-0.299292
-0.000744	走る </s>
-0.003728	起きる </s>
-0.665112	趣味 </s>
-1.267172	趣味 と	-0.476350
-0.187990	趣味 は	-0.300911
-0.301030	身 </s>
-0.301030	車 の	-0.300451
-0.017729	退勤 する	1.342423
-0.301030	退院 と	-0.300066
-0.003278	送る </s>
-0.301030	通勤 し	-0.051153
-0.893947	連絡 が	-0.237715
-0.073672	連絡 する	0.661181
-2.149219	連絡 を	-0.300962
-0.301030	週末 の	-0.300451
-0.301030	進学 せ	-0.176091
-0.301030	遅れ て	-0.261158
-0.011281	遊び に	-0.797739
-0.003665	遊ぶ </s>
-0.301030	遊ん で	-0.300795
-0.003026	運ぶ </s>
-0.301030	運動 部	-0.079181
-0.176091	運転 手
-0.176091	道 の	-0.475383
-0.698970	部 </s>
-1.000000	部 の	-0.299872
-0.397940	部 部長	-0.685908
-0.814668	部下 が	-0.233954
-0.294081	部下 と	-0.378304
-0.814668	部下 に	-0.235952
-0.814668	部下 も	-0.232650
-0.656418	部屋 から	-0.101090
-0.480326	部屋 で	-0.134851
-0.987411	部屋 に	-0.443025
-0.957448	部屋 は	0.536340
-1.434569	部屋 へ	0.948847
-1.019596	部屋 まで	1.123291
-1.288441	部屋 を	-0.510274
-1.528274	部長 </s>
-0.851580	部長 が	-0.233954
-0.291485	部長 と	-0.404901
-0.851580	部長 に	-0.235952
-0.851580	部長 も	-0.232650
-0.698970	都 に	-0.300033
-0.698970	都 の	-0.299292
-1.000000	都 は	-0.297507
-1.000000	都 ホテル	-0.298273
-0.985277	配線 が	-0.293981
-0.082187	配線 を	-0.119435
-0.301030	酢 </s>
-0.301030	野球 </s>
-1.327359	野菜 が	-0.227253
-1.327359	野菜 と	-0.292669
-1.929419	野菜 の	-0.299292
-1.026329	野菜 は	-0.040186
-1.230449	野菜 も	-0.265740
-0.173544	野菜 を	-0.315093
-0.602060	金曜日 から	-0.300470
-0.602060	金曜日 まで	-0.300204
-0.602060	銀行 員	0.176091
-0.602060	銀行 家	-0.294913
-1.267172	鍵 が	-0.227253
-1.267172	鍵 と	-0.292276
-1.267172	鍵 は	-0.189148
-0.966142	鍵 も	-0.244134
-0.179036	鍵 を	-0.233255
-0.171396	長い </s>
-1.963788	長い 太陽	0.075065
-1.963788	長い 山	0.057480
-1.963788	長い 川	0.111492
-1.963788	長い 星	0.079877
-1.963788	長い 時間	-0.221849
-1.662758	長い 月	-0.097593
-1.963788	長い 森	0.129960
-1.963788	長い 空	0.087570
-1.264818	長い 花	-0.559388
-1.963788	長い 雨	0.064458
-1.963788	長い 雪	0.157123
-1.963788	長い 風	0.098679
-0.003406	閉める </s>
-0.301030	開け て	-0.285518
-0.002829	開ける </s>
-0.301030	開発 担当	-0.283862
-0.301030	間に合う ぞ
-0.602060	間違い </s>
-0.602060	間違い や	-0.221849
-0.301030	降っ て	-0.285518
-0.096910	降りる </s>
-0.003545	降る </s>
-0.301030	院 派	0.176091
-0.346787	院生 が	-0.667046
-0.420216	院生 と	-0.500401
-1.124939	院生 に	-0.287012
-1.124939	院生 も	-0.262295
-0.301030	隣 に	-0.300318
-0.778151	難しい </s>
-0.778151	難しい ん	-0.079181
-0.778151	難しい 問題	-0.191886
-1.365488	雨 から	-0.125778
-0.244914	雨 が	-0.253956
-0.888367	雨 は	0.536340
-1.365488	雨 まで	1.378563
-0.763428	雨 を	-0.221633
-1.350248	雪 から	-0.125778
-0.185895	雪 が	-0.298683
-0.873127	雪 は	0.536340
-1.350248	雪 まで	1.378563
-1.094976	雪 を	-0.297621
-0.602060	雲 が	-0.300900
-0.602060	雲 で	-0.299147
-1.518514	電池 </s>
-1.041393	電池 が	-0.293981
-1.518514	電池 と	-0.300066
-0.138303	電池 を	-0.119435
-1.014240	電源 が	-0.293981
-1.491362	電源 は	-0.300640
-0.111150	電源 を	-0.119435
-1.255273	電話 が	-0.227253
-1.857332	電話 する	2.439333
-1.380211	電話 と	-0.293453
-0.857332	電話 は	0.077469
-1.857332	電話 も	-0.295573
-0.185235	電話 を	-0.282941
-1.806180	電車 から	-0.299909
-0.020850	電車 に	-1.756229
-0.193820	青い </s>
-1.698970	青い 太陽	-0.101027
-2.000000	青い 山	0.057480
-1.698970	青い 川	-0.064599
-1.301030	青い 月	-0.020048
-1.698970	青い 木	-0.109144
-1.221849	青い 森	-0.414109
-2.000000	青い 海	0.186815
-1.698970	青い 空	-0.088521
-1.698970	青い 雪	-0.018968
-1.698970	青い 風	-0.077412
-0.008273	静か です	-0.226951
-0.301030	面白い ネ
-1.317018	靴 が	-0.227253
-1.015988	靴 と	-0.354878
-1.073980	靴 は	-0.075003
-1.317018	靴 も	-0.276392
-0.178715	靴 を	-0.239412
-1.380211	鞄 が	-0.227253
-1.380211	鞄 と	-0.294628
-0.940879	鞄 は	0.126762
-0.982271	鞄 も	-0.234761
-0.189880	鞄 を	-0.228877
-1.406540	音楽 が	-0.227253
-1.309630	音楽 と	-0.294432
-2.008600	音楽 の	-0.299872
-1.054358	音楽 は	0.011856
-1.054358	音楽 も	-0.249764
-0.176091	音楽 を	-0.344147
-0.051153	頭 が	-0.122211
-1.431364	頭 も	-0.300578
-1.390935	風 から	-0.125778
-0.220673	風 が	-0.303092
-0.913814	風 は	0.536340
-1.390935	風 まで	1.378563
-0.811152	風 を	-0.221352
