\data\
ngram 1=2040
ngram 2=18941
ngram 3=49311

\1-grams:
-0.824105	</s>
-0.824105	<s>	-0.925664
-4.417696	あ	-0.342607
-5.320786	あいだ	-0.290060
-5.019756	あそこ	-0.289022
-4.718726	あたり	-0.279920
-3.030751	あっ	-1.813097
-3.829424	あなた	-0.470258
-4.174658	あの	-0.404370
-3.658028	あまり	-0.422984
-4.621816	あまりに	-0.347703
-3.439972	あり	-0.826360
-3.998567	ありがとう	-1.342358
-2.227364	ある	-1.151065
-4.320786	あるいは	-0.376785
-4.065513	あれ	-0.500662
-4.843665	あん	-0.397770
-5.320786	あー	-0.230484
-2.629704	い	-1.546725
-2.996503	いい	-0.664509
-4.718726	いくら	-0.476723
-4.843665	いただき	-0.397664
-4.417696	いっ	-0.692547
-5.019756	いっしょ	-0.217549
-4.542635	いっぱい	-0.249978
-4.090337	いつ	-0.573031
-2.093413	いる	-1.357167
-4.174658	いろいろ	-0.643981
-4.718726	いろんな	-0.299115
-4.116666	いわゆる	-0.313749
-3.501242	う	-0.923598
-4.718726	うえ	-0.359506
-3.256328	うさぎ	-1.735486
-4.718726	うまく	-0.477069
-4.475688	え	-0.311035
-5.320786	えびの	-0.299571
-3.542635	お	-0.400259
-4.843665	おい	-0.285460
-3.234426	おいしい	-0.933613
-3.048944	おじいさん	-1.537135
-4.542635	おそらく	-0.338098
-4.621816	おでこ	-0.765896
-5.019756	おねしょ	-0.299036
-4.718726	おはよう	-0.698906
-3.011156	おばあさん	-1.680464
-4.843665	おめでとう	-0.397718
-4.843665	おん	-0.397743
-4.206842	お前	-0.200895
-5.320786	お客様	-0.290060
-5.320786	お櫃	-0.301020
-3.021933	お母さん	-1.420874
-3.035229	お父さん	-1.562030
-5.019756	お疲れ様	-0.477067
-3.978363	お腹	-1.058552
-3.376303	お茶	-0.979635
-4.116666	お金	-0.490970
-4.065513	お願い	-0.652210
-3.051273	か	-0.524040
-4.475688	かかっ	-0.646789
-4.366543	かける	-0.430690
-2.096771	から	-0.779382
-4.366543	かわいい	-0.503072
-1.555564	が	-0.769704
-3.752584	き	-0.615179
-4.843665	きっと	-0.300324
-3.048944	きれい	-1.003540
-5.320786	く	-0.301022
-3.789307	ください	-1.473522
-4.718726	くらい	-0.291589
-4.366543	くれる	-0.439882
-4.718726	ぐらい	-0.287555
-5.019756	け	-0.220671
-4.241605	けど	-0.628092
-5.320786	けれど	-0.301009
-5.320786	けれども	-0.230484
-4.621816	げ	-0.224378
-3.940575	こ	-0.544701
-4.320786	こういう	-0.414543
-3.658028	ここ	-0.668515
-3.959058	こちら	-0.461376
-2.406443	こと	-1.256950
-2.905812	この	-0.445772
-2.802272	これ	-1.000594
-4.366543	これから	-0.584852
-3.658028	これら	-0.883018
-4.144695	こんな	-0.412060
-4.843665	こんなに	-0.300847
-4.206842	ご	-0.555864
-3.829424	ござい	-1.217216
-2.830827	ごはん	-1.660286
-4.621816	ご飯	-0.174264
-2.594059	さ	-1.356684
-5.320786	さすが	-0.290300
-4.065513	さらに	-0.304987
-2.385783	し	-1.402753
-3.815636	しか	-0.454411
-3.428691	しかし	-0.433169
-4.843665	しかも	-0.300879
-4.718726	しばらく	-0.365861
-4.174658	しまう	-0.577109
-4.090337	しまっ	-0.971300
-4.417696	しよ	-0.954106
-4.718726	じ	-0.215598
-5.320786	じっと	-0.300600
-4.843665	す	-0.317803
-4.843665	すぎる	-0.291010
-3.213576	すぐ	-0.469251
-4.621816	すでに	-0.351250
-3.677333	すべて	-0.377795
-1.579240	する	-1.897637
-4.542635	すると	-0.299386
-3.959058	ず	-0.744639
-4.279393	ずっと	-0.343576
-4.174658	せ	-0.459668
-5.019756	ぜ	-0.406575
-4.843665	ぜひ	-0.300947
-5.320786	そ	-0.300505
-5.320786	そいつ	-0.297022
-3.361744	そう	-0.455161
-3.789307	そういう	-0.463710
-4.279393	そこで	-0.344359
-3.687317	そして	-0.314517
-2.905812	その	-0.495835
-2.953430	それ	-1.012807
-4.542635	それから	-0.300363
-4.417696	それで	-0.414292
-4.174658	それら	-0.606229
-3.752584	そんな	-0.532880
-4.718726	そんなに	-0.299918
-4.718726	ぞ	-0.406568
-2.144984	た	-0.976337
-3.630590	たい	-0.521957
-3.325151	たくさん	-0.446510
-3.802272	たち	-0.494995
-5.019756	たとえ	-0.300771
-3.287362	ため	-0.392306
-4.279393	たら	-0.249380
-2.917665	だ	-1.017140
-3.457463	だけ	-0.513859
-4.843665	だし	-0.394628
-3.200212	だっ	-1.650053
-4.621816	だって	-0.229826
-3.802272	だろ	-1.172331
-4.475688	ち	-0.368730
-4.621816	ちゃんと	-0.288751
-4.366543	ちょっと	-0.326854
-4.144695	っ	-0.673359
-4.843665	っていう	-0.601981
-4.542635	っぽい	-0.271446
-4.542635	つ	-0.299461
-4.366543	つける	-0.438440
-5.320786	つまらない	-0.230484
-4.174658	つまり	-0.297374
-2.123781	て	-1.020610
-3.959058	てる	-0.343736
-1.721449	で	-0.791498
-3.216982	でき	-1.169785
-3.048944	できる	-0.957269
-3.905812	でし	-1.139705
-3.959058	でしょ	-1.026202
-2.736455	です	-1.599826
-4.718726	では	-0.300343
-3.220415	でも	-0.383387
-1.779456	と	-0.713176
-3.004815	という	-0.728227
-3.667573	とき	-0.386175
-3.741002	ところ	-0.427870
-3.210196	として	-0.488563
-3.147600	とても	-0.434340
-3.752584	とも	-0.555431
-4.417696	と共に	-0.330036
-5.019756	ど	-0.298823
-3.789307	どう	-0.595501
-4.718726	どうして	-0.300151
-5.019756	どうも	-0.300916
-3.789307	どこ	-0.631571
-4.042032	どちら	-0.566806
-4.843665	どっち	-0.266968
-4.366543	どんな	-0.394574
-2.641358	な	-0.472521
-2.296300	ない	-1.100840
-3.141809	なかっ	-1.880517
-4.417696	なかなか	-0.290125
-4.475688	ながら	-0.285258
-3.596510	なく	-0.481961
-4.320786	なくなっ	-0.771728
-4.366543	なけれ	-0.999940
-2.886217	なっ	-2.130297
-3.572598	なら	-0.608241
-4.116666	なり	-0.432263
-2.915952	なる	-0.769618
-4.320786	なんて	-0.383125
-1.603032	に	-0.726113
-4.019756	において	-0.333368
-4.019756	における	-0.375838
-3.802272	について	-0.425439
-4.144695	にとって	-0.357111
-3.667573	によって	-0.386315
-4.144695	により	-0.299996
-3.677333	による	-0.481803
-4.116666	に対して	-0.359610
-4.621816	に対する	-0.351701
-4.621816	ぬ	-0.217431
-3.361744	ね	-1.172001
-1.731283	の	-0.463857
-4.206842	ので	-0.288186
-1.612535	は	-0.455771
-5.019756	はじめ	-0.226625
-4.241605	はっきり	-0.689845
-3.858388	ば	-0.404972
-4.366543	ひ	-0.396231
-5.320786	ひく	-0.230484
-3.697537	ひとつ	-0.505321
-4.417696	ひとり	-0.315482
-4.843665	ふたり	-0.389723
-4.843665	ぶ	-0.292318
-2.907486	へ	-0.989379
-5.019756	べ	-0.300810
-5.320786	ほ	-0.299571
-3.959058	ほか	-0.641403
-3.572598	ほとんど	-0.427954
-4.174658	ほど	-0.285476
-5.320786	ぼ	-0.293753
-4.206842	ま	-0.312675
-3.667573	まし	-1.367771
-3.396507	ます	-0.983597
-3.648688	ませ	-1.098471
-3.356998	また	-0.236651
-3.815636	または	-0.535008
-3.206842	まだ	-0.428455
-4.320786	まったく	-0.322314
-2.542635	まで	-0.994547
-4.241605	まとめる	-0.617801
-4.843665	まるで	-0.300768
-4.065513	み	-0.525809
-3.021933	みんな	-1.144734
-5.019756	め	-0.230462
-2.036807	も	-0.531883
-3.227364	もう	-0.459872
-4.116666	もちろん	-0.312675
-2.875182	もの	-1.044300
-5.320786	もらう	-0.230484
-3.361744	や	-0.212253
-4.206842	やがて	-0.315041
-5.320786	やって来	-0.297909
-4.718726	やっぱり	-0.300498
-4.718726	やはり	-0.300151
-4.090337	やる	-0.368066
-4.621816	ゆ	-0.200569
-3.376303	ゆっくり	-0.367802
-3.180907	よ	-1.096026
-2.832235	よう	-1.485758
-4.279393	よかっ	-1.076060
-2.990372	よく	-0.442396
-4.366543	よろしく	-0.740136
-4.144695	ら	-0.350034
-3.501242	らしい	-1.460876
-3.381267	られ	-1.181128
-3.423159	られる	-0.765848
-4.366543	り	-0.327167
-2.604782	れ	-1.655526
-2.996503	れる	-0.985861
-4.843665	ろ	-0.300883
-4.174658	わ	-0.355396
-4.475688	わかり	-0.522513
-4.320786	わたし	-0.500362
-5.320786	ゐ	-0.300980
-1.297739	を	-1.256262
-3.127661	ん	-1.136315
-5.019756	アスティ	-0.228232
-5.019756	アダム	-0.468982
-5.320786	アッパー	-0.292891
-4.718726	アップ	-0.355155
-3.501242	アップロード	-1.814478
-3.542635	アニメ	-0.462617
-3.604782	アパート	-0.846739
-3.542635	アプリ	-1.460336
-3.457463	アメリカ	-0.537093
-5.320786	アルジェ	-0.230484
-4.241605	アレルギー	-0.353136
-5.320786	アロー	-0.300955
-4.475688	アーサー	-0.645025
-5.320786	アーニー	-0.292891
-5.320786	アーロン	-0.292891
-4.843665	イエロー	-0.285467
-3.338515	イベント	-0.728875
-3.494711	インストール	-1.514951
-3.406972	インターネット	-0.777583
-3.998567	インド	-0.369472
-5.320786	イージー	-0.293753
-5.320786	ウインク	-0.278580
-4.621816	ウエイト	-0.777981
-3.445725	エアコン	-1.369347
-3.501242	エスカレーター	-1.211719
-5.320786	エッシャー	-0.292891
-5.019756	エッチ	-0.476128
-4.843665	エリー	-0.594783
-4.843665	エレキ	-0.601691
-3.549934	エレベーター	-0.850797
-4.279393	エース	-0.413831
-4.843665	オハイオ	-0.396962
-5.019756	オファー	-0.265664
-5.320786	オマハ	-0.290300
-5.320786	オムツ	-0.278580
-5.320786	オメガ	-0.292891
-5.320786	オリオン	-0.292891
-4.718726	オーディオ	-0.282717
-4.542635	オーバー	-0.458671
-4.475688	オープン	-0.230557
-3.070366	カフェ	-1.361180
-3.494711	カメラ	-1.504062
-4.542635	カレー	-0.376354
-3.457463	カーテン	-1.540274
-5.019756	ガ	-0.477111
-5.320786	ガーゼ	-0.292891
-5.019756	キエフ	-0.300249
-3.481937	キャンセル	-1.538395
-3.423159	キーボード	-0.949191
-3.070366	ギター	-1.114866
-4.621816	ギャグ	-0.207097
-5.320786	ク	-0.290300
-4.542635	クリスマス	-0.247241
-3.501242	クリック	-1.814478
-4.718726	グッズ	-0.336470
-3.133265	グラフ	-1.370322
-5.019756	ケニア	-0.296697
-3.361744	ケーキ	-1.148400
-3.873628	ケーブル	-1.140725
-5.019756	ゲイツ	-0.281710
-4.843665	ゲーテ	-0.296531
-3.032984	ゲーム	-0.700845
-3.481937	コップ	-1.516471
-5.320786	コナー	-0.293753
-3.494711	コピー	-1.515198
-3.434295	コンサート	-0.936111
-3.564911	コンビニ	-0.976589
-3.475688	コート	-1.522545
-3.386287	コーヒー	-1.063994
-5.019756	ゴミ	-0.300667
-3.122129	ゴルフ	-1.114163
-3.501242	サイン	-1.814478
-3.223876	サッカー	-0.830647
-4.843665	サボっ	-0.598782
-5.019756	サマー	-0.296996
-5.320786	サモア	-0.292891
-3.463453	サンダル	-1.350921
-3.542635	サーバー	-1.460336
-4.206842	サービス	-0.250277
-5.019756	サーブ	-0.454671
-5.019756	シェイク	-0.281762
-3.406972	システム	-0.658191
-5.320786	シチュー	-0.288774
-3.445725	シャツ	-1.551704
-4.718726	シート	-0.215866
-4.241605	シーン	-0.346554
-5.320786	ジェフ	-0.292891
-4.843665	ジミー	-0.593921
-4.621816	ジャ	-0.271729
-5.019756	ジャガー	-0.280400
-3.412301	ジャケット	-1.039733
-4.475688	ジャズ	-0.442300
-5.320786	ジャパン	-0.300563
-4.174658	ジャンル	-0.334596
-4.843665	ジュリア	-0.382385
-3.165450	ジュース	-1.411602
-3.391367	ジョギング	-1.356519
-3.428691	スキー	-0.961672
-3.356998	スケジュール	-1.240110
-4.843665	スコア	-0.277306
-3.457463	スタート	-1.381666
-3.488277	ストップ	-1.288572
-5.019756	ストレッチ	-0.267019
-3.428691	スプーン	-1.268396
-3.174658	スライド	-2.126769
-5.320786	スンニ	-0.300988
-3.596510	スーパー	-0.961187
-4.843665	スープ	-0.375961
-3.396507	セット	-0.950542
-3.889422	センサー	-1.126002
-4.718726	ソ	-0.206496
-5.320786	ソニー	-0.297745
-3.434295	ソファ	-1.562840
-3.488277	ソフト	-0.983161
-4.279393	ソフトウェア	-0.407176
-5.019756	ゾーン	-0.269806
-4.718726	タウン	-0.356661
-3.439972	タオル	-1.557307
-3.401708	タクシー	-0.802965
-5.320786	タブー	-0.230484
-5.019756	タワー	-0.280400
-5.320786	ターボ	-0.300897
-3.488277	ダウンロード	-1.348056
-5.019756	ダニー	-0.468982
-5.019756	ダート	-0.281710
-5.019756	チェチェン	-0.293677
-3.457463	チェック	-1.079019
-4.843665	チャイナ	-0.397710
-5.320786	チャイム	-0.278580
-3.494711	チャレンジ	-1.525952
-4.718726	チャンス	-0.277659
-5.019756	チャンネル	-0.293681
-3.718726	チーム	-0.607713
-4.241605	ツアー	-0.307899
-5.320786	ツリー	-0.300999
-4.843665	ティッシュ	-0.291739
-3.445725	テスト	-1.064910
-3.303752	テニス	-1.048711
-3.150524	テレビ	-0.880255
-3.417696	テーブル	-1.579027
-5.320786	ディエゴ	-0.293753
-3.528394	ディスプレイ	-1.300460
-3.621816	デパート	-0.933761
-3.108598	データ	-1.194755
-3.329560	トイレ	-0.996328
-3.406972	トレーニング	-0.874370
-5.320786	ドイル	-0.288774
-3.307949	ドラマ	-0.864750
-5.320786	ナ	-0.230484
-3.412301	ナイフ	-1.584291
-3.439972	ニュース	-0.883440
-5.019756	ニーズ	-0.464866
-5.019756	ニーナ	-0.280400
-5.320786	ネ	-0.230484
-3.514606	ネットワーク	-1.034334
-4.718726	ノ	-0.364073
-5.320786	ノック	-0.288774
-5.320786	ノース	-0.300193
-4.843665	ノート	-0.220704
-5.320786	ハノイ	-0.230484
-5.019756	ハーグ	-0.228767
-3.463453	バス	-0.843682
-3.998567	バスケットボール	-0.383679
-3.434295	バッグ	-1.562840
-5.019756	バトン	-0.281955
-5.320786	パイプ	-0.292703
-5.320786	パスタ	-0.297022
-4.843665	パスワード	-0.378672
-3.434295	パソコン	-0.790667
-4.475688	パッド	-0.364704
-4.718726	パパ	-0.268073
-5.320786	パブ	-0.292891
-3.051273	パン	-1.150105
-5.320786	パンク	-0.292891
-3.564911	パーキング	-1.151950
-5.320786	パース	-0.230484
-4.718726	パーティ	-0.258202
-5.320786	ヒュー	-0.292891
-5.320786	ビオラ	-0.288774
-5.019756	ビッグ	-0.290053
-3.621816	ビル	-1.099014
-3.423159	ビール	-1.190605
-3.210196	ピアノ	-0.977386
-5.320786	ピジョン	-0.300721
-5.320786	ピーチ	-0.292891
-5.320786	ファ	-0.301022
-5.320786	ファイア	-0.301009
-3.514606	ファイル	-1.080653
-5.320786	ファジー	-0.300037
-4.718726	フェ	-0.367935
-3.542635	フォルダ	-1.460336
-3.396507	フォーク	-1.122846
-4.542635	ブルー	-0.249225
-3.481937	ブーツ	-1.516471
-4.718726	プラン	-0.287658
-3.457463	プリンター	-1.240040
-3.488277	プリント	-1.532435
-4.621816	プレゼント	-0.334340
-4.621816	プレー	-0.415851
-3.156433	プログラム	-1.269371
-3.347658	プロジェクト	-1.334490
-3.136094	プール	-0.923046
-5.320786	ヘッド	-0.300852
-5.320786	ベビー	-0.300995
-5.019756	ベルン	-0.281517
-5.320786	ペ	-0.301028
-3.361744	ペン	-1.066950
-3.044324	ホテル	-1.069908
-5.019756	ホラー	-0.476741
-5.320786	ホルン	-0.278580
-4.144695	ホーム	-0.366888
-4.475688	ボイス	-0.352264
-3.469527	ボトル	-1.148259
-5.019756	ポ	-0.293749
-4.417696	ポエム	-0.466535
-4.542635	ポケット	-0.455136
-4.843665	ポーズ	-0.375162
-3.396507	マイク	-1.419837
-3.434295	マウス	-1.158463
-3.391367	マニュアル	-1.615840
-4.843665	マフィア	-0.212126
-4.417696	マラソン	-0.293040
-3.507872	マンション	-0.956129
-5.320786	マンボ	-0.292891
-3.434295	ミルク	-1.383204
-3.501242	メモ	-1.814478
-3.542635	メモリ	-1.460336
-5.320786	メラー	-0.301022
-5.320786	メンツ	-0.230484
-3.287362	メール	-1.150117
-5.320786	メーン	-0.293753
-4.090337	モニター	-0.530592
-3.889422	モーター	-1.126002
-4.843665	ユーザ	-0.374643
-4.621816	ヨガ	-0.468802
-5.320786	ラ	-0.288774
-4.843665	ライト	-0.269991
-4.843665	ラウル	-0.212126
-3.401708	ラジオ	-0.975978
-5.019756	ランプ	-0.285475
-4.843665	ラーマ	-0.377310
-4.174658	ラーメン	-0.295598
-5.320786	リアル	-0.300852
-5.320786	リグー	-0.292703
-4.475688	リスト	-0.336335
-3.463453	リセット	-1.101290
-5.320786	リリー	-0.230484
-5.320786	リンツ	-0.230484
-4.241605	リーグ	-0.392656
-5.320786	ルピー	-0.230484
-5.320786	ルンバ	-0.230484
-4.621816	ルート	-0.335798
-5.019756	レ	-0.477111
-4.718726	レイプ	-0.467854
-4.621816	レオン	-0.533980
-3.039752	レストラン	-1.272805
-5.320786	レテ	-0.292891
-5.320786	レバー	-0.278580
-3.136094	レポート	-1.673239
-4.718726	ロ	-0.284446
-3.501242	ログアウト	-1.814478
-3.494711	ログイン	-1.525901
-4.042032	ロケ	-0.574130
-4.065513	ロシア	-0.449034
-5.019756	ロゾー	-0.289146
-3.535456	ロビー	-1.012942
-3.658028	ロボット	-0.494294
-4.475688	ロード	-0.250176
-5.320786	ローブ	-0.278580
-4.417696	ワイン	-0.254812
-4.621816	ワープ	-0.272576
-5.019756	ン	-0.292821
-2.951570	一	-0.754535
-3.428691	一つ	-0.575361
-4.279393	一切	-0.333243
-4.718726	一員	-0.274383
-5.019756	一夜	-0.466151
-4.417696	一度	-0.329986
-5.320786	一心	-0.230484
-4.116666	一方	-0.536134
-3.789307	一番	-0.288394
-3.889422	一緒	-0.785761
-3.352303	一般	-0.877735
-3.451554	上	-0.550853
-3.193681	上司	-1.244731
-5.320786	上尾	-0.299571
-3.718726	上手	-0.863405
-5.019756	上部	-0.281710
-3.604782	下	-0.539923
-4.843665	下宿	-0.395960
-4.542635	下戸	-0.836771
-4.718726	下着	-0.357057
-5.320786	下級	-0.301007
-5.320786	下限	-0.290300
-4.144695	不	-0.675958
-5.019756	不仲	-0.220893
-5.019756	不便	-0.230161
-5.019756	不動	-0.468982
-4.843665	不在	-0.220504
-5.320786	不埒	-0.300037
-4.475688	不安	-0.275316
-4.241605	不思議	-0.836811
-5.019756	不足	-0.299221
-5.019756	与	-0.292857
-4.019756	与え	-0.689961
-5.019756	与一	-0.217833
-5.320786	世俗	-0.300636
-3.343062	世界	-0.499317
-5.320786	世襲	-0.299240
-5.320786	世評	-0.292891
-4.366543	世間	-0.481255
-5.019756	丙	-0.477101
-5.019756	並び	-0.300837
-5.320786	並ん	-0.292703
-5.320786	並存	-0.289433
-3.144695	中	-0.737822
-3.381267	中央	-0.760108
-3.630590	中心	-0.608208
-5.320786	中米	-0.292703
-5.320786	丸み	-0.288774
-4.320786	主人	-0.293856
-4.320786	主体	-0.369252
-5.320786	主観	-0.300636
-5.019756	久しぶり	-0.281710
-4.718726	乗り	-0.628424
-5.019756	乗り換え	-0.476685
-2.914246	乗る	-1.738140
-5.019756	乗務	-0.289374
-4.718726	乙種	-0.476623
-4.241605	九	-0.432673
-4.475688	予定	-0.332038
-3.371396	予算	-1.626986
-4.019756	予約	-0.499531
-4.718726	事務	-0.363457
-4.019756	事実	-0.383327
-3.184065	二	-0.835084
-3.940575	二つ	-0.656736
-4.065513	五	-0.365577
-5.320786	五蘊	-0.300600
-5.320786	井丸	-0.288774
-4.042032	亜	-0.755559
-4.241605	交換	-0.315150
-2.585986	京都	-1.321902
-2.715481	人	-0.823535
-4.144695	人々	-0.411955
-5.320786	人民	-0.292891
-3.621816	人気	-0.545941
-3.320786	人間	-0.511055
-3.542635	今	-0.647580
-5.019756	今年	-0.473113
-4.621816	今度	-0.410685
-3.044324	今日	-0.724920
-3.234426	仕事	-0.725044
-4.241605	仕方	-0.449906
-3.406972	他	-0.841252
-4.718726	代目	-0.278097
-3.873628	以上	-0.500557
-5.320786	任務	-0.278580
-3.312186	企画	-0.883902
-5.320786	伊	-0.301028
-4.621816	休み	-0.268800
-5.320786	休む	-0.230484
-3.843665	休憩	-0.730554
-2.870537	会社	-1.055230
-4.417696	会議	-0.375185
-3.873628	似	-0.888165
-4.621816	位	-0.261917
-3.959058	低い	-0.665852
-4.019756	住む	-0.352501
-4.843665	佐	-0.531514
-3.386287	体	-0.714873
-4.417696	体操	-0.196740
-5.320786	体温	-0.288774
-3.180907	体育館	-1.195754
-3.275463	何	-0.699747
-4.320786	作っ	-0.771728
-2.922846	作る	-1.546502
-3.184065	作成	-1.064677
-2.858388	使う	-1.295238
-3.295480	使わ	-1.435575
-3.039752	使用	-0.957916
-5.019756	便利	-0.229315
-5.019756	保	-0.296686
-5.320786	保っ	-0.297752
-3.922846	保存	-0.512070
-3.789307	信号	-0.856044
-3.200212	修正	-1.316249
-3.922846	個人	-0.496836
-5.320786	倒せ	-0.298829
-4.843665	倭	-0.281940
-4.174658	健康	-0.303297
-4.843665	偽	-0.292377
-5.320786	偽悪	-0.300706
-3.386287	傘	-1.041455
-4.417696	働く	-0.404181
-3.648688	僕	-0.468475
-4.843665	僕ら	-0.278770
-5.320786	儀	-0.278580
-2.731954	元気	-1.507877
-2.724189	兄	-1.343859
-5.019756	兄貴	-0.476727
-4.621816	充電	-0.325645
-2.990372	先生	-1.180446
-3.017590	先輩	-1.414328
-3.998567	光る	-0.829850
-5.019756	兎	-0.220893
-3.687317	児	-1.164990
-5.019756	入	-0.230471
-3.922846	入っ	-1.123910
-3.873628	入る	-0.488019
-4.241605	入れる	-0.341847
-4.621816	入学	-0.353264
-4.475688	入部	-0.352826
-4.241605	入院	-0.434744
-3.889422	全く	-0.353565
-3.417696	全て	-0.389070
-4.174658	全体	-0.486395
-4.475688	全然	-0.335267
-4.718726	全部	-0.292142
-4.475688	八	-0.378515
-3.127661	公園	-0.852690
-5.320786	六つ	-0.300644
-3.648688	兵庫	-1.387238
-4.843665	兵隊	-0.374396
-4.621816	具	-0.332604
-4.065513	具体	-1.278359
-3.494711	内容	-0.636720
-4.417696	円	-0.209546
-5.019756	円錐	-0.476982
-3.116666	写真	-0.882752
-5.320786	冬休み	-0.230484
-5.320786	凡そ	-0.300993
-4.843665	処	-0.386695
-3.580423	出	-0.886952
-4.542635	出し	-0.470595
-4.279393	出す	-0.740358
-3.959058	出る	-0.539923
-5.320786	出世	-0.290060
-3.905812	出勤	-0.960522
-3.940575	出席	-1.386343
-3.858388	出張	-0.732516
-3.940575	出来る	-0.571779
-4.417696	出番	-0.532383
-4.621816	出発	-0.345665
-5.320786	出羽	-0.300928
-5.320786	出荷	-0.292703
-4.843665	出資	-0.203545
-4.320786	刀	-0.185417
-4.621816	刃	-0.207491
-3.978363	分布	-0.645548
-3.238000	分析	-1.478951
-4.843665	切	-0.299148
-2.949718	切る	-2.001163
-5.320786	刈	-0.288774
-4.206842	列車	-0.363102
-3.843665	初めて	-0.426739
-5.320786	初演	-0.293753
-5.320786	判子	-0.300997
-4.279393	判断	-0.285139
-5.320786	利他	-0.292891
-3.469527	利用	-0.566011
-4.621816	利益	-0.312457
-5.320786	刺	-0.288774
-4.843665	削除	-0.385206
-5.019756	前歯	-0.464866
-4.417696	割	-0.426264
-4.542635	創造	-0.270397
-5.320786	劔	-0.300704
-3.475688	力	-0.663217
-4.843665	加	-0.300995
-4.417696	加え	-0.471277
-4.475688	助	-0.358772
-5.019756	助手	-0.221910
-5.019756	助言	-0.266359
-4.279393	労働	-0.502916
-4.718726	勇	-0.367524
-3.165450	勉強	-0.972564
-3.905812	動く	-0.652958
-3.764483	動物	-0.531479
-4.320786	動画	-0.252773
-4.241605	勝つ	-0.349853
-5.320786	募兵	-0.290060
-5.019756	勢	-0.477111
-3.283359	化	-0.723719
-3.171567	化学	-1.133417
-4.417696	北京	-0.337573
-3.127661	北海道	-0.913099
-3.028530	区	-1.144502
-4.116666	医	-0.533239
-4.241605	医者	-0.298086
-3.959058	十	-0.487071
-3.507872	千葉	-1.071215
-3.019756	午前	-0.792715
-3.028530	午後	-0.753392
-4.090337	半	-0.380707
-3.445725	卒業	-0.705873
-3.159418	卒論	-2.141903
-4.174658	協力	-0.249939
-4.042032	南	-0.481147
-5.019756	単なる	-0.300604
-3.111271	単位	-1.507401
-3.998567	博物館	-0.490907
-5.320786	卦	-0.288774
-4.174658	印	-0.334743
-4.320786	印刷	-0.454054
-4.621816	即ち	-0.291653
-4.542635	卵	-0.240849
-4.065513	原因	-0.328572
-5.320786	厨	-0.301020
-5.320786	厩	-0.301024
-5.320786	去	-0.293753
-3.361744	参加	-0.781925
-3.829424	友人	-0.347231
-2.942388	友達	-1.137358
-5.320786	反し	-0.297909
-4.090337	反対	-0.465617
-3.677333	取り	-1.067482
-4.718726	取る	-0.219749
-4.241605	受ける	-0.457947
-4.174658	受験	-0.548506
-5.320786	叙	-0.230484
-5.019756	叙任	-0.475331
-3.528394	口	-0.493486
-5.320786	口伝	-0.300841
-4.475688	古	-0.371480
-3.196934	古い	-0.807890
-4.843665	句	-0.277297
-4.206842	可	-0.656289
-4.042032	台	-0.284065
-3.187247	台所	-1.249345
-4.621816	台風	-0.393828
-3.905812	史	-0.450515
-4.042032	右	-0.379683
-4.718726	右腕	-0.284018
-5.019756	合っ	-0.297704
-3.998567	合格	-0.402015
-4.718726	合理	-0.476646
-3.263881	同じ	-0.551456
-4.320786	同一	-0.386835
-3.216982	同僚	-1.222454
-4.116666	同時に	-0.341867
-3.184065	名	-0.707076
-5.320786	名乗っ	-0.297909
-3.366543	名刺	-1.936591
-3.287362	名前	-0.757534
-4.621816	名簿	-0.767181
-5.320786	向かっ	-0.297752
-4.065513	向け	-0.309804
-5.019756	向こう	-0.288537
-3.998567	君	-0.671884
-4.144695	否定	-0.298920
-3.858388	含ま	-1.024301
-5.320786	周布	-0.290300
-4.542635	呪文	-0.298034
-5.019756	味噌汁	-0.468982
-3.687317	呼ぶ	-1.279628
-4.366543	命	-0.455519
-4.279393	命令	-0.375946
-3.776718	和歌山	-1.263793
-4.366543	和製	-0.999533
-4.718726	咲い	-0.470698
-3.210196	咲く	-2.043397
-4.366543	品	-0.351899
-3.873628	員	-0.717123
-4.206842	哲学	-0.548407
-3.291402	商品	-0.860273
-5.019756	問屋	-0.230418
-3.417696	問題	-0.591319
-5.019756	喋っ	-0.477074
-5.019756	喜	-0.220893
-5.320786	喜屋武	-0.292891
-5.320786	喪	-0.292891
-5.320786	嘲	-0.300893
-4.366543	噂	-0.335176
-3.889422	回路	-1.126002
-5.320786	因	-0.300949
-3.889422	図	-0.552653
-2.968603	図書館	-1.123045
-5.320786	図面	-0.230484
-3.630590	国	-0.479629
-4.090337	国家	-0.316667
-4.042032	国際	-0.410011
-4.621816	園	-0.253843
-5.320786	圓	-0.300897
-5.019756	圧勝	-0.228377
-5.320786	圧死	-0.292703
-3.521445	地	-0.563737
-3.998567	地図	-0.384479
-3.687317	地域	-0.279739
-3.905812	地球	-0.443372
-5.019756	地面	-0.286480
-3.978363	城	-0.323764
-4.116666	基	-0.408934
-3.858388	基板	-0.880523
-3.580423	埼玉	-1.441912
-2.942388	報告	-1.496488
-3.613216	場合	-0.665125
-3.815636	場所	-0.369556
-4.843665	塔頭	-0.280241
-5.320786	塗	-0.300995
-5.320786	塩	-0.301015
-5.019756	塩田	-0.300831
-4.843665	墓地	-0.273503
-4.542635	増え	-0.394076
-4.241605	墨田	-1.113536
-5.320786	墳墓	-0.292891
-4.843665	壁画	-0.279950
-4.843665	壊れ	-0.392602
-5.320786	士	-0.293753
-4.279393	士族	-0.578836
-5.320786	壮大	-0.300037
-5.320786	声問	-0.300594
-5.320786	声聞	-0.230484
-5.320786	売上	-0.278580
-5.320786	売春	-0.292891
-4.843665	壷	-0.378620
-4.090337	変える	-0.638783
-3.959058	変わら	-0.935288
-3.729721	変化	-0.551876
-3.940575	変形	-0.401277
-3.111271	変更	-0.992408
-4.621816	変種	-0.312457
-5.320786	変遷	-0.292703
-4.621816	夏休み	-0.324914
-3.122129	夕方	-0.660469
-4.718726	外さ	-0.473835
-5.019756	外し	-0.297576
-5.019756	外れ	-0.286697
-4.116666	外国	-0.605407
-5.019756	外様	-0.406575
-4.417696	多	-0.329247
-3.147600	多い	-1.111055
-3.858388	多数	-0.491103
-2.986332	夜	-0.661268
-5.019756	夜中	-0.281710
-5.320786	夜半	-0.301009
-3.514606	夢	-0.636699
-3.501242	大	-0.373729
-3.058335	大きい	-0.875956
-4.116666	大きく	-0.361268
-3.889422	大きな	-0.343319
-4.417696	大丈夫	-0.331822
-4.174658	大事	-0.380412
-3.729721	大分	-1.308375
-4.090337	大切	-0.739224
-4.475688	大地	-0.281061
-5.320786	大場	-0.300932
-4.206842	大変	-0.373839
-3.216982	大好き	-1.185192
-2.774243	大学	-0.988303
-4.621816	大府	-0.542172
-5.320786	大枝	-0.300932
-5.320786	大道	-0.278580
-2.635940	大阪	-1.284745
-5.019756	大雨	-0.469844
-4.475688	天気	-0.290790
-4.843665	天狗	-0.210859
-5.019756	太宰	-0.290019
-4.320786	太郎	-0.285165
-3.227364	太陽	-1.063454
-3.697537	失敗	-0.729243
-4.621816	失礼	-0.342534
-5.320786	夷	-0.230484
-5.019756	奇	-0.230474
-3.371396	契約	-1.153676
-5.019756	奥州	-0.292881
-3.514606	女	-0.451143
-3.829424	女の子	-0.445947
-3.200212	女性	-0.594318
-5.019756	奴隷	-0.292661
-5.320786	如く	-0.300852
-5.320786	妃	-0.290300
-2.701692	妹	-1.450370
-5.320786	妾	-0.290060
-2.734199	姉	-1.317467
-4.144695	始まり	-0.512065
-3.200212	始まる	-2.053305
-4.320786	始め	-0.324959
-4.144695	姫	-0.441308
-3.469527	姿	-0.744763
-5.320786	威	-0.300972
-3.366543	娘	-0.747485
-4.542635	媒介	-0.458593
-5.019756	嫁	-0.281710
-4.621816	嫁い	-0.535206
-4.206842	嫌っ	-1.142850
-5.320786	嫌気	-0.300949
-3.481937	子	-0.568303
-2.788031	子供	-1.190954
-5.019756	子分	-0.281287
-3.196934	存在	-0.832195
-4.718726	季	-0.296384
-4.417696	学ぶ	-0.883696
-3.011156	学校	-0.866422
-2.966677	学生	-1.109288
-3.922846	宇宙	-0.386887
-4.542635	守る	-0.268684
-4.621816	安	-0.230249
-3.256328	安い	-0.988340
-4.843665	安心	-0.395760
-3.213576	完了	-1.392654
-4.090337	完全	-0.447366
-5.019756	宗家	-0.469844
-3.905812	宗教	-0.412911
-4.116666	実在	-0.589842
-3.190452	実行	-1.267729
-5.320786	実車	-0.300600
-3.815636	実際	-1.036403
-3.248904	実験	-0.964786
-5.320786	客観	-0.300636
-4.320786	宮	-0.453954
-2.868999	家	-0.948967
-2.921112	家族	-0.990906
-4.116666	家紋	-0.590659
-5.320786	家賃	-0.290300
-3.124886	宿題	-1.866610
-5.320786	密	-0.292891
-3.245239	寒い	-0.932274
-4.144695	寝	-0.774660
-3.206842	寝る	-1.358512
-4.475688	寝相	-0.633470
-4.718726	寝起き	-0.686714
-3.116666	対応	-1.330136
-4.417696	対立	-0.256229
-4.042032	対象	-0.291271
-4.843665	封ぜ	-0.601879
-5.019756	射	-0.226809
-3.789307	将来	-1.048520
-3.998567	小	-0.429773
-5.320786	小さ	-0.299923
-3.065513	小さい	-0.839901
-4.042032	小さな	-0.336908
-4.718726	小林	-0.270018
-3.256328	少し	-0.406858
-3.677333	少年	-0.627478
-5.320786	尹	-0.292891
-4.090337	尾	-0.696887
-5.320786	尾鰭	-0.290300
-4.843665	居	-0.599859
-5.320786	居酒屋	-0.230484
-5.320786	屈葬	-0.292891
-5.320786	届い	-0.297909
-4.843665	届く	-0.298558
-4.019756	屋	-0.532390
-3.156433	屋上	-1.278700
-4.279393	展望	-0.490701
-5.320786	履く	-0.300858
-3.171567	山	-0.762756
-4.843665	山中	-0.378620
-5.019756	山瀬	-0.292074
-4.718726	山門	-0.261936
-5.019756	山鹿	-0.299473
-5.320786	岐宿	-0.300932
-3.514606	岐阜	-1.059687
-3.488277	岡山	-1.149419
-5.320786	岩内	-0.300932
-5.019756	岩崎	-0.292887
-5.019756	岸田	-0.468982
-5.320786	島民	-0.288774
-5.320786	崎戸	-0.300932
-5.320786	崩し	-0.290300
-5.320786	崩御	-0.230484
-5.019756	嵐	-0.292612
-3.245239	川	-0.926426
-4.621816	州都	-0.524801
-4.843665	巣	-0.269568
-2.972481	工場	-1.056289
-4.206842	左	-0.328012
-4.320786	差	-0.507864
-5.320786	己	-0.299950
-2.474449	市	-1.168544
-5.320786	布団	-0.278580
-4.475688	師	-0.258717
-4.206842	帰っ	-0.868638
-2.547731	帰る	-1.995069
-4.718726	帰省	-0.227844
-4.417696	常識	-0.382908
-3.275463	帽子	-0.956212
-5.320786	干	-0.300949
-4.065513	幸せ	-0.301704
-5.320786	幼	-0.301009
-5.320786	幽	-0.292891
-3.213576	広い	-0.832374
-3.401708	広島	-1.061853
-4.843665	序	-0.314743
-3.077748	店	-1.020104
-5.320786	庚	-0.292891
-2.654268	府	-1.485247
-4.065513	座	-0.929375
-5.320786	座っ	-0.300982
-3.234426	座る	-2.019359
-3.105942	庭	-1.262168
-5.320786	庵	-0.292891
-4.116666	廃	-0.563405
-4.116666	建物	-0.304315
-3.320786	弁当	-1.061225
-5.320786	弁証法	-0.292703
-4.206842	引き分け	-0.337683
-4.843665	引っ越し	-0.598782
-2.693420	弟	-1.410751
-3.488277	強い	-0.550761
-4.116666	強く	-0.410420
-5.019756	弾い	-0.473843
-2.928089	弾く	-1.619347
-3.494711	形	-0.635985
-3.815636	影響	-0.505455
-5.320786	役所	-0.293753
-2.870537	彼	-1.174424
-3.802272	彼ら	-0.586929
-2.949718	彼女	-1.307096
-4.174658	待っ	-0.899764
-4.621816	待つ	-0.355288
-2.992406	後輩	-1.439047
-5.320786	徐	-0.300949
-5.320786	徐行	-0.300918
-5.320786	従事	-0.230484
-5.320786	従者	-0.293753
-4.116666	得	-0.348980
-4.241605	御	-0.326759
-5.320786	御座	-0.292891
-5.019756	徳	-0.281955
-3.802272	徳島	-1.239659
-3.789307	心	-0.462436
-4.019756	心配	-0.484585
-4.320786	必ず	-0.296573
-3.401708	必要	-0.713531
-4.090337	忘れ	-0.637627
-3.329560	忘れ物	-1.254178
-4.621816	忙しい	-0.288035
-4.417696	忠	-0.250060
-3.776718	思い	-0.619488
-3.741002	思う	-0.729477
-3.630590	思っ	-1.232410
-4.206842	思わ	-0.552248
-5.320786	怠	-0.301020
-4.621816	急	-0.339867
-5.320786	急い	-0.292703
-3.729721	性	-0.457865
-4.279393	性質	-0.367813
-4.241605	怪我	-0.565459
-3.998567	恋愛	-0.409280
-5.320786	恋慕	-0.299240
-5.320786	恩	-0.278580
-5.320786	悠	-0.300760
-3.528394	悪い	-0.601583
-5.320786	悪寒	-0.288774
-4.718726	悪運	-0.392121
-4.417696	悪魔	-0.329580
-5.320786	悲痛	-0.300037
-3.141809	情報	-0.815559
-4.320786	想像	-0.530425
-4.542635	意	-0.774552
-4.174658	意識	-0.376631
-5.320786	愚	-0.300891
-5.320786	愚者	-0.230484
-3.764483	愛	-0.504073
-5.320786	愛宕	-0.300704
-3.729721	愛知	-1.309739
-4.718726	感じる	-0.227709
-4.843665	憎悪	-0.317803
-4.843665	懸念	-0.314743
-3.776718	成功	-0.521212
-3.998567	成立	-0.696062
-3.070366	成績	-1.292544
-3.998567	成長	-0.306890
-4.621816	我	-0.341061
-4.116666	我々	-0.575108
-3.764483	戦争	-0.380930
-4.843665	戸	-0.193749
-4.621816	戻っ	-0.537645
-4.042032	所	-0.291896
-4.542635	扉	-0.350928
-3.687317	手	-0.574133
-5.320786	手相	-0.297022
-3.381267	手紙	-1.058269
-5.320786	手続き	-0.300636
-4.542635	手芸	-0.303849
-4.320786	手術	-0.192858
-4.843665	手順	-0.281422
-5.019756	打つ	-0.299294
-4.542635	批准	-0.600255
-4.144695	批判	-0.404124
-3.206842	承認	-1.394510
-3.905812	技	-0.450903
-3.905812	技術	-0.259231
-5.320786	把	-0.300852
-5.019756	投網	-0.292557
-5.320786	折	-0.300756
-5.019756	抱く	-0.228475
-2.986332	担当	-1.207403
-5.019756	招い	-0.474000
-5.320786	持	-0.293753
-2.836486	持つ	-1.215007
-4.718726	指示	-0.354490
-4.475688	挨拶	-0.230353
-4.843665	捕虜	-0.379505
-4.116666	掃除	-0.381219
-4.621816	授与	-0.534612
-3.978363	授業	-0.462967
-4.417696	探偵	-0.312226
-5.320786	接種	-0.300939
-5.320786	控	-0.301024
-2.881453	描く	-1.664833
-3.248904	提出	-1.393848
-3.401708	提案	-1.236748
-5.320786	握っ	-0.297752
-5.320786	援助	-0.300928
-5.320786	援軍	-0.230484
-4.174658	携帯	-0.678439
-5.019756	撮	-0.230093
-3.815636	撮り	-1.507543
-2.962851	撮る	-1.804300
-5.320786	操	-0.300885
-5.019756	改易	-0.476014
-4.241605	改札	-0.676351
-4.279393	改造	-0.313370
-3.752584	政治	-0.478181
-5.019756	故	-0.300559
-4.843665	故に	-0.292678
-4.843665	救わ	-0.396421
-5.320786	救援	-0.300959
-4.843665	敗訴	-0.325287
-4.144695	教え	-0.595278
-2.972481	教室	-1.049604
-3.959058	教師	-0.359758
-2.978363	教授	-1.316907
-3.108598	教科書	-1.716297
-3.802272	教育	-0.317921
-4.843665	教諭	-0.327071
-3.815636	散歩	-0.960748
-5.320786	散逸	-0.299240
-5.320786	敦煌	-0.292891
-3.156433	数学	-1.165383
-4.718726	整数	-0.249965
-5.019756	敷設	-0.299856
-5.320786	文乃	-0.292891
-4.090337	文化	-0.319348
-4.542635	文句	-0.361980
-5.320786	文案	-0.292703
-4.718726	文献	-0.266254
-4.542635	文章	-0.224387
-5.320786	文言	-0.292891
-4.718726	斑	-0.347149
-4.542635	斗	-0.261457
-2.984326	料理	-0.954232
-5.019756	斡旋	-0.296929
-5.320786	斬	-0.292891
-5.320786	断層	-0.293753
-4.843665	断片	-0.397319
-3.216982	新しい	-0.689279
-4.843665	新幹線	-0.281838
-3.542635	新潟	-1.200262
-3.303752	新聞	-0.876673
-4.116666	方向	-0.296509
-3.708002	方法	-0.493443
-3.729721	旅行	-0.522872
-4.542635	旗	-0.343264
-5.320786	既	-0.301013
-4.366543	既に	-0.298639
-3.371396	日	-0.511634
-4.320786	日常	-0.434043
-2.904145	日本	-0.740619
-3.481937	日本人	-0.516467
-3.549934	日本語	-0.535185
-5.019756	日田	-0.475662
-4.542635	早く	-0.288420
-5.320786	昇	-0.292891
-3.658028	明らか	-1.068934
-2.992406	明日	-0.742259
-4.366543	昔	-0.721288
-3.147600	星	-0.937544
-3.058335	映画	-0.748717
-3.013290	昨日	-0.804066
-5.019756	是	-0.476735
-5.320786	是認	-0.299923
-2.897540	昼	-0.846288
-3.494711	時	-0.459138
-3.658028	時代	-0.378588
-3.371396	時計	-1.023456
-3.718726	時間	-0.445683
-3.463453	晩	-1.165950
-3.648688	普通	-0.555843
-4.843665	晴れ	-0.387329
-4.843665	暇	-0.392929
-3.220415	暑い	-0.888494
-5.320786	暖かく	-0.300465
-5.320786	暴れ	-0.289433
-4.843665	曖昧	-0.396866
-5.019756	曜日	-0.289482
-4.320786	更新	-0.517709
-4.417696	書	-0.222454
-3.959058	書い	-0.931380
-2.907486	書く	-1.640233
-3.386287	書類	-1.316375
-3.630590	最も	-0.478739
-3.667573	最初	-0.607940
-4.065513	最大	-0.577417
-3.580423	最後	-0.671401
-4.366543	最高	-0.348942
-3.165450	月	-0.813731
-5.019756	月曜日	-0.473632
-4.475688	有	-0.309550
-4.475688	有する	-0.582285
-3.356998	有名	-1.054207
-3.291402	服	-0.941320
-2.850964	朝	-0.751540
-4.843665	期	-0.280261
-3.206842	木	-0.925659
-3.829424	未来	-0.453360
-5.320786	末社	-0.293753
-3.241605	本	-0.739389
-4.843665	本屋	-0.194831
-3.998567	本当に	-0.346904
-5.019756	本能	-0.288715
-5.019756	李	-0.301018
-5.019756	杏	-0.468982
-3.776718	材料	-0.615318
-3.959058	村	-0.609908
-4.621816	村長	-0.337065
-3.708002	来	-0.727790
-2.520069	来る	-1.826925
-4.065513	東	-0.307982
-2.430365	東京	-1.397770
-5.019756	東雲	-0.292671
-5.320786	杵	-0.301015
-5.320786	板場	-0.290060
-4.366543	林	-0.293898
-5.320786	枝葉	-0.292891
-4.090337	柄	-0.260874
-4.417696	柏	-0.554627
-5.019756	柳	-0.293711
-4.843665	栄	-0.230325
-5.320786	校庭	-0.300600
-4.320786	根	-0.316301
-4.621816	桂	-0.217376
-5.019756	案	-0.203950
-4.542635	桜	-0.279645
-3.187247	森	-0.819226
-5.320786	植	-0.292703
-4.542635	検査	-0.366355
-5.320786	検疫	-0.230484
-3.227364	検討	-1.457690
-4.320786	検閲	-0.449036
-4.718726	楓	-0.690831
-5.320786	楔	-0.301028
-4.144695	業務	-0.342299
-4.241605	楽しい	-0.390749
-4.366543	楽しみ	-0.339542
-5.320786	楽屋	-0.292703
-5.019756	概ね	-0.476714
-4.065513	概念	-0.265820
-4.843665	榊	-0.193749
-5.320786	榎並	-0.288774
-5.320786	榎木	-0.300982
-4.144695	構造	-0.299292
-4.065513	様子	-0.525168
-5.019756	様式	-0.220671
-4.718726	標	-0.398001
-5.320786	標茶	-0.300932
-4.019756	模様	-0.487690
-3.256328	横浜	-1.155892
-4.042032	樹	-0.470532
-3.815636	機	-0.476364
-3.639545	機械	-0.566800
-4.843665	櫓	-0.379749
-3.922846	欠席	-1.116898
-3.028530	次	-1.127126
-5.320786	欧	-0.300746
-4.621816	欧米	-0.259781
-3.206842	止まる	-1.565562
-4.279393	正しい	-0.293200
-4.621816	歩い	-0.774873
-4.320786	歩き	-0.364511
-2.546999	歩く	-2.005583
-4.417696	歯	-0.541008
-5.320786	歯医者	-0.292891
-3.687317	歴史	-0.369839
-3.998567	死	-0.297748
-3.802272	残っ	-1.236615
-3.905812	残業	-0.896185
-5.320786	殷	-0.300997
-5.320786	殺	-0.230484
-3.514606	母親	-0.564436
-3.035229	毎日	-0.677192
-2.994450	毎晩	-0.778963
-3.002722	毎朝	-0.782161
-3.206842	比較	-1.268428
-4.090337	毛	-0.429679
-3.371396	気	-1.068548
-5.019756	気づい	-0.473843
-3.858388	気持ち	-0.661523
-4.843665	気温	-0.220868
-3.338515	水	-0.596822
-4.718726	水族館	-0.211045
-3.998567	水泳	-0.688368
-4.542635	永	-0.220753
-4.417696	求め	-0.470348
-4.718726	江	-0.220878
-5.320786	江別	-0.299571
-2.899182	決める	-1.876725
-3.162423	決定	-1.284807
-3.858388	沖縄	-0.639147
-4.621816	河童	-0.394080
-5.320786	油断	-0.300914
-5.019756	治し	-0.474000
-5.320786	治る	-0.230484
-5.320786	治郎	-0.292891
-4.279393	泉	-0.314193
-4.542635	法律	-0.268746
-4.621816	泣い	-0.537645
-3.223876	泣く	-1.435278
-5.320786	注射	-0.300827
-3.905812	注意	-0.485797
-4.621816	注文	-0.414010
-3.729721	泳ぎ	-1.591090
-3.210196	泳ぐ	-1.439473
-2.907486	洗う	-2.044383
-4.843665	洗濯	-0.288403
-5.019756	津	-0.300926
-4.019756	派	-0.416714
-4.019756	流れ	-0.467364
-4.843665	浮い	-0.391517
-3.147600	海	-0.845391
-5.320786	海辺	-0.292891
-5.320786	海野	-0.292891
-4.718726	涙	-0.323570
-5.320786	添える	-0.230484
-5.320786	添田	-0.300932
-5.019756	渋滞	-0.287595
-5.320786	渡	-0.292891
-4.843665	渡る	-0.396087
-3.776718	温泉	-0.387894
-3.213576	測る	-1.741971
-3.263881	測定	-1.577557
-5.320786	湊	-0.300932
-4.475688	湖	-0.277085
-4.279393	湯	-0.288285
-4.366543	満足	-0.587601
-3.124886	準備	-1.221808
-5.320786	溢れ	-0.297752
-5.320786	漏	-0.292891
-5.019756	潮	-0.229763
-5.019756	濃	-0.292800
-5.019756	瀬	-0.290057
-4.320786	火	-0.273509
-4.206842	炉	-0.643799
-5.320786	炊く	-0.230484
-4.320786	炎	-0.293737
-5.320786	焔	-0.292891
-4.116666	無	-0.372887
-5.019756	無限	-0.290015
-5.320786	無題	-0.230484
-2.953430	焼く	-2.298669
-5.019756	焼津	-0.299473
-5.320786	煎	-0.300592
-5.320786	照	-0.292891
-4.843665	煮	-0.383607
-3.708002	熊本	-0.948854
-4.542635	熱	-0.366496
-4.417696	燕	-0.404959
-3.227364	父	-0.779191
-5.320786	片付ける	-0.230484
-4.417696	物事	-0.520069
-3.245239	物理	-1.362485
-4.718726	物質	-0.220146
-3.580423	特に	-0.334458
-4.475688	特殊	-0.652190
-3.187247	犬	-0.895267
-3.764483	状態	-0.513330
-4.366543	状況	-0.309821
-4.279393	狐	-0.252497
-5.320786	狙い	-0.290300
-3.667573	独立	-0.386031
-4.417696	狭い	-0.406338
-4.320786	狼	-0.307544
-3.200212	猫	-0.878525
-3.200212	玄関	-1.119800
-3.729721	王	-0.343986
-5.320786	班渓	-0.300594
-4.320786	現	-0.323510
-2.826631	現在	-0.955081
-4.320786	現実	-0.448255
-4.366543	現象	-0.183509
-3.494711	理由	-0.525736
-4.116666	理論	-0.255531
-5.019756	琢	-0.216030
-5.320786	瑞雲	-0.230484
-4.475688	環境	-0.205209
-2.122954	生まれ	-2.119809
-4.174658	生命	-0.490610
-3.764483	生活	-0.394038
-4.065513	生物	-0.237551
-5.019756	生野	-0.476714
-4.718726	産ん	-0.468259
-4.475688	甥	-0.344383
-4.843665	田	-0.281667
-4.475688	田舎	-0.360225
-5.019756	由乃	-0.292874
-4.843665	甲	-0.284312
-3.227364	申請	-1.590887
-3.338515	男	-0.596644
-3.648688	町	-0.568717
-4.718726	画	-0.189949
-4.542635	画面	-0.205176
-4.241605	留学	-0.577338
-5.019756	留守	-0.281517
-4.843665	留萌	-0.396383
-4.366543	疎い	-0.929454
-4.417696	疲れ	-0.406075
-4.090337	病気	-0.330380
-3.162423	病院	-1.072623
-5.019756	痔	-0.281710
-4.843665	痛い	-0.215788
-4.320786	発展	-0.509799
-3.193681	発表	-1.136784
-4.320786	登る	-0.403918
-3.159418	登録	-1.100847
-3.042032	的	-0.641174
-5.320786	皇女	-0.230484
-5.320786	盗	-0.301026
-3.677333	監督	-0.402754
-3.514606	目	-0.510184
-5.320786	目上	-0.292891
-3.352303	目標	-0.889397
-4.042032	目的	-0.436184
-5.320786	盲唖	-0.300607
-3.187247	直す	-2.066174
-5.019756	直観	-0.278127
-4.417696	相	-0.309439
-3.764483	相手	-0.493136
-3.193681	相談	-1.168316
-5.019756	省い	-0.294607
-2.356998	県	-1.067418
-4.621816	眺め	-0.459068
-4.366543	眼	-0.468849
-5.019756	眼科	-0.300808
-3.267707	眼鏡	-0.863092
-3.905812	着	-0.709266
-5.019756	着く	-0.292017
-2.976394	着る	-1.974720
-4.843665	睦月	-0.389363
-5.019756	瞬	-0.468982
-4.320786	瞬間	-0.553215
-5.320786	瞼	-0.288774
-4.090337	矛盾	-0.466444
-4.621816	矢	-0.417640
-5.019756	矢代	-0.292847
-5.320786	矢尻	-0.300891
-5.320786	矢沢	-0.300916
-5.320786	矢筈	-0.230484
-5.320786	知	-0.300845
-3.279393	知ら	-1.450801
-4.843665	知人	-0.317803
-4.320786	知識	-0.261034
-5.320786	矩形	-0.288774
-5.320786	石庵	-0.292891
-4.475688	砂漠	-0.308249
-3.042032	研究	-0.852857
-4.843665	硝子	-0.593921
-4.843665	碁	-0.531514
-4.718726	確か	-0.218842
-3.184065	確かめる	-2.069333
-5.320786	確保	-0.301009
-3.174658	確認	-1.163530
-5.019756	磨	-0.292735
-5.019756	磯子	-0.300526
-5.320786	磯部	-0.292891
-5.320786	礎石	-0.288774
-5.320786	礼装	-0.300762
-4.065513	社	-0.448164
-5.320786	社内	-0.300986
-3.177771	社長	-0.948345
-4.366543	祖	-0.522938
-5.019756	祝う	-0.300768
-5.320786	神代	-0.278580
-5.019756	神器	-0.230257
-3.133265	神奈川	-1.889773
-5.019756	神木	-0.406575
-5.320786	神水	-0.293753
-3.124886	神社	-1.011721
-4.843665	祠	-0.377310
-5.320786	祭神	-0.290300
-4.174658	禁止	-0.411367
-5.019756	禍	-0.288764
-3.299597	福岡	-1.408255
-3.789307	福島	-0.715138
-5.320786	福生	-0.299571
-4.718726	福音	-0.356825
-5.320786	秀平	-0.292891
-5.320786	秀才	-0.300762
-3.216982	私	-0.881668
-5.320786	私的	-0.290060
-5.320786	秋分	-0.300891
-3.858388	科	-0.485972
-3.588392	科学	-0.527896
-5.320786	科挙	-0.292891
-5.320786	科白	-0.297022
-4.144695	秘密	-0.422801
-5.320786	租借	-0.300899
-5.019756	秩序	-0.406575
-4.843665	秩父	-0.600601
-5.320786	移入	-0.299923
-3.621816	移動	-0.506737
-4.621816	移築	-0.338182
-5.320786	稚魚	-0.292891
-3.613216	種	-0.557018
-5.320786	種材	-0.292891
-4.417696	穂	-0.327366
-5.320786	穂積	-0.292891
-3.200212	空	-0.846020
-3.223876	空く	-2.029824
-4.621816	空気	-0.204837
-3.153468	空港	-0.880439
-3.206842	窓	-1.071092
-3.213576	立つ	-2.040043
-4.320786	立て	-0.538341
-4.718726	立場	-0.189150
-4.542635	立派	-0.384868
-5.019756	童	-0.230481
-3.227364	笑う	-1.546433
-5.320786	笑子	-0.278580
-4.417696	笑顔	-0.368510
-5.320786	符	-0.292891
-5.019756	筆記	-0.477078
-3.708002	等	-0.526087
-4.042032	答え	-0.375646
-5.320786	筵	-0.300762
-3.105942	管理	-0.843710
-5.320786	箭	-0.300993
-4.019756	簡単	-0.479606
-5.320786	粉	-0.230484
-5.320786	粘	-0.301022
-3.922846	精神	-0.434672
-4.843665	糞	-0.292792
-4.475688	約束	-0.224982
-5.019756	紅茶	-0.216030
-4.475688	紅葉	-0.402176
-4.718726	紗	-0.468942
-3.406972	紙	-0.922147
-5.320786	細	-0.292891
-4.542635	紳士	-0.396510
-5.320786	終え	-0.297909
-3.940575	終わっ	-0.947796
-4.417696	終わり	-0.248268
-3.196934	終わる	-1.756749
-3.223876	組み立てる	-2.029824
-3.213576	組む	-2.040043
-4.206842	経済	-0.279788
-3.905812	経験	-0.275552
-4.718726	結	-0.285335
-4.718726	結合	-0.205737
-3.381267	結婚	-0.553082
-5.019756	結婚式	-0.281710
-4.718726	結局	-0.293210
-3.639545	結果	-0.535518
-4.621816	統一	-0.288149
-3.648688	絵	-0.584810
-4.144695	絶対	-0.426043
-5.320786	継	-0.230484
-4.090337	続け	-0.564927
-4.621816	続ける	-0.355205
-4.718726	綱	-0.336929
-4.843665	綺麗	-0.326225
-5.320786	緋	-0.292891
-4.042032	緑	-0.398760
-5.320786	編著	-0.300706
-4.019756	練習	-0.279973
-5.320786	縮	-0.300995
-4.019756	繋がる	-1.251673
-3.245239	繋ぐ	-2.008635
-5.320786	織	-0.301026
-5.320786	羅	-0.301028
-4.279393	羊	-0.257606
-4.843665	美	-0.229929
-4.144695	美しい	-0.290286
-3.168497	美術館	-0.953071
-5.019756	美談	-0.282839
-3.959058	群馬	-1.378298
-4.144695	義	-0.316681
-5.320786	義方	-0.292891
-5.320786	義母	-0.290060
-4.475688	羽	-0.400269
-5.320786	羽音	-0.278580
-4.718726	習慣	-0.252181
-5.019756	翔子	-0.284651
-5.320786	翻案	-0.230484
-4.621816	老婆	-0.332604
-3.557358	考え	-0.675510
-4.019756	考える	-0.424856
-4.718726	考案	-0.364749
-3.127661	者	-0.685056
-4.206842	耳	-0.235237
-4.621816	聞く	-0.216128
-5.320786	聞こえ	-0.300932
-5.320786	聴い	-0.297752
-2.953430	聴く	-1.997483
-4.279393	肉	-0.457199
-5.320786	肖	-0.301015
-5.320786	肢	-0.292891
-4.621816	育っ	-0.775030
-5.019756	育児	-0.278252
-5.320786	育種	-0.293753
-5.320786	胃	-0.288774
-3.718726	背	-1.009500
-3.815636	胸	-0.697331
-4.843665	脂	-0.386946
-4.621816	膝	-0.297506
-5.019756	膠	-0.278536
-4.843665	自	-0.300887
-3.434295	自分	-0.609719
-4.320786	自己	-0.376463
-3.697537	自由	-0.341219
-3.889422	自身	-0.454220
-3.417696	自転車	-0.886695
-3.998567	興味	-0.668686
-4.621816	航路	-0.234212
-4.542635	良	-0.260949
-3.764483	良い	-0.550374
-2.982329	花	-0.927959
-4.843665	芸妓	-0.280113
-4.621816	芽	-0.253808
-5.320786	苦	-0.290060
-4.718726	苦労	-0.697180
-2.968603	英語	-0.994817
-4.116666	茨城	-0.787782
-4.320786	茶	-0.258203
-5.019756	茶々	-0.220893
-5.320786	荒れ地	-0.292703
-3.299597	荷物	-1.198131
-5.019756	荻野	-0.270913
-5.320786	華鈴	-0.292891
-3.959058	葉	-0.481891
-4.174658	著名	-0.488403
-5.320786	蒼	-0.300721
-5.320786	蕾	-0.278580
-3.329560	薬	-0.744519
-4.718726	藍	-0.292872
-5.320786	藍色	-0.292891
-4.621816	藤	-0.217501
-5.320786	藻	-0.301020
-5.320786	蘇	-0.301026
-5.320786	虐め	-0.300849
-3.245239	虫	-1.128132
-5.320786	蚊	-0.292891
-5.320786	蛾	-0.292891
-4.366543	血	-0.298407
-5.320786	衆生	-0.300744
-3.639545	行う	-0.674993
-5.019756	行き	-0.293576
-2.532617	行く	-1.661717
-3.580423	行っ	-1.279860
-3.873628	行動	-0.325623
-5.320786	行宮	-0.288774
-4.174658	行為	-0.267012
-3.889422	街	-0.321685
-4.621816	衣	-0.250401
-4.174658	表	-0.399303
-4.843665	表情	-0.383101
-3.677333	表現	-0.478551
-5.320786	裁い	-0.297909
-3.789307	装置	-0.633082
-5.019756	補	-0.300708
-5.019756	裸	-0.217549
-3.174658	製作	-0.927946
-5.320786	襲	-0.230484
-5.320786	襷	-0.278580
-4.019756	西	-0.453207
-4.320786	要	-0.383620
-4.621816	要求	-0.408439
-4.174658	要素	-0.466083
-3.156433	見	-1.098951
-4.621816	見せ	-0.343422
-5.320786	見つけ	-0.297752
-2.864420	見る	-1.489117
-4.542635	見学	-0.363725
-3.386287	見積	-1.917069
-4.542635	視	-0.462544
-4.144695	覚え	-0.593051
-5.019756	親子	-0.468794
-3.873628	観光	-0.567579
-3.238000	観察	-0.931106
-3.153468	解く	-1.616780
-4.241605	解決	-0.435592
-4.206842	言い	-0.454768
-3.564911	言う	-0.582891
-4.116666	言え	-0.696218
-5.019756	言お	-0.476984
-3.729721	言っ	-1.024913
-3.535456	言葉	-0.546030
-3.667573	言語	-0.662719
-3.159418	計画	-0.931271
-3.200212	計算	-1.104990
-5.320786	記	-0.292703
-3.141809	記録	-0.766273
-3.206842	設計	-0.866357
-3.263881	試す	-1.990151
-3.922846	試合	-0.485125
-3.998567	試験	-0.394072
-3.998567	詩	-0.411504
-3.741002	話	-0.505456
-4.475688	話し	-0.899812
-3.687317	話す	-0.730131
-5.019756	話者	-0.290013
-5.320786	誉	-0.293753
-5.019756	誌	-0.406575
-4.174658	認め	-0.573621
-4.621816	認識	-0.423058
-3.843665	誕生	-0.597880
-3.940575	語	-0.300106
-4.475688	誠	-0.271874
-3.098069	説明	-0.988184
-4.144695	読み	-0.426024
-2.900830	読む	-1.446542
-4.621816	読ん	-0.535206
-3.177771	読書	-0.974072
-3.708002	誰	-0.741998
-4.843665	課	-0.318820
-3.241605	課長	-1.285273
-3.108598	課題	-1.707051
-5.320786	誼	-0.230484
-3.159418	調べる	-1.395337
-3.234426	調整	-1.484516
-3.113960	論文	-1.318797
-4.718726	論理	-0.355040
-5.019756	諭	-0.406575
-4.475688	諱	-0.892360
-5.320786	諸	-0.300864
-5.320786	謂	-0.300644
-5.320786	謂う	-0.230484
-3.789307	謎	-0.872419
-5.320786	議決	-0.290300
-5.320786	谷間	-0.290060
-4.542635	豊島	-0.844691
-4.320786	象徴	-0.373208
-5.019756	豪快	-0.289041
-5.320786	豪邸	-0.230484
-5.320786	貞慶	-0.293753
-5.320786	貞雄	-0.292891
-5.320786	負	-0.292891
-4.542635	負ける	-0.260566
-3.406972	財布	-1.180860
-5.320786	財津	-0.300986
-5.019756	財産	-0.277486
-5.320786	貢	-0.300600
-4.475688	貢献	-0.220600
-4.279393	貧乏	-0.587453
-4.718726	貨幣	-0.359381
-4.279393	貫通	-0.467507
-4.116666	責任	-0.327933
-5.320786	貯蓄	-0.230484
-4.718726	貯蔵	-0.356263
-4.718726	貯金	-0.272828
-5.320786	貴	-0.301011
-5.019756	貴子	-0.220893
-3.729721	買い	-1.300679
-4.320786	買い物	-0.317368
-2.924586	買う	-1.851692
-5.320786	費	-0.288774
-4.366543	貿易	-0.388351
-5.019756	賀	-0.300528
-4.843665	資	-0.300627
-3.325151	資料	-1.129967
-5.320786	賎民	-0.300756
-5.320786	賛美	-0.289433
-4.718726	賞金	-0.353118
-4.621816	質問	-0.330075
-5.320786	賭博	-0.297022
-5.320786	贈答	-0.301011
-4.065513	赤	-0.326580
-3.196934	赤い	-0.847554
-4.475688	赤ちゃん	-0.222507
-4.718726	赤毛	-0.468944
-5.019756	赤池	-0.300496
-5.320786	赤痢	-0.300600
-5.320786	赦せ	-0.230484
-4.542635	走っ	-0.470649
-2.533325	走る	-1.940216
-3.227364	起きる	-1.253012
-5.019756	起伏	-0.284651
-5.320786	起業	-0.289433
-4.843665	超人	-0.317803
-5.019756	超越	-0.289028
-2.507872	趣味	-1.559632
-5.320786	足寄	-0.300932
-4.843665	足湯	-0.381561
-5.320786	足羽	-0.300704
-5.019756	足跡	-0.278156
-3.959058	跡地	-1.074931
-5.320786	路	-0.300577
-4.542635	踊る	-0.255214
-4.718726	蹄	-0.357062
-4.320786	身	-0.299236
-4.174658	身体	-0.360462
-5.320786	身幅	-0.288774
-3.789307	車	-0.402874
-4.366543	軍人	-0.329078
-4.475688	輪	-0.400475
-4.718726	返事	-0.441755
-5.019756	迷っ	-0.294607
-3.940575	退勤	-1.386343
-5.019756	退院	-0.285475
-4.542635	送っ	-0.841820
-2.944209	送る	-2.006626
-4.621816	逃げ	-0.345544
-4.718726	通う	-0.404566
-5.320786	通ず	-0.230484
-5.019756	通る	-0.406575
-4.542635	通勤	-0.577724
-3.156433	連絡	-1.154366
-5.019756	週末	-0.292809
-4.475688	進ん	-0.644350
-4.241605	進学	-0.515629
-5.019756	逸	-0.229499
-4.621816	遅れ	-0.274995
-3.621816	遊び	-0.673905
-3.200212	遊ぶ	-1.448822
-4.621816	遊ん	-0.535206
-4.366543	運	-0.403374
-2.931620	運ぶ	-2.020857
-3.752584	運動	-0.430928
-3.588392	運転	-0.442822
-5.019756	運輸	-0.466391
-5.320786	過	-0.301020
-3.843665	道	-0.356353
-4.019756	道具	-0.401580
-4.019756	達成	-0.489881
-4.042032	違い	-0.308681
-3.858388	違う	-0.451184
-4.366543	違っ	-0.733939
-5.019756	遠慮	-0.287595
-4.621816	適応	-0.542132
-3.521445	選挙	-1.038768
-5.019756	遺骨	-0.454671
-4.843665	避暑	-0.601929
-4.718726	邪悪	-0.467971
-3.381267	部	-0.707367
-3.193681	部下	-1.169780
-3.940575	部分	-0.371072
-3.168497	部屋	-1.009762
-3.098069	部長	-1.271849
-2.598152	都	-1.261256
-3.873628	配線	-0.901780
-4.843665	酢	-0.327389
-5.019756	里	-0.221910
-3.843665	重要	-0.632302
-4.621816	野	-0.281578
-3.580423	野球	-0.491754
-4.621816	野田	-0.270173
-3.386287	野菜	-1.054030
-4.019756	量	-0.461410
-4.718726	金曜日	-0.472375
-4.621816	鈍い	-0.473495
-4.174658	銀行	-0.283091
-5.320786	銘茶	-0.292891
-5.320786	錨	-0.230484
-4.320786	録音	-0.280047
-3.445725	鍵	-0.946276
-4.475688	鏡	-0.407786
-3.180907	長い	-0.838926
-3.514606	長野	-1.032480
-5.019756	門前	-0.468794
-4.417696	閉じる	-0.627671
-2.968603	閉める	-2.283562
-4.621816	開く	-0.471513
-4.621816	開け	-0.419379
-2.909166	開ける	-2.034824
-3.677333	開発	-0.420396
-5.320786	間に合う	-0.301022
-3.978363	間違い	-0.348978
-3.549934	関係	-0.415334
-5.320786	阿久根	-0.299571
-4.718726	降っ	-0.695692
-4.542635	降り	-0.286120
-4.542635	降りる	-0.395953
-3.210196	降る	-1.440082
-4.065513	限定	-0.311732
-5.320786	陛下	-0.290300
-4.621816	院	-0.190150
-5.320786	院内	-0.300932
-3.028530	院生	-1.663431
-5.320786	除い	-0.297752
-5.320786	除去	-0.299240
-4.320786	陰	-0.620156
-4.475688	陰陽	-0.512070
-4.417696	階段	-0.273557
-4.475688	隠居	-0.307013
-4.366543	隣	-0.476898
-4.621816	雄	-0.182004
-5.019756	雄島	-0.406575
-4.116666	集め	-0.530191
-5.019756	雑貨	-0.300698
-5.320786	雑魚	-0.292891
-5.320786	雛	-0.301024
-4.366543	離れ	-0.495347
-4.843665	離散	-0.327306
-4.174658	難しい	-0.357360
-5.320786	難破	-0.299240
-3.200212	雨	-0.934029
-5.320786	雨龍	-0.230484
-3.263881	雪	-1.175740
-4.621816	雲	-0.405126
-5.320786	雷雨	-0.290300
-3.829424	電池	-0.820096
-3.829424	電源	-0.894911
-3.343062	電話	-0.590840
-3.396507	電車	-0.915848
-5.320786	霞ん	-0.292703
-4.843665	露	-0.300829
-4.206842	青	-0.398412
-3.184065	青い	-0.882302
-3.905812	青森	-0.860175
-3.535456	静か	-1.107216
-4.366543	非	-0.302797
-5.320786	非凡	-0.300037
-3.580423	非常	-1.274301
-4.417696	面白い	-0.290317
-3.366543	靴	-1.009278
-3.316464	鞄	-1.046005
-4.621816	音声	-0.273810
-3.072813	音楽	-0.627510
-5.320786	音韻	-0.300949
-5.320786	響	-0.292891
-3.386287	頭	-0.753121
-4.542635	頼	-0.333206
-4.417696	類	-0.303139
-5.320786	類書	-0.300600
-3.184065	風	-0.891486
-4.042032	風呂	-0.532723
-5.019756	風邪	-0.265664
-3.184065	飛ぶ	-1.474486
-4.542635	飛行機	-0.285043
-3.434295	食べ	-1.006073
-2.883035	食べる	-1.269635
-3.998567	食事	-0.321114
-3.147600	食堂	-0.955190
-3.391367	食材	-1.049335
-4.843665	飢え	-0.598782
-5.019756	飯	-0.269806
-4.621816	飲	-0.778128
-3.764483	飲み	-1.102285
-2.957174	飲む	-1.582933
-5.320786	餡	-0.300887
-4.366543	首	-0.266330
-4.320786	首都	-0.432585
-4.090337	香	-0.310232
-3.230881	馬	-0.969795
-2.998567	駅	-0.855326
-5.320786	駅員	-0.230484
-3.092899	高い	-0.779075
-4.542635	高く	-0.393341
-3.613216	高知	-1.126674
-5.019756	魅	-0.300652
-5.019756	魏	-0.468982
-4.366543	魔	-0.286636
-3.873628	魔法	-0.475354
-4.621816	魔神	-0.396603
-3.019756	魚	-1.012728
-5.320786	魚津	-0.299571
-5.320786	鯰	-0.300932
-5.019756	鱗	-0.466391
-3.187247	鳥	-0.999301
-5.320786	鳳	-0.300932
-3.256328	鳴く	-1.698297
-5.320786	鶉	-0.300594
-3.697537	鹿児島	-0.891406
-5.019756	麗	-0.292836
-4.279393	黄	-0.251458
-4.279393	黒い	-0.502833
-4.174658	黒板	-0.717324
-5.019756	鼠	-0.220893
-5.320786	鼻腔	-0.290300

\2-grams:
-3.817182	<s> あ	-0.215115
-4.215122	<s> あそこ
-4.039031	<s> あたり	-0.154902
-4.516152	<s> あっ	-0.285398
-3.285703	<s> あなた	0.026013
-3.516152	<s> あの	0.009545
-3.340061	<s> あまり	-0.185895
-3.914092	<s> あまりに	-0.112704
-3.817182	<s> あり	-0.304758
-3.436971	<s> ありがとう	0.228479
-3.154424	<s> ある	-0.370707
-3.561909	<s> あるいは	0.026329
-3.436971	<s> あれ	-0.158362
-4.215122	<s> あん	0.096910
-3.312032	<s> い	-0.779582
-2.892903	<s> いい	-0.317611
-4.039031	<s> いくら	0.079181
-3.402208	<s> いつ	0.082974
-4.516152	<s> いる	-0.300781
-3.671054	<s> いろいろ	0.033424
-4.039031	<s> いろんな	-0.096910
-3.370024	<s> いわゆる	-0.016390
-4.516152	<s> う	-0.288965
-2.690077	<s> うさぎ	-1.468197
-4.215122	<s> うまく	-0.176091
-4.516152	<s> え	-0.266268
-4.516152	<s> えびの
-3.011002	<s> お	-0.229781
-4.516152	<s> おい	-0.221849
-3.154424	<s> おいしい	-0.437398
-2.325820	<s> おじいさん	0.079181
-4.215122	<s> おそらく	-0.389971
-3.817182	<s> おでこ
-4.516152	<s> おねしょ	-0.176091
-3.914092	<s> おはよう
-2.275603	<s> おばあさん	0.067643
-4.039031	<s> おめでとう
-4.039031	<s> おん
-3.671054	<s> お前	-0.159701
-4.516152	<s> お客様
-2.293435	<s> お母さん	-0.222272
-2.301308	<s> お父さん	0.068778
-4.215122	<s> お疲れ様
-3.173729	<s> お腹
-2.892903	<s> お茶	0.074634
-3.516152	<s> お金	0.138303
-4.039031	<s> お願い	-0.104735
-4.516152	<s> か	-0.299154
-3.402208	<s> から	-0.490705
-3.671054	<s> かわいい	-0.107905
-2.760277	<s> が	-0.393659
-4.215122	<s> き	-0.281725
-4.215122	<s> きっと	-0.124939
-2.997638	<s> きれい	-0.448923
-4.516152	<s> く
-4.516152	<s> ぐらい	-0.234083
-3.613062	<s> こ	-0.569336
-3.671054	<s> こういう	-0.138303
-3.024790	<s> ここ	-0.132626
-3.260879	<s> こちら	-0.072551
-3.613062	<s> こと	-0.293307
-2.219487	<s> この	-0.053818
-2.053754	<s> これ	-0.037740
-3.738001	<s> これから	0.124939
-2.872699	<s> これら	0.017033
-3.516152	<s> こんな	-0.046532
-4.215122	<s> こんなに	-0.124939
-3.474759	<s> ご	-0.258832
-2.903368	<s> ごはん	0.826213
-4.215122	<s> ご飯	-0.204120
-3.613062	<s> さ	0.006618
-4.516152	<s> さすが
-3.402208	<s> さらに	-0.129559
-3.436971	<s> し	0.236252
-2.624057	<s> しかし
-4.039031	<s> しかも
-4.215122	<s> しばらく	-0.057992
-4.516152	<s> す	-0.079181
-2.447966	<s> すぐ	-0.034941
-4.215122	<s> すでに	-0.191886
-3.053754	<s> すべて	-0.180247
-4.215122	<s> する	-0.293477
-3.738001	<s> すると
-3.738001	<s> ずっと	-0.243038
-4.215122	<s> ぜひ	-0.124939
-4.516152	<s> そ
-4.516152	<s> そいつ
-2.972084	<s> そう	-0.177286
-3.053754	<s> そういう	-0.038545
-3.474759	<s> そこで	0.000000
-2.892903	<s> そして	-0.011553
-2.278106	<s> その	-0.246117
-2.270639	<s> それ	0.069620
-3.738001	<s> それから
-3.671054	<s> それで	-0.103541
-3.436971	<s> それら	0.051153
-3.084788	<s> そんな	-0.002562
-4.039031	<s> そんなに	-0.096910
-4.516152	<s> ぞ	-0.221849
-4.516152	<s> た	-0.300493
-4.215122	<s> たい	-0.287242
-2.538428	<s> たくさん	-0.032438
-4.516152	<s> たとえ	-0.176091
-4.516152	<s> だって	-0.255273
-4.215122	<s> ち	-0.213880
-4.516152	<s> ちょっと	-0.274701
-4.215122	<s> つ	-0.221849
-3.370024	<s> つまり
-4.516152	<s> て	-0.205024
-2.872699	<s> で	-0.358090
-3.914092	<s> では
-3.118212	<s> でも	-0.275736
-2.265732	<s> と	-0.710909
-2.571669	<s> という	-0.406795
-3.436971	<s> として	-0.412426
-2.436971	<s> とても	-0.124070
-4.516152	<s> と共に	-0.271067
-4.516152	<s> ど	-0.176091
-3.561909	<s> どう	-0.208919
-4.039031	<s> どうして	-0.096910
-4.215122	<s> どうも
-3.237398	<s> どこ	0.063802
-3.370024	<s> どちら	-0.026942
-4.039031	<s> どっち
-3.671054	<s> どんな	-0.166331
-4.039031	<s> な	-0.395200
-4.215122	<s> ない	-0.296751
-3.817182	<s> なかなか	-0.138303
-4.516152	<s> なく	-0.201135
-4.039031	<s> なら	-0.565337
-4.215122	<s> なる	-0.474116
-3.817182	<s> なんて	-0.274701
-2.997638	<s> に	-0.310593
-4.516152	<s> において	-0.286790
-4.516152	<s> における	-0.288065
-3.817182	<s> によって	-0.315460
-4.215122	<s> により	-0.269996
-3.738001	<s> による	-0.219851
-2.503315	<s> の	-0.299305
-4.516152	<s> ので	-0.240332
-3.024790	<s> は	-0.321084
-3.914092	<s> はっきり
-4.516152	<s> ば	-0.290811
-4.215122	<s> ひ	-0.238882
-3.738001	<s> ひとつ	-0.212089
-4.039031	<s> ふたり
-3.817182	<s> へ	-0.235915
-3.516152	<s> ほか	-0.410174
-3.516152	<s> ほとんど	-0.251490
-4.516152	<s> ほど	-0.284640
-3.738001	<s> ま	-0.176091
-3.914092	<s> ませ	-0.441649
-2.618525	<s> また	-0.093151
-3.053754	<s> または	-0.093740
-2.474759	<s> まだ	-0.118173
-4.215122	<s> まったく	-0.252725
-4.215122	<s> まで	-0.299679
-4.215122	<s> まとめる	-0.079181
-4.039031	<s> まるで
-4.215122	<s> み	-0.263241
-2.290843	<s> みんな	-0.061216
-3.738001	<s> も	-0.295473
-2.474759	<s> もう	-0.052333
-3.312032	<s> もちろん	0.000000
-4.516152	<s> もの	-0.299565
-3.817182	<s> や	-0.335369
-3.474759	<s> やがて	-0.070407
-4.039031	<s> やっぱり	-0.096910
-4.039031	<s> やはり	-0.096910
-4.215122	<s> やる	-0.208276
-4.516152	<s> ゆ	-0.255273
-2.586733	<s> ゆっくり	-0.035773
-4.215122	<s> よ	-0.289131
-4.215122	<s> よかっ	0.602060
-2.392300	<s> よく	-0.240677
-3.738001	<s> よろしく	-0.280827
-3.914092	<s> り	-0.342423
-4.516152	<s> れ	-0.300211
-3.817182	<s> わたし	0.021189
-2.862939	<s> を	-0.350797
-4.516152	<s> アスティ	-0.176091
-4.215122	<s> アダム
-4.516152	<s> アッパー
-4.516152	<s> アップ	-0.234083
-4.516152	<s> アップロード	1.525045
-2.959849	<s> アニメ	-0.325389
-2.844054	<s> アパート	-0.334658
-2.738001	<s> アプリ
-2.925087	<s> アメリカ	-0.199321
-4.516152	<s> アレルギー	-0.276206
-4.516152	<s> アロー
-3.671054	<s> アーサー
-4.516152	<s> アーニー
-4.516152	<s> アーロン
-4.039031	<s> イエロー
-2.959849	<s> イベント	-0.079181
-4.516152	<s> インストール	1.060698
-2.683643	<s> インターネット	-0.362510
-3.285703	<s> インド	-0.238343
-4.215122	<s> ウエイト	0.301030
-2.760277	<s> エアコン	0.113943
-2.723760	<s> エスカレーター	0.025554
-4.516152	<s> エッシャー
-4.215122	<s> エッチ
-4.039031	<s> エリー
-4.215122	<s> エレキ	0.124939
-2.775789	<s> エレベーター	-0.090725
-4.516152	<s> エース	-0.273001
-4.215122	<s> オハイオ	0.096910
-4.516152	<s> オファー	-0.176091
-4.516152	<s> オマハ
-4.516152	<s> オムツ
-4.516152	<s> オメガ
-4.516152	<s> オリオン
-4.039031	<s> オーディオ	-0.154902
-4.516152	<s> オーバー	-0.249877
-4.215122	<s> オープン	-0.228479
-2.426247	<s> カフェ	-0.241358
-2.825956	<s> カメラ	0.131279
-4.039031	<s> カレー	-0.176091
-2.791876	<s> カーテン	0.134699
-4.215122	<s> ガ
-4.516152	<s> キエフ	-0.176091
-4.215122	<s> キャンセル	1.249198
-2.635338	<s> キーボード	-0.275017
-2.478725	<s> ギター	-0.406329
-4.039031	<s> ギャグ	-0.146128
-4.516152	<s> ク
-4.039031	<s> クリスマス	-0.162727
-4.516152	<s> クリック	1.525045
-3.135941	<s> グラフ	-0.150785
-4.215122	<s> ケニア
-2.914092	<s> ケーキ	0.187431
-3.084788	<s> ケーブル	0.014723
-4.215122	<s> ゲイツ
-4.516152	<s> ゲーテ	-0.221849
-2.677303	<s> ゲーム	-0.059935
-2.808582	<s> コップ	0.126982
-4.516152	<s> コピー	1.060698
-3.118212	<s> コンサート	-0.191886
-2.767964	<s> コンビニ	-0.132117
-2.800148	<s> コート	0.124939
-2.696608	<s> コーヒー	-0.182340
-4.516152	<s> ゴミ	-0.176091
-3.039031	<s> ゴルフ	-0.587516
-4.516152	<s> サイン	1.525045
-2.882683	<s> サッカー	0.004856
-4.215122	<s> サマー
-4.516152	<s> サモア
-2.775789	<s> サンダル	0.111633
-2.738001	<s> サーバー
-4.039031	<s> サービス	-0.213880
-4.215122	<s> シェイク
-2.696608	<s> システム	-0.550228
-2.834911	<s> シャツ	0.187521
-4.516152	<s> シート	-0.243038
-4.516152	<s> ジェフ
-4.039031	<s> ジミー
-4.516152	<s> ジャ	-0.249877
-4.215122	<s> ジャガー
-2.745300	<s> ジャケット	-0.116970
-4.516152	<s> ジャパン
-3.738001	<s> ジャンル	-0.301030
-4.215122	<s> ジュリア	-0.255273
-2.597074	<s> ジュース	0.225779
-3.173729	<s> ジョギング	-0.371488
-3.101178	<s> スキー	-0.091770
-2.882683	<s> スケジュール	-0.268501
-4.215122	<s> スコア	-0.124939
-4.039031	<s> スタート	1.102662
-4.516152	<s> ストップ	0.851258
-4.215122	<s> ストレッチ
-2.775789	<s> スプーン	0.142962
-3.135941	<s> スライド	0.751279
-2.800148	<s> スーパー	-0.131151
-4.039031	<s> スープ
-4.039031	<s> セット	0.335792
-3.084788	<s> センサー
-4.516152	<s> ソ	-0.243038
-4.516152	<s> ソニー
-2.775789	<s> ソファ	0.141752
-2.709972	<s> ソフト	-0.433964
-4.516152	<s> ソフトウェア	-0.274701
-4.215122	<s> タウン	-0.154902
-2.775789	<s> タオル	0.136220
-3.516152	<s> タクシー	0.411686
-4.516152	<s> ターボ
-4.215122	<s> ダウンロード	0.948168
-4.215122	<s> ダニー
-4.215122	<s> チェチェン
-4.516152	<s> チェック	0.511883
-4.039031	<s> チャイナ
-4.516152	<s> チャイム
-4.215122	<s> チャレンジ	1.236789
-4.516152	<s> チャンス	-0.243038
-4.516152	<s> チャンネル	-0.176091
-3.671054	<s> チーム	-0.376751
-3.671054	<s> ツアー	-0.092754
-4.516152	<s> ツリー
-3.817182	<s> テスト	0.441124
-2.997638	<s> テニス	-0.318759
-2.561909	<s> テレビ	-0.237676
-2.738001	<s> テーブル	0.121422
-4.516152	<s> ディエゴ
-2.730822	<s> ディスプレイ	-0.287457
-2.825956	<s> デパート	-0.160004
-2.914092	<s> データ	0.207311
-2.543024	<s> トイレ	-0.076126
-3.914092	<s> トレーニング	0.248642
-3.068994	<s> ドラマ	-0.063669
-2.760277	<s> ナイフ	0.148226
-3.135941	<s> ニュース	-0.206054
-4.516152	<s> ニーズ	0.176091
-4.516152	<s> ニーナ	-0.176091
-2.716811	<s> ネットワーク	-0.133539
-4.516152	<s> ノック
-4.516152	<s> ハーグ	-0.176091
-3.671054	<s> バス	0.466656
-3.474759	<s> バスケットボール	-0.137173
-2.791876	<s> バッグ	0.157264
-4.215122	<s> バトン
-4.516152	<s> パスタ
-4.215122	<s> パスワード	0.096910
-2.703238	<s> パソコン	-0.415138
-4.215122	<s> パッド	-0.397940
-4.215122	<s> パパ	-0.176091
-4.516152	<s> パブ
-2.557110	<s> パン	-0.120484
-4.516152	<s> パンク
-2.760277	<s> パーキング
-4.039031	<s> パーティ	-0.096910
-4.516152	<s> ヒュー
-4.516152	<s> ビオラ
-4.516152	<s> ビッグ	-0.176091
-2.817182	<s> ビル
-2.752724	<s> ビール	-0.167282
-2.738001	<s> ピアノ	-0.065158
-4.516152	<s> ピジョン
-4.516152	<s> ピーチ
-4.516152	<s> ファイア
-2.730822	<s> ファイル	-0.393300
-4.215122	<s> フェ	-0.057992
-2.738001	<s> フォルダ
-2.730822	<s> フォーク	-0.329059
-4.516152	<s> ブルー	-0.259637
-2.783758	<s> ブーツ	0.103070
-4.516152	<s> プラン	-0.234083
-2.652829	<s> プリンター
-4.039031	<s> プリント	1.146128
-4.215122	<s> プレゼント	-0.191886
-3.053754	<s> プログラム	0.268237
-2.892903	<s> プロジェクト	-0.129348
-2.494963	<s> プール	-0.310092
-4.516152	<s> ヘッド
-4.215122	<s> ベルン
-4.516152	<s> ペ
-2.925087	<s> ペン	0.197191
-2.405562	<s> ホテル	-0.447643
-4.215122	<s> ホラー
-4.516152	<s> ホルン
-3.817182	<s> ホーム	-0.202420
-3.817182	<s> ボイス	-0.051153
-2.760277	<s> ボトル	-0.372912
-4.516152	<s> ポエム	-0.037789
-3.817182	<s> ポケット	0.051153
-4.039031	<s> ポーズ
-2.760277	<s> マイク	0.161368
-2.629661	<s> マウス
-2.892903	<s> マニュアル	0.296067
-4.516152	<s> マフィア	-0.221849
-4.215122	<s> マラソン	-0.228479
-2.791876	<s> マンション	-0.506676
-4.516152	<s> マンボ
-2.760277	<s> ミルク	-0.168792
-4.516152	<s> メモ	1.525045
-2.738001	<s> メモリ
-2.903368	<s> メール	-0.607737
-4.516152	<s> メーン
-3.340061	<s> モニター	-0.112422
-3.084788	<s> モーター
-4.039031	<s> ユーザ
-4.516152	<s> ヨガ	-0.234083
-4.516152	<s> ライト	-0.221849
-4.215122	<s> ラウル	-0.124939
-2.791876	<s> ラジオ	-0.278754
-4.215122	<s> ランプ
-4.039031	<s> ラーマ
-3.817182	<s> ラーメン	-0.037789
-4.516152	<s> リアル
-4.516152	<s> リスト	-0.221849
-4.516152	<s> リセット	0.544068
-4.039031	<s> リーグ	-0.318759
-4.516152	<s> レイプ	-0.221849
-3.817182	<s> レオン
-2.408942	<s> レストラン	-0.415569
-4.516152	<s> レテ
-4.516152	<s> レバー
-3.118212	<s> レポート	0.460731
-4.215122	<s> ロ	-0.330993
-4.516152	<s> ログアウト	1.525045
-4.516152	<s> ログイン	1.060698
-3.436971	<s> ロケ	-0.273001
-3.436971	<s> ロシア	-0.124939
-2.738001	<s> ロビー	-0.162727
-2.984673	<s> ロボット	-0.351262
-4.516152	<s> ロード	-0.266268
-4.516152	<s> ローブ
-3.914092	<s> ワイン	-0.154902
-4.039031	<s> ワープ	-0.146128
-2.618525	<s> 一	-0.125426
-3.561909	<s> 一つ	-0.248178
-4.039031	<s> 一切	-0.301030
-4.516152	<s> 一夜	0.176091
-3.738001	<s> 一度	-0.028029
-3.474759	<s> 一方	-0.134699
-3.817182	<s> 一番	-0.236572
-3.671054	<s> 一緒	-0.439333
-2.959849	<s> 一般	0.000820
-3.340061	<s> 上	-0.402536
-2.408942	<s> 上司	-0.357935
-4.215122	<s> 上部
-3.215122	<s> 下	-0.427636
-4.516152	<s> 下宿	-0.079181
-3.817182	<s> 下戸	0.066947
-4.516152	<s> 下着	-0.234083
-3.738001	<s> 不	-0.101458
-4.516152	<s> 不仲	-0.176091
-4.516152	<s> 不動	0.176091
-4.516152	<s> 不在	-0.221849
-4.215122	<s> 不安	-0.228479
-3.738001	<s> 不思議	-0.176091
-4.516152	<s> 与一	-0.176091
-3.011002	<s> 世界	-0.253257
-4.516152	<s> 世評
-4.039031	<s> 世間	0.113943
-3.370024	<s> 中	-0.320774
-3.516152	<s> 中央	-0.325512
-3.561909	<s> 中心	-0.252246
-4.516152	<s> 中米
-4.039031	<s> 主人	-0.307763
-4.215122	<s> 久しぶり
-4.215122	<s> 乗り換え
-4.516152	<s> 乙種	-0.221849
-3.671054	<s> 九	-0.160579
-4.215122	<s> 予定	-0.162727
-2.903368	<s> 予算	-0.266268
-3.671054	<s> 予約	-0.295635
-3.817182	<s> 事実	-0.314818
-2.703238	<s> 二	-0.124426
-3.738001	<s> 二つ	-0.496643
-3.914092	<s> 五	-0.241032
-3.671054	<s> 亜	-0.069636
-4.215122	<s> 交換	-0.431364
-1.985952	<s> 京都	-0.171198
-2.997638	<s> 人	-0.372829
-3.914092	<s> 人々	-0.159701
-3.914092	<s> 人気	-0.022743
-2.872699	<s> 人間	-0.196821
-2.862939	<s> 今	0.046217
-4.215122	<s> 今年
-3.914092	<s> 今度	0.057992
-2.253701	<s> 今日	-0.063656
-2.834911	<s> 仕事	-0.149979
-4.039031	<s> 仕方	-0.142668
-2.760277	<s> 他	-0.059979
-3.402208	<s> 以上	-0.349635
-2.872699	<s> 企画	-0.304856
-4.516152	<s> 伊
-4.215122	<s> 休み	-0.124939
-4.215122	<s> 休憩	-0.276206
-2.503315	<s> 会社	-0.210876
-4.215122	<s> 似	-0.157608
-4.516152	<s> 低い	-0.285236
-4.516152	<s> 住む	-0.287242
-2.872699	<s> 体	-0.469252
-4.215122	<s> 体操	-0.414973
-4.516152	<s> 体温
-2.566762	<s> 体育館	-0.273850
-2.834911	<s> 何	-0.066049
-3.260879	<s> 作成	-1.218204
-4.215122	<s> 使う	-0.298144
-4.516152	<s> 使わ	0.077605
-2.997638	<s> 使用	-0.272444
-4.516152	<s> 保	-0.176091
-3.561909	<s> 保存	-0.264818
-3.024790	<s> 信号	-0.308391
-3.215122	<s> 修正	-0.816610
-3.516152	<s> 個人	-0.191886
-4.215122	<s> 倭	-0.124939
-3.738001	<s> 健康	-0.133539
-4.516152	<s> 偽	-0.221849
-4.516152	<s> 偽悪
-2.892903	<s> 傘	-0.004645
-3.024790	<s> 僕	-0.051799
-4.215122	<s> 僕ら	-0.124939
-3.561909	<s> 元気	0.325558
-2.006949	<s> 兄	-0.462451
-4.516152	<s> 兄貴	0.176091
-4.516152	<s> 充電	-0.249877
-2.258473	<s> 先生	-0.401031
-2.232851	<s> 先輩	-0.550317
-4.516152	<s> 兎	-0.176091
-4.516152	<s> 入	-0.176091
-4.215122	<s> 入る	-0.277549
-4.516152	<s> 入学	-0.243038
-4.516152	<s> 入部	-0.259637
-4.215122	<s> 入院	0.026329
-3.817182	<s> 全く	-0.252181
-2.738001	<s> 全て	-0.087208
-3.561909	<s> 全体	-0.049218
-4.039031	<s> 全然	-0.141329
-4.039031	<s> 全部	-0.096910
-4.215122	<s> 八	-0.124939
-2.576633	<s> 公園	-0.384712
-2.872699	<s> 兵庫	0.027438
-4.516152	<s> 兵隊	-0.204120
-3.340061	<s> 具体	0.074634
-3.118212	<s> 内容	-0.448726
-3.671054	<s> 円	-0.062791
-2.716811	<s> 写真	-0.128869
-4.516152	<s> 凡そ
-4.516152	<s> 出	0.066947
-4.516152	<s> 出る	-0.286307
-4.516152	<s> 出世
-4.516152	<s> 出勤	-0.285790
-4.516152	<s> 出来る	-0.272066
-4.215122	<s> 出番	-0.338819
-4.215122	<s> 出発	-0.096910
-4.516152	<s> 出羽
-4.215122	<s> 刀	-0.226396
-4.039031	<s> 刃	-0.146128
-4.516152	<s> 分布	-0.231394
-4.516152	<s> 切	-0.221849
-3.817182	<s> 列車	-0.249877
-3.817182	<s> 初めて	-0.133687
-4.516152	<s> 判子
-4.215122	<s> 判断	-0.234083
-4.516152	<s> 利他
-3.914092	<s> 利用	-0.093905
-4.215122	<s> 前歯
-4.215122	<s> 割	-0.397940
-3.671054	<s> 力	-0.364940
-4.516152	<s> 加	-0.221849
-4.516152	<s> 加え	-0.221849
-4.516152	<s> 助	-0.259637
-3.738001	<s> 労働	-0.204120
-4.039031	<s> 勇	-0.154902
-3.561909	<s> 勉強	-0.408856
-4.039031	<s> 動く	-0.227244
-3.474759	<s> 動物	-0.093276
-3.671054	<s> 動画	-0.208884
-3.671054	<s> 勝つ	-0.055700
-2.389047	<s> 化学	-0.365091
-3.817182	<s> 北京	-0.160297
-2.561909	<s> 北海道	0.066111
-4.516152	<s> 区	-0.294690
-4.215122	<s> 医	-0.257564
-3.817182	<s> 医者	-0.187372
-3.340061	<s> 十	-0.216709
-2.767964	<s> 千葉	-0.293731
-2.215122	<s> 午前
-2.228350	<s> 午後	-0.017853
-3.671054	<s> 半	-0.196567
-4.039031	<s> 卒業	-0.269996
-3.135941	<s> 卒論	0.766413
-4.516152	<s> 協力	-0.282547
-3.671054	<s> 南	-0.238418
-4.516152	<s> 単なる	-0.176091
-3.068994	<s> 単位	0.302778
-4.215122	<s> 博物館	-0.251812
-4.215122	<s> 印刷	-0.380211
-4.039031	<s> 即ち	-0.146128
-3.817182	<s> 卵	-0.088941
-3.817182	<s> 原因	-0.257564
-4.516152	<s> 厩
-3.671054	<s> 参加	-0.366782
-3.738001	<s> 友人	-0.255273
-2.244310	<s> 友達	-0.385498
-3.561909	<s> 反対	-0.227887
-4.516152	<s> 取り	-0.291887
-4.516152	<s> 取る	-0.243038
-3.039031	<s> 口	-0.362488
-3.914092	<s> 古	-0.133894
-3.135941	<s> 古い	-0.352768
-4.516152	<s> 句	-0.221849
-4.516152	<s> 可	-0.273001
-4.516152	<s> 台	-0.286790
-2.591873	<s> 台所	-0.166883
-3.914092	<s> 台風	0.057992
-3.436971	<s> 右	-0.004799
-4.516152	<s> 合っ	-0.176091
-4.215122	<s> 合格	-0.204120
-4.516152	<s> 合理
-3.613062	<s> 同じ	-0.257251
-2.444270	<s> 同僚	-0.346265
-3.402208	<s> 同時に	-0.052512
-3.402208	<s> 名	-0.414761
-2.903368	<s> 名刺	0.335792
-3.011002	<s> 名前	-0.235859
-4.516152	<s> 向こう	-0.176091
-3.312032	<s> 君	0.092754
-4.215122	<s> 否定	-0.419129
-4.516152	<s> 周布
-4.039031	<s> 呪文	-0.104735
-4.516152	<s> 味噌汁	0.176091
-4.215122	<s> 命	-0.090177
-3.817182	<s> 命令	-0.138303
-3.101178	<s> 和歌山	0.121044
-3.671054	<s> 和製	0.096910
-4.215122	<s> 品	-0.109144
-3.914092	<s> 哲学	0.084321
-2.817182	<s> 商品	-0.331239
-4.516152	<s> 問屋	-0.176091
-3.561909	<s> 問題	-0.169142
-4.516152	<s> 喜屋武
-4.039031	<s> 噂	-0.497325
-3.084788	<s> 回路
-4.215122	<s> 図	-0.260913
-2.529380	<s> 図書館	-0.195127
-3.671054	<s> 国	-0.051153
-3.671054	<s> 国家	-0.286723
-3.340061	<s> 国際	-0.110698
-4.516152	<s> 圓
-4.516152	<s> 圧勝	-0.176091
-4.516152	<s> 圧死
-3.817182	<s> 地	-0.304541
-3.914092	<s> 地図	-0.221849
-3.340061	<s> 地域	-0.216795
-3.215122	<s> 地球	-0.097981
-4.516152	<s> 地面	-0.176091
-4.516152	<s> 城	-0.288065
-4.039031	<s> 基	-0.519086
-3.053754	<s> 基板
-2.825956	<s> 埼玉	0.048305
-3.237398	<s> 報告	-0.980328
-4.039031	<s> 場合	-0.579784
-4.215122	<s> 場所	-0.271067
-4.516152	<s> 塔頭	-0.221849
-4.516152	<s> 塗
-4.215122	<s> 塩田
-4.516152	<s> 増え	-0.255273
-4.516152	<s> 墳墓
-4.516152	<s> 壮大
-4.516152	<s> 声問
-4.516152	<s> 売春
-4.215122	<s> 変わら	0.511883
-4.516152	<s> 変化	-0.292075
-3.738001	<s> 変形	-0.167491
-3.193933	<s> 変更	-0.719684
-4.516152	<s> 変種	-0.249877
-3.914092	<s> 夏休み	0.051153
-2.323027	<s> 夕方	-0.019453
-3.474759	<s> 外国	-0.029963
-3.671054	<s> 多	-0.062791
-3.561909	<s> 多数	-0.372723
-2.217299	<s> 夜	-0.098421
-4.516152	<s> 夜中	-0.176091
-4.516152	<s> 夜半
-3.402208	<s> 夢	-0.022276
-3.039031	<s> 大	-0.161651
-3.135941	<s> 大きい	-0.477404
-4.215122	<s> 大きく	-0.231394
-3.738001	<s> 大きな	-0.221849
-4.215122	<s> 大丈夫	-0.141329
-4.516152	<s> 大事	-0.182931
-3.101178	<s> 大分	0.165626
-3.817182	<s> 大切	0.154902
-4.039031	<s> 大地	-0.273001
-3.914092	<s> 大変	-0.365147
-3.561909	<s> 大好き	-0.554136
-2.402208	<s> 大学	0.093150
-4.516152	<s> 大枝
-1.987235	<s> 大阪	-0.204861
-3.914092	<s> 天気	-0.090177
-4.516152	<s> 太宰	-0.176091
-3.914092	<s> 太郎	-0.251471
-2.775789	<s> 太陽	0.219038
-3.312032	<s> 失敗	-0.264046
-4.039031	<s> 失礼	-0.045757
-4.516152	<s> 奇	-0.176091
-2.882683	<s> 契約	-0.249306
-4.215122	<s> 奥州
-3.312032	<s> 女	-0.213880
-3.516152	<s> 女の子	-0.285236
-2.853394	<s> 女性	-0.284048
-4.516152	<s> 奴隷	-0.176091
-4.516152	<s> 妃
-2.041936	<s> 妹	-0.632023
-2.040481	<s> 姉	-0.683872
-4.516152	<s> 始まり	-0.278754
-4.516152	<s> 始め	-0.273001
-4.215122	<s> 姫	-0.092754
-3.738001	<s> 姿	0.033424
-2.862939	<s> 娘	-0.505758
-3.914092	<s> 媒介	-0.443697
-4.516152	<s> 嫁い	0.066947
-3.101178	<s> 子	-0.600506
-2.083183	<s> 子供	-0.110144
-4.516152	<s> 子分	-0.176091
-4.215122	<s> 存在	-0.268845
-4.516152	<s> 季	-0.234083
-2.433366	<s> 学校	-0.490694
-2.185738	<s> 学生	-0.231609
-3.474759	<s> 宇宙	-0.116026
-4.516152	<s> 守る	-0.259637
-4.039031	<s> 安	-0.146128
-3.340061	<s> 安い	-0.343354
-4.516152	<s> 安心	-0.079181
-3.118212	<s> 完了	-0.753520
-3.613062	<s> 完全	-0.204120
-3.340061	<s> 宗教	-0.001970
-3.516152	<s> 実在	-0.000000
-3.193933	<s> 実行	-0.708050
-3.154424	<s> 実際	0.129095
-3.671054	<s> 実験	-0.408175
-4.215122	<s> 宮	-0.238882
-2.447966	<s> 家	-0.754843
-2.202285	<s> 家族	-0.367099
-3.914092	<s> 家紋	0.045757
-4.516152	<s> 家賃
-3.101178	<s> 宿題	0.754239
-3.237398	<s> 寒い	-0.344685
-3.817182	<s> 寝	0.012234
-4.039031	<s> 寝る	-0.353966
-3.671054	<s> 寝相
-4.039031	<s> 寝起き	0.096910
-3.215122	<s> 対応	-0.208567
-3.914092	<s> 対立	-0.221849
-3.817182	<s> 対象	-0.204120
-3.053754	<s> 将来	-0.321100
-3.561909	<s> 小	-0.134699
-2.997638	<s> 小さい	-0.391887
-3.613062	<s> 小さな	-0.188326
-4.039031	<s> 小林	-0.096910
-2.490846	<s> 少し	-0.065501
-3.436971	<s> 少年	-0.312929
-3.474759	<s> 尾	-0.045757
-4.516152	<s> 尾鰭
-4.516152	<s> 屈葬
-2.547669	<s> 屋上	-0.236912
-3.738001	<s> 展望	-0.204120
-2.738001	<s> 山	-0.333897
-4.039031	<s> 山中
-4.516152	<s> 山瀬	-0.176091
-4.039031	<s> 山門	-0.096910
-4.516152	<s> 山鹿	-0.176091
-4.516152	<s> 岐宿
-2.872699	<s> 岐阜	0.008774
-2.853394	<s> 岡山	-0.011738
-4.215122	<s> 岸田
-4.516152	<s> 島民
-4.516152	<s> 崎戸
-4.516152	<s> 嵐	-0.176091
-2.775789	<s> 川	-0.030949
-3.817182	<s> 州都
-2.552364	<s> 工場	-0.043854
-3.738001	<s> 左	-0.231609
-4.516152	<s> 己
-3.738001	<s> 市	-0.319959
-4.516152	<s> 布団
-4.215122	<s> 師	-0.221849
-4.215122	<s> 帰る	-0.299575
-4.215122	<s> 帰省	-0.176091
-4.516152	<s> 常識	-0.266268
-2.834911	<s> 帽子	0.104735
-4.516152	<s> 干
-3.613062	<s> 幸せ	-0.183024
-4.516152	<s> 幼
-3.260879	<s> 広い	-0.320275
-2.760277	<s> 広島	-0.270420
-4.215122	<s> 序	-0.255273
-2.538428	<s> 店	-0.514910
-4.516152	<s> 座っ
-2.511830	<s> 庭	-0.507066
-3.613062	<s> 廃	-0.356547
-4.039031	<s> 建物	-0.301030
-2.914092	<s> 弁当	0.352183
-3.914092	<s> 引き分け	-0.243038
-2.036145	<s> 弟	-0.658586
-4.039031	<s> 強い	-0.285790
-4.516152	<s> 強く	-0.283997
-3.817182	<s> 形	-0.170559
-4.516152	<s> 役所
-2.177695	<s> 彼	-0.092233
-3.118212	<s> 彼ら	-0.078195
-2.230595	<s> 彼女	-0.003335
-3.738001	<s> 待っ	0.301030
-4.516152	<s> 待つ	-0.243038
-2.221686	<s> 後輩	-0.682911
-4.516152	<s> 徐
-4.516152	<s> 徐行
-3.671054	<s> 御	-0.335792
-4.516152	<s> 御座
-4.516152	<s> 徳	-0.176091
-3.154424	<s> 徳島	0.146128
-3.402208	<s> 心	-0.003278
-3.817182	<s> 心配	-0.108548
-4.215122	<s> 必ず	-0.255273
-3.914092	<s> 必要	-0.403335
-4.039031	<s> 忘れ	-0.096910
-2.925087	<s> 忘れ物	0.369385
-4.516152	<s> 忙しい	-0.255273
-3.817182	<s> 忠	-0.079181
-4.516152	<s> 思わ	-0.249877
-4.215122	<s> 急	-0.124939
-4.516152	<s> 急い
-3.914092	<s> 性	-0.124939
-3.671054	<s> 怪我	-0.017729
-3.436971	<s> 恋愛	-0.025554
-4.516152	<s> 悠
-4.039031	<s> 悪い	-0.265798
-4.516152	<s> 悪寒
-4.516152	<s> 悪運	-0.221849
-3.671054	<s> 悪魔	-0.079181
-2.412348	<s> 情報	-0.456560
-4.516152	<s> 想像	-0.268845
-3.914092	<s> 意識	-0.213880
-4.516152	<s> 愚
-3.101178	<s> 愛	-0.240332
-4.516152	<s> 愛宕
-2.947950	<s> 愛知	0.021719
-4.516152	<s> 憎悪	-0.079181
-3.914092	<s> 成功	-0.009545
-2.903368	<s> 成績	-0.072910
-3.671054	<s> 成長	-0.318759
-4.039031	<s> 我	-0.221849
-3.402208	<s> 我々	-0.084321
-3.474759	<s> 戦争	-0.229718
-4.516152	<s> 所	-0.286307
-4.215122	<s> 扉	-0.079181
-3.402208	<s> 手	-0.350541
-4.516152	<s> 手相
-2.903368	<s> 手紙	0.176091
-4.516152	<s> 手続き
-4.215122	<s> 手芸	-0.380211
-3.738001	<s> 手術	-0.221849
-4.039031	<s> 批判	-0.218056
-3.237398	<s> 承認	-0.947760
-3.914092	<s> 技	-0.079181
-3.914092	<s> 技術	-0.273707
-4.516152	<s> 把
-4.215122	<s> 投網
-2.370024	<s> 担当	-0.961512
-4.215122	<s> 挨拶	-0.228479
-4.215122	<s> 捕虜	-0.255273
-4.039031	<s> 掃除	-0.291485
-3.613062	<s> 授業	-0.178884
-4.215122	<s> 探偵	-0.228479
-4.516152	<s> 接種
-4.516152	<s> 控
-2.903368	<s> 提案	-0.586820
-3.671054	<s> 携帯	-0.371611
-4.215122	<s> 改易
-3.671054	<s> 改札	0.176091
-4.039031	<s> 改造	-0.159701
-3.561909	<s> 政治	-0.313947
-4.516152	<s> 故	-0.176091
-4.039031	<s> 故に
-4.516152	<s> 救援
-4.039031	<s> 教え	-0.255273
-2.538428	<s> 教室	-0.280115
-3.817182	<s> 教師	-0.195396
-2.223896	<s> 教授	-0.737653
-3.135941	<s> 教科書	0.123198
-3.561909	<s> 教育	-0.159868
-4.516152	<s> 敦煌
-2.385818	<s> 数学	-0.295761
-4.039031	<s> 整数	-0.096910
-4.516152	<s> 敷設	-0.176091
-4.516152	<s> 文乃
-3.738001	<s> 文化	-0.227029
-3.914092	<s> 文句	-0.066947
-4.516152	<s> 文献	-0.243038
-4.039031	<s> 文章	-0.104735
-4.215122	<s> 斗	-0.213880
-2.576633	<s> 料理	-0.416470
-4.516152	<s> 斬
-3.193933	<s> 新しい	-0.285217
-4.516152	<s> 新幹線	-0.221849
-2.892903	<s> 新潟	-0.068881
-2.853394	<s> 新聞	0.005429
-3.914092	<s> 方向	-0.292256
-4.215122	<s> 方法	-0.153228
-4.039031	<s> 旅行	-0.332438
-4.516152	<s> 旗	-0.255273
-4.516152	<s> 既
-4.039031	<s> 既に	-0.221849
-3.516152	<s> 日	-0.400281
-3.914092	<s> 日常	-0.036984
-2.204398	<s> 日本	-0.266268
-2.853394	<s> 日本人	-0.370136
-2.882683	<s> 日本語	-0.001371
-4.516152	<s> 早く	-0.263241
-4.516152	<s> 昇
-4.516152	<s> 明らか	0.221849
-2.191869	<s> 明日	-0.035510
-3.671054	<s> 昔	0.087150
-2.745300	<s> 星	-0.048963
-2.591873	<s> 映画	-0.225756
-2.208656	<s> 昨日	-0.000000
-4.215122	<s> 是
-2.171760	<s> 昼	0.047297
-3.436971	<s> 時	-0.316236
-3.613062	<s> 時代	-0.217693
-2.914092	<s> 時計	0.159772
-3.613062	<s> 時間	-0.301030
-2.947950	<s> 晩	-0.647535
-3.340061	<s> 普通	-0.048692
-4.215122	<s> 暇	-0.255273
-3.154424	<s> 暑い	-0.365022
-4.516152	<s> 曜日	-0.176091
-4.516152	<s> 書い	0.159701
-4.516152	<s> 書く	-0.291046
-2.882683	<s> 書類	0.069636
-3.173729	<s> 最も	-0.212224
-3.260879	<s> 最初	-0.007825
-3.613062	<s> 最大	-0.138303
-3.084788	<s> 最後	-0.248539
-3.914092	<s> 最高	-0.243038
-2.738001	<s> 月	-0.316678
-4.516152	<s> 月曜日	0.176091
-4.516152	<s> 有	-0.263241
-3.738001	<s> 有名	-0.778882
-2.903368	<s> 服	-0.045458
-2.119952	<s> 朝	-0.025705
-2.775789	<s> 木	0.076877
-3.516152	<s> 未来	-0.155608
-2.709972	<s> 本	-0.096276
-3.340061	<s> 本当に	-0.155525
-4.516152	<s> 李	-0.176091
-3.068994	<s> 材料	-0.504935
-3.561909	<s> 村	-0.049485
-4.215122	<s> 村長	-0.273001
-4.516152	<s> 来	-0.235528
-4.516152	<s> 来る	-0.300351
-3.516152	<s> 東	-0.169252
-1.676046	<s> 東京	-0.330434
-4.215122	<s> 東雲
-4.215122	<s> 林	-0.246672
-3.817182	<s> 柄	-0.434924
-4.039031	<s> 柏	0.263241
-4.516152	<s> 柳	-0.176091
-4.516152	<s> 校庭
-4.215122	<s> 根	-0.184524
-4.039031	<s> 桂	-0.146128
-4.039031	<s> 桜	-0.176091
-2.716811	<s> 森	-0.303897
-3.914092	<s> 検査	-0.066947
-3.237398	<s> 検討	-1.231247
-4.516152	<s> 検閲	-0.268845
-3.914092	<s> 楓
-4.215122	<s> 業務	-0.419129
-4.039031	<s> 楽しい	-0.124939
-4.215122	<s> 楽しみ	-0.196295
-4.516152	<s> 楽屋
-4.516152	<s> 概ね	0.176091
-4.516152	<s> 概念	-0.285790
-4.215122	<s> 榊	-0.124939
-4.516152	<s> 榎並
-4.516152	<s> 榎木
-3.817182	<s> 構造	-0.437613
-4.516152	<s> 標	-0.221849
-4.516152	<s> 模様	-0.283997
-3.068994	<s> 横浜	0.440209
-3.561909	<s> 樹	-0.471517
-4.215122	<s> 機	-0.235763
-2.892903	<s> 機械	-0.010119
-4.516152	<s> 櫓	-0.079181
-2.825956	<s> 次	-0.335792
-4.516152	<s> 欧
-3.914092	<s> 欧米	-0.079181
-4.516152	<s> 止まる	-0.297752
-4.215122	<s> 歩き	-0.414973
-3.914092	<s> 歩く	-0.296658
-3.817182	<s> 歯	0.138303
-4.516152	<s> 歯医者
-3.613062	<s> 歴史	-0.263112
-3.516152	<s> 死	-0.176091
-4.215122	<s> 残っ	0.464887
-3.039031	<s> 母親	-0.352801
-2.246639	<s> 毎日	-0.078794
-2.189816	<s> 毎晩
-2.198088	<s> 毎朝	-0.000000
-4.516152	<s> 比較	-0.297825
-2.997638	<s> 気	-0.044670
-3.154424	<s> 気持ち	-0.654551
-2.882683	<s> 水	-0.015457
-4.516152	<s> 水族館	-0.243038
-4.516152	<s> 水泳	-0.283301
-4.516152	<s> 永	-0.263241
-3.260879	<s> 決定	-1.223236
-3.312032	<s> 沖縄	-0.244712
-4.215122	<s> 河童
-4.039031	<s> 泉	-0.230449
-4.039031	<s> 法律	-0.176091
-4.516152	<s> 泣く	-0.297650
-4.516152	<s> 注射
-3.817182	<s> 注意	-0.099457
-4.039031	<s> 注文	-0.193820
-3.914092	<s> 泳ぐ	-0.460480
-4.215122	<s> 洗濯	-0.124939
-2.677303	<s> 海	-0.005925
-4.516152	<s> 海野
-4.215122	<s> 涙	-0.057992
-4.516152	<s> 添田
-4.215122	<s> 渋滞
-4.516152	<s> 渡
-3.193933	<s> 温泉	-0.071356
-4.516152	<s> 測定	-0.297302
-4.516152	<s> 湊
-4.039031	<s> 湖	-0.196295
-4.215122	<s> 湯	-0.221849
-4.516152	<s> 満足
-2.882683	<s> 準備	-1.053578
-4.516152	<s> 瀬	-0.176091
-3.817182	<s> 火	-0.102305
-3.436971	<s> 炉	-0.243038
-3.914092	<s> 炎	-0.314394
-4.516152	<s> 焔
-3.738001	<s> 無	-0.278754
-4.516152	<s> 無限	-0.176091
-4.215122	<s> 焼津
-4.516152	<s> 煮	-0.079181
-3.084788	<s> 熊本	-0.753883
-3.817182	<s> 熱	-0.124939
-3.738001	<s> 燕	-0.129095
-2.903368	<s> 父	-0.573510
-3.738001	<s> 物事	0.087150
-2.444270	<s> 物理	-0.169029
-4.215122	<s> 物質	-0.176091
-2.984673	<s> 特に	-0.137370
-4.039031	<s> 特殊	-0.124939
-2.635338	<s> 犬	-0.782020
-3.817182	<s> 状態	-0.449512
-3.914092	<s> 状況	-0.234083
-4.039031	<s> 狐	-0.226396
-3.237398	<s> 独立	-0.167469
-4.516152	<s> 狭い	-0.263241
-4.516152	<s> 狼	-0.221849
-2.641091	<s> 猫	-0.743212
-2.586733	<s> 玄関	-0.270501
-3.613062	<s> 王	-0.314303
-4.516152	<s> 班渓
-3.671054	<s> 現	-0.063669
-2.101178	<s> 現在	-0.137088
-3.914092	<s> 現実	0.096910
-3.370024	<s> 理由	-0.617480
-3.817182	<s> 理論	-0.148420
-3.817182	<s> 環境	-0.109144
-3.312032	<s> 生まれ	-0.688999
-3.738001	<s> 生命	-0.210853
-4.215122	<s> 生活	-0.459392
-3.671054	<s> 生物	-0.245513
-4.039031	<s> 田
-3.817182	<s> 田舎	-0.191886
-4.215122	<s> 由乃
-4.516152	<s> 甲	-0.221849
-3.260879	<s> 申請	-1.212376
-3.068994	<s> 男	-0.410594
-4.039031	<s> 町	-0.287725
-4.039031	<s> 画面	-0.176091
-4.516152	<s> 留守	-0.176091
-4.516152	<s> 疲れ	-0.266268
-3.561909	<s> 病気	-0.128399
-2.529380	<s> 病院	-0.249987
-4.516152	<s> 痔	-0.176091
-4.516152	<s> 痛い	-0.221849
-3.237398	<s> 登録	-0.960773
-4.039031	<s> 的	-0.174157
-3.436971	<s> 監督	-0.486667
-3.154424	<s> 目	-0.299671
-4.516152	<s> 目上
-2.825956	<s> 目標	-0.099739
-3.817182	<s> 目的	-0.407848
-4.215122	<s> 相	-0.187087
-3.237398	<s> 相手	-0.111237
-3.237398	<s> 相談	-0.954756
-3.135941	<s> 県	-0.937406
-3.817182	<s> 眼	-0.567298
-4.215122	<s> 眼科
-2.800148	<s> 眼鏡	0.089731
-4.516152	<s> 着	-0.287242
-4.039031	<s> 睦月
-4.215122	<s> 瞬
-3.817182	<s> 瞬間	-0.129095
-4.516152	<s> 瞼
-4.039031	<s> 矢	-0.096910
-4.215122	<s> 矢代
-4.516152	<s> 矢尻
-4.516152	<s> 矢沢
-4.516152	<s> 知
-3.738001	<s> 知ら	-0.092314
-3.817182	<s> 知識	-0.136220
-4.516152	<s> 石庵
-3.914092	<s> 砂漠	-0.090177
-3.914092	<s> 研究	-0.359584
-4.039031	<s> 硝子
-3.237398	<s> 確認	-0.954731
-4.516152	<s> 磯子	-0.176091
-4.516152	<s> 磯部
-4.516152	<s> 社内
-2.429792	<s> 社長	-0.520764
-4.516152	<s> 祖	-0.263241
-4.516152	<s> 神代
-2.337175	<s> 神奈川	-0.465840
-2.576633	<s> 神社	-0.282932
-4.516152	<s> 祭神
-4.516152	<s> 禍	-0.176091
-2.641091	<s> 福岡	0.139799
-3.193933	<s> 福島	-0.494850
-4.039031	<s> 福音	0.066947
-4.516152	<s> 秀平
-4.516152	<s> 秀才
-2.552364	<s> 私	0.014593
-4.516152	<s> 私的
-4.516152	<s> 秋分
-4.516152	<s> 科	-0.289749
-3.340061	<s> 科学	-0.096910
-4.215122	<s> 秘密	-0.072551
-4.516152	<s> 秩父	0.301030
-3.154424	<s> 移動	-0.180032
-4.516152	<s> 移築	-0.249877
-4.039031	<s> 種	-0.227244
-4.516152	<s> 種材
-4.516152	<s> 穂積
-2.716811	<s> 空	0.045757
-4.516152	<s> 空気	-0.255273
-2.538428	<s> 空港	-0.370666
-2.602338	<s> 窓	-0.373137
-3.914092	<s> 立派	0.096910
-4.215122	<s> 笑う	-0.470228
-3.914092	<s> 笑顔	-0.176091
-4.215122	<s> 筆記
-3.237398	<s> 等	-0.353882
-3.914092	<s> 答え	-0.414973
-4.516152	<s> 筵
-3.068994	<s> 管理	-0.663518
-4.516152	<s> 箭
-3.817182	<s> 簡単	-0.343153
-4.516152	<s> 粘
-3.340061	<s> 精神	-0.234083
-3.914092	<s> 約束	-0.090177
-3.671054	<s> 紅葉	-0.000000
-4.039031	<s> 紗	-0.301030
-2.903368	<s> 紙	-0.014086
-4.516152	<s> 細
-4.215122	<s> 紳士	-0.124939
-4.516152	<s> 終わっ	0.016390
-4.516152	<s> 終わり	-0.268845
-4.516152	<s> 経済	-0.261521
-4.516152	<s> 経験	-0.290306
-4.215122	<s> 結	-0.176091
-4.215122	<s> 結合	-0.176091
-3.193933	<s> 結婚	-0.131041
-4.516152	<s> 結婚式	-0.176091
-4.039031	<s> 結局	-0.096910
-3.084788	<s> 結果	-0.403420
-4.516152	<s> 統一	-0.255273
-3.285703	<s> 絵	-0.118027
-3.817182	<s> 絶対	-0.358431
-4.516152	<s> 続け	-0.072551
-4.215122	<s> 綺麗	-0.255273
-3.613062	<s> 緑	-0.363357
-4.516152	<s> 編著
-3.738001	<s> 練習	-0.081510
-4.516152	<s> 縮
-3.914092	<s> 羊	-0.265314
-3.914092	<s> 美しい	-0.208276
-2.597074	<s> 美術館	-0.384022
-3.193933	<s> 群馬	0.037789
-3.613062	<s> 義	-0.116165
-4.516152	<s> 義方
-4.516152	<s> 義母
-3.914092	<s> 羽	-0.025554
-4.516152	<s> 羽音
-4.516152	<s> 翔子	-0.176091
-3.817182	<s> 考え	-0.074634
-4.516152	<s> 考える	-0.285790
-3.613062	<s> 耳	-0.104735
-4.516152	<s> 聞く	-0.255273
-3.738001	<s> 肉	0.028029
-4.516152	<s> 肢
-4.516152	<s> 育児	-0.176091
-4.516152	<s> 胃
-2.959849	<s> 背	0.041393
-3.118212	<s> 胸	-0.310666
-4.516152	<s> 脂	-0.204120
-4.215122	<s> 膝	-0.191886
-4.516152	<s> 膠	-0.176091
-4.215122	<s> 自	-0.124939
-2.775789	<s> 自分	-0.115393
-4.039031	<s> 自己	-0.313619
-3.436971	<s> 自由	-0.219038
-3.474759	<s> 自身	-0.076634
-3.474759	<s> 自転車	0.325854
-4.516152	<s> 興味	-0.228479
-4.516152	<s> 良	-0.259637
-4.516152	<s> 良い	-0.291690
-2.507552	<s> 花	-0.019785
-4.516152	<s> 芸妓	-0.221849
-3.914092	<s> 芽	-0.079181
-4.215122	<s> 苦労	0.221849
-2.296044	<s> 英語	-0.670206
-3.312032	<s> 茨城
-3.914092	<s> 茶	-0.159701
-4.516152	<s> 茶々	-0.176091
-2.872699	<s> 荷物	0.208999
-4.215122	<s> 荻野
-4.516152	<s> 華鈴
-3.402208	<s> 葉	-0.199572
-3.671054	<s> 著名	-0.415852
-4.516152	<s> 蒼
-2.925087	<s> 薬	-0.051090
-4.215122	<s> 藍	-0.176091
-4.516152	<s> 藍色
-4.215122	<s> 藤	-0.204120
-2.683643	<s> 虫	-1.037195
-4.516152	<s> 蚊
-4.516152	<s> 血	-0.238882
-4.516152	<s> 行う	-0.261878
-4.215122	<s> 行っ	0.860338
-3.671054	<s> 行動	-0.272577
-3.671054	<s> 街	-0.225309
-4.516152	<s> 衣	-0.255273
-3.914092	<s> 表	-0.162727
-4.039031	<s> 表情
-4.516152	<s> 表現	-0.293343
-3.068994	<s> 装置	-0.677251
-3.671054	<s> 製作	-0.344496
-3.914092	<s> 西	-0.380211
-3.817182	<s> 要	-0.094976
-4.516152	<s> 要求	-0.096910
-4.516152	<s> 要素	-0.136220
-3.436971	<s> 見	-0.366246
-4.516152	<s> 見る	-0.299550
-4.039031	<s> 見学	-0.176091
-2.903368	<s> 見積	0.316270
-4.516152	<s> 覚え	-0.041393
-4.516152	<s> 親子	0.176091
-3.474759	<s> 観光	0.104005
-4.516152	<s> 解決	-0.249877
-4.516152	<s> 言い	-0.278754
-4.516152	<s> 言う	-0.288796
-3.436971	<s> 言葉	0.001934
-3.613062	<s> 言語	0.046636
-3.154424	<s> 計画	-0.745758
-3.561909	<s> 計算	-0.560361
-3.914092	<s> 記録	-0.266268
-3.613062	<s> 設計	0.343228
-3.561909	<s> 試合	-0.119799
-3.516152	<s> 試験	0.006839
-3.474759	<s> 詩	0.010100
-4.039031	<s> 話	-0.284900
-4.215122	<s> 話す	-0.274701
-4.516152	<s> 話者	-0.176091
-4.039031	<s> 誕生	-0.209950
-4.039031	<s> 語	-0.263241
-3.738001	<s> 誠	-0.096910
-3.193933	<s> 説明	-0.713289
-3.613062	<s> 読み	-0.242052
-3.312032	<s> 読書	-0.423324
-3.053754	<s> 誰	0.024749
-2.444270	<s> 課長	-0.232488
-3.135941	<s> 課題	0.044017
-4.516152	<s> 調整	-0.297569
-3.101178	<s> 論文	0.160851
-4.516152	<s> 論理	-0.154902
-3.671054	<s> 諱
-3.193933	<s> 謎	-0.480914
-4.516152	<s> 議決
-4.215122	<s> 豊島	0.367977
-4.215122	<s> 豪快
-4.516152	<s> 貞雄
-4.215122	<s> 負ける	-0.162727
-2.882683	<s> 財布	0.258278
-4.215122	<s> 貧乏	-0.154902
-4.516152	<s> 貨幣	-0.234083
-3.613062	<s> 貫通	-0.205249
-4.215122	<s> 責任	-0.419129
-4.215122	<s> 貯蔵	-0.057992
-4.516152	<s> 貯金	-0.234083
-4.516152	<s> 貴
-4.215122	<s> 買い	1.010724
-4.215122	<s> 買い物	-0.243038
-4.215122	<s> 貿易	-0.166331
-4.516152	<s> 賀	-0.176091
-4.516152	<s> 資	-0.221849
-2.892903	<s> 資料	-0.788370
-4.516152	<s> 賎民
-4.215122	<s> 賞金	-0.330993
-4.516152	<s> 質問	-0.249877
-4.516152	<s> 賭博
-4.516152	<s> 贈答
-3.613062	<s> 赤	-0.169625
-3.024790	<s> 赤い	-0.399990
-3.817182	<s> 赤ちゃん	-0.109144
-3.914092	<s> 赤毛
-4.215122	<s> 赤池
-4.215122	<s> 走っ	0.051153
-4.039031	<s> 走る	-0.395124
-4.516152	<s> 起伏	-0.176091
-4.516152	<s> 超人	-0.079181
-1.769518	<s> 趣味	-1.335419
-4.516152	<s> 足寄
-4.516152	<s> 足湯	-0.079181
-4.516152	<s> 足跡	-0.176091
-3.193933	<s> 跡地	0.036212
-4.516152	<s> 路
-4.039031	<s> 踊る	-0.104735
-4.215122	<s> 蹄	-0.057992
-4.039031	<s> 身	-0.176091
-3.613062	<s> 身体	-0.066947
-4.516152	<s> 身幅
-3.671054	<s> 車	-0.115393
-4.215122	<s> 軍人	-0.372386
-3.817182	<s> 輪	-0.280827
-4.215122	<s> 返事	0.176091
-4.516152	<s> 退院	-0.176091
-3.154424	<s> 連絡	-0.677939
-4.516152	<s> 週末	-0.176091
-4.516152	<s> 遅れ	-0.255273
-4.516152	<s> 遊び	-0.293606
-4.516152	<s> 遊ぶ	-0.281434
-4.215122	<s> 運	-0.234083
-3.671054	<s> 運動	-0.249443
-3.671054	<s> 運転	-0.141217
-3.613062	<s> 道	-0.212869
-4.039031	<s> 道具	-0.348722
-3.436971	<s> 達成	-0.346787
-4.215122	<s> 違い	-0.236572
-4.039031	<s> 違う	-0.268030
-4.215122	<s> 遠慮
-4.516152	<s> 適応	-0.154902
-3.817182	<s> 選挙	0.702175
-4.215122	<s> 遺骨
-4.039031	<s> 避暑
-4.039031	<s> 邪悪	0.079181
-2.433366	<s> 部下	-0.646661
-2.552364	<s> 部屋	-0.247447
-2.408942	<s> 部長	-0.847090
-3.671054	<s> 都	-0.318030
-3.084788	<s> 配線	-0.272066
-4.215122	<s> 酢	-0.255273
-4.215122	<s> 野	-0.191886
-3.101178	<s> 野球	-0.223558
-4.215122	<s> 野田	-0.191886
-2.903368	<s> 野菜	0.287242
-4.039031	<s> 金曜日	-0.301030
-4.516152	<s> 鈍い	-0.234083
-3.914092	<s> 銀行	-0.261521
-4.039031	<s> 録音	-0.313619
-2.936368	<s> 鍵	0.156721
-3.914092	<s> 鏡	-0.213880
-3.260879	<s> 長い	-0.321398
-2.925087	<s> 長野	-0.681241
-4.215122	<s> 門前
-4.039031	<s> 開け	-0.096910
-3.436971	<s> 開発	-0.203675
-4.039031	<s> 間違い	-0.326584
-3.516152	<s> 関係	-0.718566
-4.215122	<s> 降り	-0.221849
-4.516152	<s> 限定	-0.285790
-4.516152	<s> 院	-0.255273
-4.516152	<s> 院内
-2.223896	<s> 院生
-4.516152	<s> 除去
-4.215122	<s> 陰	-0.404571
-3.671054	<s> 陰陽
-3.914092	<s> 階段	-0.124939
-3.817182	<s> 隣	-0.010995
-4.215122	<s> 雄	-0.204120
-4.516152	<s> 集め	-0.257564
-4.516152	<s> 雑貨	-0.176091
-4.516152	<s> 雑魚
-4.516152	<s> 雛
-4.039031	<s> 離れ	-0.187087
-4.215122	<s> 難しい	-0.237361
-4.516152	<s> 難破
-2.723760	<s> 雨	-0.339948
-2.791876	<s> 雪	0.018327
-3.914092	<s> 雲	-0.176091
-4.516152	<s> 雷雨
-3.068994	<s> 電池	-0.248324
-3.053754	<s> 電源	0.025554
-2.936368	<s> 電話	-0.238068
-3.817182	<s> 電車	0.224940
-4.516152	<s> 露	-0.221849
-3.817182	<s> 青	-0.187372
-3.053754	<s> 青い	-0.411690
-3.312032	<s> 青森	0.176091
-4.215122	<s> 静か	-0.259637
-4.516152	<s> 非	-0.274701
-3.193933	<s> 非常	0.383217
-3.817182	<s> 面白い	-0.138303
-2.925087	<s> 靴	0.005351
-2.862939	<s> 鞄	0.079181
-3.817182	<s> 音声
-2.624057	<s> 音楽	0.009356
-4.516152	<s> 響
-2.791876	<s> 頭	-0.471172
-4.215122	<s> 頼	-0.162727
-2.738001	<s> 風	-0.030735
-4.215122	<s> 風呂	-0.062148
-4.516152	<s> 風邪	-0.176091
-4.039031	<s> 飛ぶ	-0.349091
-3.914092	<s> 飛行機	-0.037789
-4.215122	<s> 食べ	-0.216709
-3.613062	<s> 食べる	-0.383489
-3.671054	<s> 食事	-0.353736
-2.561909	<s> 食堂	-0.312674
-2.925087	<s> 食材	0.065063
-4.516152	<s> 飢え	0.301030
-3.817182	<s> 飲
-4.215122	<s> 飲む	-0.295474
-3.914092	<s> 首	-0.342423
-3.613062	<s> 首都	-0.196295
-4.039031	<s> 香	-0.552842
-2.696608	<s> 馬	-0.925366
-2.516152	<s> 駅	-0.576905
-3.154424	<s> 高い	-0.357348
-3.024790	<s> 高知	-0.012965
-4.516152	<s> 魅	-0.176091
-4.215122	<s> 魏
-4.039031	<s> 魔	-0.138303
-3.561909	<s> 魔法	-0.109405
-3.914092	<s> 魔神	-0.176091
-2.486768	<s> 魚	-0.058555
-4.516152	<s> 鯰
-4.215122	<s> 鱗
-2.602338	<s> 鳥	-0.765407
-4.516152	<s> 鳳
-4.516152	<s> 鳴く	-0.293606
-4.516152	<s> 鶉
-3.084788	<s> 鹿児島	-0.111150
-4.516152	<s> 麗	-0.176091
-4.215122	<s> 黄	-0.234083
-3.738001	<s> 黒い	-0.204120
-3.370024	<s> 黒板
-4.516152	<s> 鼻腔
-0.812913	あ </s>
-0.812913	あ さ	-0.299451
-1.113943	あ そう	-0.297426
-1.113943	あ ば	-0.290811
-0.812913	あ や	-0.295498
-0.301030	あいだ に	-0.280472
-0.602060	あそこ は	-0.300809
-0.602060	あそこ まで	-0.300355
-0.845098	あたり </s>
-0.845098	あたり は	-0.299924
-0.544068	あたり も	-0.476168
-0.024824	あっ た	-0.530790
-2.296665	あっ たら	-0.279841
-1.451567	あっ て	-0.425403
-1.332438	あなた が	-0.300408
-1.633468	あなた と	-0.300576
-1.332438	あなた なら	-0.465222
-1.156347	あなた に	-0.298819
-0.679226	あなた の	-0.330266
-0.855317	あなた は	-0.394762
-1.633468	あなた まで	-0.300355
-1.332438	あなた も	-0.294508
-1.633468	あなた よ	0.256448
-1.633468	あなた ら	-0.218056
-1.332438	あなた を	-0.300791
-1.633468	あなた 自身	-0.289448
-1.361728	あの とき	-0.242052
-1.361728	あの よう	0.058778
-0.662758	あの 人	-0.173808
-1.361728	あの 子供	-0.214963
-1.060698	あの 日	-0.190205
-1.361728	あの 時代	-0.294081
-1.361728	あの 男	-0.289550
-1.361728	あの 経験	-0.290306
-1.361728	あの 美術館	-0.298201
-1.562293	あまり い	-0.162996
-1.863323	あまり この	-0.299883
-1.863323	あまり でき	0.084321
-1.863323	あまり ない	0.274747
-0.960233	あまり よく	-0.680901
-1.562293	あまり 一般	-0.222667
-1.863323	あまり 上手	-0.179296
-1.863323	あまり 人	-0.242620
-1.863323	あまり 人気	-0.040117
-1.863323	あまり 似	0.057992
-1.085172	あまり 使わ	-0.466463
-1.562293	あまり 使用	-0.273001
-1.863323	あまり 元気	-0.299935
-1.863323	あまり 出	-0.242052
-1.863323	あまり 出番	-0.162727
-1.863323	あまり 勉強	-0.286696
-1.863323	あまり 問題	-0.268149
-1.562293	あまり 変わら	0.159701
-1.863323	あまり 大きな	-0.282547
-1.562293	あまり 強く	-0.423876
-1.863323	あまり 日常	-0.079181
-1.863323	あまり 病気	-0.245513
-1.863323	あまり 目	-0.295567
-1.863323	あまり 科学	-0.288256
-1.863323	あまり 練習	-0.286790
-1.386202	あまり 見	-0.558739
-1.863323	あまり 高い	-0.287457
-0.653213	あまりに も	-0.300649
-0.954243	あまりに よく	-0.299666
-0.954243	あまりに 急	-0.249877
-0.954243	あまりに 早く	-0.263241
-0.434369	あり </s>
-1.638489	あり え	-0.404571
-1.638489	あり そう	-0.267463
-1.939519	あり ながら	-0.268845
-1.462398	あり まし	0.592917
-1.094421	あり ます	-0.051153
-0.577791	あり ませ	-0.626884
-1.939519	あり ソ	-0.243038
-1.939519	あり 常識	-0.187087
-1.462398	あり 得	-0.546543
-1.939519	あり 研究	-0.270918
-0.020203	ありがとう ござい	0.156786
-0.079979	ある </s>
-3.116608	ある ある	-0.300033
-2.639486	ある か	-0.421263
-3.116608	ある から	-0.292323
-2.639486	ある が	-0.300408
-3.116608	ある くらい	-0.243038
-3.116608	ある けど	-0.271067
-1.861335	ある こと	-0.195226
-3.116608	ある し	-0.296117
-2.639486	ある ため	-0.148125
-2.815578	ある だけ	-0.136583
-3.116608	ある だろ	0.765917
-3.116608	ある でしょ	-0.264818
-2.037426	ある と	-0.450700
-2.338456	ある という	-0.677816
-3.116608	ある とき	-0.287019
-3.116608	ある ところ	-0.236912
-3.116608	ある なら	-0.295121
-2.162365	ある の	-0.501138
-2.815578	ある もの	-0.113831
-3.116608	ある よ	0.256448
-2.417638	ある よう	1.001377
-2.271510	ある らしい	0.452298
-2.639486	ある ん	-0.227050
-3.116608	ある イベント	-0.263959
-3.116608	ある システム	-0.291887
-2.639486	ある ソフトウェア	-0.246672
-3.116608	ある チーム	-0.102196
-3.116608	ある ラーメン	-0.280827
-3.116608	ある ルート	-0.176091
-3.116608	ある 世界	-0.271067
-3.116608	ある 中	-0.202222
-3.116608	ある 人	-0.274884
-3.116608	ある 兄	-0.113040
-3.116608	ある 哲学	-0.070581
-2.815578	ある 国	-0.386945
-2.815578	ある 地域	-0.273878
-3.116608	ある 地球	-0.249877
-2.639486	ある 場所	-0.179296
-3.116608	ある 夜	-0.287187
-3.116608	ある 大学	-0.282196
-2.815578	ある 小さな	-0.275476
-3.116608	ある 山	-0.292757
-2.815578	ある 市	-0.174114
-3.116608	ある 店	-0.294006
-3.116608	ある 悪い	-0.295353
-3.116608	ある 教育	-0.235528
-3.116608	ある 方向	-0.225309
-2.075215	ある 日	-0.686668
-3.116608	ある 時	-0.218843
-3.116608	ある 本	-0.294643
-3.116608	ある 様子	0.019305
-2.815578	ある 模様	-0.176091
-3.116608	ある 歴史	-0.293851
-3.116608	ある 海	-0.298437
-3.116608	ある 海辺
-2.639486	ある 温泉	-0.545332
-3.116608	ある 町	-0.253605
-3.116608	ある 目的	-0.228479
-2.815578	ある 秘密	-0.280827
-2.815578	ある 種	-0.185046
-2.815578	ある 者	-0.083184
-3.116608	ある 街	-0.255273
-3.116608	ある 観光	0.079181
-3.116608	ある 週末	-0.176091
-3.116608	ある 部分	-0.274701
-3.116608	ある 雨	-0.273001
-3.116608	ある 雪	-0.293792
-1.230449	あるいは そう	-0.297426
-0.753328	あるいは その	-0.294006
-0.929419	あるいは と	-0.296584
-1.230449	あるいは 刃	-0.255273
-1.230449	あるいは 問題	-0.253257
-1.230449	あるいは 虫	-0.297569
-1.230449	あるいは 行っ	0.119975
-1.397940	あれ が	-0.300961
-1.397940	あれ だ	-0.261067
-0.552842	あれ は	-0.295471
-0.698970	あれ ば	-0.235763
-1.096910	あれ ほど	-0.267606
-1.397940	あれ も	-0.300840
-1.397940	あれ を	-0.300791
-0.698970	あん ご	-0.276206
-0.397940	あん 子	-0.422074
-0.301030	あー </s>
-0.504634	い た	-0.266277
-2.703291	い たら	-0.279841
-2.703291	い だ	-0.299436
-2.703291	い つ	-0.263241
-1.341564	い て	-0.571125
-0.288318	い ない	-0.326300
-1.402261	い なかっ	0.842269
-2.004321	い なく	-0.164706
-2.703291	い ぬ	-0.255273
-2.101231	い まし	0.496007
-1.703291	い ます	-0.069636
-2.226170	い ませ	0.151268
-2.226170	い られ	-0.439757
-2.703291	い 薬	-0.297100
-0.302750	いい </s>
-2.102091	いい か	-0.285790
-2.403121	いい こと	-0.300519
-2.102091	いい し	-0.472208
-2.403121	いい ぜ	0.176091
-2.403121	いい だろ	0.765917
-2.102091	いい で	-0.449892
-2.403121	いい でしょ	0.494850
-1.704151	いい です	0.690196
-1.801061	いい と	-0.470953
-2.403121	いい ところ	-0.292430
-2.102091	いい な	-0.472315
-1.704151	いい の	-0.419321
-2.102091	いい ゆ	-0.204120
-1.925999	いい よ	-0.044582
-1.925999	いい らしい	0.753328
-1.558022	いい ん	-0.239284
-2.102091	いい 人	-0.220872
-2.403121	いい 友人	-0.291046
-2.102091	いい 名前	-0.469943
-2.403121	いい 夢	-0.239760
-1.925999	いい 太陽	-0.244914
-1.925999	いい 子	-0.132626
-2.403121	いい 成績	-0.298689
-2.403121	いい 所	-0.271067
-2.102091	いい 日	-0.469225
-1.925999	いい 星	-0.332064
-2.403121	いい 時代	-0.294081
-1.925999	いい 月	-0.330082
-2.403121	いい 木	-0.032624
-2.403121	いい 森	-0.008544
-2.102091	いい 海	-0.170890
-2.403121	いい 湯	-0.276206
-2.102091	いい 男	-0.277759
-2.403121	いい 目	-0.261263
-2.403121	いい 老婆	-0.096910
-1.925999	いい 花	-0.413839
-2.403121	いい 雨	-0.017729
-1.801061	いい 雪	-0.269397
-2.403121	いい 音楽	-0.298947
-2.403121	いい 風	0.005830
-2.403121	いい 馬	-0.294450
-0.301030	いくら か	-0.255688
-0.778151	いくら 走っ	-0.045757
-0.397940	いただき たい	-0.304410
-0.698970	いただき ます	0.215600
-0.301030	いっ た	-0.036926
-0.522879	いっ て	-0.301612
-0.602060	いっしょ </s>
-0.602060	いっしょ に	-0.300726
-1.041393	いっぱい </s>
-0.740363	いっぱい ある	0.475134
-1.041393	いっぱい いる	0.610352
-1.041393	いっぱい に	-0.292659
-1.041393	いっぱい まで	-0.296284
-1.361728	いつ だって	-0.255273
-0.458638	いつ でも	-0.376794
-1.361728	いつ なっ	-0.116132
-1.060698	いつ の	-0.476547
-0.759668	いつ まで	-0.693541
-1.361728	いつ 遊ぶ	-0.294596
-0.056820	いる </s>
-2.940765	いる か	-0.275986
-3.241795	いる から	-0.292323
-2.940765	いる が	-0.300685
-1.736645	いる こと	-0.012078
-2.764674	いる ため	-0.144122
-3.241795	いる だけ	-0.156786
-3.241795	いる だろ	0.765917
-2.127852	いる と	-0.342953
-2.764674	いる という	-0.434778
-2.940765	いる とき	-0.209260
-2.940765	いる ところ	-0.422764
-3.241795	いる な	-0.296224
-3.241795	いる なら	-0.295121
-2.037675	いる の	-0.424340
-3.241795	いる ので	-0.281725
-2.241795	いる もの	-0.168718
-3.241795	いる よ	0.256448
-2.764674	いる よう	0.015387
-2.200403	いる らしい	0.276206
-2.639735	いる ん	-0.063193
-3.241795	いる 一	-0.078639
-3.241795	いる 世界	-0.271067
-3.241795	いる 中	-0.202222
-2.764674	いる 人	-0.315428
-2.940765	いる 人々	-0.410174
-3.241795	いる 以上	-0.265314
-3.241795	いる 会社	-0.299575
-3.241795	いる 兄	-0.113040
-3.241795	いる 内容	-0.289894
-3.241795	いる 割	-0.124939
-3.241795	いる 化学	-0.295239
-3.241795	いる 地域	-0.273878
-2.940765	いる 場合	-0.322219
-3.241795	いる 場所	-0.260601
-3.241795	いる 塔頭	-0.221849
-3.241795	いる 女	-0.263241
-3.241795	いる 子供	-0.284874
-3.241795	いる 存在	-0.240923
-3.241795	いる 学校	-0.299087
-3.241795	いる 宇宙	-0.290035
-3.241795	いる 弟	-0.021379
-3.241795	いる 情報	-0.293251
-3.241795	いる 扉	-0.146128
-3.241795	いる 掃除	-0.281725
-3.241795	いる 日本	-0.298115
-2.764674	いる 時	-0.366906
-2.764674	いる 普通	-0.375276
-3.241795	いる 最初	-0.151732
-3.241795	いる 本	-0.281581
-3.241795	いる 様子	0.019305
-3.241795	いる 様式	-0.176091
-2.639735	いる 模様	-0.397940
-3.241795	いる 相手	-0.271741
-3.241795	いる 研究	-0.294751
-3.241795	いる 者	-0.094976
-3.241795	いる 音楽	-0.281914
-0.954243	いろいろ と	-0.300463
-0.255273	いろいろ な	-0.330481
-1.255273	いろいろ 元気	0.394671
-1.255273	いろいろ 考え	-0.236089
-0.903090	いろんな こと	-0.280656
-0.903090	いろんな ところ	-0.274701
-0.903090	いろんな 愛	-0.291485
-0.903090	いろんな 経験	-0.219725
-1.176091	いわゆる で	-0.413726
-1.477121	いわゆる の	-0.299497
-1.477121	いわゆる テレビ	-0.290240
-1.477121	いわゆる 下級
-1.477121	いわゆる 九	-0.198368
-1.477121	いわゆる 和製	0.698970
-1.477121	いわゆる 宇宙	-0.204120
-1.477121	いわゆる 斑	-0.234083
-1.477121	いわゆる 旅行	-0.292256
-1.477121	いわゆる 根	-0.246672
-1.477121	いわゆる 狼	-0.276206
-1.176091	いわゆる 現実	-0.028029
-1.477121	いわゆる 瞬間	0.034762
-1.477121	いわゆる 魔	-0.273001
-0.219870	う </s>
-1.863323	う お前	-0.282547
-0.909080	う か	-0.819203
-1.562293	う が	-0.299024
-1.863323	う げ	-0.255273
-1.085172	う と	-0.326246
-1.386202	う ね	0.425969
-0.544068	うえ で	-0.300430
-0.845098	うえ なく	-0.295040
-0.845098	うえ ら	-0.218056
-0.245807	うさぎ が	-0.256493
-0.381686	うさぎ を	-0.336744
-0.301030	うまく いっ	0.301030
-0.778151	うまく やる	-0.283997
-1.113943	え だっ	-0.297801
-0.812913	え ない	-0.469310
-1.113943	え に	-0.300954
-1.113943	え は	-0.300956
-1.113943	え 座	0.522879
-1.113943	え 言葉	-0.150245
-0.301030	えびの 市	-0.298061
-1.954243	お </s>
-1.954243	お という	-0.299246
-1.051153	お とも	-0.875061
-1.477121	お ね	0.836143
-1.653213	お ひ	-0.414973
-1.653213	お 休み	-0.191886
-1.954243	お 元気	-0.296632
-1.352183	お 印	-0.607200
-1.653213	お 友達	-0.253539
-1.954243	お 受験	-0.226396
-1.954243	お 天気	-0.266268
-1.954243	お 姉	-0.299943
-1.653213	お 店	-0.254498
-1.954243	お 弁当	-0.280443
-1.954243	お 教え	-0.278754
-1.954243	お 散歩	0.544068
-1.653213	お 料理	-0.372723
-1.954243	お 時間	-0.284640
-1.954243	お 杏	0.176091
-1.954243	お 栄	-0.221849
-1.954243	お 江	-0.243038
-1.954243	お 甲	-0.221849
-1.954243	お 種	-0.294191
-1.954243	お 肉	-0.138303
-1.477121	お 花	-0.270541
-1.954243	お 買い物	-0.176091
-1.954243	お 頭	-0.254287
-0.875061	お 風呂	-0.070748
-1.954243	お 香	-0.285236
-1.954243	お 高い	-0.298797
-0.778151	おい と	-0.300917
-0.778151	おい の	-0.300743
-0.778151	おい オープン	-0.228479
-0.143562	おいしい </s>
-2.130334	おいしい と	-0.291396
-2.130334	おいしい らしい	1.054358
-1.653213	おいしい 太陽	-0.244914
-2.130334	おいしい 川	0.027152
-2.130334	おいしい 料理	-0.159701
-1.431364	おいしい 星	-0.508155
-1.653213	おいしい 月	-0.330082
-1.829304	おいしい 木	-0.208716
-1.829304	おいしい 空	-0.204863
-1.653213	おいしい 雨	-0.318759
-2.130334	おいしい 雪	0.128543
-1.829304	おいしい 風	-0.170262
-0.726999	おじいさん が	-0.544699
-0.353882	おじいさん と	-0.311925
-0.639849	おじいさん に	-0.279048
-2.283301	おじいさん は	-0.300956
-0.961082	おじいさん も	-0.234496
-1.041393	おそらく から	-0.298694
-0.740363	おそらく これ	-0.355858
-1.041393	おそらく これから	0.079181
-1.041393	おそらく 最も	-0.276556
-1.041393	おそらく 正しい	-0.226396
-0.079181	おでこ が	-0.543654
-0.602060	おねしょ し	-0.005341
-0.602060	おねしょ 薬	-0.297100
-0.096910	おはよう ござい	-0.502675
-0.761761	おばあさん が	-0.520471
-0.322428	おばあさん と	-0.247477
-0.636822	おばあさん に	-0.274108
-0.995844	おばあさん も	-0.234496
-0.698970	おめでとう あり	-0.264601
-0.397940	おめでとう ござい	0.916454
-0.698970	おん じ	-0.243038
-0.397940	おん や	-0.468796
-1.380211	お前 </s>
-1.380211	お前 が	-0.298747
-1.380211	お前 たち	-0.235763
-1.380211	お前 だけ	-0.291485
-1.380211	お前 と	-0.300917
-1.380211	お前 に	-0.300954
-1.380211	お前 の	-0.299305
-0.903090	お前 は	-0.297258
-1.380211	お前 ひとり	-0.266268
-1.380211	お前 も	-0.300840
-1.380211	お前 ら	-0.281725
-0.301030	お客様 に	-0.300878
-0.301030	お櫃 ご飯	-0.255273
-2.311754	お母さん </s>
-0.793240	お母さん が	-0.543293
-2.311754	お母さん でしょ	0.494850
-0.329483	お母さん と	-0.252932
-0.639656	お母さん に	-0.274727
-0.989535	お母さん も	-0.234496
-0.791515	お父さん が	-0.628913
-0.357146	お父さん と	-0.233891
-2.296665	お父さん なら	-0.289131
-0.580662	お父さん に	-0.280196
-0.974446	お父さん も	-0.234496
-0.176091	お疲れ様 でし	0.492916
-0.057992	お腹 が	-0.213811
-1.380211	お腹 の	-0.300934
-1.500602	お茶 </s>
-1.375664	お茶 が	-0.262896
-0.863780	お茶 と	-0.324170
-1.977724	お茶 の	-0.299209
-1.278754	お茶 は	-0.261423
-1.199572	お茶 も	-0.284141
-0.229536	お茶 を	-0.277171
-0.497325	お金 が	-0.507996
-0.865301	お金 に	-0.271447
-1.342423	お金 の	-0.299593
-1.342423	お金 は	-0.300956
-0.865301	お金 も	-0.395458
-1.342423	お金 を	-0.300791
-1.342423	お願い </s>
-1.342423	お願い が	-0.300616
-0.166331	お願い し	-0.910447
-1.342423	お願い です	0.362837
-0.467861	か </s>
-2.365488	か あっ	-0.298831
-2.365488	か ある	0.473155
-1.251545	か が	-0.310960
-2.365488	か け	-0.176091
-2.365488	か し	-0.298580
-2.365488	か できる	-0.290306
-1.666518	か と	-0.345554
-2.365488	か という	-0.250100
-1.520390	か どう	-0.806180
-1.520390	か な	-0.471470
-1.763428	か に	-0.292349
-2.365488	か について	-0.147446
-2.365488	か によって	-0.295121
-2.064458	か ね	0.550907
-1.286307	か の	-0.345005
-1.365488	か は	-0.293602
-2.365488	か はっきり	0.096910
-2.365488	か べ	-0.176091
-2.365488	か ほ
-2.365488	か ませ	-0.292430
-2.365488	か よ	-0.292136
-2.365488	か わ	-0.280827
-1.888367	か わかり	-0.447158
-1.520390	か を	-0.289219
-2.365488	か エレベーター	-0.061270
-2.365488	か 一方	-0.280827
-2.365488	か 似	-0.258278
-2.365488	か 少し	-0.298689
-2.365488	か 影響	-0.258626
-2.365488	か 心配	-0.267606
-2.365488	か 方法	-0.247784
-2.365488	か 村	-0.093905
-2.365488	か 来	-0.204120
-2.064458	か 来る	-0.475762
-2.365488	か 決める	-0.296123
-2.365488	か 知ら	-0.212608
-2.365488	か 秘密	-0.104735
-2.365488	か 考え	-0.191886
-2.365488	か 話し	0.602060
-2.365488	か 負ける	-0.259637
-2.365488	か 車	-0.251056
-2.365488	か 違う	-0.135404
-2.365488	か 青	-0.226396
-2.064458	か 非	-0.422764
-2.365488	か 黄	-0.279841
-0.255273	かかっ た	-0.012965
-0.653213	かかっ て	-0.130592
-0.636822	かける </s>
-0.511883	かける こと	-0.117475
-1.113943	かける と	-0.300917
-1.113943	かける 瞬間	-0.228479
-1.702244	から </s>
-3.270446	から い	-0.296709
-3.270446	から いろいろ	0.051153
-2.425348	から お茶	-0.516431
-3.270446	から が	-0.300063
-2.270446	から ごはん	-0.555919
-3.270446	から し	-0.299562
-3.270446	から ずっと	-0.278754
-3.270446	から そう	-0.297426
-3.270446	から その	-0.299867
-2.492295	から だ	-0.203324
-2.425348	から で	-0.457512
-2.668386	から でき	-0.408040
-2.969416	から です	-0.430378
-3.270446	から と	-0.300917
-3.270446	から とても	-0.297253
-3.270446	から な	-0.285741
-3.270446	から なる	0.140179
-2.492295	から ね	0.182931
-2.039997	から の	-0.375110
-2.229053	から は	-0.315465
-2.969416	から ほとんど	-0.461327
-2.367356	から も	-0.295087
-2.191265	から カフェ	-1.072081
-2.668386	から ギター	-0.446001
-2.793325	から ケーキ	-0.092410
-3.270446	から コーヒー	-0.296284
-3.270446	から ゴルフ	-0.017833
-3.270446	から サーブ	0.176091
-2.571476	から ジュース	-0.220673
-3.270446	から スタート	-0.277549
-1.779084	から タクシー	-0.721477
-3.270446	から テスト	-0.290172
-1.793325	から バス	-0.899767
-2.425348	から パン	-0.335110
-2.229053	から ピアノ	-0.699594
-2.367356	から プール	-0.918826
-2.571476	から ペン	-0.222743
-2.229053	から ホテル	-1.043157
-2.969416	から ホーム	-0.221849
-2.492295	から レストラン	-0.820530
-2.969416	から 下	-0.273446
-3.270446	から 世界	-0.290035
-3.270446	から 乗る	-0.289131
-3.270446	から 九	-0.277549
-2.668386	から 五	-0.638972
-2.094355	から 京都	-1.188354
-3.270446	から 人気	-0.040117
-3.270446	から 人間	-0.272306
-2.492295	から 仕事	-0.559416
-3.270446	から 仕方	-0.221849
-2.156503	から 会社	-1.119163
-1.991692	から 体育館	-1.223037
-3.270446	から 何	-0.287768
-3.270446	から 使わ	-0.134699
-3.270446	から 使用	-0.243038
-2.793325	から 傘	-0.256826
-3.270446	から 八	-0.263241
-2.492295	から 公園	-0.816395
-2.668386	から 写真	-0.477121
-2.668386	から 出	-0.075721
-2.571476	から 出る	-0.271067
-3.270446	から 利用	-0.275325
-3.270446	から 削除	-0.079181
-3.270446	から 勉強	-0.295353
-2.124318	から 北海道	-1.125566
-2.793325	から 十	-0.343582
-3.270446	から 卒業	-0.280589
-3.270446	から 参加	-0.288318
-3.270446	から 口	-0.295426
-2.094355	から 台所	-1.138689
-3.270446	から 噂	-0.268845
-2.270446	から 図書館	-1.012997
-3.270446	から 変化	-0.234083
-3.270446	から 変形	-0.260913
-2.425348	から 大学	-0.889042
-2.124318	から 大阪	-0.867028
-1.928023	から 太陽	-1.004582
-2.668386	から 始まる	1.424882
-3.270446	から 存在	-0.092754
-2.492295	から 学校	-0.823230
-2.425348	から 家	-0.885658
-3.270446	から 対応	-0.265613
-3.270446	から 少し	-0.298689
-2.492295	から 屋上	-0.812695
-1.872506	から 山	-1.172618
-1.991692	から 川	-0.972848
-2.191265	から 工場	-1.081618
-3.270446	から 左	-0.259637
-1.274811	から 帰る	-0.177541
-2.571476	から 帽子	-0.361728
-2.191265	から 店	-1.072551
-2.270446	から 庭	-1.001764
-2.793325	から 弁当	-0.148420
-2.316203	から 忘れ物	-0.434321
-3.270446	から 戻っ	0.066947
-2.969416	から 手紙	-0.083777
-2.316203	から 教室	-0.973557
-2.793325	から 料理	-0.460731
-2.793325	から 新聞	-0.204120
-3.270446	から 旅行	-0.292256
-3.270446	から 既に	-0.276206
-3.270446	から 日本	-0.196427
-1.908718	から 星	-1.110215
-2.969416	から 映画	-0.302073
-2.492295	から 昼	-0.714407
-2.425348	から 時計	-0.518378
-2.793325	から 晩	0.585461
-2.969416	から 最後	-0.420083
-1.948227	から 月	-1.070444
-2.793325	から 服	-0.150386
-2.492295	から 朝	-0.492185
-1.991692	から 木	-1.032624
-2.668386	から 本	-0.425572
-2.270446	から 来	-0.299580
-1.205988	から 来る	-0.140763
-3.270446	から 東	-0.287242
-2.156503	から 東京	-0.854469
-1.928023	から 森	-1.069242
-3.270446	から 楽しみ	-0.234083
-2.969416	から 次	0.636822
-1.261846	から 歩く	-0.276803
-2.969416	から 水	-0.194575
-3.270446	から 決める	-0.296123
-2.793325	から 沖縄	-0.361217
-3.270446	から 河童	-0.243038
-3.270446	から 法律	-0.263241
-3.270446	から 流れ	-0.109144
-1.765296	から 海	-1.212283
-3.270446	から 炎	-0.273001
-2.793325	から 独立	-0.377418
-2.316203	から 玄関	-0.954585
-2.969416	から 現在	-0.424374
-3.270446	から 疲れ	-0.266268
-2.270446	から 病院	-0.997189
-3.270446	から 発展
-2.668386	から 目標	-0.397940
-2.668386	から 眼鏡	-0.309630
-3.270446	から 確認	-0.289131
-2.229053	から 神社	-1.035716
-3.270446	から 移築	-0.191886
-1.948227	から 空	-1.070164
-2.367356	から 空港	-0.917678
-2.492295	から 窓	-0.809560
-2.969416	から 紙	-0.141329
-3.270446	から 練習	-0.286790
-2.367356	から 美術館	-0.915941
