\data\
ngram 1=1160
ngram 2=8379
ngram 3=23720

\1-grams:
-0.881192	</s>
-0.881192	<s>	-1.354221
-3.981590	あ	-0.892534
-3.932372	あそこ	-0.986740
-4.425288	あたり	-0.722496
-3.192010	あっ	-1.707994
-2.966231	あなた	-1.464660
-3.707432	あの	-0.752821
-4.338138	あまり	-0.668486
-2.733127	あり	-1.681146
-2.937051	ありがとう	-1.525245
-2.294597	ある	-1.613477
-4.057311	あるいは	-1.060618
-3.411047	あれ	-1.357885
-4.149081	あー	-0.761763
-2.333035	い	-1.838946
-2.359999	いい	-1.417503
-3.746062	いくら	-0.843910
-3.680560	いただき	-1.063909
-3.354224	いっ	-1.426218
-4.680560	いっしょ	-0.767789
-4.777470	いっぱい	-0.691644
-3.206344	いつ	-1.173170
-2.687565	いる	-1.339716
-3.823228	いろいろ	-1.107003
-3.823228	いわゆる	-1.113597
-2.728252	う	-1.678829
-4.379530	うえ	-0.777320
-3.275727	うさぎ	-1.465583
-4.300349	うまく	-1.113864
-3.932372	うん	-0.841030
-3.289625	え	-1.205946
-3.948167	ええ	-0.933000
-4.265587	えっ	-1.146092
-3.076334	お	-0.955853
-3.707432	おい	-1.037342
-3.114712	おいしい	-0.962605
-3.471045	おお	-1.378510
-3.203439	おじいさん	-1.552037
-4.265587	おそらく	-1.145762
-3.105372	おはよう	-1.618358
-3.162046	おばあさん	-1.483420
-3.981590	おめでとう	-1.068324
-3.680560	おやすみなさい	-1.178536
-5.078500	おん	-0.300909
-3.874380	お前	-1.042590
-3.848051	お客様	-1.245729
-3.136492	お母さん	-1.433233
-3.164686	お父さん	-1.495099
-5.078500	お疲れ様	-0.476924
-3.888169	お腹	-1.493052
-3.322625	お茶	-1.237554
-3.766746	お金	-1.302995
-3.203439	お願い	-1.692538
-2.164422	か	-1.474735
-5.078500	かかっ	-0.290301
-4.233402	かぎり	-1.176017
-2.058554	から	-1.053090
-3.440011	かわいい	-1.289607
-1.561106	が	-1.170051
-3.218162	き	-1.388066
-3.848051	きっと	-1.025776
-2.969597	きれい	-1.143088
-2.875740	ください	-1.968239
-3.848051	くらい	-1.245985
-3.534432	くれる	-1.084463
-4.902409	け	-0.540848
-3.465716	けど	-1.101305
-4.534432	けれど	-0.902724
-3.756281	こ	-0.906980
-2.954649	ここ	-1.436947
-3.902409	こちら	-0.895080
-2.415742	こと	-1.456825
-2.811329	この	-0.971697
-2.792943	これ	-1.220974
-3.608678	これから	-0.967279
-5.078500	これら	-0.277960
-3.078500	こんな	-1.308035
-3.746062	こんなに	-1.068985
-2.902409	こんにちは	-1.295864
-3.383895	こんばんは	-1.173083
-3.726318	ご	-0.999254
-2.797467	ござい	-2.277921
-2.760437	ごはん	-1.521115
-3.272320	ご飯	-1.368655
-2.932372	さ	-1.440081
-3.861016	さすが	-1.230164
-2.211918	し	-1.943595
-3.392759	しか	-1.399297
-3.430140	しかし	-0.989631
-4.017802	しかして	-1.096105
-4.338138	しかも	-1.078488
-3.917132	しばらく	-1.190143
-3.716772	しまう	-1.318822
-3.587139	しまっ	-1.494421
-3.388304	しよ	-1.994822
-4.476440	じ	-0.689015
-4.265587	じっと	-1.146074
-4.203439	す	-0.857549
-3.639168	すぎる	-1.391708
-3.401807	すぐ	-0.580332
-4.425288	すでに	-0.999752
-3.948167	すべて	-0.997778
-3.476440	すみません	-0.980916
-1.709192	する	-2.168998
-4.124258	ず	-0.771452
-4.078500	ずっと	-0.883916
-3.430140	せ	-1.059846
-3.799747	ぜ	-1.224199
-2.888169	そう	-1.142450
-4.057311	そういう	-1.060411
-4.300349	そこで	-1.113836
-4.265587	そして	-0.726404
-3.510299	その	-0.820853
-2.797467	それ	-1.342288
-4.680560	それから	-0.778030
-3.799747	それで	-1.133231
-4.037108	それら	-1.352487
-3.587139	そろそろ	-1.051776
-3.601379	そんな	-1.319824
-5.379530	そんなに	-0.300745
-3.594200	ぞ	-1.731179
-1.866979	た	-1.724497
-2.675380	たい	-1.470730
-3.087274	たくさん	-0.696490
-3.346107	たち	-1.164845
-3.279160	ため	-1.321676
-3.131557	たら	-1.051025
-2.249518	だ	-1.848075
-3.476440	だけ	-0.982480
-3.186406	だっ	-1.891362
-4.203439	だって	-0.716091
-3.012174	だろ	-2.007890
-4.078500	ち	-0.710968
-3.716772	ちょうど	-1.006061
-3.279160	ちょっと	-1.339362
-4.233402	ぢ	-1.168766
-4.379530	っ	-0.777593
-3.671960	つ	-1.071064
-4.902409	つける	-0.335614
-4.124258	つまらない	-0.932869
-1.965895	て	-1.529748
-3.154221	てる	-1.387565
-1.776603	で	-1.137359
-2.999319	でき	-1.532147
-3.049117	できる	-1.260999
-3.342104	でし	-2.035453
-3.167343	でしょ	-1.854306
-1.929743	です	-2.369153
-3.159422	でも	-1.123968
-1.841460	と	-0.964938
-2.846776	という	-1.686796
-3.594200	とき	-0.946773
-3.415742	ところ	-1.109751
-2.851900	として	-1.162007
-2.853191	とても	-0.851405
-4.300349	とも	-1.113844
-4.017802	と共に	-1.096810
-4.100777	ど	-1.300996
-2.972990	どう	-1.323140
-3.455251	どうして	-0.965476
-3.616102	どうも	-1.188923
-2.663527	どこ	-1.454226
-4.680560	どちら	-0.773015
-3.716772	どっち	-1.367804
-3.716772	どんな	-1.006853
-2.350959	な	-1.311334
-2.271642	ない	-1.455208
-3.029282	なかっ	-2.346243
-3.510299	ながら	-0.998651
-3.112359	なく	-1.325115
-4.534432	なくなっ	-0.898367
-2.927744	なけれ	-2.452620
-3.015918	なっ	-1.881037
-2.765688	なら	-1.476965
-3.255679	なり	-1.291231
-2.899523	なる	-1.219757
-3.242810	なんて	-1.060382
-3.311344	なんで	-0.990905
-1.627482	に	-1.188817
-3.189199	において	-1.084137
-4.017802	における	-1.096676
-4.175410	について	-0.954061
-3.540681	にとって	-1.081029
-3.203439	によって	-1.230529
-4.601379	による	-0.845042
-3.716772	に対して	-0.986339
-3.547021	に対する	-1.310908
-3.848051	ぬ	-1.192947
-2.528272	ね	-1.878578
-1.676669	の	-1.114806
-3.342104	ので	-0.803955
-1.513125	は	-1.142031
-4.300349	はじめまして	-1.113764
-2.794070	ば	-1.678367
-4.233402	ひ	-0.651937
-4.265587	ひとつ	-0.865542
-5.379530	ひとり	-0.293704
-4.534432	ふ	-0.895764
-5.379530	ぶ	-0.301026
-2.731170	へ	-1.240505
-5.379530	ほか	-0.291789
-4.338138	ほとんど	-0.802851
-3.450111	ほど	-0.940322
-3.300349	ぼ	-1.723867
-3.601379	ま	-0.866415
-2.282620	まし	-2.785846
-2.149081	ます	-1.963490
-2.829302	ませ	-2.549637
-3.553456	また	-0.968417
-3.100777	まだ	-0.666378
-3.917132	まったく	-1.027624
-2.423362	まで	-1.460520
-4.601379	まとめる	-0.783886
-4.425288	まるで	-0.999906
-3.608678	み	-1.189193
-2.953019	みんな	-1.102456
-2.064610	も	-0.945403
-2.932372	もう	-0.797044
-4.203439	もちろん	-1.203732
-2.652803	もの	-1.452072
-3.608678	や	-0.749625
-4.265587	やがて	-1.145896
-4.265587	やっと	-0.874827
-4.124258	やっぱり	-0.998020
-3.736078	やる	-1.006372
-4.100777	ゆ	-1.299359
-3.450111	ゆっくり	-0.574650
-2.757316	よ	-1.863283
-3.117079	よう	-1.496468
-3.799747	よかっ	-1.585125
-3.172704	よく	-0.593872
-3.383895	よろしく	-1.641766
-4.601379	ら	-0.833000
-3.766746	らしい	-1.098544
-3.103069	られ	-1.429805
-3.255679	られる	-1.205210
-4.680560	り	-0.364694
-3.279160	れ	-1.325654
-3.655254	れる	-0.989455
-3.902409	わ	-0.705078
-3.736078	わかり	-1.191134
-3.164686	わたし	-1.583327
-5.379530	ゐ	-0.300954
-1.419345	を	-1.558418
-2.380400	ん	-1.830268
-4.601379	アニメ	-0.845004
-3.999319	アメリカ	-0.951098
-5.379530	アレルギー	-0.293704
-5.078500	インターネット	-0.232554
-4.534432	インド	-0.902522
-3.107689	カフェ	-1.385490
-3.716772	カレー	-0.894776
-3.888169	キーボード	-0.741112
-3.379530	ギター	-1.049127
-5.379530	ク	-0.287497
-4.300349	クリスマス	-1.101845
-3.200553	グラフ	-1.802980
-3.406402	ケーキ	-1.165896
-3.948167	ケーブル	-1.131925
-3.528272	ゲーム	-0.927879
-4.425288	コピー	-0.725515
-4.777470	コンサート	-0.686872
-4.476440	コンビニ	-0.687781
-3.476440	コーヒー	-1.412225
-4.175410	ゴミ	-1.223123
-3.487436	サイエンス	-1.263956
-3.964557	サッカー	-0.679951
-4.680560	サラダ	-0.761292
-3.948167	サービス	-1.146998
-3.388304	ジュース	-1.258718
-4.203439	ジョギング	-0.848737
-3.440011	スケジュール	-1.927623
-4.233402	ストレッチ	-0.883450
-3.233402	スライド	-2.132360
-3.811329	スーパー	-1.107374
-3.948167	センサー	-1.131925
-3.487436	タクシー	-1.399663
-4.601379	タワー	-0.577832
-4.203439	ダウンロード	-1.203732
-4.037108	チャンネル	-1.062049
-4.601379	チーム	-0.525228
-3.874380	テスト	-1.037641
-4.233402	テニス	-0.472912
-3.559986	テレビ	-1.198954
-2.986833	データ	-1.766423
-4.476440	トイレ	-0.435996
-5.379530	ネ	-0.239818
-3.964557	ノート	-0.849513
-3.334207	バス	-1.154534
-5.379530	バスケットボール	-0.294728
-4.203439	パスタ	-0.912247
-4.680560	パスワード	-0.761292
-3.540681	パソコン	-0.910939
-3.103069	パン	-1.209620
-5.379530	ビール	-0.284171
-3.388304	ピアノ	-1.258718
-4.379530	ファイル	-1.024533
-4.265587	プリンター	-0.845618
-4.203439	プレゼント	-1.192022
-3.252426	プログラム	-2.113474
-3.370930	プロジェクト	-1.686560
-3.221168	プール	-1.210981
-3.330312	ペン	-1.232746
-3.183631	ホテル	-1.197841
-5.379530	ホーム	-0.300938
-4.265587	ポケット	-1.135765
-4.233402	マウス	-0.712785
-3.430140	マニュアル	-1.577330
-4.175410	マラソン	-0.873561
-3.282620	メール	-1.398503
-4.265587	モニター	-0.845618
-3.948167	モーター	-1.131925
-3.415742	ラーメン	-1.250832
-4.425288	リスト	-0.989637
-3.197687	レストラン	-1.299085
-3.186406	レポート	-1.871157
-3.587139	ロボット	-0.994131
-2.850614	一	-1.376441
-3.698289	一つ	-1.220376
-4.300349	一切	-1.101845
-3.902409	一番	-0.843882
-3.811329	一緒	-1.279382
-3.534432	一般	-1.553010
-3.671960	上	-0.962741
-3.275727	上司	-1.321677
-4.203439	下	-0.649872
-3.917132	不安	-1.177656
-4.680560	不思議	-0.776211
-3.252426	不足	-1.352401
-3.435048	与え	-1.652629
-2.622894	世界	-1.598452
-4.379530	並ん	-1.034067
-3.239651	中	-1.001628
-3.498717	中央	-1.590453
-4.680560	中心	-0.767789
-3.334207	主体	-1.257594
-3.736078	主観	-1.182468
-3.601379	久しぶり	-1.475738
-3.848051	乗り	-0.909239
-4.265587	乗り換え	-1.142369
-2.956284	乗る	-2.064142
-4.300349	九	-0.844211
-3.268941	予定	-1.309262
-3.440011	予算	-1.927623
-3.559986	予約	-1.194309
-5.379530	事実	-0.295894
-3.608678	二	-1.032576
-4.425288	二つ	-0.999763
-4.338138	五	-0.812026
-4.902409	亜	-0.601986
-4.149081	交換	-1.252598
-3.129110	京都	-1.208484
-2.883986	人	-1.086044
-3.888169	人民	-1.044905
-5.379530	人気	-0.288932
-3.476440	人間	-1.129370
-3.023504	今	-0.970215
-3.835462	今年	-1.249760
-4.233402	今度	-0.880020
-2.222981	今日	-1.478174
-4.175410	今月	-0.778449
-3.114712	仕事	-1.134853
-4.379530	仕方	-1.041351
-3.848051	他	-1.057075
-4.476440	以上	-0.945001
-3.415742	企画	-1.655235
-3.330312	休み	-0.928497
-4.124258	休む	-0.996510
-3.799747	休憩	-1.292281
-2.956284	会社	-1.311239
-4.037108	会議	-1.067066
-3.948167	似	-0.988959
-4.902409	低い	-0.596924
-5.078500	住む	-0.467880
-3.981590	体	-0.761238
-3.258956	体育館	-1.240703
-2.552161	何	-1.355052
-4.680560	何時	-0.776510
-3.948167	作っ	-1.442435
-3.105372	作る	-1.731313
-3.239651	作成	-1.452204
-3.159422	使う	-1.676924
-4.265587	使わ	-1.143798
-3.888169	使用	-1.209642
-3.902409	便利	-0.909231
-5.379530	保存	-0.288932
-3.766746	信号	-1.134264
-3.242810	修正	-1.647564
-3.587139	個人	-1.796238
-3.027348	個物	-1.478163
-4.175410	借りる	-1.169237
-3.689334	健康	-1.220757
-3.498717	傘	-1.154366
-3.540681	働く	-1.096491
-3.227242	僕	-1.291842
-3.553456	僕ら	-1.122197
-2.653619	元気	-1.785983
-3.167343	兄	-1.332704
-3.078500	先生	-1.172992
-3.091729	先輩	-1.413710
-4.777470	先週	-0.689729
-4.124258	光る	-1.217541
-3.411047	入っ	-1.665965
-4.300349	入る	-1.052731
-3.981590	入れる	-1.061858
-5.379530	入学	-0.239818
-4.233402	全く	-0.902883
-4.601379	全て	-0.464399
-3.874380	全体	-1.046213
-4.100777	全然	-1.020538
-4.037108	全部	-0.742312
-4.680560	八	-0.777832
-2.979857	公園	-1.354419
-4.338138	具	-1.067083
-3.334207	具体	-1.748851
-3.874380	円	-0.887050
-3.318832	写真	-0.960983
-5.379530	冬休み	-0.239818
-4.300349	出かけ	-0.841357
-3.964557	出し	-0.972220
-4.265587	出す	-0.801896
-4.379530	出る	-1.039580
-3.999319	出勤	-1.389372
-3.799747	出席	-1.275260
-3.917132	出張	-1.119240
-4.379530	出来る	-1.032152
-4.057311	出発	-1.049402
-5.379530	刃	-0.287497
-3.279160	分析	-1.793724
-3.218162	切る	-1.804948
-4.680560	切符	-0.761292
-3.888169	初めて	-1.044904
-3.631342	判断	-1.151633
-3.981590	利用	-0.958220
-5.379530	削除	-0.298356
-3.435048	創造	-1.946287
-4.057311	力	-1.040868
-4.601379	労働	-0.836530
-2.929281	勉強	-1.433098
-3.799747	動く	-1.073065
-4.017802	動物	-0.800194
-5.379530	動画	-0.300867
-3.663527	化	-0.908904
-3.258956	化学	-1.504613
-3.107689	北海道	-1.186949
-2.875740	区	-2.443938
-5.078500	医	-0.294485
-5.379530	医者	-0.287497
-3.861016	十	-0.809876
-3.573350	千葉	-1.516601
-3.087274	午前	-0.772951
-3.051151	午後	-0.758430
-4.175410	卒業	-0.590301
-3.218162	卒論	-2.147493
-3.663527	協力	-1.251853
-3.445032	南	-1.641201
-3.917132	単なる	-1.190011
-3.192010	単位	-1.861157
-5.379530	博物館	-0.297271
-5.379530	印	-0.291789
-5.379530	印刷	-0.291789
-3.874380	即ち	-1.066239
-3.631342	卵	-1.249789
-4.338138	原因	-1.069940
-3.932372	参加	-0.828739
-3.777470	友人	-1.010547
-2.828080	友達	-1.315371
-4.078500	反対	-0.859400
-3.601379	取り	-1.480059
-4.203439	取る	-0.868079
-4.057311	受ける	-0.999248
-5.379530	叙	-0.239818
-4.379530	口	-0.697470
-3.318832	古い	-0.840460
-5.379530	可	-0.239818
-3.249197	台所	-1.181203
-4.476440	台風	-0.679338
-4.265587	史	-0.662022
-4.017802	右	-1.369849
-5.379530	合い	-0.297938
-4.425288	合格	-0.999782
-3.639168	同じ	-1.002543
-2.812504	同一	-1.528242
-3.315072	同僚	-1.443697
-4.379530	同時に	-0.777997
-4.476440	名	-0.622139
-3.425288	名刺	-1.942182
-3.242810	名前	-1.261643
-4.476440	向かっ	-0.949519
-4.265587	向け	-1.141405
-3.948167	向こう	-0.863239
-3.053194	君	-1.369256
-3.350147	否定	-1.324145
-4.265587	含ま	-1.146032
-3.835462	吾輩	-1.542769
-4.902409	味噌汁	-0.601726
-4.124258	呼ぶ	-0.936897
-4.078500	和歌山	-1.039480
-3.707432	咲い	-1.378438
-4.680560	咲き	-0.775059
-3.233402	咲く	-2.088007
-4.425288	員	-0.673232
-4.203439	哲学	-0.915691
-3.435048	商品	-1.622275
-3.303983	問題	-1.084280
-3.948167	回路	-1.131925
-4.777470	図	-0.276667
-2.943368	図書館	-1.477844
-3.580190	国	-1.034937
-4.476440	地	-0.495080
-4.265587	地図	-1.129269
-4.233402	地域	-1.168766
-4.680560	地球	-0.768910
-4.902409	基	-0.387572
-3.948167	基板	-1.131925
-3.902409	埼玉	-1.490495
-3.027348	報告	-2.034086
-4.037108	場合	-0.903596
-3.415742	場所	-1.097150
-5.379530	塩	-0.301023
-3.746062	増え	-1.344333
-3.999319	変える	-1.050807
-3.736078	変わら	-1.650883
-3.300349	変更	-1.591341
-4.680560	夏休み	-0.767789
-3.183631	夕方	-0.736823
-3.811329	外国	-0.903567
-3.074179	多	-1.363616
-3.655254	多い	-1.083676
-3.043071	夜	-0.725382
-3.236516	夢	-1.258626
-3.823228	大	-0.625682
-3.300349	大きい	-0.894703
-4.124258	大きく	-1.274030
-3.707432	大きな	-1.221123
-3.397259	大丈夫	-1.231497
-3.663527	大事	-1.067747
-3.835462	大分	-1.265259
-3.616102	大切	-0.987252
-3.874380	大変	-0.851837
-3.420489	大好き	-1.202362
-2.951396	大学	-1.293705
-3.105372	大阪	-1.127742
-2.582263	天気	-1.791372
-3.296745	太陽	-1.134495
-4.124258	失敗	-0.986898
-3.465716	契約	-1.902219
-3.680560	女	-1.399350
-4.680560	女の子	-0.518048
-3.981590	女性	-0.888752
-4.078500	如き	-1.321252
-4.017802	如く	-1.096478
-3.149081	妹	-1.350330
-3.156814	姉	-1.436631
-3.888169	始まり	-0.922336
-3.172704	始まる	-1.544861
-3.639168	始め	-1.152548
-4.601379	姿	-0.837773
-4.601379	娘	-0.389601
-3.487436	媒介	-1.424270
-5.379530	嫁	-0.290667
-4.300349	子	-0.668171
-3.114712	子供	-1.466642
-3.707432	存在	-0.983273
-4.057311	学ぶ	-0.997561
-2.924685	学校	-1.244803
-2.978130	学生	-1.584376
-3.999319	宇宙	-1.099824
-3.948167	安	-1.146749
-3.397259	安い	-0.841348
-3.601379	安心	-1.191783
-3.311344	完了	-1.753607
-4.265587	宗教	-1.132595
-3.999319	実在	-1.095948
-3.289625	実行	-1.774970
-4.338138	実際	-1.078719
-3.375209	実験	-1.686037
-3.493040	客観	-1.292660
-2.882601	家	-1.234552
-3.121852	家族	-1.311976
-3.043071	宿題	-1.832996
-5.379530	富士山	-0.295894
-3.015918	寒い	-1.088247
-3.275727	寝	-1.268245
-3.067776	寝る	-1.555831
-3.279160	対応	-1.423249
-3.420489	対立	-1.110000
-3.516207	将来	-1.160508
-5.379530	小	-0.301028
-3.358341	小さい	-0.783934
-4.379530	小さな	-0.636510
-3.279160	少し	-0.568455
-4.265587	少年	-1.134030
-5.379530	尾	-0.287497
-3.689334	届い	-1.395812
-4.680560	届き	-0.775880
-4.175410	届く	-0.944912
-4.680560	屋	-0.777348
-3.255679	屋上	-1.243816
-3.189199	山	-1.247227
-3.932372	岐阜	-1.001919
-3.631342	岡山	-1.460485
-3.358341	川	-1.206793
-4.057311	巣	-1.325563
-3.045077	工場	-1.270155
-4.175410	差	-0.928223
-2.619862	市	-1.689140
-4.203439	布団	-1.200308
-3.580190	帰っ	-1.506836
-2.599934	帰る	-2.243056
-4.338138	常識	-1.075422
-3.375209	帽子	-1.271187
-3.631342	幸せ	-1.060590
-3.252426	広い	-0.899721
-3.639168	広島	-1.452932
-3.206344	店	-1.173261
-3.981590	府	-0.757585
-5.379530	座	-0.239818
-3.874380	座っ	-1.513791
-3.293170	座る	-2.028693
-3.121852	庭	-1.371846
-4.124258	建物	-0.812384
-3.383895	弁当	-1.187792
-3.655254	弁証法	-1.435607
-3.154221	弟	-1.345366
-3.639168	強い	-1.213707
-4.777470	強く	-0.698729
-3.242810	弾く	-1.770115
-3.861016	形	-1.057803
-2.976410	彼	-1.381075
-5.379530	彼ら	-0.287497
-3.010314	彼女	-1.543666
-3.338138	待っ	-2.040600
-4.777470	待つ	-0.637758
-3.080677	後輩	-1.510733
-5.379530	得	-0.300923
-4.601379	御	-0.475711
-3.777470	徳島	-1.320307
-5.379530	心	-0.288932
-3.465716	心配	-1.618108
-3.322625	必要	-1.016576
-3.476440	忘れ	-1.129782
-3.392759	忘れ物	-1.254481
-3.553456	忙しい	-1.068962
-3.671960	思い	-1.042870
-3.902409	思う	-0.859178
-3.366693	思っ	-1.537127
-4.203439	思わ	-0.926681
-4.100777	急	-1.010784
-3.608678	悪い	-0.957664
-4.680560	悪魔	-0.476937
-3.203439	情報	-1.449782
-4.265587	想像	-0.874588
-5.078500	意	-0.415909
-3.445032	意識	-1.145317
-4.379530	愛	-0.620750
-4.476440	愛知	-0.953375
-4.777470	感じる	-0.637758
-5.379530	成功	-0.300832
-3.435048	成立	-1.940822
-3.215177	成績	-1.847032
-4.017802	成長	-1.377537
-3.057311	我々	-1.586203
-4.379530	戸	-1.029295
-4.233402	戻っ	-1.171368
-3.799747	所	-0.887417
-3.932372	手	-1.095410
-3.303983	手紙	-1.182341
-4.338138	打ち合わせ	-1.068819
-3.282620	承認	-1.781863
-3.559986	技術	-1.225728
-4.476440	折る	-0.893030
-3.487436	抽象	-1.598679
-3.249197	担当	-1.120365
-5.379530	持	-0.294728
-3.164686	持つ	-1.855631
-3.647137	挨拶	-1.370327
-3.540681	掃除	-1.360386
-3.510299	授業	-1.245816
-3.221168	描く	-2.100156
-3.262259	提出	-1.811526
-3.481903	提案	-1.576518
-4.037108	携帯	-1.017547
-3.689334	撮り	-1.393851
-3.224194	撮る	-1.797202
-3.999319	政治	-0.869822
-4.379530	故	-1.031030
-3.547021	故に	-1.024968
-3.481903	教え	-1.425613
-3.029282	教室	-1.400893
-3.063560	教授	-1.527439
-3.074179	教科書	-1.927919
-3.338138	散歩	-1.163525
-3.230311	数学	-1.646981
-4.124258	文化	-0.624935
-3.112359	文章	-1.324719
-3.350147	料理	-0.957805
-2.923164	新しい	-1.009496
-4.379530	新幹線	-0.755081
-3.460452	新潟	-1.626476
-3.406402	新聞	-1.098201
-4.265587	方法	-1.129269
-3.209269	旅行	-1.096267
-5.379530	旗	-0.284171
-3.888169	既に	-1.053775
-2.846776	日	-1.090005
-3.861016	日常	-1.230627
-3.119459	日本	-1.124655
-3.799747	日本人	-1.116264
-3.282620	日本語	-1.356909
-3.307648	早く	-1.190752
-4.476440	明らか	-0.943880
-2.422402	明日	-1.181784
-3.902409	昔	-1.023422
-3.159422	星	-1.265132
-3.087274	映画	-1.078569
-2.957926	昨日	-0.808931
-2.972990	昼	-0.857855
-3.134018	時	-1.174509
-4.476440	時代	-0.943880
-3.401807	時計	-1.100816
-2.867647	時間	-1.260506
-3.415742	晩	-1.363943
-4.300349	普通	-1.103581
-2.898088	晴れ	-1.348813
-4.149081	暇	-0.818993
-3.183631	暑い	-0.986988
-4.534432	暖かく	-0.900416
-5.078500	書	-0.231372
-3.487436	書い	-1.420323
-3.224194	書く	-1.788468
-3.460452	書類	-1.907420
-5.379530	最初	-0.291789
-3.726318	最後	-1.059569
-4.124258	最高	-0.772916
-3.289625	月	-1.089958
-4.149081	月曜日	-0.801094
-4.338138	有	-1.073241
-3.540681	有名	-1.179683
-4.902409	有給	-0.585201
-3.272320	服	-1.147503
-2.656075	朝	-0.941679
-5.379530	期	-0.301005
-3.307648	木	-1.254892
-4.017802	未来	-0.717093
-2.829302	本	-1.485494
-3.726318	本当に	-0.867075
-4.338138	本能	-1.062322
-3.823228	材料	-1.083846
-3.917132	村	-1.113500
-3.547021	来	-1.147776
-2.577441	来る	-1.884699
-3.631342	来週	-0.876766
-3.663527	東	-1.430774
-2.886770	東京	-1.146102
-4.203439	林	-0.906349
-5.078500	柄	-0.227865
-3.848051	栄	-1.090280
-4.379530	根	-0.764571
-4.777470	案	-0.403956
-3.874380	桜	-1.208846
-3.282620	森	-1.214904
-3.296745	検討	-1.767965
-3.159422	楽しい	-1.318042
-3.481903	楽しみ	-1.234824
-4.338138	構造	-1.075422
-3.799747	様子	-1.102092
-3.230311	横浜	-1.481029
-5.379530	機	-0.300885
-3.861016	機械	-0.936594
-3.999319	欠席	-1.389372
-3.655254	次	-1.426251
-5.379530	欧	-0.301015
-3.275727	止まる	-2.045998
-4.902409	正しい	-0.592819
-4.100777	歩い	-1.296307
-3.874380	歩き	-0.950067
-2.616852	歩く	-2.702216
-4.124258	歯	-0.973980
-4.777470	歯医者	-0.457292
-3.420489	歴史	-1.349349
-5.078500	死	-0.288637
-3.788466	残っ	-1.597337
-3.999319	残業	-1.389372
-4.233402	母親	-1.172279
-2.886770	毎日	-0.821691
-3.085064	毎晩	-0.746978
-2.940198	毎朝	-0.815327
-3.326452	比較	-2.048337
-4.379530	毛	-0.765880
-3.534432	気	-1.349171
-3.736078	気づい	-1.183936
-3.311344	気持ち	-1.261796
-3.239651	水	-1.314554
-5.379530	水族館	-0.290667
-5.078500	水泳	-0.239732
-5.379530	永	-0.239818
-4.534432	求め	-0.898367
-5.379530	江	-0.239818
-3.215177	決める	-2.106105
-3.233402	決定	-1.654498
-3.689334	沖縄	-1.226560
-5.379530	法律	-0.287497
-4.078500	泣い	-1.030664
-3.289625	泣く	-1.734469
-3.932372	注意	-1.459724
-3.498717	注文	-1.283688
-3.663527	泳ぎ	-1.420061
-3.289625	泳ぐ	-2.032209
-3.209269	洗う	-1.803192
-4.203439	洗濯	-1.194879
-5.078500	派	-0.467880
-3.948167	流れ	-0.928897
-3.180873	海	-1.303579
-4.037108	涼しく	-1.078521
-4.124258	温泉	-0.580546
-3.275727	測る	-2.045998
-3.330312	測定	-2.044511
-4.777470	湖	-0.411578
-5.078500	湯	-0.236994
-3.811329	満足	-1.225742
-3.112359	準備	-1.534103
-5.379530	無	-0.301028
-3.948167	無限	-1.160755
-3.255679	焼く	-2.065892
-3.566617	熊本	-1.523132
-4.777470	熱	-0.686872
-4.057311	父	-1.034678
-5.379530	片付ける	-0.239818
-3.315072	物理	-1.744382
-4.300349	物質	-1.104702
-4.338138	特に	-0.809776
-4.124258	特殊	-1.275651
-3.162046	犬	-1.387600
-4.902409	状況	-0.540848
-4.265587	独立	-1.144188
-4.265587	狭い	-0.659735
-3.059384	猫	-1.593534
-3.296745	玄関	-1.204898
-5.078500	王	-0.300992
-3.318832	現在	-1.203611
-3.265587	現実	-1.321547
-4.203439	現象	-1.201668
-4.017802	理由	-0.711694
-3.215177	環境	-1.358803
-3.981590	生まれ	-0.957797
-3.430140	生命	-1.233566
-4.338138	生活	-1.070613
-3.647137	生物	-1.434747
-4.300349	田舎	-0.825269
-3.289625	申請	-1.774970
-3.917132	男	-1.006635
-3.411047	町	-1.188958
-5.379530	画面	-0.301003
-3.074179	疲れ	-1.698436
-4.680560	病気	-0.770826
-3.230311	病院	-1.144751
-3.504469	痛い	-1.227818
-4.203439	発展	-0.858327
-3.300349	発表	-1.322359
-4.100777	登る	-0.949320
-3.218162	登録	-1.532211
-2.147551	的	-1.773566
-4.233402	目	-0.467625
-3.265587	目標	-1.376215
-3.249197	直す	-2.072327
-3.440011	直観	-1.343691
-5.379530	相	-0.239818
-3.902409	相互	-1.203834
-4.534432	相手	-0.899331
-3.239651	相談	-1.648381
-2.700102	県	-1.179939
-3.766746	真に	-1.164755
-3.242810	眠い	-1.373080
-5.379530	眼科	-0.301026
-3.392759	眼鏡	-1.112923
-4.124258	着	-0.992980
-3.275727	着る	-1.748080
-2.717718	矛盾	-1.841680
-3.370930	知ら	-1.418345
-3.608678	知識	-1.153481
-3.206344	研究	-1.227378
-3.242810	確かめる	-2.078667
-3.159422	確認	-1.604484
-5.379530	磨	-0.300938
-3.303983	社長	-1.294524
-5.078500	祖	-0.415909
-4.203439	祝う	-1.142908
-3.540681	神奈川	-1.548781
-3.218162	神社	-1.151331
-3.498717	福岡	-1.408184
-3.716772	福島	-1.094247
-2.385213	私	-1.697744
-3.476440	科学	-0.934146
-4.300349	秘密	-0.815655
-3.766746	種	-0.724402
-5.379530	穂	-0.294728
-3.074179	空	-1.187559
-3.282620	空く	-2.039158
-4.338138	空気	-0.794334
-3.194839	空港	-1.246292
-3.252426	窓	-1.178156
-3.242810	立つ	-1.780060
-3.861016	立て	-1.236018
-3.547021	立場	-1.369425
-3.948167	立派	-1.154269
-3.311344	笑う	-2.010670
-3.964557	答え	-0.960195
-3.242810	管理	-1.347296
-4.078500	簡単	-0.864718
-4.265587	精神	-1.143025
-4.601379	約束	-0.441539
-5.379530	紅茶	-0.239818
-5.379530	紅葉	-0.288932
-3.510299	紙	-1.143508
-4.265587	紳士	-1.134030
-4.203439	終え	-1.201849
-3.788466	終わっ	-1.135071
-3.594200	終わり	-0.906120
-3.180873	終わる	-1.432682
-3.282620	組み立てる	-2.039158
-3.275727	組む	-2.045998
-5.379530	経済	-0.297927
-3.835462	経験	-1.071684
-4.379530	結合	-1.032825
-3.746062	結婚	-0.958135
-4.680560	結婚式	-0.775699
-4.037108	結局	-1.065537
-4.078500	結果	-1.010455
-4.017802	統一	-1.095790
-4.902409	絵	-0.368497
-3.031225	絶対	-1.742410
-3.948167	続け	-0.991430
-3.932372	続ける	-0.934925
-3.655254	綺麗	-1.133627
-3.716772	緑	-1.671519
-4.338138	練習	-0.490103
-4.124258	繋がる	-1.217541
-3.303983	繋ぐ	-2.017969
-5.379530	美	-0.239818
-3.689334	美しい	-1.054554
-3.162046	美術館	-1.277620
-4.902409	群馬	-0.601193
-5.078500	義	-0.300442
-4.057311	習慣	-0.985527
-2.976410	考え	-1.538611
-3.493040	考える	-1.232551
-3.362497	者	-1.038002
-4.777470	耳	-0.686872
-4.777470	聞く	-0.637758
-4.203439	聞こえ	-1.199397
-3.788466	聴き	-1.601926
-3.239651	聴く	-1.781962
-3.948167	肉	-0.971771
-4.100777	背	-0.999586
-3.663527	自分	-1.006129
-2.541942	自己	-1.748096
-3.823228	自由	-0.975561
-3.265587	自身	-1.225588
-3.471045	自転車	-1.119967
-3.811329	興味	-1.108439
-5.379530	良	-0.301028
-3.117079	良い	-1.083344
-3.015918	花	-1.317625
-5.379530	芽	-0.284171
-4.265587	苦	-1.135765
-4.425288	苦労	-0.676070
-3.098497	英語	-1.475240
-3.917132	茨城	-1.189296
-5.379530	茶	-0.301028
-3.358341	荷物	-1.201515
-5.379530	葉	-0.288932
-3.397259	薬	-1.169464
-3.334207	虫	-1.722605
-4.902409	血	-0.588527
-2.811329	行き	-1.963849
-2.418584	行く	-1.836134
-3.547021	行っ	-1.363096
-3.406402	行為	-1.492280
-4.078500	街	-0.854356
-4.233402	表情	-0.890701
-3.689334	表現	-1.009324
-3.948167	装置	-1.131925
-3.239651	製作	-1.822723
-5.379530	要求	-0.292462
-4.037108	要素	-1.361117
-2.741041	見	-1.716282
-4.265587	見せ	-1.141405
-3.540681	見つけ	-1.371033
-3.098497	見る	-1.741480
-5.379530	見学	-0.301028
-3.440011	見積	-1.631497
-3.566617	覚え	-1.213294
-4.534432	観光	-0.903075
-3.362497	観察	-2.012621
-3.218162	解く	-2.103141
-5.078500	解決	-0.297845
-3.888169	言い	-0.851620
-4.149081	言う	-0.755305
-4.601379	言え	-0.783886
-4.601379	言お	-0.844285
-3.265587	言っ	-1.635690
-3.756281	言葉	-0.887514
-3.487436	言語	-1.271794
-3.233402	計画	-1.514760
-3.330312	計算	-1.572279
-3.334207	記録	-1.443268
-3.338138	設計	-1.287252
-3.322625	試す	-1.999486
-3.999319	試合	-1.099324
-4.078500	試験	-1.305360
-4.203439	詩	-1.187261
-3.534432	話	-1.048808
-3.553456	話し	-1.234352
-3.559986	話す	-1.074203
-4.078500	認識	-0.848768
-3.823228	誕生	-1.567583
-4.777470	語	-0.682111
-3.159422	説明	-1.339141
-3.401807	読み	-1.294570
-3.041074	読む	-1.488356
-3.777470	読ん	-1.605458
-4.057311	読書	-0.601730
-3.262259	誰	-1.130391
-3.311344	課長	-1.447301
-3.029282	課題	-1.610957
-3.230311	調べる	-2.091076
-3.286109	調整	-1.790329
-3.192010	論文	-2.173472
-3.197687	論理	-1.364034
-5.379530	謂う	-0.239818
-3.455251	財布	-1.109157
-4.233402	責任	-1.173639
-3.397259	買い	-1.381916
-3.689334	買い物	-1.378903
-3.067776	買う	-2.252655
-3.425288	資料	-1.641990
-4.601379	質問	-0.521378
-4.534432	赤	-0.903037
-3.370930	赤い	-0.876117
-5.379530	赤ちゃん	-0.291789
-3.756281	走っ	-1.331694
-2.604284	走る	-2.412535
-3.156814	起きる	-1.550913
-3.587139	超越	-1.796238
-3.318832	趣味	-1.124690
-5.379530	身	-0.239818
-3.476440	身体	-1.295219
-3.608678	車	-0.966339
-4.203439	返事	-0.899976
-3.756281	迷っ	-1.331694
-3.999319	退勤	-1.389372
-4.777470	退院	-0.462125
-3.258956	送る	-2.062639
-4.902409	通う	-0.540848
-5.379530	通勤	-0.298356
-4.680560	逢う	-0.777533
-3.124258	連絡	-1.449131
-3.726318	週末	-1.170114
-4.203439	進ん	-1.196794
-5.379530	進学	-0.300869
-4.017802	遅れ	-1.089890
-3.388304	遊び	-1.380416
-3.268941	遊ぶ	-1.754350
-3.811329	遊ん	-1.280215
-4.300349	運	-1.110185
-3.224194	運ぶ	-2.097150
-4.203439	運動	-0.920144
-3.835462	運転	-0.968169
-3.671960	道	-0.997612
-4.265587	道具	-1.132595
-4.203439	達成	-0.916317
-3.608678	違い	-0.851248
-4.175410	違う	-1.169237
-3.888169	違っ	-1.206755
-4.425288	選挙	-0.989637
-4.124258	部	-0.655937
-3.286109	部下	-1.368207
-5.379530	部分	-0.297927
-3.001132	部屋	-1.366428
-3.242810	部長	-1.270783
-4.078500	都	-0.601486
-3.948167	配線	-1.131925
-5.379530	酢	-0.239818
-4.100777	重要	-1.011891
-4.124258	野球	-0.538543
-3.318832	野菜	-1.116512
-3.964557	金曜日	-0.845049
-4.057311	銀行	-0.898687
-3.242810	録音	-1.258325
-3.465716	鍵	-1.099397
-3.383895	長い	-0.838703
-3.726318	長野	-1.369155
-3.275727	閉める	-2.045998
-4.777470	開く	-0.637758
-4.203439	開け	-0.769975
-3.183631	開ける	-1.837231
-5.078500	開発	-0.300535
-5.379530	間に合う	-0.300919
-4.265587	間違い	-0.650040
-4.379530	関係	-1.031030
-3.330312	降っ	-1.745146
-3.430140	降り	-1.483730
-4.777470	降りる	-0.637758
-3.141484	降る	-1.573607
-3.671960	限定	-1.236640
-5.379530	院	-0.301026
-3.087274	院生	-1.665546
-3.788466	隣	-1.291924
-4.300349	集め	-1.108808
-4.233402	離れ	-0.896630
-3.183631	難しい	-1.231441
-2.757316	雨	-1.398324
-3.023504	雪	-1.333148
-4.476440	雲	-0.679338
-3.917132	電池	-0.813300
-3.932372	電源	-0.970298
-3.074179	電話	-1.120964
-3.303983	電車	-1.250586
-4.265587	青	-1.135765
-3.209269	青い	-0.991079
-3.566617	青森	-1.523132
-3.272320	静か	-1.399316
-3.736078	非	-1.194482
-4.233402	非常	-1.165729
-3.623655	面白い	-1.014713
-3.383895	靴	-1.187864
-3.420489	鞄	-1.228152
-3.917132	音声	-0.951154
-3.186406	音楽	-1.365707
-3.236516	頭	-1.421409
-3.212213	風	-1.344900
-3.766746	風呂	-0.919260
-3.300349	飛ぶ	-1.723994
-4.017802	飛行機	-1.077081
-2.788466	食べ	-1.573035
-3.004782	食べる	-1.611907
-4.300349	食事	-0.777967
-4.265587	食器	-1.129269
-3.209269	食堂	-1.058279
-3.401807	食材	-1.245881
-3.255679	飲み	-1.228338
-3.146534	飲む	-1.691514
-4.233402	首	-1.163993
-3.510299	首都	-1.560951
-3.350147	馬	-1.534640
-3.091729	駅	-1.152600
-3.346107	高い	-0.929512
-4.037108	高く	-0.913438
-3.655254	高知	-1.437420
-5.379530	魏	-0.291789
-5.379530	魔	-0.300885
-3.098497	魚	-1.373833
-3.307648	鳥	-1.566324
-3.322625	鳴く	-1.999486
-3.964557	鹿児島	-1.144215
-5.078500	黄	-0.301025
-5.379530	黒い	-0.300798
-4.233402	黒板	-0.723275

\2-grams:
-3.331589	<s> あ	-0.870905
-3.060522	<s> あそこ
-3.252408	<s> あっ	-0.383884
-2.191710	<s> あなた	-0.543277
-2.927897	<s> あの	-0.108109
-2.507681	<s> ありがとう	-0.576471
-3.662582	<s> ある	-0.513676
-3.553438	<s> あれ	-0.698074
-3.303561	<s> あー	-0.255273
-4.507681	<s> い	-0.271562
-2.694767	<s> いい	-0.587260
-3.228927	<s> いくら	-0.652227
-3.206651	<s> いっ	-0.681241
-3.808710	<s> いっしょ
-2.462358	<s> いつ	-0.448181
-3.428499	<s> いる	-1.087614
-3.228927	<s> いろいろ	-0.731155
-3.905621	<s> う	-0.689340
-2.656422	<s> うさぎ	-1.223173
-3.428499	<s> うまく
-3.252408	<s> うん	-0.294191
-2.826439	<s> え	-0.815476
-3.393737	<s> えっ
-2.458462	<s> お	-0.653821
-3.277232	<s> おい	-0.801632
-2.939479	<s> おいしい	-0.523147
-3.252408	<s> おお	-0.676694
-2.380576	<s> おじいさん	0.047642
-3.393737	<s> おそらく
-2.320160	<s> おはよう	-0.639597
-2.325837	<s> おばあさん	-0.138767
-3.206651	<s> おやすみなさい	-0.835631
-4.206651	<s> おん
-3.002531	<s> お前
-2.322989	<s> お母さん	-0.446128
-2.322989	<s> お父さん	0.029230
-4.206651	<s> お疲れ様
-3.016319	<s> お腹
-2.729529	<s> お茶	0.259637
-3.206651	<s> お金	-0.944023
-3.145953	<s> お願い	-0.537942
-4.030559	<s> から	-0.392457
-3.553438	<s> が	-0.505956
-3.109740	<s> きっと	-0.641313
-2.791677	<s> きれい	-0.330993
-4.507681	<s> こ	-0.291690
-2.193813	<s> ここ	0.106894
-3.361552	<s> こちら	-0.672641
-2.097747	<s> この	-0.377162
-2.032009	<s> これ	-0.443081
-2.791677	<s> これから	-0.383489
-4.206651	<s> これら
-2.548639	<s> こんな	-0.656817
-3.662582	<s> こんなに	-0.833052
-2.096061	<s> こんにちは	-0.388117
-2.894897	<s> こんばんは	-0.951322
-2.854468	<s> ご	0.000000
-2.751806	<s> ごはん	0.115838
-2.989167	<s> ご飯	0.544068
-4.507681	<s> さ	-0.092985
-3.109740	<s> さすが	0.112704
-3.016319	<s> し	-0.843942
-2.583401	<s> しかし	-0.194697
-3.145953	<s> しかして
-3.466288	<s> しかも
-3.331589	<s> しばらく	-0.916878
-3.808710	<s> しまっ	-0.742823
-3.662582	<s> じ	-0.380211
-4.507681	<s> す	-0.274701
-2.668831	<s> すぐ	-0.170585
-4.507681	<s> すべて	-0.286307
-2.621190	<s> すみません	-0.156120
-3.729529	<s> ずっと	-0.713819
-3.662582	<s> ぜ	-0.819544
-2.593867	<s> そう	-0.637636
-3.729529	<s> そういう	-0.713819
-3.428499	<s> そこで
-3.604591	<s> そして	-0.397940
-2.844923	<s> その	-0.541719
-2.082799	<s> それ	-0.456695
-3.808710	<s> それから
-3.466288	<s> それで	-0.943519
-3.466288	<s> それら	0.282547
-2.775287	<s> そろそろ	-0.385501
-3.060522	<s> そんな	-0.893506
-3.604591	<s> た	-0.941289
-2.525409	<s> たくさん	-0.302453
-3.662582	<s> だ	-0.881901
-4.507681	<s> ち	-0.282547
-3.127469	<s> ちょうど	-0.837737
-2.525409	<s> ちょっと	-0.833669
-4.507681	<s> つ	-0.293061
-3.662582	<s> で	-0.343920
-4.030559	<s> でき	-0.346084
-2.854468	<s> でも	-0.640215
-3.206651	<s> と	-0.437526
-2.474257	<s> とても	-0.411260
-3.228927	<s> ど
-2.490647	<s> どう	-0.915911
-2.610053	<s> どうして	-0.239393
-2.835583	<s> どうも	-0.596774
-2.558290	<s> どこ	-0.670468
-3.331589	<s> どっち	0.450792
-3.016319	<s> どんな	-0.535468
-2.916616	<s> なんて	-1.178919
-2.439495	<s> なんで	-0.000000
-3.808710	<s> に	-0.424416
-3.662582	<s> の	-0.297814
-3.905621	<s> は	-0.473431
-3.428499	<s> はじめまして
-3.331589	<s> ば	-1.187219
-3.729529	<s> ひ	-0.669007
-3.662582	<s> ふ
-3.507681	<s> ほとんど	-0.404571
-3.428499	<s> ぼ	-0.173712
-3.303561	<s> ま	-0.685127
-3.076317	<s> また	-0.806180
-2.346312	<s> まだ	-0.227739
-3.331589	<s> まったく	-0.654718
-3.553438	<s> まるで
-2.189617	<s> みんな	-0.527458
-4.507681	<s> も	-0.300837
-2.193813	<s> もう	-0.156052
-3.331589	<s> もちろん
-3.604591	<s> や	-0.473610
-3.393737	<s> やがて
-4.507681	<s> やっと	-0.271067
-3.466288	<s> やっぱり	-0.732394
-2.694767	<s> ゆっくり	-0.170696
-4.507681	<s> よ	-0.300005
-3.393737	<s> よかっ	0.444937
-2.593867	<s> よく	-0.303187
-3.303561	<s> よろしく	-0.548347
-4.507681	<s> り	-0.243038
-4.030559	<s> わかり	-0.573415
-2.400471	<s> わたし	-0.259939
-3.729529	<s> を	-0.277699
-3.729529	<s> アニメ
-3.206651	<s> アメリカ	-0.455127
-2.548639	<s> カフェ	-0.096910
-3.729529	<s> カレー	-0.791853
-3.361552	<s> キーボード	-0.539448
-2.751806	<s> ギター	0.105104
-4.507681	<s> ク
-3.428499	<s> クリスマス
-3.127469	<s> グラフ	0.309630
-2.817484	<s> ケーキ	0.259637
-3.076317	<s> ケーブル
-2.927897	<s> ゲーム	-0.965238
-3.729529	<s> コピー	-0.502675
-3.604591	<s> コンビニ
-2.884431	<s> コーヒー	0.265866
-3.145953	<s> サッカー	-0.116093
-3.808710	<s> サラダ
-2.817484	<s> ジュース	0.280443
-2.894897	<s> スケジュール	0.321233
-4.507681	<s> ストレッチ	-0.273001
-3.127469	<s> スライド	0.751279
-3.002531	<s> スーパー	-0.531479
-3.076317	<s> センサー
-3.361552	<s> タクシー	0.678036
-3.165258	<s> チャンネル
-3.206651	<s> テスト	-0.673416
-4.206651	<s> テニス	-0.101458
-2.791677	<s> テレビ	-0.321233
-2.512045	<s> データ	0.169225
-3.905621	<s> トイレ	0.176091
-3.393737	<s> ノート	-0.899456
-3.185461	<s> バス	-0.215360
-4.507681	<s> バスケットボール
-3.428499	<s> パスタ	-0.582464
-3.808710	<s> パスワード
-2.963612	<s> パソコン	-0.344496
-2.744253	<s> パン	-0.287666
-4.507681	<s> ビール
-2.835583	<s> ピアノ	0.296834
-3.553438	<s> ファイル	0.041393
-3.393737	<s> プリンター
-3.127469	<s> プログラム	0.732394
-2.894897	<s> プロジェクト	-0.752344
-2.503359	<s> プール	-0.152610
-2.905621	<s> ペン	-0.297334
-2.529957	<s> ホテル	-0.483183
-3.393737	<s> ポケット
-3.361552	<s> マウス
-2.894897	<s> マニュアル	-0.509306
-2.736828	<s> メール	-0.327953
-3.393737	<s> モニター
-3.076317	<s> モーター
-2.894897	<s> ラーメン	-0.521982
-3.553438	<s> リスト
-2.599195	<s> レストラン	-0.321699
-3.045283	<s> レポート	0.707295
-2.844923	<s> ロボット	-0.606824
-3.331589	<s> 一	-0.845010
-3.466288	<s> 一つ	-0.602060
-3.808710	<s> 一番	-0.711204
-3.507681	<s> 一般	-0.916454
-3.393737	<s> 上	-1.031408
-2.407310	<s> 上司	-0.169461
-3.729529	<s> 不安	-0.751676
-4.507681	<s> 不足	0.125981
-3.604591	<s> 与え	-0.623249
-2.494843	<s> 世界	-1.282203
-3.466288	<s> 中	-1.046557
-2.800110	<s> 久しぶり	0.068116
-2.894897	<s> 予算	0.321233
-3.045283	<s> 予約	-0.913435
-3.729529	<s> 二	-0.131569
-2.482375	<s> 京都	-0.174720
-3.277232	<s> 人	-0.679348
-3.228927	<s> 人民	-0.443953
-3.092707	<s> 人間	-0.802694
-2.311781	<s> 今	-0.408420
-2.963612	<s> 今年
-3.361552	<s> 今度
-1.399115	<s> 今日	-0.105050
-3.303561	<s> 今月
-2.736828	<s> 仕事	-0.670667
-3.507681	<s> 他	0.454258
-2.884431	<s> 企画	0.329675
-3.604591	<s> 休み	-0.909660
-2.599195	<s> 会社	-0.083763
-3.145953	<s> 体	-0.412663
-2.588602	<s> 体育館	-0.306978
-2.228927	<s> 何	-0.466763
-3.507681	<s> 作っ	0.405765
-3.252408	<s> 作成	-1.219887
-3.076317	<s> 信号	-0.119975
-3.252408	<s> 修正	-1.218985
-3.303561	<s> 個人	0.568892
-2.751806	<s> 個物	-0.637326
-3.808710	<s> 健康	-0.359544
-2.884431	<s> 傘	0.236387
-3.507681	<s> 働く	-0.978341
-2.548639	<s> 僕	-0.239554
-3.252408	<s> 僕ら	-0.841638
-2.708340	<s> 元気	0.352183
-2.355392	<s> 兄	-0.085559
-2.298165	<s> 先生	-0.572097
-2.224379	<s> 先輩	-0.292256
-3.905621	<s> 先週
-3.428499	<s> 入っ	-0.312311
-4.507681	<s> 全て	-0.249877
-3.393737	<s> 全体	-0.944483
-3.228927	<s> 全然
-3.604591	<s> 全部	-0.539269
-2.279794	<s> 公園	-0.270665
-3.466288	<s> 具
-3.002531	<s> 具体	-0.544617
-3.060522	<s> 円	-0.522879
-2.826439	<s> 写真	-0.033424
-3.361552	<s> 出席	-0.989005
-4.507681	<s> 刃
-3.165258	<s> 初めて	-0.909430
-3.466288	<s> 創造	0.870209
-3.092707	<s> 勉強	-0.286230
-4.030559	<s> 動物	-0.550907
-4.507681	<s> 動画
-2.390409	<s> 化学	0.003205
-2.403877	<s> 北海道	-0.201783
-4.507681	<s> 医	-0.176091
-3.662582	<s> 十	-0.509306
-2.800110	<s> 千葉	0.095268
-2.226647	<s> 午前	-0.057336
-2.259707	<s> 午後	-0.109000
-3.808710	<s> 卒業	-0.660052
-3.127469	<s> 卒論	0.766413
-4.030559	<s> 南	-0.586996
-3.604591	<s> 単なる	-0.576824
-3.109740	<s> 単位	0.761761
-4.507681	<s> 印刷
-3.466288	<s> 即ち	-0.915324
-3.303561	<s> 卵	-0.816859
-3.553438	<s> 参加	-0.837273
-3.808710	<s> 友人	-0.725763
-2.114984	<s> 友達	-0.712334
-3.393737	<s> 反対	-0.784400
-2.927897	<s> 古い	-0.471000
-2.604591	<s> 台所	-0.256284
-3.808710	<s> 台風	-0.477121
-3.507681	<s> 右	0.338819
-3.361552	<s> 同じ	-1.062859
-2.443223	<s> 同僚	-0.000000
-2.894897	<s> 名刺	0.335792
-3.361552	<s> 名前	-0.327538
-3.604591	<s> 向こう	-0.824609
-2.482375	<s> 君	-0.418904
-3.303561	<s> 否定	-1.100309
-3.393737	<s> 含ま
-2.963612	<s> 吾輩
-3.507681	<s> 和歌山	-0.778151
-3.466288	<s> 哲学	-0.626884
-2.894897	<s> 商品	-0.367977
-3.507681	<s> 問題	-0.906072
-3.076317	<s> 回路
-4.507681	<s> 図	-0.234083
-2.454602	<s> 図書館	-0.246629
-3.808710	<s> 国	-0.744983
-3.393737	<s> 地図
-3.361552	<s> 地域
-4.507681	<s> 基	-0.079181
-3.076317	<s> 基板
-3.030559	<s> 埼玉
-3.252408	<s> 報告	-1.242874
-3.045283	<s> 場所	-1.027205
-3.729529	<s> 変わら	0.808114
-3.252408	<s> 変更	-1.210038
-4.507681	<s> 夏休み	0.477121
-2.311781	<s> 夕方
-3.553438	<s> 外国	-0.196295
-2.874212	<s> 多	-1.098149
-2.228927	<s> 夜	-0.199215
-2.650348	<s> 夢	-0.479113
-3.808710	<s> 大	-0.079181
-3.145953	<s> 大きい	-0.469126
-3.428499	<s> 大きな	-0.795185
-2.662582	<s> 大丈夫	-0.859001
-3.165258	<s> 大分	-0.969617
-3.604591	<s> 大切	-0.864066
-3.604591	<s> 大好き	-0.472574
-2.539198	<s> 大学	-0.209260
-2.454602	<s> 大阪	-0.343240
-2.715289	<s> 天気	-0.925715
-2.783405	<s> 太陽	-0.388612
-2.894897	<s> 契約	0.295829
-2.340363	<s> 妹	-0.082459
-2.349318	<s> 姉	-0.110825
-4.030559	<s> 始まり	-0.563142
-4.206651	<s> 娘	-0.124939
-4.206651	<s> 子	-0.414973
-2.284964	<s> 子供	0.040707
-3.553438	<s> 存在	-0.917465
-3.662582	<s> 学ぶ	-0.745482
-2.414259	<s> 学校	-0.357511
-2.204484	<s> 学生	-0.927553
-3.361552	<s> 宇宙	0.210853
-3.109740	<s> 安い	-0.401763
-2.989167	<s> 安心	-0.339948
-3.252408	<s> 完了	-1.207528
-3.252408	<s> 実行	-1.211227
-3.466288	<s> 実際
-3.145953	<s> 客観	-1.051510
-2.358461	<s> 家	-0.755099
-2.317349	<s> 家族	-0.509746
-2.656422	<s> 宿題	0.473191
-3.109740	<s> 寒い	-0.306756
-3.428499	<s> 寝	-0.563091
-3.331589	<s> 寝る	-0.897234
-3.252408	<s> 対応	-1.214028
-2.791677	<s> 将来	-0.669007
-3.045283	<s> 小さい	-0.369464
-4.206651	<s> 小さな	-0.404571
-2.599195	<s> 少し	-0.209363
-4.507681	<s> 尾
-3.277232	<s> 届い	-1.079181
-3.604591	<s> 届く	-0.698970
-2.604591	<s> 屋上	-0.214339
-2.668831	<s> 山	-0.581323
-3.361552	<s> 岐阜	-0.915178
-2.854468	<s> 岡山	0.091330
-2.808710	<s> 川	-0.407230
-3.185461	<s> 巣
-2.578262	<s> 工場	-0.197871
-3.331589	<s> 布団
-3.030559	<s> 帰っ	-0.678448
-3.466288	<s> 常識
-2.874212	<s> 帽子	0.344065
-3.808710	<s> 幸せ	-0.741009
-3.252408	<s> 広い	-0.321901
-2.874212	<s> 広島	0.102662
-2.573182	<s> 店	-0.418343
-3.060522	<s> 座っ	0.056116
-2.462358	<s> 庭	-0.478275
-2.951378	<s> 弁当	-0.006568
-2.346312	<s> 弟	-0.139662
-3.729529	<s> 強い	-0.753768
-3.905621	<s> 強く
-2.191710	<s> 彼	-0.133588
-4.507681	<s> 彼ら
-2.200184	<s> 彼女	0.060065
-2.213214	<s> 後輩	-0.236604
-4.206651	<s> 御	-0.191886
-3.206651	<s> 徳島	-1.041393
-2.916616	<s> 心配	-1.140179
-2.927897	<s> 忘れ物	0.375132
-4.507681	<s> 忙しい	-0.295040
-3.553438	<s> 急	-0.756962
-3.662582	<s> 悪い	-0.853605
-2.367801	<s> 情報	-0.590346
-3.507681	<s> 想像	-0.564271
-3.393737	<s> 意識	-1.079967
-3.604591	<s> 愛	0.072551
-3.604591	<s> 愛知
-3.127469	<s> 成績	0.295200
-2.380576	<s> 我々	-0.460653
-3.361552	<s> 戻っ
-2.722351	<s> 手紙	0.011054
-3.252408	<s> 承認	-1.212376
-2.989167	<s> 技術	-0.802285
-2.976202	<s> 抽象	0.346787
-2.407310	<s> 担当	-0.467085
-2.783405	<s> 挨拶	-0.461327
-3.331589	<s> 掃除	-0.778151
-3.045283	<s> 授業	0.373581
-2.894897	<s> 提案	-0.191886
-3.604591	<s> 携帯	-0.750123
-4.206651	<s> 政治	-0.443697
-2.817484	<s> 故に	-0.650924
-4.030559	<s> 教え	0.311754
-2.583401	<s> 教室	-0.065876
-2.217646	<s> 教授	-0.148608
-2.800110	<s> 教科書	-0.636822
-3.277232	<s> 散歩	-0.620836
-2.358461	<s> 数学
-3.331589	<s> 文化	-0.319513
-2.729529	<s> 文章	-0.817069
-2.791677	<s> 料理	0.148004
-2.245229	<s> 新しい	-0.487369
-3.553438	<s> 新幹線	-0.397940
-2.675172	<s> 新潟	0.084321
-2.927897	<s> 新聞	0.059839
-2.722351	<s> 旅行	-0.107296
-4.507681	<s> 旗
-3.466288	<s> 既に	-0.909430
-4.030559	<s> 日常	-0.563142
-2.367801	<s> 日本	-0.369168
-4.030559	<s> 日本人	-0.569060
-2.615586	<s> 日本語	-0.453083
-2.644358	<s> 早く	-0.569875
-1.579797	<s> 明日	0.027665
-3.030559	<s> 昔
-2.583401	<s> 星	-0.277965
-2.578262	<s> 映画	-0.391691
-2.101140	<s> 昨日	0.012965
-2.181345	<s> 昼	0.047450
-3.206651	<s> 時	-0.813335
-2.826439	<s> 時計	-0.100166
-2.694767	<s> 時間	-0.880746
-2.939479	<s> 晩	-0.898542
-4.507681	<s> 暇	-0.176091
-3.076317	<s> 暑い	-0.437723
-3.662582	<s> 暖かく
-2.894897	<s> 書類	0.301030
-2.963612	<s> 最後	-0.723104
-3.553438	<s> 最高	-0.580871
-2.751806	<s> 月	-0.315589
-3.729529	<s> 月曜日	-0.414973
-4.030559	<s> 有給
-2.675172	<s> 服	-0.147962
-1.897020	<s> 朝	-0.062007
-2.808710	<s> 木	-0.468276
-3.808710	<s> 未来	-0.455127
-2.343328	<s> 本	-0.375350
-2.916616	<s> 本当に	-0.342423
-3.076317	<s> 材料	-0.649485
-2.874212	<s> 来週	-0.413734
-2.269634	<s> 東京	-0.594042
-3.331589	<s> 林
-3.277232	<s> 桜	-0.954243
-2.775287	<s> 森	-0.428429
-3.252408	<s> 検討	-1.210038
-2.927897	<s> 楽しい	-0.634402
-4.206651	<s> 様子	0.021719
-2.534553	<s> 横浜	-0.842093
-2.989167	<s> 機械
-2.927897	<s> 次	-0.964645
-4.507681	<s> 欧
-3.905621	<s> 歩き	-0.647817
-3.252408	<s> 歯
-4.507681	<s> 歯医者	-0.221849
-2.844923	<s> 歴史	-0.305578
-4.206651	<s> 死
-3.361552	<s> 母親
-2.082799	<s> 毎日	-0.256823
-2.213214	<s> 毎晩	0.000000
-2.147845	<s> 毎朝	-0.169407
-3.109740	<s> 気	0.130929
-3.662582	<s> 気づい	-0.775060
-2.854468	<s> 気持ち	-0.914631
-2.599195	<s> 水	0.218843
-4.507681	<s> 水族館
-3.252408	<s> 決定	-1.220328
-2.951378	<s> 沖縄	-0.766870
-3.331589	<s> 泣い	-0.338819
-3.604591	<s> 注意	0.508155
-3.331589	<s> 洗濯
-2.615586	<s> 海	-0.159093
-3.303561	<s> 涼しく	-0.628389
-3.466288	<s> 温泉	-0.152377
-3.361552	<s> 満足	-0.982967
-2.874212	<s> 準備	-0.975069
-4.507681	<s> 無
-2.864228	<s> 熊本	0.163317
-3.905621	<s> 熱
-3.252408	<s> 父	0.060698
-2.443223	<s> 物理
-3.428499	<s> 物質
-3.466288	<s> 特に
-3.604591	<s> 特殊	0.324511
-2.610053	<s> 犬	-1.624336
-2.390409	<s> 猫	-0.838084
-2.615586	<s> 玄関	-0.185046
-4.507681	<s> 王	-0.176091
-3.030559	<s> 現在	-0.969019
-3.331589	<s> 現実	-0.494850
-4.507681	<s> 理由	-0.132626
-3.109740	<s> 環境	-0.834981
-3.466288	<s> 生命	-0.884205
-3.466288	<s> 生物	-0.899195
-3.252408	<s> 申請	-1.211227
-3.662582	<s> 男	-0.720159
-4.507681	<s> 画面
-2.656422	<s> 疲れ	-0.308692
-3.808710	<s> 病気
-2.539198	<s> 病院	-0.234083
-3.252408	<s> 登録	-1.222839
-3.662582	<s> 目	-0.453640
-2.708340	<s> 目標	0.297825
-3.331589	<s> 直観	-1.125892
-3.553438	<s> 相互	-0.574031
-3.045283	<s> 相談	-1.090331
-3.185461	<s> 真に	-0.778973
-3.185461	<s> 眠い	-0.991195
-4.507681	<s> 眼科
-2.874212	<s> 眼鏡	-0.196041
-3.002531	<s> 矛盾	-0.800451
-3.165258	<s> 知ら	-0.905134
-3.252408	<s> 知識	-0.853872
-2.939479	<s> 確認	-1.173529
-2.439495	<s> 社長	-0.232402
-2.874212	<s> 神奈川	-0.871376
-2.610053	<s> 神社	-0.364278
-2.708340	<s> 福岡	0.078083
-3.185461	<s> 福島	-1.105851
-1.613364	<s> 私	-0.339812
-3.109740	<s> 科学	-0.966274
-3.393737	<s> 種	-0.725299
-2.450776	<s> 空	-0.544820
-3.553438	<s> 空気	-0.363178
-2.507681	<s> 空港	-0.487487
-2.599195	<s> 窓	0.202898
-3.808710	<s> 答え	-0.637973
-3.252408	<s> 管理	-1.219887
-3.466288	<s> 簡単	-0.416423
-3.393737	<s> 精神
-3.905621	<s> 約束	-0.443697
-4.507681	<s> 紅葉
-2.905621	<s> 紙	0.244415
-3.109740	<s> 終わり	-0.656042
-4.507681	<s> 経済
-3.507681	<s> 結合
-3.604591	<s> 結婚	-0.791515
-3.165258	<s> 結局
-3.905621	<s> 結果	-0.611820
-4.206651	<s> 絵	-0.255273
-2.656422	<s> 絶対	-0.978428
-3.428499	<s> 綺麗	-0.551621
-3.252408	<s> 美しい	-1.098546
-2.462358	<s> 美術館	-0.267491
-4.030559	<s> 群馬
-4.206651	<s> 義
-3.206651	<s> 考え	-0.813940
-3.808710	<s> 聴く	-0.762357
-3.428499	<s> 肉	-0.892095
-3.604591	<s> 背	0.322219
-2.874212	<s> 自分	-0.460291
-3.145953	<s> 自己	-1.037763
-3.729529	<s> 自身	-0.690649
-3.393737	<s> 自転車	0.066392
-3.331589	<s> 興味	-0.531479
-4.507681	<s> 良
-2.854468	<s> 良い	-0.974857
-2.529957	<s> 花	0.143135
-3.729529	<s> 苦労	-0.502675
-2.328704	<s> 英語	-0.074167
-3.331589	<s> 茨城	-0.916878
-2.874212	<s> 荷物	-0.215702
-4.507681	<s> 葉
-2.864228	<s> 薬	-0.024019
-2.701501	<s> 虫	-1.450031
-2.874212	<s> 行為	-0.569531
-4.507681	<s> 街	-0.281725
-3.662582	<s> 表情	-0.653213
-3.076317	<s> 装置
-4.507681	<s> 製作	-0.255273
-3.092707	<s> 見	-0.868940
-3.428499	<s> 見る	-1.086213
-2.894897	<s> 見積	-0.150981
-3.507681	<s> 覚え	-0.973396
-4.507681	<s> 観光	0.602060
-4.507681	<s> 言う	-0.278754
-3.466288	<s> 言語	-1.016626
-3.252408	<s> 計画	-1.220762
-4.507681	<s> 計算	-0.297237
-4.507681	<s> 記録	-0.297237
-4.507681	<s> 設計	-0.297237
-4.507681	<s> 詩	0.903090
-3.604591	<s> 話	-0.905938
-3.127469	<s> 話し	-1.126465
-3.331589	<s> 誕生	0.364082
-2.744253	<s> 説明	-1.012983
-3.002531	<s> 読み	-1.242790
-3.331589	<s> 読書	-0.514446
-3.076317	<s> 誰	-0.791484
-2.439495	<s> 課長	0.000000
-2.884431	<s> 課題	-0.117286
-3.808710	<s> 調整	-0.760566
-3.127469	<s> 論文	0.792392
-3.553438	<s> 論理	-0.792569
-2.808710	<s> 財布	0.206054
-4.507681	<s> 買い	-0.093422
-3.228927	<s> 買い物	0.385351
-2.894897	<s> 資料	-0.261521
-3.109740	<s> 赤い	-0.403602
-4.507681	<s> 赤ちゃん
-3.393737	<s> 走る	-1.136583
-2.854468	<s> 趣味	-0.674063
-3.393737	<s> 身体	-0.985277
-3.030559	<s> 車	-0.478233
-3.428499	<s> 返事	-0.582464
-3.228927	<s> 連絡	-0.974393
-2.864228	<s> 週末	0.009143
-4.030559	<s> 遊び	-0.589095
-3.331589	<s> 運動
-3.393737	<s> 運転	-0.509306
-4.507681	<s> 道	-0.285236
-4.507681	<s> 達成	-0.274701
-3.808710	<s> 選挙	0.221849
-2.414259	<s> 部下
-2.328704	<s> 部屋	-0.017799
-2.407310	<s> 部長	-0.586996
-4.507681	<s> 都	-0.283997
-3.076317	<s> 配線
-3.729529	<s> 重要	-0.698970
-3.604591	<s> 野球	-0.513333
-2.644358	<s> 野菜	0.181420
-3.109740	<s> 金曜日	-0.191886
-3.277232	<s> 銀行	-0.442610
-2.835583	<s> 録音	-0.335792
-2.976202	<s> 鍵	-0.226366
-2.939479	<s> 長い	-0.412762
-2.976202	<s> 長野	0.115795
-4.507681	<s> 開け	-0.045757
-4.507681	<s> 降っ	0.433656
-4.507681	<s> 院
-2.215424	<s> 院生
-3.127469	<s> 隣	-0.989276
-3.076317	<s> 難しい	-0.922395
-2.403877	<s> 雨	-0.909880
-2.512045	<s> 雪	-0.424117
-3.662582	<s> 雲	-0.380211
-3.060522	<s> 電池	-0.194697
-3.060522	<s> 電源
-2.563198	<s> 電話	-0.511816
-3.016319	<s> 電車	-0.100371
-2.800110	<s> 青い	-0.552037
-2.854468	<s> 青森	-1.179106
-3.662582	<s> 静か	-0.473844
-3.165258	<s> 非	-0.583175
-3.361552	<s> 面白い	-1.064941
-2.927897	<s> 靴	-0.168582
-2.874212	<s> 鞄	0.301030
-3.277232	<s> 音声	-0.250725
-2.583401	<s> 音楽	0.255273
-2.563198	<s> 頭	-0.458638
-2.744253	<s> 風	0.005140
-3.507681	<s> 飛行機	-0.819544
-3.252408	<s> 食べ	-0.841985
-3.393737	<s> 食器
-2.563198	<s> 食堂	-0.222947
-2.783405	<s> 食材	0.236572
-3.361552	<s> 首
-2.708340	<s> 馬	-1.142589
-2.499080	<s> 駅	-0.392800
-3.092707	<s> 高い	-0.460034
-4.206651	<s> 高く	-0.440909
-2.989167	<s> 高知	-1.133539
-4.507681	<s> 魏
-4.507681	<s> 魔
-2.482375	<s> 魚	0.243587
-2.662582	<s> 鳥	-1.154758
-3.331589	<s> 鹿児島	-0.870905
-4.507681	<s> 黒い
-3.361552	<s> 黒板	-0.000000
-1.447158	あ </s>
-0.492916	あ そう	-0.767427
-0.271067	あ は	-1.200544
-0.792392	あそこ で	-0.774620
-0.412180	あそこ に	-0.698083
-0.449969	あそこ の	-0.667855
-0.342423	あたり で	-0.777634
-0.439333	あたり に	-0.680422
-0.138995	あっ た	-0.884664
-0.651832	あっ て	-0.909561
-1.496930	あっ わ	-0.636822
-0.964113	あなた が	-1.171774
-1.727541	あなた しか	-0.481400
-2.125481	あなた だけ	-0.407700
-1.581413	あなた と	-0.901317
-2.125481	あなた に	-0.297845
-0.634120	あなた の	-1.038716
-0.286632	あなた は	-1.023601
-1.280383	あなた も	-1.173376
-1.278754	あの すみません	-0.587168
-0.609747	あの 人	-0.610587
-1.056905	あの 会社	-0.745359
-1.153815	あの 大学	-0.684781
-1.153815	あの 子	-0.564271
-1.056905	あの 山	-0.708978
-1.153815	あの 時	-0.662247
-1.153815	あの 犬	-0.675489
-1.755875	あの 結婚	-0.291887
-1.278754	あの 電話	-0.511726
-0.845098	あまり よく	-0.473005
-0.447158	あまり 休む	-0.653213
-0.544068	あまり 高い	-0.632626
-1.030927	あり </s>
-1.809079	あり さ	-0.642564
-1.508049	あり すぎる	-0.818156
-2.654177	あり でしょ	0.574031
-1.191779	あり まし	1.606243
-0.348825	あり ます	-0.727473
-0.504957	あり ませ	0.399162
-1.809079	あり 一	-0.894341
-0.961957	ありがとう </s>
-1.754348	ありがとう いい	-0.776132
-0.147967	ありがとう ござい	0.274701
-1.339375	ありがとう な	-1.003504
-1.754348	ありがとう は	-0.777868
-1.249198	ありがとう ま	-1.113943
-1.754348	ありがとう 昨日	-0.762252
-0.203560	ある </s>
-2.315270	ある から	-0.834462
-1.792392	ある こと	-0.796507
-1.713210	ある さ	-1.311791
-2.139179	ある と	-0.735976
-1.377418	ある という	-1.067126
-1.979478	ある ところ	-0.870905
-1.979478	ある なら	-1.132572
-1.097786	ある の	-1.352856
-2.616300	ある ので	-0.591595
-1.449969	ある ほど	-0.805023
-1.979478	ある もの	-1.026983
-2.139179	ある よ	-0.136062
-1.502357	ある ん	-1.113612
-1.631024	ある 世界	-1.060147
-2.014240	ある 何	-1.067698
-2.014240	ある 名前	-0.698970
-2.139179	ある 問題	-0.864679
-3.093422	ある 大学	-0.282007
-2.315270	ある 市	-0.595138
-2.190332	ある 日	-0.938315
-1.979478	ある 製作	-1.100371
-2.394452	ある 試験	0.544068
-3.093422	ある 週末	-0.163857
-0.320335	あるいは 原因
-0.361728	あるいは 日常	-0.196295
-1.083682	あれ が	-0.948508
-0.907590	あれ くらい	-0.937852
-1.986772	あれ は	-0.300634
-0.129439	あれ ば	-1.310052
-1.301030	あー </s>
-0.455932	あー そう	-0.670517
-0.346787	あー なんて	-0.972753
-2.207211	い え	-0.846051
-0.887956	い た	-0.626123
-1.520830	い たい	-0.697632
-1.418841	い つ	-0.691001
-1.183077	い て	-1.131437
-1.906181	い です	-1.086871
-1.014883	い ない	-0.661460
-1.259917	い なかっ	0.552842
-1.589911	い なく	-1.120014
-2.010916	い の	-1.078277
-1.031120	い まし	0.595177
-0.439525	い ます	-0.788618
-1.252969	い ませ	0.745270
-2.353339	い られ	-0.572255
-3.052309	い られる	-0.297917
-0.634679	いい </s>
-1.389166	いい いい	-1.223425
-1.514105	いい か	-1.487100
-1.634679	いい こと	-0.963818
-2.555498	いい でしょ	-0.545944
-0.753865	いい です	-0.395784
-2.555498	いい と	-0.596958
-1.828499	いい ところ	-1.147708
-1.541257	いい な	-1.362526
-1.169296	いい ね	-0.091064
-1.409369	いい の	-1.312319
-1.409369	いい よ	-0.306121
-1.634679	いい ん	-1.230196
-2.078376	いい 人	-0.981289
-1.953438	いい 国	-0.712798
-3.032619	いい 夢	-0.089052
-0.731589	いい 天気	-1.407705
-2.555498	いい 太陽	-0.235213
-1.953438	いい 日	-0.820345
-2.555498	いい 星	-0.315753
-3.032619	いい 映画	0.165775
-2.555498	いい 月	-0.205762
-3.032619	いい 木	0.076388
-3.032619	いい 森	0.048692
-2.254468	いい 気持ち	-0.823379
-2.731589	いい 海	-0.173451
-3.032619	いい 湯	-0.176091
-2.555498	いい 花	-0.327253
-2.333649	いい 薬	-0.756323
-3.032619	いい 雨	0.003034
-2.430559	いい 雪	-0.153977
-3.032619	いい 風	0.135473
-1.088136	いくら </s>
-1.690196	いくら だっ	1.119476
-1.088136	いくら でしょ	0.176091
-0.845098	いくら です	-0.813869
-0.544068	いくら 寝	-0.952076
-0.576253	いくら 注意	0.316270
-1.431364	いただき </s>
-0.352183	いただき ありがとう	-0.858436
-0.501945	いただき たい	-1.240837
-0.887296	いただき ます	-0.901314
-1.196295	いっ い	-0.900386
-0.428609	いっ た	-0.572482
-0.301030	いっ て	-1.091508
-1.564271	いっ てる	-0.491845
-0.079181	いっしょ に	-0.776450
-0.096910	いっぱい で	-0.698556
-1.502427	いつ から	-0.777177
-1.122216	いつ だって	-0.367977
-1.025306	いつ だろ	-0.523248
-1.900367	いつ でも	-0.454717
-0.338074	いつ に	-1.856499
-1.502427	いつ の	-0.777740
-0.770033	いつ まで	-0.987191
-1.423246	いつ やる	-0.720159
-1.724276	いつ テニス	-0.527426
-2.201397	いつ 行く	-0.280357
-0.284324	いる </s>
-2.008600	いる か	-0.776596
-2.707570	いる が	-0.293946
-2.707570	いる けど	-0.296067
-1.666177	いる こと	-0.568027
-2.406540	いる だけ	-0.288513
-2.008600	いる という	-0.436479
-2.105510	いる とき	-0.672641
-2.008600	いる ところ	-0.755408
-1.862472	いる に	-0.884542
-0.729847	いる の	-1.081948
-1.862472	いる もの	-0.781847
-1.929419	いる よ	0.018840
-1.385351	いる よう	-0.366324
-1.230449	いる ん	-0.949535
-1.561442	いる 人	-0.377587
-1.628389	いる 彼	-0.976056
-2.707570	いる 理由	-0.285236
-0.892095	いろいろ ありがとう	-0.238647
-0.360616	いろいろ と	-1.253263
-0.444937	いろいろ 気	-0.655191
-0.636822	いわゆる 主観	-0.759266
-0.290035	いわゆる 弁証法	-0.727985
-0.745967	いわゆる 行為	-0.378716
-0.299129	う </s>
-1.658965	う え	-0.539269
-0.436248	う か	-0.990934
-2.181844	う ぜ	0.045757
-1.579784	う と	-0.836401
-1.755875	う な	-0.811618
-1.454845	う ね	-0.173665
-2.181844	う よ	0.261878
-0.380211	うえ う	-0.475212
-0.380211	うえ うえ	-0.544068
-0.297727	うさぎ が	-0.272178
-1.272173	うさぎ です	-0.813869
-1.418301	うさぎ は	-0.777189
-0.427075	うさぎ を	-0.412064
-0.034762	うまく やる	-0.989005
-0.806180	うん </s>
-0.505150	うん うん	-0.503450
-0.550907	うん そう	-0.767427
-0.903090	うん 来	-0.507745
-0.909823	え </s>
-1.414973	え うえ	-0.544068
-0.423747	え え	-0.903090
-1.210853	え ええ	-0.819544
-1.335792	え お	-0.818891
-1.000000	え でも	-1.108119
-0.698970	え もう	-1.355581
-0.574031	ええ </s>
-0.778151	ええ て	-0.759739
-0.330993	ええ でしょ	-0.301030
-0.032185	えっ ち	-0.807309
-1.232410	お </s>
-2.346353	お あり	-0.300066
-2.346353	お ひ	-0.276206
-1.392110	お 久しぶり	-0.906578
-1.869232	お 仕事	-0.574330
-2.346353	お 休み	-0.297485
-0.702900	お 元気	-1.212533
-1.744293	お 名前	-0.283997
-1.142233	お 大事	-1.084321
-1.568202	お 天気	-0.730744
-1.744293	お 弁当	-0.245982
-2.346353	お 忘れ	-0.295950
-1.869232	お 時間	-0.302309
-1.501255	お 暇	-0.716003
-1.170262	お 水	-0.851937
-2.346353	お 約束	-0.249877
-1.170262	お 肉	-0.628389
-2.346353	お 誕生	1.267172
-1.232410	お 部屋	-1.043932
-0.744293	お 風呂	-0.156786
-1.869232	お 魚	-0.586428
-0.929419	おい </s>
-0.929419	おい う	-0.835468
-0.327359	おい て	-0.877350
-0.666177	おい みんな	-1.013001
-0.391538	おいしい </s>
-1.703291	おいしい ご飯	-0.668540
-0.671883	おいしい です	-1.217842
-1.606381	おいしい な	-0.768667
-1.828230	おいしい ね	0.454724
-1.351109	おいしい の	-0.986990
-1.527200	おいしい もの	-0.840299
-1.606381	おいしい ラーメン	-0.755167
-1.828230	おいしい 太陽	-0.235213
-2.305351	おいしい 川	0.081535
-1.606381	おいしい 星	-0.491845
-1.828230	おいしい 月	-0.205762
-2.004321	おいしい 木	-0.099703
-2.004321	おいしい 空	-0.180169
-1.828230	おいしい 雨	-0.297996
-2.305351	おいしい 雪	0.243963
-2.004321	おいしい 風	-0.040618
-1.606381	おいしい 魚	-0.578396
-0.845098	おお </s>
-0.124939	おお おお	0.104735
-1.146128	おお と	-0.844390
-0.631218	おじいさん が	-0.547468
-0.374607	おじいさん と	-0.315743
-0.740363	おじいさん に	-0.265727
-0.865301	おじいさん も	-0.235403
-0.032185	おそらく 疲れ	-1.117818
-1.204120	おはよう </s>
-1.505150	おはよう こんにちは	-0.756094
-0.079181	おはよう ござい	0.374816
-1.283301	おはよう 気持ち	-1.004566
-0.674146	おばあさん が	-0.523448
-0.343958	おばあさん と	-0.261441
-0.753328	おばあさん に	-0.258410
-2.230449	おばあさん は	-0.300973
-0.908230	おばあさん も	-0.235403
-0.732394	おめでとう </s>
-0.130334	おめでとう ござい	-0.763194
-0.247155	おやすみなさい </s>
-0.879178	おやすみなさい と	-0.901199
-0.610333	おやすみなさい また	-1.063458
-0.602060	おん じ	-0.255273
-0.602060	おん や	-0.288256
-0.544068	お前 の	-1.037099
-0.502675	お前 は	-0.796025
-0.502675	お前 何	-1.032936
-0.442359	お客様 でしょ	-0.271067
-0.234083	お客様 の	-1.340694
-0.655619	お母さん が	-0.581818
-0.425170	お母さん と	-0.243321
-0.780557	お母さん に	-0.263467
-1.257679	お母さん の	-1.034853
-0.935459	お母さん も	-0.235403
-1.479527	お母さん 今日	-0.470096
-1.750765	お父さん お	-0.596151
-0.722737	お父さん が	-0.631444
-0.358655	お父さん と	-0.268549
-0.696408	お父さん に	-0.268669
-0.905667	お父さん も	-0.235403
-0.176091	お疲れ様 でし	1.564271
-0.013788	お腹 が	-0.278023
-0.800428	お茶 が	-0.644883
-1.380211	お茶 で	-0.775453
-0.965238	お茶 と	-0.319401
-1.380211	お茶 は	-0.274934
-1.301030	お茶 も	-0.284074
-0.259637	お茶 を	-0.373932
-0.235528	お金 が	-1.109856
-0.429348	お金 を	-1.229702
-0.954243	お願い が	-0.950357
-0.067420	お願い し	-2.061538
-1.883661	お願い しよ	1.518514
-0.141648	か </s>
-2.923762	か あっ	0.085310
-1.809819	か ある	-0.707845
-2.321702	か いる	-0.635838
-2.145611	か から	-1.111602
-2.747671	か が	-0.597734
-2.270549	か これ	-0.852577
-2.183399	か ご飯	-0.899812
-2.923762	か し	-0.452796
-2.923762	か それ	-0.441626
-3.224792	か で	-0.299372
-2.446641	か と	-0.839877
-2.020672	か どう	-1.198389
-1.012604	か な	-1.582634
-3.224792	か ない	-0.291360
-1.882369	か に	-1.074432
-1.809819	か は	-1.143577
-2.078664	か へ	-0.806413
-2.622732	か よ	0.164968
-2.747671	か を	-0.599956
-2.446641	か バス	-0.806640
-2.525822	か 予定	-0.676352
-2.446641	か 今日	-0.470096
-3.224792	か 何	-0.254785
-2.145611	か 午後	-1.092754
-2.747671	か 外国	-0.569875
-2.379694	か 忘れ	-0.676162
-3.224792	か 提案	-0.295635
-2.923762	か 教え	0.436693
-3.224792	か 来る	-0.300352
-2.145611	か 楽しい	-1.082723
-2.622732	か 考え	-0.488117
-2.923762	か 行き	-0.398404
-3.224792	か 要求
-2.078664	か 迷っ	-0.708730
-2.020672	か 違う
-2.446641	か 電話	-0.832689
-0.602060	かかっ た	0.228611
-0.602060	かかっ て	-0.246443
-0.029963	かぎり 種	-1.026329
-1.616300	から </s>
-2.503596	から お茶	-0.556303
-2.144574	から お金	-1.028344
-2.348694	から ごはん	-0.633112
-2.348694	から しか	-0.934698
-2.202566	から しばらく	-0.915178
-2.202566	から そんな	-0.607200
-2.118245	から だ	-0.520198
-2.649724	から ちょうど	-0.733339
-1.735910	から で	-1.133015
-2.394452	から とても	-0.969957
-2.307302	から ね	-0.022397
-1.917330	から の	-0.976711
-1.986966	から は	-1.079433
-2.649724	から やる	-0.698970
-2.746634	から アメリカ	-0.629334
-2.269513	から カフェ	-1.074115
-2.746634	から ギター	-0.249370
-2.871573	から ケーキ	-0.181844
-2.649724	から ジュース	-0.256676
-1.871573	から タクシー	-0.582877
-1.871573	から バス	-1.052948
-2.503596	から パン	-0.663330
-2.307302	から ピアノ	-0.597823
-2.445604	から プール	-0.915414
-2.649724	から ペン	-0.387510
-2.307302	から ホテル	-1.035164
-2.570543	から レストラン	-0.813963
-2.234751	から 下	-0.374459
-2.172603	から 京都	-1.155271
-2.269513	から 人間	-0.860686
-2.047664	から 仕事	-0.787015
-1.968483	から 会社	-1.015055
-2.202566	から 会議	-0.273001
-2.069941	から 体育館	-1.218713
-2.871573	から 傘	-0.237643
-2.570543	から 公園	-0.826398
-2.269513	から 具体	-0.140046
-2.746634	から 写真	-0.264818
-2.348694	から 出し	-0.725123
-2.570543	から 出発	-0.713819
-2.047664	から 動く	-0.750828
-2.202566	から 北海道	-1.132279
-2.649724	から 午後	-0.769448
-2.172603	から 台所	-1.138689
-2.445604	から 君	-0.738925
-2.348694	から 図書館	-1.017568
-2.006272	から 大学	-1.035144
-2.234751	から 大阪	-1.104954
-2.006272	から 太陽	-0.994881
-2.307302	から 始まる	0.149298
-1.950754	から 学校	-0.886446
-2.234751	から 家	-1.121539
-2.649724	から 寝る	0.025554
-2.570543	から 屋上	-0.809560
-1.950754	から 山	-1.180509
-2.069941	から 川	-0.918465
-2.269513	から 工場	-1.079824
-1.353059	から 帰る	-0.496998
-2.649724	から 帽子	-0.321047
-2.269513	から 店	-1.064505
-2.348694	から 庭	-1.005281
-2.871573	から 弁当	-0.149072
-2.047664	から 忘れ物	-0.744983
-3.047664	から 手紙	-0.154902
-2.871573	から 授業	-0.417536
-2.394452	から 教室	-0.972969
-2.144574	から 散歩	-1.023323
-2.871573	から 料理	-0.253605
-2.871573	から 新聞	-0.129218
-2.649724	から 日本語	-0.608691
-2.871573	から 早く	-0.591595
-1.986966	から 星	-1.093905
-3.047664	から 映画	-0.010316
-2.570543	から 昼	-0.678568
-2.234751	から 時	-1.085782
-2.503596	から 時計	-0.580010
-2.570543	から 晩	0.176091
-2.026475	から 月	-0.946125
-2.871573	から 服	-0.277906
-2.746634	から 朝	-0.588855
-2.069941	から 木	-0.923612
-2.746634	から 本	-0.212224
-3.348694	から 来	-0.109805
-1.287996	から 来る	-0.901053
-2.269513	から 東京	-1.090830
-2.006272	から 森	-1.012006
-1.340094	から 歩く	0.750591
-2.649724	から 毎日	-0.772111
-2.234751	から 気づい	-0.775060
-3.047664	から 水	-0.124939
-1.843544	から 海	-1.214844
-2.394452	から 玄関	-0.949695
-2.269513	から 生物	-0.687975
-2.348694	から 病院	-0.995635
-2.746634	から 目標	-0.112704
-2.746634	から 眼鏡	-0.414330
-2.348694	から 矛盾	-1.031951
-2.307302	から 神社	-1.031540
-2.026475	から 空	-1.045471
-2.445604	から 空港	-0.917678
-2.570543	から 窓	-0.810081
-3.047664	から 紙	-0.098008
-2.445604	から 美術館	-0.920316
-2.307302	から 考える	-0.851937
-1.871573	から 自転車	-0.755962
-1.933721	から 花	-0.609209
-3.348694	から 英語	0.411442
-2.871573	から 荷物	-0.209950
-2.445604	から 薬	-0.450792
-1.303371	から 行く	-0.807096
-2.269513	から 見	-1.089754
-2.172603	から 誕生	0.364082
-3.047664	から 読む	-0.297135
-2.348694	から 財布	-0.666934
-2.871573	から 質問	-0.397940
-1.331661	から 走る	-0.420579
-2.445604	から 部屋	-0.900235
-2.503596	から 部長	-0.881293
-3.047664	から 野菜	-0.068457
-3.348694	から 金曜日	-0.286307
-3.047664	から 鍵	-0.123703
-2.746634	から 降りる
-2.234751	から 離れ	-0.419129
-1.735910	から 雨	-0.876938
-1.986966	から 雪	-0.835218
-2.570543	から 電話	-0.377484
-1.871573	から 電車	-1.126845
-2.649724	から 靴	-0.410174
-2.269513	から 鞄	-0.663151
-2.503596	から 音楽	-0.417851
-2.202566	から 頭	-0.716699
-1.950754	から 風	-0.978470
-2.202566	から 食べる	-1.104030
-2.307302	から 食堂	-1.032813
-2.394452	から 食材	-0.447158
-2.570543	から 駅	-0.758184
-2.570543	から 魚	-0.544068
-0.251471	かわいい </s>
-0.636822	かわいい です	-0.455090
-0.959041	かわいい ところ	-0.766170
-1.260071	かわいい 動物	-0.689210
-1.791064	が </s>
-2.456176	が あっ	-0.835509
-1.480362	が あり	-0.920289
-1.553086	が ある	-0.719492
-2.389229	が あれ	-0.873566
-1.854116	が い	-0.459822
-1.555354	が いい	-1.252632
-3.234327	が いっぱい
-2.234327	が いる	-0.715840
-2.690259	が お	-0.874800
-2.605938	が おいしい	-1.029102
-2.514168	が お客様	-0.962211
-2.882145	が お茶	-0.653213
-3.836387	が かかっ	-0.176091
-2.317873	が かわいい	-1.174498
-2.359266	が が	-1.195102
-2.933297	が き	-0.694344
-2.043996	が きれい	-0.818708
-3.836387	が ここ	-0.213880
-2.421414	が こんなに	-0.796249
-3.234327	が ごはん	-0.290689
-2.373989	が し	-1.456180
-2.722444	が じっと
-2.722444	が すぎる	-0.788193
-2.690259	が する	-0.273462
-2.757206	が それ	-1.100545
-3.234327	が そんな	-0.130078
-2.280085	が たくさん	-0.824465
-3.836387	が で	-0.210105
-1.863260	が でき	-0.422482
-1.783309	が できる	-1.084361
-2.389229	が とても	-0.801691
-2.080513	が どこ	-1.546432
-3.058236	が な	-0.702474
-1.906968	が ない	-1.267092
-3.359266	が なかっ	1.750123
-2.933297	が なく	-0.734627
-2.991289	が なくなっ
-2.722444	が なけれ	1.307190
-2.991289	が よく	-0.638631
-2.933297	が わ	-0.845098
-2.933297	が カフェ	-0.787015
-2.632267	が キーボード	-0.975176
-3.137417	が ギター	-0.328551
-2.933297	が ケーキ	-0.534026
-3.359266	が ジュース	-0.080584
-2.991289	が パン	-0.663330
-3.058236	が ピアノ	-0.363740
-2.882145	が プール	-0.477597
-3.058236	が ペン	-0.454457
-2.882145	が ホテル	-0.855439
-2.660296	が レストラン	-1.055801
-2.794995	が 一	-0.741823
-2.722444	が 一つ	-0.669007
-2.933297	が 一番	-0.385351
-1.886997	が 不足	-1.106061
-3.234327	が 並ん	0.342423
-3.137417	が 二	-0.009908
-2.757206	が 京都	-1.001154
-3.137417	が 今	-0.745427
-3.836387	が 今日	-0.243837
-2.882145	が 仕事	-0.798558
-3.359266	が 休み	-0.591336
-1.886997	が 会社	-1.670246
-2.882145	が 似	-0.778151
-3.058236	が 体育館	-0.710683
-2.991289	が 何	-0.878598
-2.438447	が 作成	-0.842469
-2.882145	が 便利	-0.810944
-2.438447	が 修正	-0.745967
-2.794995	が 個人	0.720159
-3.234327	が 傘	-0.334553
-1.271721	が 元気	-1.414416
-3.234327	が 兄	-0.683271
-3.359266	が 先生	-0.502557
-2.581115	が 光る
-2.317873	が 入っ	-0.729847
-3.359266	が 全部	-0.548814
-2.836387	が 公園	-0.850061
-2.757206	が 具体	-0.140046
-3.359266	が 写真	-0.167908
-3.137417	が 分析	0.287666
-2.794995	が 創造	0.870209
-2.882145	が 勉強	-0.151531
-2.581115	が 動く	-1.027698
-2.757206	が 北海道	-1.026793
-2.882145	が 台所	-0.865853
-2.882145	が 否定	-0.963619
-2.245323	が 咲い	0.077412
-3.137417	が 咲き
-2.030207	が 咲く	0.336306
-3.359266	が 問題	-0.591678
-1.912108	が 図書館	-1.529931
-3.836387	が 基	-0.079181
-2.359266	が 報告	-0.436366
-2.202919	が 増え
-2.438447	が 変更	-0.667491
-2.757206	が 多	-0.803912
-2.438447	が 多い	-0.865821
-2.991289	が 大きい	-0.128168
-2.557634	が 大事	-0.720159
-3.234327	が 大切	-0.670941
-3.535357	が 大変	-0.452988
-1.979055	が 大好き	0.095781
-1.917309	が 大学	-1.635484
-3.234327	が 大阪	-0.622833
-2.535357	が 始まり	-0.673416
-1.912108	が 始まる	-0.358857
-3.058236	が 学校	-0.772015
-2.438447	が 完了	-0.640456
-2.438447	が 実行	-0.619093
-3.137417	が 実験	0.757565
-2.933297	が 客観	-0.625541
-2.882145	が 家	-0.893692
-3.137417	が 寝	-0.554136
-2.155146	が 寝る	-0.886491
-2.438447	が 対応	-0.698970
-2.757206	が 対立	-1.057216
-3.535357	が 小さい	-0.138949
-2.331237	が 届い	-1.089697
-3.137417	が 届き
-2.557634	が 屋上	-1.084321
-1.882145	が 工場	-1.301801
-2.080513	が 帰る	-0.260426
-3.058236	が 帽子	-0.387994
-2.632267	が 幸せ	-0.646034
-3.359266	が 広い	-0.553074
-2.690259	が 店	-1.010858
-2.112112	が 座る	0.357511
-2.722444	が 庭	-0.661601
-3.058236	が 弁当	-0.392110
-2.493965	が 強い	-0.461881
-3.836387	が 彼	-0.266407
-2.405024	が 心配	-1.278754
-3.359266	が 必要	-0.341459
-3.359266	が 忘れ物	-0.024824
-2.882145	が 忙しい	-0.617403
-2.438447	が 悪い	-0.748188
-2.234327	が 成立	0.336606
-2.722444	が 手	-0.271067
-3.137417	が 手紙	-0.455932
-2.438447	が 承認	-0.612200
-3.137417	が 提出	0.141580
-2.557634	が 故に	-0.892320
-1.933297	が 教室	-1.622178
-3.234327	が 料理	-0.350515
-2.882145	が 新聞	-0.527158
-3.058236	が 日本人	-0.776382
-3.359266	が 明日	-0.426423
-2.991289	が 映画	-0.436285
-3.058236	が 昼	-0.678568
-3.058236	が 時計	-0.522018
-2.991289	が 晩	-0.221849
-3.058236	が 晴れ	-0.528376
-2.722444	が 書い	-1.022973
-2.112112	が 有名	-0.576010
-3.137417	が 服	-0.453997
-3.234327	が 朝	-0.588855
-3.359266	が 本	-0.115314
-3.359266	が 本当に	-0.576253
-2.557634	が 来	-0.645431
-2.088199	が 来る	-0.257600
-2.722444	が 東京	-1.026454
-2.438447	が 検討	-0.626098
-3.234327	が 楽しい	-0.525382
-2.137417	が 楽しみ	-0.650296
-2.080513	が 止まる	0.343782
-2.080513	が 歩く	1.000000
-2.933297	が 歴史	0.069239
-3.137417	が 比較	1.278754
-3.836387	が 気	-0.295040
-3.359266	が 水	-0.249877
-2.991289	が 求め
-2.438447	が 決定	-0.764787
-3.234327	が 泣い	0.166331
-2.137417	が 泣く	-0.087781
-2.991289	が 注意	0.559308
-2.072959	が 泳ぐ	0.322570
-2.933297	が 海	-0.909945
-3.535357	が 涼しく	0.124939
-3.137417	が 測定	1.274927
-2.438447	が 準備	-1.033847
-3.234327	が 狭い	-0.574031
-2.757206	が 玄関	-0.931013
-2.991289	が 現実	-0.837737
-2.581115	が 環境	-0.704647
-3.836387	が 生まれ	-0.215600
-2.438447	が 申請	-0.619093
-3.234327	が 疲れ	-0.654616
-3.058236	が 病院	-0.718225
-1.973065	が 痛い	-0.284216
-2.991289	が 発表	0.369911
-2.438447	が 登録	-0.809989
-3.359266	が 目標	-0.015794
-2.438447	が 相談	-0.770904
-2.836387	が 真に	-0.778151
-3.234327	が 眼鏡	-0.414330
-2.331237	が 矛盾	-0.032962
-2.836387	が 知ら	-0.715057
-3.137417	が 研究	-0.153228
-2.438447	が 確認	-0.847282
-2.660296	が 神社	-1.041905
-3.836387	が 私	-0.235094
-2.103994	が 空く	0.360008
-2.882145	が 空港	-0.861360
-2.882145	が 窓	-0.881135
-2.146191	が 立つ	-0.635136
-2.155146	が 笑う	0.381686
-2.690259	が 答え	-0.889785
-2.438447	が 管理	-0.853750
-2.991289	が 紙	-0.523977
-2.438447	が 終わっ	0.176091
-2.003879	が 終わる	-0.247205
-3.234327	が 結婚	-0.536243
-2.757206	が 絶対	-0.235039
-2.757206	が 綺麗	-0.411442
-2.581115	が 繋がる
-2.757206	が 美術館	-0.983107
-3.234327	が 習慣	-0.615996
-1.985129	が 自己	-1.108860
-2.268186	が 良い	-1.486185
-3.535357	が 花	-0.357555
-3.836387	が 芽
-3.359266	が 荷物	-0.209950
-3.234327	が 薬	-0.195520
-2.037047	が 行く	-0.953982
-3.137417	が 製作	0.163857
-2.405024	が 見	-0.684010
-2.836387	が 覚え	-0.973396
-3.137417	が 観察	1.243038
-2.690259	が 言っ	-0.495242
-2.438447	が 計画	-0.858671
-3.058236	が 計算	0.856578
-3.137417	が 記録	0.437449
-3.058236	が 設計	0.555548
-2.438447	が 説明	-1.009436
-3.137417	が 調整	0.477121
-3.234327	が 財布	-0.324511
-2.690259	が 走っ	-0.995037
-2.030207	が 走る	-0.212303
-2.058236	が 起きる	-1.108636
-2.493965	が 趣味	-0.992821
-2.438447	が 連絡	-0.869736
-2.660296	が 進ん
-2.690259	が 遅れ	0.193820
-2.137417	が 遊ぶ	-0.435397
-3.234327	が 遊ん	-0.187087
-3.234327	が 運転	-0.062148
-3.234327	が 選挙	0.301030
-2.757206	が 部屋	-1.009526
-2.991289	が 野菜	-0.494426
-3.359266	が 鍵	-0.248642
-3.234327	が 開け	-0.443697
-3.836387	が 開発	-0.176091
-1.791064	が 降っ	0.003826
-1.886997	が 降り
-1.823550	が 降る	0.218589
-2.794995	が 難しい	-0.785977
-3.836387	が 雲	-0.255273
-3.234327	が 電話	-0.477800
-2.722444	が 青
-2.757206	が 青い	-0.455127
-2.120384	が 静か	-1.426499
-2.757206	が 非	-0.985914
-3.535357	が 靴	-0.109144
-2.991289	が 鞄	-0.452298
-3.836387	が 音楽	0.184209
-3.058236	が 風	-0.827724
-2.120384	が 飛ぶ	-0.115037
-2.183175	が 食べ	-1.524591
-2.836387	が 食堂	-0.863925
-2.991289	が 食材	-0.350248
-2.722444	が 飲み	-1.104119
-2.836387	が 駅	-0.893131
-3.836387	が 高い	0.022276
-3.234327	が 高く	-0.623249
-3.234327	が 魚	-0.397940
-2.173630	が 鳴く	0.388600
-0.346468	き た	-0.810216
-1.701856	き たい	-0.599547
-1.099796	き てる	-1.003728
-0.856758	き まし	1.278060
-0.747613	き ます	-0.057438
-1.032849	き や	-1.077605
-0.613959	きっと </s>
-0.568202	きっと いい	-1.031202
-0.392110	きっと 明日	-1.028483
-0.616619	きれい </s>
-1.591065	きれい だ	-0.483961
-0.453891	きれい です	-1.084588
-0.989005	きれい な	-0.742313
-0.944801	きれい に	-1.208083
-2.436163	きれい 太陽	0.065817
-1.959041	きれい 川	-0.219495
-2.135133	きれい 星	-0.190815
-1.834103	きれい 月	-0.302672
-2.436163	きれい 木	0.076388
-2.135133	きれい 森	-0.127399
-1.834103	きれい 海	-0.395300
-1.959041	きれい 空	-0.305108
-2.135133	きれい 花	-0.202314
-1.959041	きれい 雨	-0.297996
-1.834103	きれい 雪	-0.153977
-0.027849	ください </s>
-2.507856	ください あなた	-0.297765
-1.303736	ください ませ	1.321001
-0.213880	くらい の	-1.076957
-0.477121	くらい 入れる	-0.858671
-1.181844	くれる だけ	-0.589543
-0.650365	くれる と	-1.249215
-0.880814	くれる なら	-1.031002
-0.801632	くれる の	-1.100934
-0.766870	くれる もの	-1.110503
-0.766870	くれる 人	-1.054742
-0.124939	け </s>
-0.272385	けど </s>
-1.041393	けど ある	-0.951432
-0.865301	けど さ	-1.027794
-1.099385	けど やっぱり	-0.716003
-1.099385	けど よく	-0.888508
-1.944483	けど 登録	0.303955
-0.057992	けれど 空	-0.606138
-0.525970	こ </s>
-0.827000	こ いる	-0.897088
-0.525970	こ だ	-1.171614
-1.672098	こ ば	-0.299924
-0.893947	こ れ	-0.664043
-1.007969	ここ から	-0.881844
-1.536243	ここ だけ	-0.912850
-1.439333	ここ っ
-0.698970	ここ で	-1.068393
-1.962211	ここ です	-0.542903
-1.360151	ここ な	-1.065179
-0.740363	ここ に	-1.028052
-0.461609	ここ は	-1.262573
-1.661181	ここ も	-0.843936
-0.417536	こちら が	-1.145241
-1.531479	こちら へ	-0.294457
-1.054358	こちら も	-0.601480
-0.417536	こちら を	-1.130746
-1.181659	こと </s>
-1.797960	こと あっ	-0.641689
-2.128953	こと あり	-0.645113
-1.797960	こと ある	-1.195632
-0.519206	こと が	-1.259420
-1.932658	こと さ	-0.985639
-1.718778	こと し	-0.784338
-2.974051	こと だ	0.118099
-0.913353	こと で	-1.230218
-1.974051	こと です	-0.055990
-1.894870	こと でも	-1.045782
-1.593840	こと と	-1.111103
-1.797960	こと ない	-1.199145
-1.974051	こと なく	-1.018409
-1.301953	こと に	-1.075805
-2.974051	こと について	-0.276206
-1.233688	こと によって	-0.926436
-0.891266	こと は	-1.001118
-2.128953	こと も	-0.898815
-2.496930	こと り	-0.397940
-1.065566	こと を	-0.859575
-2.275081	こと 言っ	-0.578579
-1.661708	この あたり
-2.314920	この あり	-0.470328
-1.110800	この よう	-1.368208
-2.013890	この ノート	-0.636822
-2.615950	この ファイル	0.740363
-2.138829	この ホテル	-0.583349
-1.916980	この レストラン	-0.719769
-1.254222	この 世界	-1.302072
-1.916980	この 仕事	-0.576709
-2.138829	この 味噌汁
-2.138829	この 商品	-0.587337
-1.837799	この 問題	-0.824080
-2.314920	この 場所	-0.468258
-2.013890	この 大学	-0.673416
-2.615950	この 姉	-0.298498
-2.138829	この 山	-0.548235
-2.013890	この 川	-0.683031
-2.615950	この 差	-0.249877
-2.615950	この 建物	-0.279841
-1.615950	この 故
-1.337196	この 文章	-0.925409
-2.138829	この 日	-0.538707
-1.661708	この 星	-0.703933
-1.916980	この 映画	-0.518261
-1.916980	この 時	-0.461588
-1.837799	この 時代	0.109144
-1.469822	この 時間	-1.157775
-1.916980	この 服	-0.453997
-1.235739	この 本	-0.465464
-1.916980	この 村	-0.609009
-1.574557	この 町	-0.761207
-2.615950	この 種	-0.282547
-1.502007	この 紳士
-2.615950	この 結婚	-0.291887
-1.254222	この 言葉	-0.645965
-0.830620	この 言語	-0.906716
-2.615950	この 課題	-0.299129
-2.138829	この 道	-0.251812
-1.502007	この 道具
-1.712860	この 部屋	-0.542564
-1.661708	この 録音	-0.971971
-1.916980	この 電車	-0.745699
-2.013890	この 靴	-0.650909
-1.350033	これ </s>
-1.760207	これ いくら	-0.836143
-1.243577	これ が	-0.936394
-1.605305	これ そんな	-0.966328
-1.326551	これ で	-0.753521
-2.003245	これ です	-0.273360
-1.459177	これ どう	-0.879699
-1.374856	これ な	-1.193635
-1.760207	これ なら	-0.895843
-1.526124	これ に	-1.113057
-1.563912	これ に対して	-0.973671
-0.540847	これ は	-0.903956
-1.906335	これ ほど	-0.754413
-1.526124	これ も	-0.842771
-0.632177	これ を	-0.938074
-2.003245	これ 他	-0.085011
-1.491362	これ 食べ	-1.131779
-0.705601	これから どう	-1.096194
-1.217484	これから どこ	-0.599818
-0.421604	これから も	-1.124494
-1.120574	これから 何	-0.731906
-1.342423	これから 夜	-0.574031
-1.217484	これから 授業	-0.639384
-1.120574	これから 電車	-0.413635
-0.602060	これら の	-0.300866
-0.602060	これら は	-0.298592
-0.606216	こんな こと	-1.066947
-1.043466	こんな ところ	-0.702061
-1.845098	こんな の	-0.601813
-1.477121	こんな ん	-0.894404
-1.243038	こんな 便利	-0.924887
-1.118099	こんな 夢	-1.018471
-1.322219	こんな 急	-0.760566
-0.597943	こんな 時間	-1.300068
-1.176091	こんな 気持ち	-1.123613
-1.176091	こんな 詩	0.028029
-0.672098	こんなに たくさん	-1.023065
-0.827000	こんなに 不足	-0.880649
-0.630705	こんなに 入っ	-0.277549
-0.496007	こんなに 難しい	-1.159822
-1.173325	こんにちは </s>
-1.796574	こんにちは あなた	-0.663394
-1.796574	こんにちは あり	-0.771358
-1.033146	こんにちは いい	-1.387997
-1.048386	こんにちは お	-1.057625
-0.732116	こんにちは こんばんは	-0.959117
-2.018423	こんにちは です	-0.597271
-1.650446	こんにちは と	-0.901199
-1.796574	こんにちは どうも	-0.477121
-1.381601	こんにちは よろしく	-0.464026
-0.669470	こんにちは 今日	-0.617486
-1.319453	こんにちは 元気	-1.072699
-0.852092	こんにちは 私	-1.284222
-1.243038	こんばんは </s>
-0.678767	こんばんは おはよう	-0.583577
-0.544068	こんばんは おやすみなさい	-1.128814
-0.875061	こんばんは と	-1.170870
-0.790740	こんばんは 今	-1.106333
-1.021189	こんばんは 寒い	-0.939197
-0.585027	ご 協力	-1.029015
-1.397940	ご 安心	-0.463333
-0.585027	ご 注文	-0.798046
-0.585027	ご 結婚	-1.008955
-1.096910	ご 連絡	-0.689528
-0.567298	ござい まし	0.599294
-0.140286	ござい ます	-0.732312
-2.151268	ごはん </s>
-1.151268	ごはん が	-0.806809
-1.349635	ごはん と	-0.315818
-1.482261	ごはん に	-1.157544
-1.929419	ごはん の	-0.777740
-0.938193	ごはん は	-0.488167
-1.084321	ごはん も	-0.367037
-0.215089	ごはん を	-0.746369
-2.327359	ごはん 食べ	-0.439727
-1.169609	ご飯 が	-0.997142
-0.470639	ご飯 に	-1.196525
-0.567549	ご飯 は	-0.875542
-0.618702	ご飯 を	-1.213130
-1.345700	ご飯 食べ	-0.706931
-0.744894	さ </s>
-0.712710	さ せ	-0.919743
-1.346954	さ そう	-1.128565
-2.460898	さ ひ	-0.276206
-2.460898	さ ま	-0.294596
-2.159868	さ まで	-0.476185
-0.419505	さ れ	-0.445274
-0.858838	さ れる	-0.533237
-1.761928	さ ん	-0.645403
-0.640978	さすが だ	-0.919480
-0.146128	さすが に	-1.123864
-2.058368	し すぎる	-0.921732
-0.962796	し た	-0.737398
-1.327213	し たい	-0.533440
-1.740947	し たら	-0.919024
-3.172311	し ち	-0.263241
-0.464741	し て	-0.992345
-1.314978	し てる	-0.713693
-2.026183	し な	-1.170584
-1.263826	し ない	-0.612256
-1.996220	し なかっ	1.148063
-2.218068	し ながら	-0.948847
-1.500213	し なく	-1.461625
-2.473341	し なけれ	1.675167
-0.770910	し まし	0.217363
-0.895849	し ます	-0.876073
-2.570251	し ませ	1.852480
-0.305351	しか い	-1.343576
-0.828230	しか なかっ	1.148063
-1.004321	しか 友人	-0.740363
-0.661899	しか 考え	-0.778151
-0.849507	しかし この	-1.141066
-1.995635	しかし そう	-0.299704
-0.694605	しかし それ	-1.004376
-1.518514	しかし 今日	-0.227058
-0.916454	しかし 個物	-0.976342
-0.881692	しかし 右	0.234083
-1.217484	しかし 多	-0.832509
-1.296665	しかし 大変	-0.715100
-1.995635	しかし 彼女	-0.176091
-0.849507	しかし 抽象	-0.916454
-0.397940	しかして それ	-0.723549
-0.283997	しかして 超越	0.653213
-0.037789	しかも それ	-0.761338
-0.345234	しばらく 様子	-0.677251
-0.315270	しばらく 話す	-1.101050
-0.149762	しまう </s>
-0.602060	しまう ほど	-1.054629
-0.050305	しまっ た	-0.548286
-1.107210	しまっ て	-0.723564
-0.004409	しよ う	-0.278152
-1.000000	じ の	-0.300948
-0.154902	じ ば	-0.887337
-0.032185	じっと こちら	-0.936868
-0.084321	す </s>
-1.230449	す の	-0.300948
-0.250725	すぎる </s>
-0.394147	すぎる こと	-1.003101
-1.258706	すぐ に	-0.639034
-2.103804	すぐ ギター	0.148570
-2.103804	すぐ ジュース	0.220446
-1.802774	すぐ スケジュール	1.467361
-1.626682	すぐ ピアノ	-0.120702
-1.626682	すぐ プロジェクト	0.268845
-1.501744	すぐ マニュアル	0.414973
-1.626682	すぐ メール	0.332438
-1.626682	すぐ 予算	1.342423
-2.103804	すぐ 企画	1.194977
-1.802774	すぐ 名刺	1.481920
-1.802774	すぐ 商品	0.778151
-1.501744	すぐ 契約	1.220108
-2.103804	すぐ 弁当	0.151958
-2.103804	すぐ 忘れ物	0.276206
-2.103804	すぐ 手紙	0.021189
-1.501744	すぐ 提案	0.732394
-2.103804	すぐ 新聞	0.171812
-2.103804	すぐ 映画	0.165775
-1.802774	すぐ 時計	-0.154041
-1.404834	すぐ 書類	1.146128
-2.103804	すぐ 本	0.185716
-2.103804	すぐ 泣く	-0.297542
-2.103804	すぐ 眼鏡	-0.016390
-2.103804	すぐ 紙	0.078083
-1.062411	すぐ 終わる	-1.048837
-2.103804	すぐ 薬	0.202420
-0.957676	すぐ 行く	-1.164192
-1.501744	すぐ 見積	0.773299
-1.325652	すぐ 資料	0.516630
-2.103804	すぐ 靴	0.066947
-1.802774	すぐ 音楽	0.008118
-0.045757	すでに 修正	-0.971143
-1.477121	すべて どこ	-0.201878
-0.301030	すべて 終え
-0.435729	すべて 自己	-1.032664
-1.949390	すみません が	-0.300460
-1.250420	すみません この	-0.772861
-0.773299	すみません ちょっと	-1.151732
-1.104292	すみません でし	1.138303
-0.835447	すみません よく	-1.118645
-1.347330	すみません わかり	-0.305626
-1.347330	すみません トイレ	-0.464887
-1.472269	すみません 図書館	-0.564973
-0.502232	すみません 道	-1.112150
-0.058058	する </s>
-1.873404	する か	-0.650501
-2.019532	する こと	-0.448128
-1.932382	する ため	-1.015512
-2.009986	する という	-0.742972
-2.558801	する とき	-0.936868
-2.631352	する と共に	-0.827369
-2.827646	する なら	-0.895843
-2.442295	する なんて	-0.924733
-1.738246	する の	-1.421055
-2.292533	する もの	-0.827000
-2.292533	する よう	-1.092265
-2.417472	する ん	-0.805911
-2.417472	する 一	-0.944651
-2.631352	する 世界	-1.022783
-2.039276	する 予定	-1.138892
-3.672744	する 人	-0.294440
-2.257771	する 必要	-1.042995
-2.631352	する 所	-0.950863
-2.496653	する 文章	-0.989005
-2.827646	する 時間	-0.777724
-2.631352	する 環境	-0.969220
-2.827646	する 相手
-3.672744	する 科学	-0.281059
-3.371714	する 習慣	0.106455
-3.672744	する 記録	-0.297237
-1.322219	ず </s>
-0.623249	ず に	-0.759604
-0.243038	ず 教室	-1.038490
-0.583577	ずっと 一緒	-0.208276
-0.320335	ずっと 大好き	-0.903090
-0.884607	ずっと 考え	-0.391207
-0.872828	せ ず	-0.455932
-1.685742	せ た	-0.476331
-0.539614	せ て	-1.122803
-1.083682	せ ない	-0.933992
-0.756323	せ なけれ	1.198046
-1.986772	せ の	-0.300454
-0.945379	せ られ	-1.054097
-1.032529	せ られる	-0.971143
-0.110698	ぜ </s>
-0.756962	ぜ は	-0.899514
-1.117934	そう </s>
-0.382335	そう だ	-0.746860
-2.515874	そう でし	1.740363
-1.913814	そう です	-0.273360
-1.436693	そう と	-1.112526
-1.010724	そう な	-0.945512
-2.515874	そう なら	0.279987
-1.670776	そう なり	-0.880814
-1.670776	そう なる	-0.838193
-1.401930	そう に	-1.145093
-1.670776	そう は	-0.902694
-1.612784	そう も	-0.949968
-1.193655	そう らしい	-0.195396
-2.038753	そう 何	-0.555815
-1.436693	そう 思う	-0.656042
-1.311754	そう 思っ	0.167973
-2.515874	そう 思わ	-0.274701
-1.913814	そう 感じる
-0.185637	そういう しか	-1.134297
-0.583577	そういう とき	-0.804981
-0.034762	そこで 二	-0.662758
-0.505150	そして おいしい	-0.674197
-0.359022	そして 僕	-0.771296
-1.204120	そして 解決	-0.176091
-1.939519	その おばあさん	-0.298468
-1.337459	その こと	-0.351875
-1.939519	その よう	-0.150724
-0.898127	その 中	-0.958035
-1.462398	その 人	-0.540314
-0.860338	その 情報	-1.078948
-0.898127	その 時	-0.925953
-1.939519	その 晩	-0.296482
-1.337459	その 本	-0.652551
-1.462398	その 案	-0.301030
-1.337459	その 次	-0.072551
-1.036429	その 秘密	-0.586266
-0.898127	その 言い	-0.920819
-2.295567	それ </s>
-1.642355	それ あ	-0.831596
-1.366148	それ いい	-1.224820
-1.105235	それ が	-0.732083
-1.420506	それ だけ	-1.015512
-1.994537	それ で	-0.698038
-1.517416	それ どこ	-1.014791
-1.274378	それ に	-0.901537
-1.517416	それ によって	-1.079864
-0.284843	それ は	-0.960957
-0.994537	それ を	-0.945669
-1.693507	それ 以上
-1.818446	それ 自身	-0.772835
-0.079181	それから また	-0.748188
-0.436693	それで いい	-1.089532
-0.571391	それで どう	-1.032881
-0.533603	それで 満足	-0.726999
-0.019305	それら の	-1.075882
-0.791116	そろそろ お	-0.709598
-0.656418	そろそろ 会社	-1.146804
-0.718566	そろそろ 切る	-1.105915
-0.929419	そろそろ 連絡	-0.935150
-0.753328	そろそろ 部屋	-1.011748
-1.355388	そろそろ 食べ	-0.532754
-0.136583	そんな こと	-0.887639
-1.197281	そんな 日	-0.635617
-0.799341	そんな 面白い	-0.965004
-0.301030	そんなに 難しい	-0.256732
-0.007062	ぞ </s>
-0.152036	た </s>
-2.404702	た あっ	-0.583697
-2.103672	た ありがとう	-0.400380
-1.531874	た か	-0.952687
-2.740494	た から	-0.597758
-2.404702	た が	-0.719400
-2.615556	た けど	-0.912850
-1.661313	た こと	-1.401686
-2.518646	た それ	-1.017667
-2.518646	た ぞ	0.750999
-3.518646	た だけ	-0.296067
-2.342554	た です	-0.778510
-3.217616	た と	-0.298309
-2.615556	た とき	-0.899885
-2.740494	た ところ	-0.491648
-2.740494	た な	-0.332866
-2.477253	た ない	-0.738470
-3.518646	た なんて	-0.298086
-3.217616	た ね	0.579663
-1.473323	た の	-1.222142
-2.087282	た ので	-0.701445
-2.564403	た ま	-0.938343
-1.465567	た もの	-0.805716
-1.655323	た よ	-0.559449
-2.217616	た よう	-0.827933
-2.342554	た よろしく	-0.522018
-3.518646	た わ	-0.288796
-1.550163	た ん	-0.685742
-2.314526	た ゴミ
-2.342554	た 元気	-1.191058
-2.916586	た 全く	-0.574031
-2.477253	た 公園	-0.929712
-2.439464	た 友人	-0.812913
-2.477253	た 君	-0.974805
-2.916586	た 場合	-0.623249
-3.518646	た 女の子	-0.234083
-2.156918	た 如く
-3.518646	た 娘	-0.191886
-2.477253	た 安心	-0.615424
-2.404702	た 文章	-1.115680
-2.404702	た 独立
-2.819676	た 紙	-0.399038
-2.819676	た 興味	-0.431364
-2.673547	た 表情	-0.653213
-2.673547	た 連絡	-0.357853
-3.518646	た 酢
-0.296048	たい </s>
-1.602060	たい こと	-0.989643
-1.812913	たい さすが	-0.410174
-0.662925	たい です	-1.037507
-1.253605	たい と	-1.183196
-2.017033	たい という	-0.436479
-1.437250	たい な	-1.158406
-2.238882	たい なら	-0.598969
-1.674611	たい ね	-0.022397
-1.485554	たい の	-1.247396
-2.017033	たい もの	-0.745967
-1.511883	たい ん	-1.188023
-2.414973	たい 場所	-0.400564
-2.414973	たい 私	-0.108131
-1.342423	たくさん あり	-1.050317
-1.003604	たくさん ある	-0.678533
-2.383815	たくさん かかっ	-0.176091
-2.383815	たくさん ごはん	0.107251
-2.383815	たくさん だ	0.118099
-1.605664	たくさん の	-0.842213
-2.383815	たくさん ギター	0.148570
-2.383815	たくさん ジュース	0.220446
-2.383815	たくさん スケジュール	1.643453
-2.383815	たくさん ピアノ	0.180328
-1.684845	たくさん プロジェクト	0.092754
-1.906694	たくさん マニュアル	0.511883
-1.781755	たくさん メール	0.235528
-1.684845	たくさん 並ん	0.263241
-1.781755	たくさん 予算	1.245513
-2.383815	たくさん 仕事	-0.099588
-1.906694	たくさん 企画	0.893947
-1.605664	たくさん 写真	-0.410946
-1.684845	たくさん 動物	-0.602060
-2.383815	たくさん 友達	-0.219482
-1.906694	たくさん 名刺	1.356981
-1.781755	たくさん 咲い	-0.050167
-2.383815	たくさん 契約	1.618048
-2.383815	たくさん 帽子	0.156074
-1.781755	たくさん 店	-0.685004
-2.383815	たくさん 忘れ物	0.276206
-1.383815	たくさん 戸
-1.781755	たくさん 提案	0.732394
-2.383815	たくさん 晩	0.380211
-2.082785	たくさん 書類	1.447158
-1.906694	たくさん 眼鏡	-0.317420
-2.082785	たくさん 花	-0.357555
-2.383815	たくさん 荷物	0.091080
-2.383815	たくさん 薬	0.202420
-1.906694	たくさん 見積	0.870209
-1.429573	たくさん 話し	-0.728525
-1.207724	たくさん 読み	-0.928396
-2.082785	たくさん 資料	0.884607
-2.383815	たくさん 鍵	0.052388
-2.383815	たくさん 電話	-0.079860
-2.082785	たくさん 鞄	-0.026329
-2.082785	たくさん 音楽	0.008118
-1.179695	たくさん 食べ	-1.161143
-1.128543	たくさん 食べる	-1.206692
-1.906694	たくさん 食材	-0.049218
-2.383815	たくさん 魚
-2.056905	たち </s>
-1.278754	たち が	-0.467068
-1.056905	たち だ	-0.622263
-0.852785	たち と	-1.225705
-1.102662	たち の	-0.738964
-0.237361	たち は	-0.946541
-0.974446	ため なら	-1.161474
-0.576506	ため に	-0.968682
-0.430378	ため の	-1.234838
-1.342423	ため 口	-0.544068
-1.217484	ため 遅れ	-0.401401
-0.974446	ため 隣	-0.994671
-0.965582	たら いい	-1.032830
-1.986772	たら この	-0.475013
-1.141674	たら つまらない	-0.653213
-1.083682	たら できる	-1.115729
-1.442704	たら どう	-0.853156
-1.685742	たら 休み	-0.654388
-1.287802	たら 出る
-1.287802	たら 出来る
-1.685742	たら 友達	-0.694224
-1.032529	たら 夜	-0.968337
-1.685742	たら 少し	-0.688690
-1.384712	たら 掃除	-0.184060
-1.246409	たら 次	-0.982271
-1.588832	たら 良い	-0.750713
-0.986772	たら 話す	-1.062026
-1.333559	たら 課題	-0.923466
-1.141674	たら 録音	-1.131672
-0.208276	だ </s>
-1.879860	だ から	-0.985961
-2.180890	だ きっと	-0.878956
-1.591065	だ けど	-0.785087
-1.989005	だ ぜ	-0.528274
-1.959041	だ そういう	-0.745482
-2.135133	だ それ	-1.017667
-1.322219	だ と	-0.988976
-1.672735	だ な	-1.334497
-1.113943	だ ね	-0.620417
-1.034762	だ よ	-0.367830
-1.989005	だ ん	-1.170029
-1.491680	だ 問題	-0.789403
-2.135133	だ 早く	-1.005480
-3.135133	だ 準備	-0.298738
-2.180890	だ 見	-0.870792
-1.944483	だけ か	-0.299474
-0.453121	だけ で	-0.938372
-1.342423	だけ です	-0.273360
-1.041393	だけ の	-0.951771
-1.342423	だけ は	-0.698631
-0.830539	だけ を	-0.872629
-0.768391	だけ 街	-0.745482
-1.342423	だけ 食べ	-0.621955
-0.016813	だっ た	-0.653231
-1.596597	だっ たら	-0.689922
-0.778151	だって </s>
-0.778151	だって そう	-0.598070
-0.301030	だって 大丈夫	-0.909492
-0.698970	だろ </s>
-0.101555	だろ う	-0.574031
-1.079181	ち </s>
-0.266268	ち し	-1.125187
-1.380211	ち せ	-0.296529
-0.778151	ち ない	-0.358259
-0.628389	ちょうど いい	-0.999355
-0.666177	ちょうど その	-1.020476
-0.593627	ちょうど よく	-1.118645
-1.008600	ちょうど 晩	-0.096910
-1.008600	ちょうど 試合	-0.593627
-0.944483	ちょっと いい	-1.119914
-0.916454	ちょっと お願い	-1.179296
-0.974446	ちょっと 休憩	-0.989005
-0.430378	ちょっと 待っ	0.346353
-0.890125	ちょっと 疲れ	-0.941405
-0.944483	ちょっと 眠い	-0.976111
-0.029963	ぢ で	-1.174641
-0.380211	っ こ	-0.624567
-0.380211	っ ここ	-0.762064
-0.895265	つ </s>
-0.277965	つ です	-1.387901
-1.740363	つ わ	-0.288796
-0.594235	つ 出発	-0.717453
-0.397940	つける </s>
-0.698970	つける もの	-0.275645
-0.154902	つまらない </s>
-0.698970	つまらない です	-0.273360
-1.381853	て </s>
-2.520156	て あり	-0.387216
-2.309303	て ある	-0.719224
-3.423246	て あー	-0.278754
-0.570156	て い	-0.999446
-1.667371	て いい	-0.777641
-2.043035	て いただき	-0.858671
-2.167973	て いっ	-1.076210
-0.927702	て いる	-0.469152
-2.192797	て おい	-0.979066
-2.247155	て から	-0.926490
-1.358788	て き	-0.659872
-2.423246	て きれい	-0.515175
-0.972997	て ください	0.053011
-1.578148	て くれる
-2.645095	て こ	-0.785784
-2.309303	て この	-1.132238
-3.122216	て ご飯	-0.357591
-1.832181	て しまう	0.068457
-1.675058	て しまっ	-0.794793
-2.144492	て て	-0.793659
-1.960848	て ない	-0.666598
-2.469003	て なく	-0.979370
-1.918096	て ね	-0.064521
-2.219126	て は	-0.950951
-2.043035	て ます	-1.340057
-2.578148	て また	-0.860538
-1.918096	て み	-0.893506
-2.247155	て みんな	-1.180468
-1.078854	て も	-0.951403
-1.976088	て よ	-0.598460
-2.309303	て よかっ	0.444937
-2.724276	て られ	-0.766929
-2.043035	て ん	-1.213163
-2.469003	て 人間	-0.951992
-2.821186	て 休み	-0.665970
-2.277118	て 何	-0.810545
-2.309303	て 健康	-0.998326
-2.381853	て 具体	-0.105284
-2.309303	て 判断	-1.040075
-2.645095	て 労働
-2.344065	て 名前	-1.058978
-2.578148	て 学校	-0.861697
-2.578148	て 寝	-0.679075
-3.122216	て 寝る	0.326584
-2.247155	て 少し	-1.164248
-2.277118	て 帰る	0.326911
-3.423246	て 座
-2.247155	て 来る	-1.193836
-2.344065	て 毎日	-1.099303
-2.277118	て 気持ち	-0.842061
-2.381853	て 満足	-0.692237
-2.309303	て 立派	-0.887850
-2.309303	て 興味	-0.975432
-2.309303	て 荷物	-1.092031
-2.724276	て 見	-0.673327
-2.821186	て 遊ぶ	0.573203
-2.578148	て 静か	-0.862024
-0.649485	てる </s>
-1.286307	てる だけ	-0.811392
-0.961796	てる だろ	1.048849
-0.532979	てる の	-1.216362
-0.559308	てる ん	-1.146435
-1.939519	てる 気	-0.354161
-1.915472	で </s>
-2.145921	で あっ	0.088690
-1.932846	で あり	-1.356590
-0.723769	で ある	-1.192970
-2.117892	で あれ	-0.929682
-1.816862	で い	-0.965961
-2.668800	で いい	-0.603166
-2.344289	で いる	-0.677231
-1.932846	で うさぎ	-1.495513
-3.020982	で お	-0.691074
-2.924072	で おいしい	-0.767266
-2.418922	で おじいさん	-0.992318
-2.543861	で おばあさん	-0.851977
-2.543861	で お母さん	-0.909343
-2.581650	で お父さん	-0.829018
-2.418922	で お茶	-0.883661
-2.668800	で きれい	-0.477386
-2.623042	で ください	0.165433
-2.476914	で ごはん	-0.767810
-3.623042	で しまっ	0.660052
-3.145921	で する	0.300569
-2.581650	で たくさん	-0.645027
-3.020982	で ち	-0.619789
-3.623042	で で	-0.210105
-3.623042	で できる	-0.299087
-3.020982	で とても	-0.694481
-2.623042	で ない	-1.038082
-1.844891	で なく	-0.748827
-1.232107	で なけれ	0.060621
-2.175884	で ね	-0.405614
-3.322012	で の	-0.300537
-1.402934	で は	-1.196932
-2.777944	で ば	-0.887337
-3.322012	で み	-0.340539
-2.543861	で みんな	-0.992571
-2.208069	で も	-0.713248
-3.020982	で もう	-0.693690
-2.446951	で ゆっくり	-0.850992
-2.446951	で られ	-0.998224
-2.719952	で ギター	-0.504642
-2.924072	で ケーキ	-0.357935
-2.418922	で ゲーム	-0.685397
-3.020982	で コンサート
-3.145921	で ジュース	-0.080584
-2.145921	で タクシー	-0.582877
-2.145921	で バス	-1.052948
-2.581650	で パン	-0.839421
-2.924072	で ピアノ	-0.296793
-2.844891	で ペン	-0.454457
-3.623042	で 一番	-0.288441
-2.777944	で 不安	-0.314818
-3.623042	で 九	-0.268845
-2.344289	で 予約	-1.146128
-2.668800	で 仕事	-0.798558
-2.777944	で 会社	-0.562185
-2.476914	で 何	-1.129846
-3.623042	で 使う	0.604637
-3.623042	で 使用	0.740363
-2.844891	で 傘	-0.480681
-2.509099	で 働く	-1.062226
-2.418922	で 兄	-0.993788
-2.476914	で 先生	-0.717591
-3.020982	で 全て	-0.443697
-2.668800	で 写真	-0.565848
-2.225102	で 分析	-0.349156
-1.960285	で 勉強	-0.937508
-3.020982	で 十	-0.651973
-2.777944	で 卒業	-0.726999
-2.392594	で 卵	-0.763174
-3.623042	で 参加	-0.273001
-2.191679	で 友達	-0.887776
-2.476914	で 咲く	0.973128
-2.225102	で 報告	-0.359977
-3.145921	で 外国	-0.569875
-2.344289	で 太陽	-1.231247
-2.392594	で 妹	-0.558286
-2.476914	で 姉	-0.957596
-2.581650	で 始まる	-0.293061
-2.668800	で 始め	-0.928118
-2.476914	で 子供	-0.628658
-2.668800	で 学校	-0.593942
-3.322012	で 安心	-0.463333
-2.225102	で 実験	0.120743
-2.623042	で 家族	-0.853595
-3.020982	で 寝	-0.654651
-2.031978	で 寝る	-0.798355
-2.446951	で 少し	-1.164248
-2.300823	で 山	-1.282523
-2.581650	で 川	-1.033858
-2.476914	で 差	-0.522879
-2.446951	で 帰る	0.298882
-2.719952	で 帽子	-0.497138
-2.668800	で 座る	1.089905
-2.777944	で 弁当	-0.450102
-2.446951	で 弟	-1.000997
-2.322012	で 彼	-0.844860
-2.446951	で 彼女	-1.051795
-2.160644	で 待っ	0.568202
-2.924072	で 忘れ物	-0.200915
-3.020982	で 手紙	-0.376751
-2.225102	で 提出	-0.495242
-2.418922	で 散歩	-1.115381
-2.719952	で 料理	-0.605788
-2.476914	で 新しい	-1.116506
-3.322012	で 新聞	-0.004279
-2.322012	で 星	-1.208775
-2.623042	で 映画	-0.574588
-2.543861	で 昼	-0.947414
-2.844891	で 晩	-0.163857
-3.623042	で 書い	0.176091
-2.476914	で 月	-1.123703
-2.844891	で 有名	0.261263
-3.145921	で 服	-0.277906
-3.145921	で 朝	-0.491945
-2.367770	で 木	-1.210638
-2.623042	で 本	-0.554647
-2.476914	で 来る	-0.012686
-2.509099	で 森	-1.101101
-2.668800	で 楽しい	-0.858864
-2.509099	で 止まる	0.961082
-2.392594	で 歩く	1.508155
-2.225102	で 比較	0.641932
-2.446951	で 気持ち	-0.870090
-3.145921	で 水	-0.249877
-2.418922	で 泣く	0.389340
-2.509099	で 泳ぎ	-1.026518
-2.509099	で 泳ぐ	0.947294
-2.623042	で 海	-1.014240
-2.225102	で 測定	0.638105
-1.844891	で 犬	-1.597657
-2.091564	で 猫	-0.456338
-3.020982	で 生まれ	-0.613540
-2.225102	で 発表	-0.573336
-3.145921	で 目標	-0.015794
-3.145921	で 眼鏡	-0.317420
-2.225102	で 研究	-0.790050
-2.446951	で 私	-0.835130
-2.509099	で 空	-1.118645
-2.418922	で 空く	0.869922
-2.280620	で 立つ	-0.297894
-2.446951	で 笑う	0.867762
-3.145921	で 紙	-0.222947
-2.367770	で 終わり	-0.702785
-2.446951	で 終わる	-0.635385
-2.581650	で 考え	-1.060407
-3.020982	で 考える	-0.676976
-2.145921	で 自転車	-0.755962
-2.777944	で 良い	-0.875652
-2.322012	で 花	-1.202653
-3.020982	で 荷物	-0.306860
-2.844891	で 薬	-0.341648
-1.950945	で 虫	-1.447707
-2.446951	で 行き	-0.829905
-2.175884	で 行く	-0.610200
-2.225102	で 製作	-0.472965
-2.777944	で 見	-0.773882
-2.225102	で 観察	0.606216
-2.225102	で 計算	-0.053246
-2.225102	で 記録	-0.199374
-2.225102	で 設計	-0.308518
-2.418922	で 話し	-0.682768
-2.924072	で 話す	-0.719285
-2.225102	で 調整	-0.159701
-3.020982	で 財布	-0.324511
-2.322012	で 走る	0.278391
-2.509099	で 起きる	-0.469434
-2.446951	で 遊び	-1.135039
-2.509099	で 遊ぶ	0.126045
-3.145921	で 遊ん	-0.090177
-3.020982	で 野菜	-0.290306
-1.960285	で 録音	-1.416825
-2.844891	で 鍵	-0.491680
-2.509099	で 降る	-0.570253
-2.322012	で 雨	-1.301584
-2.668800	で 雪	-0.983041
-3.322012	で 電話	-0.255952
-2.078974	で 電車	-0.772322
-2.476914	で 静か	-1.052240
-3.020982	で 靴	-0.330993
-3.020982	で 鞄	-0.248178
-2.777944	で 音楽	-0.417851
-2.509099	で 頭	-1.105037
-2.367770	で 風	-1.221167
-2.476914	で 飛ぶ	0.433147
-2.581650	で 食べ	-1.028571
-2.844891	で 食材	-0.292256
-1.979590	で 馬	-1.431364
-1.960285	で 魚	-1.371068
-1.969830	で 鳥	-1.460786
-2.581650	で 鳴く	0.981517
-1.547599	でき そう	-0.868659
-0.977724	でき た	-0.437443
-0.351304	でき ない	-0.826637
-1.113943	でき なかっ	1.051153
-1.188577	でき まし	1.390034
-0.945539	でき ます	-0.072161
-0.861218	でき ませ	1.007382
-0.308855	できる </s>
-2.350248	できる から	-0.290394
-2.350248	できる こと	-0.241322
-1.174157	できる さ	-1.117970
-1.236305	できる ぜ	-0.498311
-2.350248	できる と	-0.300912
-0.634245	できる の	-1.211472
-1.572097	できる よう	-0.539423
-1.204120	できる ん	-0.991314
-2.350248	できる 医者
-0.003966	でし た	-1.208823
-0.916454	でしょ </s>
-0.062148	でしょ う	-0.671719
-0.204335	です </s>
-2.247206	です お願い	-0.388180
-0.731167	です か	-1.675859
-1.548236	です が	-1.133474
-2.247206	です けど	-0.898750
-2.752356	です しかし	-0.755644
-2.752356	です そして	-0.615424
-0.895023	です ね	-0.889419
-1.959964	です よ	-0.641212
-2.337382	です 問題	-1.099229
-1.650793	でも あの	-0.667371
-0.673069	でも いい	-1.163834
-1.173672	でも ここ	-1.017033
-0.837880	でも する	-0.210576
-2.252853	でも その	-0.296009
-1.076762	でも それ	-0.886276
-0.790455	でも できる	-0.844405
-1.298611	でも どこ	-0.732981
-1.474702	でも よく	-0.832629
-1.650793	でも メール	-0.685290
-1.252853	でも 僕ら	-0.976452
-1.951823	でも 誰	-0.470827
-1.252853	でも 食べ	-0.587711
-2.088963	と </s>
-2.335635	と ありがとう	-0.715768
-3.566084	と い	-0.300645
-1.858514	と いい	-1.005842
-2.611841	と いっ	-0.698970
-2.389993	と いる	-1.114598
-2.486903	と お茶	-0.767156
-3.566084	と か	-0.300771
-2.486903	と が	-1.111913
-2.611841	と ごはん	-0.591719
-2.335635	と さ	-0.659841
-2.103686	と し	-0.473308
-2.486903	と しか	-1.007249
-2.118926	と する	-0.042200
-2.662994	と せ	-0.916861
-2.964024	と そう	-0.693641
-2.361964	と で	-1.212927
-2.867114	と なっ	-0.157123
-2.566084	と なら	-0.460375
-1.631585	と なる	-1.060638
-1.465713	と の	-1.327121
-1.626565	と は	-1.037656
-2.335635	と も	-0.707803
-3.566084	と や	-0.288256
-3.265054	と よく	-0.470932
-1.997882	と カフェ	-0.729232
-2.389993	と カレー	-1.056318
-2.566084	と ギター	-0.591793
-2.185873	と グラフ	0.309630
-2.566084	と ケーキ	-0.621176
-2.611841	と ジュース	-0.478524
-2.243864	と スケジュール	0.602060
-2.204356	と スライド	0.769008
-2.168144	と データ	-0.993023
-2.611841	と パン	-0.760240
-2.662994	と ピアノ	-0.472884
-2.151110	と プログラム	0.698970
-2.243864	と プロジェクト	-0.471517
-2.787933	と プール	-0.827607
-2.524691	と ペン	-0.688540
-2.452140	と ホテル	-1.110711
-2.223661	と マニュアル	-0.247784
-2.088963	と メール	-0.556863
-2.486903	と ラーメン	-1.056591
-2.361964	と レストラン	-1.184388
-2.287330	と レポート	0.295567
-1.652270	と 一	-1.753982
-2.389993	と 一緒	-0.567298
-2.452140	と 世界	-1.130968
-2.265054	と 予算	0.622263
-2.486903	と 京都	-1.085298
-2.452140	と 今日	-1.090276
-1.964024	と 仕事	-0.822788
-2.118926	と 企画	0.033609
-2.720986	と 会社	-0.891892
-2.486903	と 体育館	-1.074732
-2.486903	と 作る	-1.085763
-2.720986	と 作成	-0.330585
-2.720986	と 修正	-0.234083
-2.566084	と 個物	-0.945418
-2.310811	と 健康	-0.884970
-2.452140	と 傘	-0.781711
-2.566084	と 全体	-0.895265
-2.419956	と 公園	-0.863026
-2.611841	と 写真	-0.565848
-2.964024	と 出かけ	-0.552842
-2.867114	と 分析	0.287666
-2.524691	と 力	-0.796635
-2.867114	と 勉強	-0.347682
-2.486903	と 北海道	-1.086791
-2.243864	と 卒論	0.821930
-2.720986	と 協力	-0.843969
-2.118926	と 単位	0.253605
-2.287330	と 卵	-0.808932
-2.720986	と 台所	-0.881293
-2.486903	と 同じ	-0.908397
-2.662994	と 同時に	-0.477121
-2.185873	と 名刺	0.561101
-2.662994	と 向かっ
-1.932615	と 君	-0.903912
-2.787933	と 呼ぶ	-0.690196
-2.168144	と 咲く	0.734246
-2.185873	と 商品	-0.142668
-2.720986	と 図書館	-0.892134
-2.486903	と 報告	-0.058947
-2.867114	と 場合	-0.681241
-2.720986	と 変更	-0.155608
-2.452140	と 大きな	-1.015360
-2.524691	と 大学	-1.060158
-2.486903	と 大阪	-0.806316
-2.204356	と 契約	0.538867
-3.265054	と 妹	-0.345552
-3.566084	と 姉	-0.165872
-2.168144	と 始まる	-0.628853
-2.524691	と 学校	-1.048905
-2.720986	と 完了	-0.128573
-2.720986	と 実行	-0.107210
-2.867114	と 実験	0.757565
-2.611841	と 家	-0.987879
-2.088963	と 宿題	-0.802152
-2.185873	と 寝る	-0.594235
-2.720986	と 対応	-0.187087
-2.611841	と 屋上	-0.971143
-2.566084	と 工場	-1.021649
-2.151110	と 帰る	0.071638
-2.335635	と 帽子	-0.798168
-2.566084	と 店	-1.007088
-2.088963	と 座る	0.598543
-2.223661	と 庭	-1.307678
-2.287330	と 弁当	-0.848042
-2.964024	と 弟	-0.575692
-3.566084	と 彼	-0.266407
-2.389993	と 忘れ物	-0.626884
-1.922631	と 思い	-0.410174
-2.452140	と 思う	-0.845098
-1.802656	と 思っ	-0.296913
-3.566084	と 悪魔	-0.234083
-2.151110	と 成績	0.261777
-2.611841	と 手紙	-0.677781
-2.720986	と 承認	-0.100316
-2.867114	と 提出	0.141580
-2.243864	と 提案	0.088941
-2.611841	と 教室	-0.982817
-2.074722	と 教科書	-0.425969
-2.389993	と 料理	-0.366906
-2.335635	と 新しい	-1.230940
-2.452140	と 新聞	-0.673286
-3.088963	と 旅行	-0.184312
-2.335635	と 映画	-0.788468
-2.662994	と 昼	-0.787713
-2.389993	と 時計	-0.548347
-2.389993	と 時間	-1.172231
-2.720986	と 晩	-0.221849
-3.566084	と 書い	-0.177875
-2.204356	と 書類	0.544068
-3.566084	と 月	-0.297727
-2.611841	と 服	-0.342423
-2.566084	と 朝	-0.931278
-2.662994	と 本	-0.467497
-2.151110	と 来る	-0.267958
-2.361964	と 東京	-0.902262
-2.720986	と 検討	-0.114215
-2.134720	と 止まる	0.660052
-2.243864	と 歩く	1.421005
-2.867114	と 比較	1.278754
-2.335635	と 水	-0.543637
-2.720986	と 決定	-0.252904
-2.168144	と 泣く	0.204815
-2.223661	と 泳ぐ	0.731694
-3.566084	と 温泉	-0.281725
-2.867114	と 測定	1.274927
-2.720986	と 準備	-0.521963
-2.566084	と 特殊	0.237361
-3.265054	と 犬	-0.198368
-2.720986	と 玄関	-0.878665
-2.204356	と 環境	-0.986948
-3.566084	と 田舎	-0.268845
-2.720986	と 申請	-0.107210
-2.964024	と 男	-0.516039
-2.662994	と 病院	-0.930440
-2.787933	と 発表	0.290730
-2.720986	と 登録	-0.298105
-2.720986	と 目標	-0.316824
-2.662994	と 相談	-0.310173
-2.151110	と 眼鏡	-0.741879
-2.867114	と 研究	-0.153228
-2.720986	と 確認	-0.335399
-2.787933	と 神社	-0.827839
-2.168144	と 空く	0.685397
-2.787933	と 空港	-0.828604
-2.452140	と 窓	-1.069387
-2.151110	と 立つ	-0.367530
-2.185873	と 笑う	0.673942
-2.720986	と 管理	-0.341866
-2.964024	と 紙	-0.319857
-2.223661	と 終わる	-0.792993
-3.088963	と 結婚	-0.439333
-2.524691	と 美術館	-1.050650
-1.691023	と 考え	-0.944483
-2.566084	と 花	-0.921827
-2.964024	と 英語	-0.680872
-2.361964	と 荷物	-0.838338
-2.486903	と 薬	-0.610493
-2.243864	と 行く	-0.490224
-2.867114	と 製作	0.163857
-2.168144	と 見積	0.057295
-2.867114	と 観察	1.243038
-2.419956	と 言い	-0.475779
-3.566084	と 言う	0.301030
-2.787933	と 言え
-2.361964	と 言っ	-0.932672
-2.720986	と 計画	-0.346787
-2.867114	と 計算	0.583577
-2.787933	と 記録	0.680487
-2.867114	と 設計	0.328304
-2.611841	と 話し	-0.934071
-2.964024	と 話す	-0.640103
-2.611841	と 説明	-0.321861
-2.964024	と 読書	-0.254033
-2.168144	と 課題	-0.825990
-2.867114	と 調整	0.477121
-2.223661	と 論文	0.828604
-3.566084	と 謂う
-2.787933	と 財布	-0.470639
-2.964024	と 買い物	-0.292430
-2.310811	と 資料	0.082974
-2.243864	と 走る	0.258187
-2.204356	と 起きる	-0.703518
-2.720986	と 連絡	-0.357853
-2.361964	と 遊び	-1.156347
-2.134720	と 遊ぶ	-0.174985
-2.964024	と 遊ん	-0.570303
-2.964024	と 違い	-0.671818
-2.787933	と 違っ	-0.557033
-2.720986	と 部屋	-0.854991
-2.389993	と 野菜	-0.795456
-2.566084	と 鍵	-0.687975
-2.134720	と 降る	-0.871283
-2.265054	と 電話	-0.657496
-3.566084	と 青い	-0.287415
-2.524691	と 靴	-0.711204
-2.566084	と 鞄	-0.590600
-2.867114	と 音楽	-0.292912
-2.867114	と 頭	-0.318759
-2.204356	と 飛ぶ	0.229027
-2.524691	と 食堂	-1.047841
-2.867114	と 食材	-0.225309
-2.611841	と 駅	-0.980404
-2.720986	と 魚	-0.602060
-2.134720	と 鳴く	0.613540
-1.394201	という </s>
-0.263868	という こと	-1.308237
-1.637239	という ところ	-0.679020
-0.648235	という の	-1.559540
-0.949265	という もの	-1.068852
-1.426386	という 対立	-1.084321
-0.929419	とき が	-0.953736
-0.929419	とき の	-0.951771
-0.417536	とき は	-1.144258
-1.054358	とき も	-0.840237
-1.133539	とき 切符
-1.230449	とき 空港	-0.560330
-1.230449	とき 電話	-0.628269
-1.292256	ところ </s>
-0.760777	ところ だ	-0.836143
-1.292256	ところ です	-0.352541
-0.328468	ところ に	-1.002056
-0.845098	ところ は	-0.884375
-1.292256	ところ も	-0.773290
-0.574945	として </s>
-1.552668	として で	-1.015167
-1.251638	として どこ	-1.105223
-1.230449	として の	-1.055158
-1.210246	として も	-1.066825
-1.473487	として 一切
-1.598426	として 与え	-0.669007
-1.230449	として 主体	-0.911590
-1.552668	として 具体	-0.067495
-1.598426	として 利用	-0.831596
-1.552668	として 創造	0.907997
-1.552668	として 単なる	-0.663974
-1.322219	として 成立	0.694118
-1.438725	として 技術	-0.869232
-1.649578	として 既に	-0.837737
-1.598426	として 時	-0.939654
-1.853698	として 有名	0.043779
-1.438725	として 現在	-0.994267
-1.473487	として 矛盾	-0.395880
-1.511276	として 考える	-0.851937
-1.174976	とても いい	-0.951098
-1.443822	とても おいしい	-1.072137
-1.267730	とても かわいい	-1.228479
-1.443822	とても きれい	-0.697376
-2.589950	とても ギター	0.148570
-2.589950	とても ジュース	0.220446
-1.811798	とても スケジュール	1.099385
-2.589950	とても パン	-0.061270
-1.987890	とても プロジェクト	0.171935
-2.288920	とても マニュアル	0.636822
-2.112828	とても メール	0.332438
-2.112828	とても 予算	1.342423
-2.112828	とても 今	-0.596774
-2.112828	とても 企画	0.893947
-1.987890	とても 便利	-0.267862
-2.589950	とても 元気	-0.169609
-2.589950	とても 写真	0.133122
-1.311196	とても 勉強	-1.271706
-2.288920	とても 名刺	1.481920
-2.288920	とても 商品	0.778151
-1.443822	とても 大切	-0.913979
-2.288920	とても 大変	-0.452988
-2.589950	とても 契約	1.618048
-0.890980	とても 寒い	-0.398640
-2.288920	とても 弁当	-0.024134
-1.987890	とても 強い	-0.214296
-2.589950	とても 忘れ物	0.276206
-2.288920	とても 提案	0.954243
-2.288920	とても 映画	-0.010316
-2.589950	とても 晩	0.380211
-1.443822	とても 晴れ	-1.107296
-1.890980	とても 暇	-0.653213
-2.288920	とても 書類	1.447158
-1.987890	とても 有名	-0.668156
-2.112828	とても 服	-0.277906
-1.334677	とても 楽しい	-1.105165
-2.589950	とても 水	0.051153
-1.084800	とても 疲れ	0.016472
-2.589950	とても 目標	0.285236
-1.635707	とても 綺麗	-0.846185
-2.589950	とても 良い	-0.298809
-2.288920	とても 荷物	-0.085011
-2.288920	とても 薬	0.026329
-2.589950	とても 見積	1.171239
-1.890980	とても 資料	0.583577
-2.589950	とても 鍵	0.052388
-2.589950	とても 電話	-0.079860
-1.413858	とても 青い	-1.131326
-1.987890	とても 静か	-0.657904
-2.589950	とても 面白い	-0.293968
-2.589950	とても 靴	0.066947
-2.288920	とても 音楽	0.008118
-2.589950	とても 食材	0.251812
-0.034762	とも 同じ	-1.018810
-0.318759	と共に 主観	-0.985914
-0.356547	と共に 生活
-0.022276	ど ゆ
-1.147758	どう か	-0.084554
-0.702235	どう し	-1.118287
-0.964113	どう する	-0.274224
-0.995147	どう だっ	-0.026652
-1.727541	どう です	-0.688931
-1.250420	どう でも	-1.100486
-0.870209	どう な	-1.160410
-1.064783	どう なっ	-0.709965
-1.064783	どう なる	-1.064198
-1.426511	どう 使う	-1.012163
-1.824451	どう 思う	-0.397940
-1.385119	どう 考え	-0.868328
-0.973128	どうして こんなに	-0.937497
-1.973128	どうして そんなに
-0.630705	どうして だろ	-0.680856
-0.769008	どうして です	-1.141228
-1.371068	どうして どう	-0.659849
-1.371068	どうして どうして	-0.680085
-1.274158	どうして まだ	-0.768969
-0.797037	どうして 友達	-1.186047
-1.973128	どうして 有名	-0.270216
-1.194977	どうして 録音	-0.813840
-0.301030	どうも ありがとう	-0.471736
-0.470172	どうも そう	-1.313687
-1.093422	どうも 不思議
-1.792392	どうも 子供	-0.201253
-1.727541	どこ </s>
-1.773299	どこ あなた	-0.684078
-0.921361	どこ か	-0.127391
-1.497092	どこ だ	-0.836143
-1.686149	どこ で	-1.072929
-1.250420	どこ です	-1.402141
-2.426511	どこ でも	-0.472241
-1.385119	どこ な	-1.300091
-0.690115	どこ に	-1.095348
-1.824451	どこ へ	-0.602293
-0.405322	どこ まで	-2.212996
-1.882443	どこ を	-0.887708
-1.581413	どこ 私	-0.807101
-1.882443	どこ 行く	-0.882417
-0.079181	どちら です	-0.688931
-0.137173	どっち が	-1.088901
-0.639849	どっち でも	-0.975547
-1.230449	どんな 人	-0.580609
-0.561442	どんな 仕事	-1.143562
-0.707570	どんな 夢	-0.829415
-1.105510	どんな 映画	-0.670941
-0.531479	どんな 目標	-0.617854
-0.552954	な </s>
-2.568593	な け
-1.899586	な こ	-1.022507
-1.232801	な こと	-0.879739
-1.931771	な さ	-1.126139
-1.665503	な と	-0.934701
-2.267563	な ところ	-0.778151
-1.869623	な な	-1.061496
-0.973832	な の	-1.130156
-1.869623	な ので	-1.149072
-2.346744	な ほど	-0.754413
-3.045714	な も	-0.296364
-1.016330	な もの	-0.896357
-3.045714	な よう	0.004645
-0.878397	な ん	-1.024433
-1.966533	な サービス	-0.881994
-1.790442	な 人	-0.868028
-1.966533	な 人間	-1.048677
-2.045714	な 仕方
-2.267563	な 会議	0.057992
-2.045714	な 勉強	-1.026206
-3.045714	な 友人	-0.291046
-1.841594	な 場所	-0.877685
-3.045714	な 夜	-0.297624
-2.004321	な 女性	-0.862472
-1.931771	な 家	-1.122942
-2.142624	な 届く	-0.698970
-3.045714	な 差	-0.249877
-1.966533	な 形	-0.937852
-2.142624	な 所	-0.609570
-2.443654	な 手紙	-0.684959
-2.443654	な 日	-0.694131
-3.045714	な 時	-0.264307
-2.267563	な 様子	-0.776382
-1.966533	な 気	-0.990983
-2.744684	な 町	0.191886
-1.931771	な 研究	-1.108339
-2.200616	な 簡単	-0.240332
-2.004321	な 絶対	-0.200277
-2.443654	な 花	-0.424163
-2.346744	な 話	-0.748596
-2.443654	な 部屋	-0.691908
-2.004321	な 食事	-0.410174
-0.264673	ない </s>
-1.528521	ない か	-0.401343
-2.119586	ない から	-1.039443
-1.973458	ない けど	-0.827839
-1.889137	ない こと	-1.233045
-1.973458	ない これ	-1.028668
-1.973458	ない だろ	-0.495219
-1.341435	ない で	-1.314496
-1.721646	ない でしょ	0.786120
-2.040405	ない です	-0.688333
-3.119586	ない でも	-0.263021
-1.757858	ない と	-0.918188
-2.119586	ない という	-0.699720
-1.889137	ない ね	-0.198489
-1.387192	ない の	-1.113836
-1.889137	ない ので	-1.188326
-2.119586	ない もの	-0.920150
-1.657188	ない よ	-0.154030
-1.840832	ない よう	-0.622093
-2.517526	ない わ	-0.574031
-1.506802	ない ん	-0.639131
-2.420616	ない スーパー	-0.720159
-2.078193	ない 世界	-1.022783
-1.757858	ない 人	-0.980606
-2.119586	ない 個物	-0.945418
-2.005642	ない 働く	-0.975866
-2.119586	ない 名前	-1.009908
-1.973458	ない 君	-0.960773
-2.274488	ない 国	-0.855911
-2.341435	ない 大切	-0.802346
-1.943495	ない 宿題	-1.144999
-2.818556	ない 店	-0.442817
-1.943495	ない 現象
-2.517526	ない 秘密	-0.552842
-3.119586	ない 話	-0.246291
-0.001934	なかっ た	-0.954233
-0.732394	ながら </s>
-1.063387	ながら ごはん	-0.494809
-0.954243	ながら 写真	-0.565848
-0.794542	ながら 散歩	-1.094507
-0.829304	ながら 料理	-0.765489
-1.306425	ながら 本	-0.212224
-0.762357	ながら 歩く	1.587337
-0.401311	なく て	-1.374898
-1.173858	なく なっ	-0.488117
-1.083682	なく なる	-1.185756
-1.333559	なく ね	0.056784
-1.287802	なく テレビ	-0.611268
-1.032529	なく 存在	-0.681937
-1.246409	なく 客観	-1.015794
-0.986772	なく 現実	-0.929043
-1.246409	なく 矛盾	-0.361118
-0.057992	なくなっ て	-0.766974
-0.001532	なけれ ば	-1.600815
-0.524118	なっ た	-0.635017
-0.400733	なっ たら	-0.871422
-0.536707	なっ て	-0.703627
-1.781242	なら </s>
-2.626340	なら それ	-0.265534
-1.450249	なら それで	-1.006309
-1.781242	なら でき	-0.890604
-1.450249	なら どっち	-0.636822
-2.149219	なら な	-0.600886
-0.132186	なら ない	-1.201865
-1.626340	なら ぬ	-0.900064
-1.480212	なら 何	-1.148271
-2.024280	なら 自転車	-0.678529
-1.512397	なら 連絡	-1.107064
-1.626340	なら 食べる	-0.463757
-0.867374	なり そう	-1.068457
-1.104735	なり たい	-0.503450
-1.301030	なり な	-0.760466
-0.421852	なり まし	0.888089
-0.640978	なり ます	-0.827075
-1.301030	なり ませ	1.648360
-1.544068	なり ホテル	-0.680259
-0.838301	なる </s>
-2.501059	なる か	-0.296869
-1.354931	なる かぎり
-1.222306	なる が	-1.299826
-0.969580	なる こと	-0.804559
-1.387116	なる でしょ	-0.271067
-1.354931	なる と	-1.165706
-1.009698	なる という	-0.580244
-1.009698	なる なんて	-1.115408
-0.857607	なる の	-1.160625
-1.546817	なる もの	-0.974615
-1.802089	なる らしい	-0.310790
-1.501059	なる ん	-0.997066
-1.222306	なる 所	-0.767932
-1.421878	なる 環境	-0.977423
-1.568202	なんて </s>
-1.216019	なんて いい	-0.910876
-1.216019	なんて こと	-0.995365
-1.056318	なんて でき	-1.111366
-0.994170	なんて どう	-1.179009
-1.091080	なんて 山	-1.080733
-0.994170	なんて 思っ	-0.257995
-0.693140	なんて 日	-0.943278
-2.170262	なんて 知ら	-0.173351
-0.966142	なんて 考え	-1.109942
-1.056318	なんて 言葉	-1.005509
-1.414973	なんで ここ	-0.758774
-1.268845	なんで この	-0.868065
-0.545742	なんで こんな	-1.456221
-1.000000	なんで そう	-0.820085
-1.335792	なんで ため	-0.824895
-1.414973	なんで だ	-0.736090
-1.636822	なんで だろ	0.078812
-1.210853	なんで でき	-0.698266
-1.511883	なんで な	-0.650205
-1.159701	なんで 僕	-0.972942
-2.113943	なんで 彼	-0.163143
-1.511883	なんで 文章	-0.689827
-0.937852	なんで 課題	-1.127586
-1.930824	に </s>
-2.924575	に あっ	-0.793550
-2.468643	に あり	-1.064242
-2.278311	に ある	-0.499864
-2.146423	に い	-0.640846
-2.514400	に いい	-1.194548
-2.136204	に いっ	-0.456918
-1.918414	に いる	-0.468955
-3.769673	に お	-0.299069
-2.769673	に お母さん	-1.016710
-2.866583	に お茶	-0.607455
-3.468643	に が	-0.474582
-3.292551	に き	-0.593345
