\data\
ngram 1=1475
ngram 2=15894
ngram 3=43931

\1-grams:
-0.819448	</s>
-0.819448	<s>	-1.024756
-4.390195	あ	-0.341854
-4.992255	あそこ	-0.289289
-4.691225	あたり	-0.279593
-3.057757	あっ	-1.760066
-3.830887	あなた	-0.478281
-4.147157	あの	-0.404435
-3.670036	あまり	-0.431427
-4.594315	あまりに	-0.347795
-3.454436	あり	-0.789103
-3.971066	ありがとう	-1.342354
-2.275417	ある	-1.132437
-4.339043	あるいは	-0.350436
-4.089165	あれ	-0.536375
-4.816164	あん	-0.397794
-5.293285	あー	-0.229657
-2.641039	い	-1.509772
-2.973139	いい	-0.679733
-4.691225	いくら	-0.476734
-4.816164	いただき	-0.397672
-4.339043	いっ	-0.734530
-4.992255	いっしょ	-0.216715
-4.515134	いっぱい	-0.249594
-4.062836	いつ	-0.573893
-2.115172	いる	-1.356692
-4.179342	いろいろ	-0.619099
-4.691225	いろんな	-0.299200
-4.293285	いわゆる	-0.335926
-3.493945	う	-0.904224
-4.691225	うえ	-0.359461
-3.228827	うさぎ	-1.734275
-4.691225	うまく	-0.477064
-4.594315	え	-0.349655
-3.537410	お	-0.426417
-5.293285	おい	-0.293682
-3.206925	おいしい	-0.932529
-3.021444	おじいさん	-1.537365
-4.515134	おそらく	-0.338012
-4.691225	おはよう	-0.698901
-2.983655	おばあさん	-1.680337
-4.816164	おめでとう	-0.397719
-4.816164	おん	-0.397756
-4.251893	お前	-0.184832
-5.293285	お客様	-0.290075
-2.994432	お母さん	-1.419815
-3.007728	お父さん	-1.561916
-4.992255	お疲れ様	-0.477066
-3.950863	お腹	-1.059242
-3.348803	お茶	-0.978753
-4.117194	お金	-0.470964
-4.038013	お願い	-0.651306
-3.062836	か	-0.500508
-4.515134	かかっ	-0.596227
-4.390195	かける	-0.395087
-2.078706	から	-0.811063
-4.293285	かわいい	-0.395293
-1.549384	が	-0.788103
-3.801923	き	-0.594784
-4.816164	きっと	-0.300331
-3.021444	きれい	-1.002469
-5.293285	く	-0.301023
-3.761806	ください	-1.472695
-4.816164	くらい	-0.292685
-4.339043	くれる	-0.439104
-4.691225	ぐらい	-0.286650
-4.992255	け	-0.219762
-4.339043	けど	-0.668773
-5.293285	けれど	-0.301008
-5.293285	けれども	-0.229657
-4.816164	げ	-0.224897
-4.062836	こ	-0.431708
-4.293285	こういう	-0.415507
-3.713502	ここ	-0.705700
-4.089165	こちら	-0.358993
-2.424053	こと	-1.212654
-2.931557	この	-0.427791
-2.838440	これ	-0.977990
-4.390195	これから	-0.546961
-3.702221	これら	-0.889971
-4.147157	こんな	-0.425769
-4.816164	こんなに	-0.300864
-4.214104	ご	-0.601635
-3.801923	ござい	-1.217216
-2.803327	ごはん	-1.659423
-4.691225	ご飯	-0.252835
-2.615678	さ	-1.414802
-5.293285	さすが	-0.290632
-4.147157	さらに	-0.313770
-2.430558	し	-1.364766
-3.931557	しか	-0.437386
-3.487105	しかし	-0.412415
-4.816164	しかも	-0.300888
-4.816164	しばらく	-0.396203
-4.251893	しまう	-0.592713
-4.117194	しまっ	-0.923586
-4.339043	しよ	-0.999861
-4.691225	じ	-0.215904
-5.293285	じっと	-0.300627
-4.816164	す	-0.317960
-4.816164	すぎる	-0.291939
-3.196375	すぐ	-0.472757
-4.594315	すでに	-0.351260
-3.670036	すべて	-0.394689
-1.559366	する	-2.005125
-4.691225	すると	-0.299941
-3.971066	ず	-0.710463
-4.339043	ずっと	-0.356401
-4.214104	せ	-0.464194
-4.992255	ぜ	-0.405748
-4.816164	ぜひ	-0.300942
-5.293285	そ	-0.300515
-3.358787	そう	-0.461661
-3.774771	そういう	-0.473626
-4.293285	そこで	-0.349895
-3.713502	そして	-0.320086
-2.948893	その	-0.500201
-2.952841	それ	-1.029172
-4.594315	それから	-0.300506
-4.448187	それで	-0.438640
-4.251893	それら	-0.527410
-3.736983	そんな	-0.524944
-4.691225	そんなに	-0.299983
-4.691225	ぞ	-0.405740
-2.182695	た	-0.980223
-3.640073	たい	-0.516885
-3.297650	たくさん	-0.447050
-3.830887	たち	-0.453036
-4.992255	たとえ	-0.300798
-3.348803	ため	-0.414187
-4.390195	たら	-0.258370
-2.925929	だ	-1.027916
-3.500894	だけ	-0.495325
-4.992255	だし	-0.476938
-3.221403	だっ	-1.602772
-4.594315	だって	-0.229008
-3.788135	だろ	-1.158912
-4.515134	ち	-0.405712
-4.594315	ちゃんと	-0.288180
-4.594315	ちょっと	-0.351776
-4.147157	っ	-0.753122
-4.515134	つ	-0.299538
-4.448187	つける	-0.365192
-5.293285	つまらない	-0.229657
-4.251893	つまり	-0.302521
-2.169107	て	-1.042129
-3.992255	てる	-0.306033
-1.718675	で	-0.807540
-3.217738	でき	-1.144190
-3.108594	できる	-0.977751
-3.895345	でし	-1.412112
-3.992255	でしょ	-0.969855
-2.716944	です	-1.590764
-4.691225	では	-0.300384
-3.251893	でも	-0.372945
-1.775298	と	-0.730327
-3.033214	という	-0.772972
-3.725083	とき	-0.362973
-3.830887	ところ	-0.365756
-3.263901	として	-0.488989
-3.144066	とても	-0.440721
-3.774771	とも	-0.516834
-4.515134	と共に	-0.341624
-4.992255	ど	-0.298927
-3.774771	どう	-0.585439
-4.691225	どうして	-0.300118
-4.992255	どうも	-0.300911
-3.801923	どこ	-0.600632
-4.062836	どちら	-0.530244
-4.816164	どっち	-0.265968
-4.448187	どんな	-0.437811
-2.671071	な	-0.484984
-2.317394	ない	-1.113685
-3.172711	なかっ	-2.120991
-4.448187	なかなか	-0.291613
-4.515134	ながら	-0.285359
-3.630527	なく	-0.470563
-4.390195	なくなっ	-0.693137
-4.390195	なけれ	-0.954181
-2.946932	なっ	-2.043385
-3.621187	なら	-0.634311
-4.179342	なり	-0.415759
-2.990089	なる	-0.703361
-4.390195	なんて	-0.413070
-1.603621	に	-0.752785
-4.038013	において	-0.329051
-4.251893	における	-0.292487
-3.830887	について	-0.409777
-4.214104	にとって	-0.356917
-3.702221	によって	-0.389274
-4.251893	により	-0.286857
-3.725083	による	-0.466434
-4.117194	に対して	-0.341412
-4.992255	に対する	-0.300877
-4.691225	ぬ	-0.216490
-3.374207	ね	-1.133502
-1.778605	の	-0.488815
-4.214104	ので	-0.293912
-1.626019	は	-0.511989
-4.992255	はじめ	-0.226175
-4.339043	はっきり	-0.738717
-3.846127	ば	-0.393908
-4.390195	ひ	-0.366356
-5.293285	ひく	-0.229657
-3.801923	ひとつ	-0.444799
-4.515134	ひとり	-0.303746
-4.816164	ふたり	-0.390574
-4.816164	ぶ	-0.293203
-2.893611	へ	-1.015974
-4.992255	べ	-0.300809
-5.293285	ほ	-0.299549
-4.089165	ほか	-0.592861
-3.640073	ほとんど	-0.418991
-4.147157	ほど	-0.286054
-5.293285	ぼ	-0.293682
-4.179342	ま	-0.312060
-3.640073	まし	-1.368038
-3.412472	ます	-1.000243
-3.649833	ませ	-1.072718
-3.374207	また	-0.234050
-3.846127	または	-0.585286
-3.189481	まだ	-0.429119
-4.390195	まったく	-0.298876
-2.520963	まで	-1.038855
-4.390195	まとめる	-0.689955
-4.816164	まるで	-0.300773
-4.038013	み	-0.525455
-2.998819	みんな	-1.174517
-5.293285	め	-0.229657
-2.049008	も	-0.533149
-3.210500	もう	-0.452178
-4.089165	もちろん	-0.312696
-2.914887	もの	-0.979289
-5.293285	もらう	-0.229657
-3.395658	や	-0.210047
-4.214104	やがて	-0.317156
-5.293285	やって来	-0.298169
-4.594315	やっぱり	-0.300289
-4.691225	やはり	-0.300125
-4.062836	やる	-0.368318
-4.594315	ゆ	-0.200438
-3.353766	ゆっくり	-0.369088
-3.179342	よ	-1.071250
-2.850805	よう	-1.496327
-4.293285	よかっ	-1.038532
-2.973139	よく	-0.449143
-4.339043	よろしく	-0.740139
-4.147157	ら	-0.381869
-3.500894	らしい	-1.433735
-3.424053	られ	-1.116465
-3.424053	られる	-0.804428
-4.515134	り	-0.397752
-2.615678	れ	-1.715199
-3.040432	れる	-0.989698
-4.816164	ろ	-0.300904
-4.214104	わ	-0.394711
-4.515134	わかり	-0.476756
-4.293285	わたし	-0.501464
-5.293285	ゐ	-0.300992
-1.279437	を	-1.316691
-3.123023	ん	-1.158222
-4.816164	アップ	-0.385329
-3.473741	アップロード	-1.813928
-3.577282	アニメ	-0.576571
-3.577282	アパート	-0.770057
-3.515134	アプリ	-1.460219
-3.515134	アメリカ	-0.586919
-4.214104	アレルギー	-0.350636
-3.339043	イベント	-0.731558
-3.467210	インストール	-1.514402
-3.384800	インターネット	-0.771152
-4.038013	インド	-0.405713
-3.418224	エアコン	-1.368676
-3.473741	エスカレーター	-1.212007
-3.522433	エレベーター	-0.850009
-3.042865	カフェ	-1.360161
-3.320157	カメラ	-0.882033
-4.515134	カレー	-0.377035
-3.429962	カーテン	-1.539606
-4.992255	ガ	-0.477112
-3.467210	キャンセル	-1.525442
-3.395658	キーボード	-0.947905
-3.055239	ギター	-1.198752
-5.293285	ク	-0.290632
-4.691225	クリスマス	-0.271671
-3.473741	クリック	-1.813928
-3.105764	グラフ	-1.369589
-3.334244	ケーキ	-1.147505
-3.846127	ケーブル	-1.139514
-3.045312	ゲーム	-0.721523
-3.442027	コップ	-1.149872
-3.467210	コピー	-1.514975
-3.406794	コンサート	-0.934807
-3.537410	コンビニ	-0.976694
-3.424053	コート	-1.130120
-3.358787	コーヒー	-1.063358
-4.992255	ゴミ	-0.300683
-3.100161	ゴルフ	-1.157147
-3.448187	サイン	-1.336393
-3.214104	サッカー	-0.813846
-3.435953	サンダル	-1.350039
-3.515134	サーバー	-1.460219
-4.179342	サービス	-0.249413
-3.406794	システム	-0.661952
-3.418224	シャツ	-1.551035
-4.691225	ジャ	-0.286618
-3.390195	ジャケット	-1.101490
-3.137949	ジュース	-1.410741
-3.363866	ジョギング	-1.354411
-3.401191	スキー	-0.959209
-3.334244	スケジュール	-1.326759
-3.429962	スタート	-1.381230
-3.460776	ストップ	-1.287127
-4.992255	ストレッチ	-0.266016
-3.395658	スプーン	-1.173112
-3.147157	スライド	-2.125776
-3.585715	スーパー	-1.107272
-3.390195	セット	-1.091116
-3.861921	センサー	-1.124791
-4.691225	ソ	-0.206042
-3.406794	ソファ	-1.562172
-3.467210	ソフト	-1.049632
-4.293285	ソフトウェア	-0.436194
-3.406794	タオル	-1.562172
-3.384800	タクシー	-0.794146
-4.992255	タワー	-0.281091
-3.460776	ダウンロード	-1.347488
-3.435953	チェック	-1.179005
-3.467210	チャレンジ	-1.525401
-5.293285	チャンネル	-0.300970
-3.761806	チーム	-0.551203
-3.418224	テスト	-1.064151
-3.276252	テニス	-0.992224
-3.125968	テレビ	-0.876967
-3.369006	テーブル	-1.194570
-3.500894	ディスプレイ	-1.300461
-3.594315	デパート	-0.933205
-3.083770	データ	-1.235732
-3.315562	トイレ	-1.088471
-3.418224	トレーニング	-1.033241
-3.288964	ドラマ	-0.893911
-5.293285	ナ	-0.229657
-3.353766	ナイフ	-1.061643
-3.424053	ニュース	-0.939650
-5.293285	ネ	-0.229657
-3.487105	ネットワーク	-1.034298
-4.816164	ノ	-0.397316
-4.992255	ノート	-0.229477
-3.442027	バス	-0.838028
-4.089165	バスケットボール	-0.386592
-4.992255	バック	-0.405748
-3.401191	バッグ	-1.567635
-5.293285	パスタ	-0.297133
-4.816164	パスワード	-0.378956
-3.412472	パソコン	-0.825084
-4.691225	パパ	-0.269203
-3.028467	パン	-1.187153
-3.537410	パーキング	-1.152239
-3.529857	ビル	-0.697975
-3.390195	ビール	-1.193804
-3.186075	ピアノ	-0.973225
-5.293285	ファ	-0.301021
-3.493945	ファイル	-1.177393
-4.992255	フェ	-0.300997
-3.515134	フォルダ	-1.460219
-3.369006	フォーク	-1.122998
-3.454436	ブーツ	-1.515803
-3.429962	プリンター	-1.239712
-3.460776	プリント	-1.531880
-4.594315	プレゼント	-0.335030
-3.137949	プログラム	-1.337488
-3.324802	プロジェクト	-1.330295
-3.108594	プール	-0.921529
-3.334244	ペン	-1.064933
-3.019127	ホテル	-1.111341
-4.117194	ホーム	-0.367742
-3.442027	ボトル	-1.146516
-4.992255	ポ	-0.293678
-4.691225	ポケット	-0.455499
-3.369006	マイク	-1.420074
-3.418224	マウス	-1.238897
-3.369006	マニュアル	-1.905976
-4.390195	マラソン	-0.290533
-3.537410	マンション	-0.903552
-3.406794	ミルク	-1.382464
-3.454436	メモ	-1.224717
-3.515134	メモリ	-1.460219
-3.263901	メール	-1.224460
-4.117194	モニター	-0.741221
-3.861921	モーター	-1.124791
-4.594315	ヨガ	-0.468098
-5.293285	ラ	-0.288596
-3.374207	ラジオ	-0.973959
-4.179342	ラーメン	-0.274175
-4.594315	リスト	-0.258511
-3.454436	リセット	-1.293201
-4.992255	レ	-0.477112
-3.014532	レストラン	-1.327166
-5.293285	レテ	-0.293738
-3.108594	レポート	-1.672498
-4.691225	ロ	-0.283614
-3.473741	ログアウト	-1.813928
-3.467210	ログイン	-1.525338
-4.014532	ロケ	-0.573612
-3.507955	ロビー	-1.012386
-3.659817	ロボット	-0.495426
-4.390195	ワイン	-0.254829
-5.293285	ン	-0.293738
-2.944980	一	-0.772795
-3.480372	一つ	-0.559016
-4.390195	一切	-0.321360
-4.390195	一度	-0.329997
-4.214104	一方	-0.504588
-3.788135	一番	-0.295395
-3.950863	一緒	-0.711943
-3.334244	一般	-0.900809
-3.545097	上	-0.511748
-3.176014	上司	-1.235340
-5.293285	上尾	-0.299549
-3.702221	上手	-0.853795
-3.749217	下	-0.432940
-4.117194	不	-0.675959
-4.448187	不安	-0.274516
-4.251893	不思議	-0.804623
-4.992255	不足	-0.299398
-4.014532	与え	-0.672950
-3.369006	世界	-0.470500
-3.192915	中	-0.688955
-3.384800	中央	-0.835561
-3.691225	中心	-0.571039
-4.390195	主人	-0.236170
-4.293285	主体	-0.368099
-5.293285	主観	-0.300665
-4.992255	久しぶり	-0.282595
-4.691225	乗り	-0.627597
-4.992255	乗り換え	-0.476672
-2.890165	乗る	-1.734055
-4.448187	九	-0.379304
-4.816164	予定	-0.298800
-3.343895	予算	-1.626869
-4.014532	予約	-0.532106
-4.691225	事務	-0.363569
-4.062836	事実	-0.338231
-3.189481	二	-0.825129
-3.950863	二つ	-0.719994
-4.179342	五	-0.384885
-5.293285	五蘊	-0.300627
-4.014532	亜	-0.755389
-4.515134	交換	-0.366277
-2.560088	京都	-1.318964
-2.740617	人	-0.814763
-4.147157	人々	-0.391072
-3.649833	人気	-0.597917
-3.324802	人間	-0.499562
-3.577282	今	-0.599543
-4.992255	今年	-0.473224
-4.594315	今度	-0.411163
-3.019127	今日	-0.723641
-3.236380	仕事	-0.746577
-4.251893	仕方	-0.425014
-3.448187	他	-0.868211
-3.878312	以上	-0.510708
-3.284685	企画	-0.881985
-5.293285	伊	-0.301028
-4.594315	休み	-0.268329
-3.830887	休憩	-0.717905
-2.847681	会社	-1.049470
-4.390195	会議	-0.376188
-3.878312	似	-0.860687
-4.594315	位	-0.262017
-3.950863	低い	-0.650301
-4.089165	住む	-0.369612
-4.816164	佐	-0.530687
-3.406794	体	-0.735432
-4.390195	体操	-0.195355
-5.293285	体温	-0.288596
-3.153406	体育館	-1.194853
-3.288964	何	-0.720155
-4.390195	作っ	-0.693137
-2.902350	作る	-1.540020
-3.176014	作成	-1.177746
-2.853952	使う	-1.349585
-3.288964	使わ	-1.415549
-3.060289	使用	-0.913743
-4.992255	便利	-0.228564
-3.950863	保存	-0.472802
-3.761806	信号	-0.854846
-3.172711	修正	-1.315940
-3.913074	個人	-0.485473
-4.214104	健康	-0.289412
-3.363866	傘	-1.036878
-4.515134	働く	-0.403428
-3.659817	僕	-0.478450
-4.816164	僕ら	-0.279159
-5.293285	儀	-0.277587
-2.704453	元気	-1.508263
-2.707824	兄	-1.379542
-4.594315	充電	-0.325105
-2.966949	先生	-1.174362
-2.992255	先輩	-1.411064
-3.971066	光る	-0.829159
-4.992255	兎	-0.221050
-3.670036	児	-1.322484
-4.992255	入	-0.229644
-3.950863	入っ	-1.073348
-3.950863	入る	-0.586733
-4.214104	入れる	-0.342051
-4.594315	入学	-0.352645
-4.251893	入院	-0.408168
-3.878312	全く	-0.365586
-3.424053	全て	-0.404353
-4.214104	全体	-0.499542
-4.448187	全然	-0.335325
-4.691225	全部	-0.292092
-4.448187	八	-0.378590
-3.150270	公園	-0.930480
-3.621187	兵庫	-1.387159
-5.293285	兵隊	-0.288596
-4.691225	具	-0.274792
-4.062836	具体	-1.254908
-3.500894	内容	-0.607392
-4.515134	円	-0.219951
-3.091888	写真	-0.879406
-5.293285	冬休み	-0.229657
-4.816164	処	-0.386742
-4.515134	出し	-0.471188
-4.390195	出す	-0.625665
-3.971066	出る	-0.510207
-3.878312	出勤	-0.960155
-3.913074	出席	-1.385793
-3.830887	出張	-0.730753
-3.950863	出来る	-0.542138
-4.992255	出発	-0.221050
-4.594315	刃	-0.206965
-3.210500	分析	-1.478530
-4.816164	切	-0.299329
-2.922217	切る	-2.000413
-3.830887	初めて	-0.394476
-5.293285	初演	-0.293682
-4.251893	判断	-0.284631
-5.293285	利他	-0.293738
-3.473741	利用	-0.537955
-5.293285	刺	-0.288596
-4.816164	削除	-0.384709
-4.594315	割	-0.399865
-4.594315	創造	-0.279596
-3.537410	力	-0.654330
-4.816164	加	-0.301001
-4.515134	助	-0.396748
-4.992255	助手	-0.220984
-4.293285	労働	-0.472161
-3.144066	勉強	-1.004446
-3.878312	動く	-0.652273
-3.788135	動物	-0.493841
-4.339043	動画	-0.279845
-4.251893	勝つ	-0.376373
-3.276252	化	-0.704900
-3.144066	化学	-1.133216
-3.125968	北海道	-0.995527
-3.052736	区	-1.177634
-4.117194	医	-0.586166
-4.293285	医者	-0.248872
-4.339043	十	-0.356508
-3.515134	千葉	-1.128634
-2.992255	午前	-0.792988
-3.001029	午後	-0.753538
-3.442027	卒業	-0.683440
-3.131917	卒論	-2.140910
-4.251893	協力	-0.243411
-4.147157	南	-0.479340
-4.992255	単なる	-0.300592
-3.089165	単位	-1.500424
-3.971066	博物館	-0.490550
-4.339043	印	-0.254686
-4.293285	印刷	-0.454608
-4.594315	即ち	-0.291661
-4.515134	卵	-0.240530
-4.062836	原因	-0.311932
-3.374207	参加	-0.819109
-3.992255	友人	-0.293468
-2.920373	友達	-1.200678
-5.293285	反し	-0.298169
-4.179342	反対	-0.426867
-3.649833	取り	-1.067484
-4.691225	取る	-0.210190
-4.214104	受ける	-0.457257
-5.293285	叙	-0.229657
-3.522433	口	-0.474847
-3.182695	古い	-0.835400
-4.816164	句	-0.277132
-4.339043	可	-0.530572
-3.159746	台所	-1.248326
-4.691225	台風	-0.457182
-4.014532	史	-0.402613
-4.293285	右	-0.318747
-4.816164	右腕	-0.313625
-4.992255	合っ	-0.298033
-4.038013	合格	-0.354775
-4.691225	合理	-0.476683
-3.280448	同じ	-0.528017
-4.293285	同一	-0.386942
-3.206925	同僚	-1.205830
-4.214104	同時に	-0.337338
-3.203380	名	-0.761440
-3.339043	名刺	-1.935598
-3.395658	名前	-0.696494
-5.293285	向かっ	-0.298078
-4.089165	向け	-0.333363
-4.992255	向こう	-0.288366
-4.089165	君	-0.580262
-4.214104	否定	-0.268320
-3.878312	含ま	-0.981723
-4.992255	味噌汁	-0.469830
-3.725083	呼ぶ	-1.216729
-4.293285	命令	-0.351055
-3.749217	和歌山	-1.263689
-4.816164	咲い	-0.599108
-3.182695	咲く	-2.042570
-4.390195	品	-0.382141
-3.895345	員	-0.879893
-4.179342	哲学	-0.547558
-3.267979	商品	-0.909873
-3.406794	問題	-0.576792
-5.293285	喜	-0.229657
-5.293285	喪	-0.293738
-3.861921	回路	-1.124791
-5.293285	因	-0.300957
-3.931557	図	-0.551064
-2.943037	図書館	-1.119893
-3.680501	国	-0.468274
-4.089165	国家	-0.300619
-4.014532	国際	-0.410015
-4.594315	園	-0.254163
-5.293285	圓	-0.300913
-5.293285	圧死	-0.292649
-3.560891	地	-0.595807
-4.038013	地図	-0.372879
-3.713502	地域	-0.269638
-3.878312	地球	-0.443172
-5.293285	地面	-0.290075
-4.062836	城	-0.303827
-4.147157	基	-0.414007
-3.830887	基板	-0.879304
-3.569009	埼玉	-1.426332
-2.918537	報告	-1.491628
-3.670036	場合	-0.592523
-3.895345	場所	-0.318770
-5.293285	塗	-0.301006
-5.293285	塩	-0.301017
-4.816164	墓地	-0.273781
-4.691225	増え	-0.297541
-5.293285	士	-0.293682
-5.293285	売上	-0.277587
-5.293285	壷	-0.290075
-4.089165	変える	-0.616739
-3.931557	変わら	-0.935416
-3.749217	変化	-0.592268
-3.102953	変更	-0.973128
-4.594315	夏休み	-0.324592
-3.094628	夕方	-0.658820
-4.179342	外国	-0.718875
-4.448187	多	-0.335133
-3.199864	多い	-1.079455
-2.966949	夜	-0.653904
-3.507955	夢	-0.618139
-3.659817	大	-0.422133
-3.042865	大きい	-0.864106
-4.117194	大きく	-0.345172
-3.895345	大きな	-0.336406
-4.390195	大丈夫	-0.330954
-4.117194	大事	-0.399756
-3.725083	大分	-1.286552
-4.179342	大切	-0.641558
-4.691225	大地	-0.279148
-5.293285	大場	-0.300964
-4.214104	大変	-0.383747
-3.240207	大好き	-1.136407
-2.769539	大学	-0.999213
-4.594315	大府	-0.542136
-5.293285	大枝	-0.300964
-2.617507	大阪	-1.298735
-4.293285	天気	-0.341213
-3.206925	太陽	-1.055479
-3.725083	失敗	-0.681221
-4.691225	失礼	-0.358461
-5.293285	奇	-0.229657
-3.343895	契約	-1.152594
-3.529857	女	-0.504788
-3.830887	女の子	-0.424337
-3.214104	女性	-0.603848
-5.293285	如く	-0.300860
-2.690141	妹	-1.435388
-2.727437	姉	-1.399252
-4.147157	始まり	-0.488823
-3.179342	始まる	-2.045898
-4.390195	始め	-0.463327
-4.214104	姫	-0.508552
-3.537410	姿	-0.660056
-5.293285	威	-0.300973
-3.379471	娘	-0.847816
-4.594315	媒介	-0.533376
-4.992255	嫁	-0.282595
-3.560891	子	-0.506367
-2.772147	子供	-1.207463
-3.263901	存在	-0.820716
-4.816164	季	-0.228585
-4.448187	学ぶ	-0.831717
-3.005483	学校	-0.905602
-2.952841	学生	-1.127046
-3.950863	宇宙	-0.372072
-4.515134	守る	-0.268072
-4.691225	安	-0.229433
-3.228827	安い	-0.987357
-4.816164	安心	-0.395986
-3.186075	完了	-1.391844
-4.117194	完全	-0.445362
-3.931557	宗教	-0.400846
-4.089165	実在	-0.590701
-3.166180	実行	-1.264159
-3.861921	実際	-0.970710
-3.228827	実験	-0.957824
-5.293285	客観	-0.300665
-4.594315	宮	-0.330453
-2.885045	家	-0.945888
-2.900588	家族	-0.983527
-3.097386	宿題	-1.865942
-3.217738	寒い	-0.931305
-4.117194	寝	-0.774990
-3.196375	寝る	-1.729468
-3.105764	対応	-1.313629
-4.515134	対立	-0.188759
-4.147157	対象	-0.332272
-5.293285	射	-0.229657
-3.801923	将来	-1.012034
-3.992255	小	-0.441207
-3.050247	小さい	-0.845680
-4.089165	小さな	-0.345558
-4.816164	小林	-0.283072
-3.236380	少し	-0.409639
-3.702221	少年	-0.585288
-5.293285	尹	-0.293738
-4.214104	尾	-0.677041
-4.816164	居	-0.599964
-5.293285	居酒屋	-0.229657
-5.293285	届い	-0.298169
-4.816164	届く	-0.298645
-4.062836	屋	-0.479282
-3.131917	屋上	-1.274833
-5.293285	履く	-0.300853
-3.159746	山	-0.793463
-3.493945	岐阜	-1.129722
-3.467210	岡山	-1.143332
-3.232587	川	-0.953991
-4.816164	州都	-0.378956
-5.293285	巣	-0.293738
-2.946932	工場	-1.083481
-4.339043	差	-0.574811
-2.467859	市	-1.208936
-5.293285	布団	-0.277587
-4.515134	師	-0.219120
-4.179342	帰っ	-0.869228
-2.520963	帰る	-2.090840
-4.816164	帰省	-0.229175
-4.390195	常識	-0.383298
-3.255859	帽子	-0.948026
-4.089165	幸せ	-0.305681
-3.203380	広い	-0.816233
-3.379471	広島	-1.117867
-4.816164	序	-0.314285
-3.055239	店	-1.014057
-2.636229	府	-1.553341
-4.062836	座	-0.906272
-5.293285	座っ	-0.300986
-3.206925	座る	-2.018532
-3.078441	庭	-1.262106
-4.992255	庵	-0.293729
-4.089165	廃	-0.563415
-4.147157	建物	-0.300441
-3.297650	弁当	-1.111220
-5.293285	弁証法	-0.292649
-4.214104	引き分け	-0.359116
-4.816164	引っ越し	-0.599108
-2.681562	弟	-1.444305
-3.500894	強い	-0.537962
-4.147157	強く	-0.403216
-2.902350	弾く	-1.617895
-3.560891	形	-0.588323
-3.846127	影響	-0.461726
-2.863533	彼	-1.153883
-3.788135	彼ら	-0.576585
-2.929673	彼女	-1.300079
-4.147157	待っ	-0.900093
-4.594315	待つ	-0.354455
-2.977315	後輩	-1.513635
-5.293285	徐	-0.300966
-4.147157	得	-0.348299
-4.594315	御	-0.229070
-4.992255	徳	-0.283162
-3.774771	徳島	-1.239556
-3.801923	心	-0.430768
-4.038013	心配	-0.450317
-4.293285	必ず	-0.296618
-3.390195	必要	-0.700434
-4.089165	忘れ	-0.617878
-3.302059	忘れ物	-1.253316
-4.691225	忙しい	-0.289576
-3.801923	思い	-0.577104
-3.749217	思う	-0.698615
-3.603089	思っ	-1.233004
-4.293285	思わ	-0.473264
-4.594315	急	-0.339965
-5.293285	急い	-0.292649
-3.774771	性	-0.462242
-4.390195	性質	-0.276730
-4.293285	怪我	-0.507036
-5.293285	恩	-0.277587
-3.594315	悪い	-0.635377
-5.293285	悪寒	-0.288596
-4.515134	悪魔	-0.372380
-3.125968	情報	-0.804304
-4.293285	想像	-0.530078
-4.515134	意	-0.773725
-4.179342	意識	-0.356543
-5.293285	愚	-0.300911
-3.788135	愛	-0.539616
-3.713502	愛知	-1.298947
-4.691225	感じる	-0.227015
-4.992255	憎悪	-0.221050
-3.761806	成功	-0.511074
-4.038013	成立	-0.757404
-3.050247	成績	-1.405156
-4.014532	成長	-0.334550
-4.594315	我	-0.341073
-4.089165	我々	-0.576344
-3.816164	戦争	-0.351718
-5.293285	戸	-0.229657
-4.594315	戻っ	-0.538235
-4.089165	所	-0.303168
-3.702221	手	-0.538621
-3.358787	手紙	-1.052712
-5.293285	手続き	-0.300665
-4.339043	手術	-0.165182
-4.992255	打つ	-0.299364
-3.179342	承認	-1.394161
-3.931557	技	-0.411449
-3.895345	技術	-0.247531
-5.293285	把	-0.300853
-5.293285	折	-0.300769
-2.983655	担当	-1.227832
-5.293285	持	-0.293682
-2.826418	持つ	-1.225806
-4.691225	指示	-0.354140
-4.448187	挨拶	-0.230011
-4.117194	掃除	-0.407713
-4.594315	授与	-0.534613
-4.089165	授業	-0.414829
-4.448187	探偵	-0.276442
-5.293285	接種	-0.300948
-2.853952	描く	-1.665101
-3.221403	提出	-1.392524
-3.374207	提案	-1.234959
-5.293285	援助	-0.300939
-4.117194	携帯	-0.704631
-4.992255	撮	-0.229243
-3.774771	撮り	-1.232044
-2.933450	撮る	-1.806416
-4.214104	改札	-0.675357
-3.761806	政治	-0.502958
-4.992255	故	-0.300594
-5.293285	故に	-0.292649
-4.117194	教え	-0.595884
-2.946932	教室	-1.046583
-3.971066	教師	-0.362970
-2.952841	教授	-1.314254
-3.089165	教科書	-2.183383
-3.816164	教育	-0.306755
-3.801923	散歩	-0.945965
-3.134923	数学	-1.158672
-4.147157	文化	-0.292805
-4.515134	文章	-0.223279
-4.816164	斑	-0.280908
-4.691225	斗	-0.287675
-2.958831	料理	-0.951517
-5.293285	斬	-0.293738
-3.189481	新しい	-0.686634
-4.816164	新幹線	-0.283054
-3.529857	新潟	-1.186354
-3.280448	新聞	-0.870897
-4.293285	方向	-0.353172
-3.725083	方法	-0.495799
-3.736983	旅行	-0.562258
-4.515134	旗	-0.343524
-4.448187	既に	-0.299573
-3.384800	日	-0.516523
-4.339043	日常	-0.404361
-2.952841	日本	-0.717035
-3.480372	日本人	-0.586598
-3.529857	日本語	-0.528216
-4.515134	早く	-0.288462
-5.293285	昇	-0.293738
-3.659817	明らか	-1.165211
-2.964906	明日	-0.742794
-4.390195	昔	-0.681102
-3.137949	星	-0.986931
-3.045312	映画	-0.735065
-2.985789	昨日	-0.803361
-4.992255	是	-0.476745
-2.871681	昼	-0.844919
-3.522433	時	-0.451469
-3.691225	時代	-0.333764
-3.353766	時計	-1.066988
-3.691225	時間	-0.446112
-3.442027	晩	-1.262300
-3.659817	普通	-0.555611
-4.816164	晴れ	-0.387589
-4.816164	暇	-0.393107
-3.196375	暑い	-0.912317
-5.293285	暖かく	-0.300539
-4.293285	更新	-0.518112
-4.691225	書	-0.258280
-3.950863	書い	-0.914941
-2.890165	書く	-1.630501
-3.358787	書類	-1.315196
-3.649833	最も	-0.472910
-3.736983	最初	-0.566909
-4.089165	最大	-0.540385
-3.594315	最後	-0.637050
-4.339043	最高	-0.349856
-3.147157	月	-0.829199
-4.992255	月曜日	-0.473483
-4.594315	有	-0.280716
-4.448187	有する	-0.581501
-3.348803	有名	-1.035423
-3.276252	服	-0.986931
-2.824938	朝	-0.757877
-4.816164	期	-0.280968
-3.186075	木	-0.917976
-3.830887	未来	-0.430887
-3.236380	本	-0.742003
-3.992255	本当に	-0.349806
-4.992255	本能	-0.288539
-5.293285	李	-0.301021
-4.992255	杏	-0.469830
-3.774771	材料	-0.593086
-4.117194	村	-0.636261
-4.691225	村長	-0.462356
-3.725083	来	-0.782530
-2.493945	来る	-1.824820
-4.062836	東	-0.294008
-2.419965	東京	-1.379850
-5.293285	杵	-0.301017
-4.515134	林	-0.308808
-4.038013	柄	-0.275817
-4.992255	栄	-0.300902
-5.293285	校庭	-0.300627
-4.515134	根	-0.354247
-4.992255	案	-0.201890
-4.515134	桜	-0.280591
-3.166180	森	-0.839099
-5.293285	植	-0.292649
-4.691225	検査	-0.336687
-3.199864	検討	-1.457276
-4.147157	業務	-0.323994
-4.214104	楽しい	-0.390395
-4.339043	楽しみ	-0.339021
-4.062836	概念	-0.249793
-4.147157	構造	-0.327073
-4.062836	様子	-0.503735
-4.992255	様式	-0.219762
-3.232587	横浜	-1.153062
-3.816164	機	-0.456107
-3.649833	機械	-0.589895
-3.913074	欠席	-1.385793
-3.045312	次	-1.122468
-5.293285	欧	-0.300758
-3.179342	止まる	-1.564713
-4.339043	正しい	-0.323469
-4.594315	歩い	-0.775199
-4.251893	歩き	-0.390183
-2.520230	歩く	-2.100350
-4.390195	歯	-0.542342
-5.293285	歯医者	-0.293738
-3.761806	歴史	-0.317036
-4.089165	死	-0.292257
-3.861921	残っ	-1.155535
-3.878312	残業	-0.894799
-5.293285	殷	-0.300999
-5.293285	殺	-0.229657
-3.552923	母親	-0.509884
-3.009984	毎日	-0.691121
-2.966949	毎晩	-0.778181
-2.975222	毎朝	-0.781415
-3.182695	比較	-1.340357
-4.117194	毛	-0.515870
-3.384800	気	-1.092810
-4.992255	気づい	-0.474169
-3.861921	気持ち	-0.698570
-4.816164	気温	-0.221026
-3.320157	水	-0.607775
-4.816164	水族館	-0.210209
-3.971066	水泳	-0.687366
-4.691225	永	-0.229537
-4.390195	求め	-0.470957
-4.816164	江	-0.221042
-2.873329	決める	-1.874358
-3.140997	決定	-1.278524
-3.878312	沖縄	-0.658539
-5.293285	治る	-0.229657
-4.515134	法律	-0.267690
-4.594315	泣い	-0.538235
-3.196375	泣く	-1.434509
-5.293285	注射	-0.300818
-3.913074	注意	-0.511835
-4.594315	注文	-0.413449
-3.702221	泳ぎ	-1.591105
-3.182695	泳ぐ	-1.439718
-2.879985	洗う	-2.043614
-4.992255	洗濯	-0.299353
-4.992255	津	-0.300937
-4.147157	派	-0.431648
-4.038013	流れ	-0.434875
-4.992255	浮い	-0.295197
-3.134923	海	-0.875219
-4.992255	渋滞	-0.287222
-5.293285	渡	-0.293738
-4.816164	渡る	-0.396175
-3.816164	温泉	-0.339999
-3.186075	測る	-1.741123
-3.236380	測定	-1.577179
-4.515134	湖	-0.278431
-4.390195	湯	-0.305902
-4.390195	満足	-0.549507
-3.097386	準備	-1.219103
-5.293285	漏	-0.293738
-4.992255	潮	-0.228890
-4.992255	濃	-0.293653
-4.992255	瀬	-0.290072
-4.339043	火	-0.244562
-4.179342	炉	-0.643341
-5.293285	炊く	-0.229657
-4.594315	炎	-0.386927
-4.147157	無	-0.367722
-4.992255	無限	-0.290029
-2.925929	焼く	-2.297843
-5.293285	煎	-0.300634
-4.992255	煮	-0.287047
-3.691225	熊本	-0.939212
-4.594315	熱	-0.394493
-3.263901	父	-0.747958
-5.293285	片付ける	-0.229657
-4.390195	物事	-0.519756
-3.221403	物理	-1.452237
-4.691225	物質	-0.220335
-3.603089	特に	-0.332655
-4.448187	特殊	-0.652257
-3.169434	犬	-0.952604
-3.801923	状態	-0.508615
-4.339043	状況	-0.308914
-3.659817	独立	-0.388777
-4.515134	狭い	-0.405608
-3.176014	猫	-0.874274
-3.176014	玄関	-1.115447
-3.830887	王	-0.291734
-2.843036	現在	-0.929720
-4.390195	現実	-0.386990
-4.390195	現象	-0.196378
-3.493945	理由	-0.503088
-4.147157	理論	-0.221507
-4.448187	環境	-0.205199
-2.104357	生まれ	-2.231845
-4.293285	生命	-0.445971
-3.830887	生活	-0.327725
-4.089165	生物	-0.270485
-4.691225	産ん	-0.468215
-4.594315	甥	-0.406018
-4.816164	田	-0.282558
-4.515134	田舎	-0.323362
-4.992255	由乃	-0.293725
-3.199864	申請	-1.590132
-3.369006	男	-0.547784
-3.816164	町	-0.453455
-4.816164	画	-0.201665
-4.594315	画面	-0.220199
-4.293285	留学	-0.518567
-4.992255	留守	-0.281477
-4.515134	疎い	-0.773725
-4.448187	疲れ	-0.431330
-4.117194	病気	-0.293160
-3.134923	病院	-1.071331
-4.992255	痔	-0.282595
-4.816164	痛い	-0.214738
-4.448187	発展	-0.639117
-3.169434	発表	-1.187472
-4.339043	登る	-0.373229
-3.144066	登録	-1.135159
-3.075801	的	-0.665700
-5.293285	皇女	-0.229657
-5.293285	盗	-0.301026
-3.713502	監督	-0.374746
-3.569009	目	-0.495724
-5.293285	目上	-0.293738
-3.329497	目標	-0.884132
-4.038013	目的	-0.550067
-5.293285	盲唖	-0.300601
-3.162951	直す	-2.062166
-4.992255	直観	-0.277162
-4.390195	相	-0.309355
-3.761806	相手	-0.472927
-3.166180	相談	-1.165531
-2.339043	県	-1.115133
-4.594315	眺め	-0.458002
-4.992255	眼科	-0.300822
-3.247962	眼鏡	-0.889842
-3.950863	着	-0.795874
-4.992255	着く	-0.292015
-2.952841	着る	-2.271050
-4.515134	瞬間	-0.530575
-4.117194	矛盾	-0.499199
-4.691225	矢	-0.469823
-5.293285	知	-0.300851
-3.311014	知ら	-1.394092
-4.293285	知識	-0.260519
-3.038013	研究	-0.862442
-4.816164	碁	-0.530687
-3.156565	確かめる	-2.068506
-3.159746	確認	-1.205178
-4.992255	磨	-0.293613
-4.117194	社	-0.439630
-3.169434	社長	-0.983289
-4.515134	祖	-0.773725
-5.293285	祝う	-0.300992
-3.102953	神奈川	-1.892489
-3.123023	神社	-1.042992
-4.214104	禁止	-0.434980
-4.992255	禍	-0.288587
-3.280448	福岡	-1.399934
-3.774771	福島	-0.752516
-3.210500	私	-0.862962
-3.830887	科	-0.485858
-3.585715	科学	-0.507283
-4.179342	秘密	-0.434182
-3.659817	移動	-0.456394
-3.630527	種	-0.549532
-4.390195	穂	-0.328085
-3.186075	空	-0.861718
-3.196375	空く	-2.028998
-4.594315	空気	-0.204865
-3.125968	空港	-0.879203
-3.179342	窓	-1.071173
-3.189481	立つ	-2.035837
-4.390195	立て	-0.559043
-4.816164	立場	-0.266329
-4.515134	立派	-0.385046
-3.206925	笑う	-1.539710
-4.390195	笑顔	-0.368474
-5.293285	符	-0.293738
-3.702221	等	-0.507699
-4.014532	答え	-0.375587
-3.089165	管理	-0.831526
-5.293285	箭	-0.301001
-4.014532	簡単	-0.526905
-5.293285	粉	-0.229657
-3.950863	精神	-0.501001
-4.992255	糞	-0.293720
-4.448187	約束	-0.225056
-4.992255	紅茶	-0.214964
-4.515134	紅葉	-0.448345
-4.691225	紗	-0.469798
-3.374207	紙	-0.885722
-4.515134	紳士	-0.396703
-5.293285	終え	-0.298169
-3.931557	終わっ	-0.932001
-4.390195	終わり	-0.247093
-3.169434	終わる	-1.755998
-3.196375	組み立てる	-2.028998
-3.186075	組む	-2.039217
-4.251893	経済	-0.294558
-3.895345	経験	-0.264363
-4.691225	結合	-0.206520
-3.395658	結婚	-0.536840
-4.992255	結婚式	-0.282595
-4.691225	結局	-0.293140
-3.659817	結果	-0.554350
-4.691225	統一	-0.299844
-3.630527	絵	-0.619972
-4.214104	絶対	-0.401471
-5.293285	継	-0.229657
-4.062836	続け	-0.564805
-4.594315	続ける	-0.354382
-4.992255	綱	-0.469830
-4.816164	綺麗	-0.325474
-5.293285	緋	-0.293738
-4.062836	緑	-0.364213
-3.992255	練習	-0.278286
-3.992255	繋がる	-1.250846
-3.217738	繋ぐ	-2.007808
-5.293285	織	-0.301026
-4.992255	美	-0.229151
-4.117194	美しい	-0.289435
-3.140997	美術館	-0.951981
-3.931557	群馬	-1.378217
-4.147157	義	-0.299183
-4.448187	羽	-0.399102
-4.816164	習慣	-0.275878
-3.552923	考え	-0.657716
-4.014532	考える	-0.408845
-3.179342	者	-0.648515
-4.251893	耳	-0.271715
-4.594315	聞く	-0.216372
-5.293285	聞こえ	-0.300933
-5.293285	聴い	-0.298078
-2.925929	聴く	-1.996733
-4.339043	肉	-0.397962
-5.293285	肢	-0.293738
-5.293285	胃	-0.288596
-3.713502	背	-1.104831
-3.830887	胸	-0.718564
-4.594315	膝	-0.297766
-4.816164	自	-0.300897
-3.448187	自分	-0.574447
-4.293285	自己	-0.376415
-3.702221	自由	-0.374897
-3.913074	自身	-0.418661
-3.390195	自転車	-0.885690
-4.089165	興味	-0.778334
-4.691225	良	-0.292660
-3.749217	良い	-0.540145
-2.960847	花	-0.944116
-4.691225	芽	-0.266430
-5.293285	苦	-0.290075
-4.691225	苦労	-0.697356
-2.971066	英語	-0.965975
-4.089165	茨城	-0.787491
-4.390195	茶	-0.237175
-4.992255	茶々	-0.221050
-3.276252	荷物	-1.277906
-4.089165	葉	-0.408211
-5.293285	蒼	-0.300714
-3.311014	薬	-0.891164
-4.816164	藍	-0.293725
-4.992255	藤	-0.216715
-5.293285	蘇	-0.301026
-3.221403	虫	-1.122260
-5.293285	蚊	-0.293738
-4.390195	血	-0.315019
-3.725083	行う	-0.661898
-4.992255	行き	-0.293511
-2.507244	行く	-1.745936
-3.659817	行っ	-1.346350
-3.895345	行動	-0.291530
-4.214104	行為	-0.256374
-3.950863	街	-0.284939
-4.691225	衣	-0.258616
-4.816164	表情	-0.383550
-3.680501	表現	-0.453804
-3.761806	装置	-0.631688
-4.992255	補	-0.300687
-3.153406	製作	-0.919408
-4.089165	西	-0.454200
-4.339043	要	-0.493338
-4.594315	要求	-0.408430
-4.214104	要素	-0.417136
-3.153406	見	-1.112079
-4.594315	見せ	-0.344124
-5.293285	見つけ	-0.298078
-2.847681	見る	-1.535635
-4.515134	見学	-0.363519
-3.358787	見積	-1.916076
-4.594315	視	-0.411074
-4.117194	覚え	-0.593769
-3.895345	観光	-0.574732
-3.214104	観察	-0.980012
-3.128932	解く	-1.789252
-4.179342	解決	-0.414489
-4.147157	言い	-0.475988
-3.640073	言う	-0.609775
-4.117194	言え	-0.674073
-4.992255	言お	-0.476982
-3.725083	言っ	-1.004828
-3.522433	言葉	-0.533360
-3.680501	言語	-0.709509
-3.140997	計画	-1.013266
-3.179342	計算	-1.099770
-5.293285	記	-0.292649
-3.125968	記録	-0.754377
-3.186075	設計	-0.887227
-3.236380	試す	-1.989325
-3.971066	試合	-0.430821
-4.038013	試験	-0.377613
-4.014532	詩	-0.379497
-3.801923	話	-0.435914
-4.448187	話し	-0.900138
-3.680501	話す	-0.712110
-5.293285	話者	-0.290075
-5.293285	誌	-0.229657
-4.147157	認め	-0.574094
-4.594315	認識	-0.423288
-3.913074	誕生	-0.600624
-4.179342	語	-0.264428
-3.073177	説明	-0.982895
-4.147157	読み	-0.405129
-2.876645	読む	-1.507735
-4.594315	読ん	-0.535162
-3.153406	読書	-0.970056
-3.830887	誰	-0.620827
-4.816164	課	-0.317894
-3.214104	課長	-1.284209
-3.081098	課題	-1.705849
-3.131917	調べる	-1.394521
-3.206925	調整	-1.484147
-3.086459	論文	-1.318946
-4.691225	論理	-0.354924
-5.293285	諸	-0.300860
-5.293285	謂	-0.300654
-5.293285	謂う	-0.229657
-3.788135	謎	-0.848816
-5.293285	負	-0.293738
-4.691225	負ける	-0.227067
-3.379471	財布	-1.179998
-4.117194	責任	-0.307166
-5.293285	貴	-0.301017
-3.702221	買い	-1.300696
-4.293285	買い物	-0.317014
-2.897086	買う	-1.850943
-5.293285	費	-0.288596
-4.992255	賀	-0.300519
-4.992255	資	-0.300652
-3.302059	資料	-1.209432
-4.594315	質問	-0.331530
-4.214104	赤	-0.304481
-3.169434	赤い	-0.846606
-4.515134	赤ちゃん	-0.236950
-4.594315	走っ	-0.420091
-2.506534	走る	-1.938772
-3.199864	起きる	-1.252089
-5.293285	超越	-0.300665
-2.489146	趣味	-1.550085
-5.293285	路	-0.300554
-4.339043	身	-0.270303
-4.390195	身体	-0.354402
-3.861921	車	-0.356382
-4.691225	返事	-0.440544
-4.992255	迷っ	-0.295197
-3.913074	退勤	-1.385793
-4.992255	退院	-0.286265
-4.515134	送っ	-0.842146
-2.918537	送る	-2.004063
-4.594315	逃げ	-0.346139
-4.691225	通う	-0.403816
-5.293285	通る	-0.229657
-4.515134	通勤	-0.576913
-3.128932	連絡	-1.151419
-4.992255	週末	-0.293658
-4.594315	進ん	-0.535162
-4.251893	進学	-0.486305
-4.992255	逸	-0.228726
-4.691225	遅れ	-0.278915
-3.603089	遊び	-0.713062
-3.172711	遊ぶ	-1.449074
-4.691225	遊ん	-0.468215
-4.390195	運	-0.372303
-2.905895	運ぶ	-2.317793
-3.749217	運動	-0.412385
-3.621187	運転	-0.444972
-4.992255	運輸	-0.466723
-5.293285	過	-0.301019
-3.913074	道	-0.290031
-4.089165	道具	-0.384281
-4.014532	達成	-0.472011
-4.062836	違い	-0.337657
-3.878312	違う	-0.443682
-4.448187	違っ	-0.647380
-4.992255	適応	-0.476995
-3.500894	選挙	-1.031511
-4.816164	避暑	-0.601941
-3.460776	部	-0.617253
-3.186075	部下	-1.150840
-3.950863	部分	-0.343679
-3.140997	部屋	-1.008382
-3.078441	部長	-1.329069
-2.592581	都	-1.354465
-3.846127	配線	-0.899420
-4.816164	酢	-0.326562
-5.293285	里	-0.229657
-3.861921	重要	-0.594670
-4.691225	野	-0.286687
-3.603089	野球	-0.474015
-4.691225	野田	-0.219188
-3.358787	野菜	-1.054164
-4.038013	量	-0.557160
-4.691225	金曜日	-0.472161
-4.179342	銀行	-0.310107
-4.339043	録音	-0.307530
-3.429962	鍵	-0.935839
-3.153406	長い	-0.818016
-3.487105	長野	-1.032684
-4.515134	閉じる	-0.773725
-2.943037	閉める	-2.280809
-4.691225	開く	-0.627597
-4.816164	開け	-0.599108
-2.885045	開ける	-2.030543
-3.691225	開発	-0.389863
-5.293285	間に合う	-0.301021
-3.971066	間違い	-0.334974
-3.560891	関係	-0.402903
-4.691225	降っ	-0.696018
-4.594315	降り	-0.294978
-4.515134	降りる	-0.395103
-3.182695	降る	-1.439207
-4.117194	限定	-0.264018
-4.992255	院	-0.292618
-3.001029	院生	-1.663303
-4.992255	陰	-0.469830
-4.390195	階段	-0.273327
-4.339043	隣	-0.580368
-4.691225	雄	-0.198124
-4.179342	集め	-0.538507
-5.293285	雑魚	-0.293738
-4.339043	離れ	-0.496995
-4.179342	難しい	-0.373110
-3.172711	雨	-0.932811
-3.240207	雪	-1.171951
-4.594315	雲	-0.404894
-5.293285	雷雨	-0.290632
-3.801923	電池	-0.817591
-3.801923	電源	-0.894041
-3.324802	電話	-0.601924
-3.369006	電車	-0.916763
-4.339043	青	-0.345469
-3.166180	青い	-0.948772
-3.878312	青森	-0.860070
-3.515134	静か	-1.100715
-4.339043	非	-0.302963
-3.649833	非常	-1.183052
-4.390195	面白い	-0.291349
-3.343895	靴	-1.068196
-3.297650	鞄	-1.257513
-4.594315	音声	-0.274033
-3.075801	音楽	-0.650958
-3.390195	頭	-0.757957
-4.515134	頼	-0.334109
-3.179342	風	-0.901733
-4.089165	風呂	-0.527300
-4.992255	風邪	-0.264453
-3.162951	飛ぶ	-1.589400
-4.594315	飛行機	-0.243099
-3.429962	食べ	-0.985891
-2.858716	食べる	-1.312117
-4.062836	食事	-0.289648
-3.123023	食堂	-0.951163
-3.363866	食材	-1.049469
-4.816164	飢え	-0.599108
-4.992255	飯	-0.268736
-3.736983	飲み	-1.102280
-2.929673	飲む	-1.505509
-5.293285	餡	-0.300911
-4.390195	首	-0.362240
-4.515134	首都	-0.284738
-4.251893	香	-0.260172
-3.210500	馬	-1.004722
-2.985789	駅	-0.891622
-3.075801	高い	-0.800681
-4.594315	高く	-0.347951
-3.585715	高知	-1.127431
-5.293285	魅	-0.300720
-5.293285	魏	-0.293738
-4.515134	魔	-0.227926
-2.998819	魚	-1.035910
-5.293285	魚津	-0.299549
-3.159746	鳥	-1.041084
-3.228827	鳴く	-1.697547
-3.680501	鹿児島	-0.883032
-4.339043	黄	-0.229469
-4.251893	黒い	-0.501980
-4.147157	黒板	-0.716135

\2-grams:
-3.790468	<s> あ	-0.215115
-4.188408	<s> あそこ
-4.012317	<s> あたり	-0.154902
-4.489438	<s> あっ	-0.283301
-3.285318	<s> あなた	0.012234
-3.489438	<s> あの	0.009545
-3.410257	<s> あまり	-0.204120
-3.887378	<s> あまりに	-0.112704
-3.790468	<s> あり	-0.300351
-3.410257	<s> ありがとう	0.228479
-3.167219	<s> ある	-0.362926
-3.535196	<s> あるいは
-3.489438	<s> あれ	-0.176091
-4.188408	<s> あん	0.096910
-3.285318	<s> い	-0.778516
-2.866189	<s> いい	-0.315802
-4.012317	<s> いくら	0.079181
-3.375495	<s> いつ	0.082974
-4.489438	<s> いる	-0.300751
-3.711287	<s> いろいろ	-0.149762
-4.012317	<s> いろんな	-0.096910
-3.535196	<s> いわゆる	0.024824
-4.489438	<s> う	-0.288441
-2.663363	<s> うさぎ	-1.468197
-4.188408	<s> うまく	-0.176091
-4.489438	<s> え	-0.249877
-3.027040	<s> お	-0.280424
-4.489438	<s> おい
-3.127710	<s> おいしい	-0.437398
-2.299106	<s> おじいさん	0.079181
-4.188408	<s> おそらく	-0.389971
-3.887378	<s> おはよう
-2.248889	<s> おばあさん	0.067643
-4.012317	<s> おめでとう
-4.012317	<s> おん
-3.711287	<s> お前	-0.124939
-4.489438	<s> お客様
-2.266722	<s> お母さん	-0.222272
-2.274594	<s> お父さん	0.068778
-4.188408	<s> お疲れ様
-3.147015	<s> お腹
-2.866189	<s> お茶	0.074634
-3.489438	<s> お金	0.118099
-4.012317	<s> お願い	-0.104735
-4.489438	<s> か	-0.299005
-3.489438	<s> から	-0.470612
-3.644340	<s> かわいい	-0.191886
-2.765162	<s> が	-0.405099
-4.188408	<s> き	-0.278167
-4.188408	<s> きっと	-0.124939
-2.970924	<s> きれい	-0.448923
-4.489438	<s> く
-4.489438	<s> ぐらい	-0.234083
-3.586348	<s> こ	-0.522879
-3.644340	<s> こういう	-0.138303
-3.058074	<s> ここ	-0.118998
-3.410257	<s> こちら	-0.062148
-3.586348	<s> こと	-0.308209
-2.246400	<s> この	-0.043466
-2.086318	<s> これ	0.008166
-3.790468	<s> これから	0.138303
-2.921236	<s> これら	0.020203
-3.489438	<s> こんな	0.002829
-4.188408	<s> こんなに	-0.124939
-3.489438	<s> ご	-0.352183
-2.876654	<s> ごはん	0.826213
-4.188408	<s> ご飯	-0.176091
-3.586348	<s> さ	0.047629
-4.489438	<s> さすが
-3.489438	<s> さらに	-0.141329
-3.410257	<s> し	0.200340
-2.683258	<s> しかし
-4.012317	<s> しかも
-4.489438	<s> しばらく	-0.079181
-4.489438	<s> す	-0.079181
-2.424980	<s> すぐ	-0.016135
-4.188408	<s> すでに	-0.191886
-3.027040	<s> すべて	-0.146128
-4.188408	<s> する	-0.294216
-3.887378	<s> すると
-3.790468	<s> ずっと	-0.263241
-4.188408	<s> ぜひ	-0.124939
-4.489438	<s> そ
-2.945370	<s> そう	-0.159261
-3.042280	<s> そういう	-0.042198
-3.489438	<s> そこで
-2.921236	<s> そして	-0.013320
-2.322121	<s> その	-0.245834
-2.269330	<s> それ	0.063993
-3.790468	<s> それから
-3.711287	<s> それで	-0.134699
-3.448045	<s> それら
-3.074465	<s> そんな
-4.012317	<s> そんなに	-0.096910
-4.489438	<s> ぞ	-0.221849
-4.489438	<s> た	-0.300405
-4.188408	<s> たい	-0.286053
-2.511715	<s> たくさん	-0.032438
-4.489438	<s> たとえ	-0.176091
-4.489438	<s> だって	-0.255273
-4.489438	<s> ち	-0.249877
-4.188408	<s> つ	-0.221849
-3.448045	<s> つまり
-4.489438	<s> て	-0.199121
-2.866189	<s> で	-0.385373
-3.887378	<s> では
-3.091498	<s> でも	-0.266662
-2.241465	<s> と	-0.731264
-2.565159	<s> という	-0.422638
-3.535196	<s> として	-0.393019
-2.413891	<s> とても	-0.097535
-4.489438	<s> と共に	-0.259637
-4.489438	<s> ど	-0.176091
-3.535196	<s> どう	-0.201645
-4.012317	<s> どうして	-0.096910
-4.188408	<s> どうも
-3.234166	<s> どこ	0.048784
-3.410257	<s> どちら	-0.014849
-4.012317	<s> どっち
-3.711287	<s> どんな	-0.134699
-4.012317	<s> な	-0.394793
-4.188408	<s> ない	-0.296236
-3.887378	<s> なかなか	-0.154902
-4.489438	<s> なく	-0.210853
-4.012317	<s> なら	-0.557093
-4.188408	<s> なる	-0.473409
-3.790468	<s> なんて	-0.215115
-3.012317	<s> に	-0.312556
-4.489438	<s> において	-0.285236
-4.489438	<s> における	-0.280827
-3.887378	<s> によって	-0.332649
-4.188408	<s> により	-0.259637
-3.790468	<s> による	-0.227244
-2.575624	<s> の	-0.294813
-4.489438	<s> ので	-0.234083
-3.058074	<s> は	-0.318872
-3.887378	<s> はっきり	0.263241
-4.489438	<s> ば	-0.290565
-4.188408	<s> ひ	-0.234083
-3.711287	<s> ひとつ	-0.182931
-4.012317	<s> ふたり
-3.887378	<s> へ	-0.343247
-3.586348	<s> ほか	-0.301030
-3.586348	<s> ほとんど	-0.218056
-4.489438	<s> ほど	-0.284640
-3.711287	<s> ま	-0.176091
-3.887378	<s> ませ	-0.439333
-2.638180	<s> また	-0.093946
-3.091498	<s> または	-0.133243
-2.448045	<s> まだ	-0.104735
-4.188408	<s> まったく	-0.243038
-4.489438	<s> まで	-0.300341
-4.188408	<s> まとめる	0.045757
-4.012317	<s> まるで
-4.188408	<s> み	-0.263241
-2.266722	<s> みんな	-0.073955
-3.790468	<s> も	-0.295992
-2.460054	<s> もう	-0.051484
-3.285318	<s> もちろん	-0.000000
-4.489438	<s> もの	-0.299337
-3.790468	<s> や	-0.332877
-3.489438	<s> やがて	-0.076727
-3.887378	<s> やっぱり	-0.079181
-4.012317	<s> やはり	-0.096910
-4.188408	<s> やる	-0.208276
-4.489438	<s> ゆ	-0.255273
-2.560019	<s> ゆっくり	-0.024527
-4.188408	<s> よ	-0.288441
-4.188408	<s> よかっ	0.564271
-2.365586	<s> よく	-0.230509
-3.711287	<s> よろしく	-0.280827
-4.012317	<s> り	-0.243038
-4.489438	<s> れ	-0.300134
-3.790468	<s> わたし	0.021189
-2.866189	<s> を	-0.353128
-4.489438	<s> アップ	-0.204120
-4.489438	<s> アップロード	1.525045
-3.012317	<s> アニメ	-0.294969
-2.817340	<s> アパート	-0.334658
-2.711287	<s> アプリ
-2.970924	<s> アメリカ	-0.177055
-4.489438	<s> アレルギー	-0.276206
-2.945370	<s> イベント	-0.066344
-4.489438	<s> インストール	1.060698
-2.656929	<s> インターネット	-0.367205
-3.343310	<s> インド	-0.317420
-2.733563	<s> エアコン	0.113943
-2.697046	<s> エスカレーター	0.025554
-2.749075	<s> エレベーター	-0.090725
-2.399533	<s> カフェ	-0.241358
-2.749075	<s> カメラ	-0.408767
-4.012317	<s> カレー	-0.176091
-2.765162	<s> カーテン	0.134699
-4.188408	<s> ガ
-4.188408	<s> キャンセル	1.236789
-2.608625	<s> キーボード	-0.275017
-2.452012	<s> ギター	-0.347087
-4.489438	<s> ク
-4.489438	<s> クリスマス	-0.234083
-4.489438	<s> クリック	1.525045
-3.109227	<s> グラフ	-0.150785
-2.887378	<s> ケーキ	0.187431
-3.058074	<s> ケーブル	0.014723
-2.690098	<s> ゲーム	-0.093137
-2.781868	<s> コップ	-0.326336
-4.489438	<s> コピー	1.060698
-3.091498	<s> コンサート	-0.191886
-2.741250	<s> コンビニ	-0.132117
-2.765162	<s> コート	-0.276530
-2.669894	<s> コーヒー	-0.182340
-4.489438	<s> ゴミ	-0.176091
-3.012317	<s> ゴルフ	-0.577898
-4.188408	<s> サイン	0.863323
-2.887378	<s> サッカー	0.013769
-2.749075	<s> サンダル	0.111633
-2.711287	<s> サーバー
-4.012317	<s> サービス	-0.213880
-2.676525	<s> システム	-0.534308
-2.808197	<s> シャツ	0.187521
-2.718586	<s> ジャケット	-0.017810
-2.570360	<s> ジュース	0.225779
-3.147015	<s> ジョギング	-0.371488
-3.074465	<s> スキー	-0.091770
-2.855970	<s> スケジュール	-0.152610
-4.012317	<s> スタート	1.102662
-4.489438	<s> ストップ	0.851258
-4.188408	<s> ストレッチ
-2.749075	<s> スプーン	-0.022664
-3.109227	<s> スライド	0.751279
-2.781868	<s> スーパー	-0.000000
-4.012317	<s> セット	0.452298
-3.058074	<s> センサー
-4.489438	<s> ソ	-0.243038
-2.749075	<s> ソファ	0.141752
-2.683258	<s> ソフト	-0.336719
-2.741250	<s> タオル	0.134199
-3.489438	<s> タクシー	0.402346
-4.188408	<s> ダウンロード	0.948168
-4.489438	<s> チェック	0.579784
-4.188408	<s> チャレンジ	1.236789
-4.489438	<s> チャンネル
-4.012317	<s> チーム	-0.199040
-3.790468	<s> テスト	0.441124
-2.984288	<s> テニス	-0.234987
-2.540048	<s> テレビ	-0.235895
-2.690098	<s> テーブル	-0.052776
-2.704108	<s> ディスプレイ	-0.287457
-2.799242	<s> デパート	-0.160004
-2.887378	<s> データ	0.269208
-2.525650	<s> トイレ	0.012965
-3.887378	<s> トレーニング	0.461327
-3.042280	<s> ドラマ	-0.004670
-2.718586	<s> ナイフ	-0.515817
-3.109227	<s> ニュース	-0.124939
-2.690098	<s> ネットワーク	-0.133539
-3.644340	<s> バス	0.493512
-3.535196	<s> バスケットボール	-0.077605
-2.765162	<s> バッグ	0.162727
-4.489438	<s> パスタ
-4.188408	<s> パスワード	0.096910
-2.676525	<s> パソコン	-0.383846
-4.188408	<s> パパ	-0.176091
-2.530397	<s> パン	-0.069191
-2.733563	<s> パーキング	-0.000000
-2.781868	<s> ビル	-0.392800
-2.718586	<s> ビール	-0.169142
-2.711287	<s> ピアノ	-0.068293
-2.704108	<s> ファイル	-0.281135
-4.489438	<s> フェ	-0.176091
-2.711287	<s> フォルダ
-2.704108	<s> フォーク	-0.329059
-2.757044	<s> ブーツ	0.103070
-2.626115	<s> プリンター
-4.012317	<s> プリント	1.146128
-4.188408	<s> プレゼント	-0.191886
-3.058074	<s> プログラム	0.218944
-2.866189	<s> プロジェクト	-0.133802
-2.468249	<s> プール	-0.310092
-2.898374	<s> ペン	0.197191
-2.378848	<s> ホテル	-0.420952
-3.790468	<s> ホーム	-0.202420
-2.733563	<s> ボトル	-0.372912
-3.887378	<s> ポケット
-2.733563	<s> マイク	0.161368
-2.614377	<s> マウス
-2.876654	<s> マニュアル	0.306170
-4.188408	<s> マラソン	-0.228479
-2.765162	<s> マンション	-0.308717
-2.733563	<s> ミルク	-0.168792
-4.188408	<s> メモ	0.784142
-2.711287	<s> メモリ
-2.876654	<s> メール	-0.528274
-3.343310	<s> モニター	0.024824
-3.058074	<s> モーター
-4.489438	<s> ヨガ	-0.234083
-2.765162	<s> ラジオ	-0.278754
-3.790468	<s> ラーメン	-0.020203
-4.489438	<s> リスト	-0.255273
-4.489438	<s> リセット	0.778151
-2.382228	<s> レストラン	-0.386511
-4.489438	<s> レテ
-3.091498	<s> レポート	0.460731
-4.188408	<s> ロ	-0.330993
-4.489438	<s> ログアウト	1.525045
-4.489438	<s> ログイン	1.060698
-3.410257	<s> ロケ	-0.273001
-2.711287	<s> ロビー	-0.162727
-2.957959	<s> ロボット	-0.298251
-3.887378	<s> ワイン	-0.154902
-2.602947	<s> 一	-0.145405
-3.586348	<s> 一つ	-0.284640
-4.188408	<s> 一切	-0.204120
-3.711287	<s> 一度	-0.028029
-3.644340	<s> 一方	-0.137528
-3.887378	<s> 一番	-0.240734
-3.790468	<s> 一緒	-0.346787
-2.933136	<s> 一般	0.027860
-3.343310	<s> 上	-0.380954
-2.382228	<s> 上司	-0.242404
-3.586348	<s> 下	-0.369295
-3.711287	<s> 不	-0.101458
-4.188408	<s> 不安	-0.228479
-3.711287	<s> 不思議	-0.208276
-3.058074	<s> 世界	-0.259054
-3.448045	<s> 中	-0.262704
-3.586348	<s> 中央	-0.370264
-3.586348	<s> 中心	-0.209515
-4.012317	<s> 主人	-0.293205
-4.188408	<s> 久しぶり
-4.188408	<s> 乗り換え
-3.790468	<s> 九	-0.191886
-4.489438	<s> 予定	-0.079181
-2.876654	<s> 予算	-0.266268
-3.711287	<s> 予約	-0.380211
-3.887378	<s> 事実	-0.282547
-2.704108	<s> 二	-0.150828
-3.711287	<s> 二つ	-0.430125
-4.188408	<s> 五	-0.259637
-3.644340	<s> 亜	-0.069636
-4.188408	<s> 交換	-0.380211
-1.959238	<s> 京都	-0.172749
-3.058074	<s> 人	-0.346628
-3.887378	<s> 人々	-0.146128
-4.012317	<s> 人気	0.069636
-2.876654	<s> 人間	-0.176009
-2.876654	<s> 今	0.027720
-4.188408	<s> 今年
-3.887378	<s> 今度	0.057992
-2.229367	<s> 今日	-0.063576
-2.855970	<s> 仕事	-0.174646
-4.012317	<s> 仕方	-0.167491
-2.808197	<s> 他	-0.103541
-3.448045	<s> 以上	-0.308717
-2.845985	<s> 企画	-0.304856
-4.489438	<s> 伊
-4.188408	<s> 休み	-0.124939
-4.188408	<s> 休憩	-0.275476
-2.476601	<s> 会社	-0.215255
-4.188408	<s> 似	-0.166331
-4.489438	<s> 低い	-0.284640
-4.489438	<s> 住む	-0.283301
-2.876654	<s> 体	-0.569068
-4.188408	<s> 体操	-0.414973
-4.489438	<s> 体温
-2.540048	<s> 体育館	-0.273850
-2.836226	<s> 何	-0.028876
-3.234166	<s> 作成	-1.218056
-4.188408	<s> 使う	-0.297972
-4.489438	<s> 使わ	0.086691
-3.012317	<s> 使用	-0.510459
-3.535196	<s> 保存	-0.243038
-2.998076	<s> 信号	-0.308391
-3.188408	<s> 修正	-0.816610
-3.489438	<s> 個人	-0.182931
-3.790468	<s> 健康	-0.162727
-2.866189	<s> 傘	-0.009340
-3.058074	<s> 僕	-0.050463
-4.188408	<s> 僕ら	-0.124939
-3.535196	<s> 元気	0.325558
-1.985647	<s> 兄	-0.411703
-4.489438	<s> 充電	-0.249877
-2.231760	<s> 先生	-0.361460
-2.206137	<s> 先輩	-0.522457
-4.489438	<s> 兎	-0.176091
-4.489438	<s> 入	-0.176091
-4.489438	<s> 入る	-0.285236
-4.489438	<s> 入学	-0.243038
-4.489438	<s> 入院	-0.273001
-3.887378	<s> 全く	-0.260601
-2.733563	<s> 全て	-0.068084
-3.586348	<s> 全体	-0.024824
-4.012317	<s> 全然	-0.141329
-4.012317	<s> 全部	-0.096910
-4.188408	<s> 八	-0.124939
-2.554940	<s> 公園	-0.259477
-2.845985	<s> 兵庫	0.027438
-3.343310	<s> 具体	0.079181
-3.109227	<s> 内容	-0.462398
-3.790468	<s> 円	-0.088941
-2.676525	<s> 写真	-0.142940
-4.489438	<s> 出る	-0.285236
-4.489438	<s> 出勤	-0.285790
-4.489438	<s> 出来る	-0.269996
-4.489438	<s> 出発	-0.176091
-4.012317	<s> 刃	-0.146128
-4.489438	<s> 切	-0.221849
-3.711287	<s> 初めて	-0.123928
-4.188408	<s> 判断	-0.234083
-4.489438	<s> 利他
-3.887378	<s> 利用	-0.094786
-4.489438	<s> 割	-0.243038
-3.644340	<s> 力	-0.340257
-4.489438	<s> 加	-0.221849
-3.790468	<s> 労働	-0.176091
-3.535196	<s> 勉強	-0.408060
-4.012317	<s> 動く	-0.227244
-3.535196	<s> 動物	-0.055517
-3.644340	<s> 動画	-0.166331
-3.711287	<s> 勝つ	-0.070581
-2.362333	<s> 化学	-0.365091
-2.575624	<s> 北海道	0.100938
-4.489438	<s> 区	-0.293851
-4.489438	<s> 医	-0.277549
-3.790468	<s> 医者	-0.200915
-3.887378	<s> 十	-0.096910
-2.773435	<s> 千葉	-0.156031
-2.188408	<s> 午前
-2.201636	<s> 午後	-0.017853
-4.012317	<s> 卒業	-0.274047
-3.109227	<s> 卒論	0.766413
-4.489438	<s> 協力	-0.277549
-3.711287	<s> 南	-0.210853
-4.489438	<s> 単なる	-0.176091
-3.074465	<s> 単位	0.326477
-4.188408	<s> 博物館	-0.251812
-4.188408	<s> 印刷	-0.380211
-4.012317	<s> 即ち	-0.146128
-3.790468	<s> 卵	-0.088941
-3.887378	<s> 原因	-0.215367
-3.711287	<s> 参加	-0.438492
-3.790468	<s> 友人	-0.258761
-2.222266	<s> 友達	-0.404744
-3.586348	<s> 反対	-0.176091
-4.489438	<s> 取り	-0.291887
-4.489438	<s> 取る	-0.243038
-3.012317	<s> 口	-0.353192
-3.109227	<s> 古い	-0.349124
-4.489438	<s> 句	-0.221849
-4.489438	<s> 可	-0.263241
-2.565159	<s> 台所	-0.166883
-4.012317	<s> 台風	0.079181
-3.790468	<s> 右	-0.176091
-4.489438	<s> 合っ	-0.176091
-4.489438	<s> 合格	-0.267606
-4.489438	<s> 合理
-3.586348	<s> 同じ	-0.253106
-2.417556	<s> 同僚	-0.128823
-3.535196	<s> 同時に	-0.064117
-3.410257	<s> 名	-0.469769
-2.876654	<s> 名刺	0.335792
-3.127710	<s> 名前	-0.327265
-4.489438	<s> 向こう	-0.176091
-3.313347	<s> 君	0.021189
-4.188408	<s> 否定	-0.431364
-4.489438	<s> 味噌汁	0.176091
-3.790468	<s> 命令	-0.163126
-3.074465	<s> 和歌山	0.121044
-4.188408	<s> 品	-0.066947
-3.887378	<s> 哲学	0.084321
-2.799242	<s> 商品	-0.291185
-3.535196	<s> 問題	-0.153967
-3.058074	<s> 回路
-4.188408	<s> 図	-0.253605
-2.502666	<s> 図書館	-0.179235
-3.790468	<s> 国	-0.100115
-3.644340	<s> 国家	-0.279632
-3.313347	<s> 国際	-0.110698
-4.489438	<s> 圓
-4.489438	<s> 圧死
-3.790468	<s> 地	-0.296067
-4.012317	<s> 地図	-0.247784
-3.410257	<s> 地域	-0.280301
-3.188408	<s> 地球	-0.097981
-4.489438	<s> 城	-0.284640
-4.012317	<s> 基	-0.505150
-3.027040	<s> 基板
-2.817340	<s> 埼玉	0.050167
-3.210685	<s> 報告	-0.981936
-4.188408	<s> 場合	-0.459747
-4.188408	<s> 場所	-0.264307
-4.489438	<s> 塗
-4.489438	<s> 増え	-0.243038
-4.188408	<s> 変わら	0.511883
-3.167219	<s> 変更	-0.722383
-3.887378	<s> 夏休み	0.051153
-2.296314	<s> 夕方	-0.019453
-3.489438	<s> 外国	0.090177
-3.644340	<s> 多
-2.192773	<s> 夜	-0.085337
-3.375495	<s> 夢	-0.039767
-3.042280	<s> 大	-0.052852
-3.109227	<s> 大きい	-0.475962
-4.188408	<s> 大きく	-0.228479
-3.711287	<s> 大きな	-0.216019
-4.188408	<s> 大丈夫	-0.141329
-4.188408	<s> 大事	-0.104735
-3.109227	<s> 大分	0.176091
-3.887378	<s> 大切	0.124939
-4.012317	<s> 大地	-0.154902
-3.887378	<s> 大変	-0.352183
-3.535196	<s> 大好き	-0.552263
-2.399533	<s> 大学	0.082294
-4.489438	<s> 大枝
-1.969610	<s> 大阪	-0.222895
-3.887378	<s> 天気	-0.149762
-2.765162	<s> 太陽	-0.325915
-3.285318	<s> 失敗	-0.259637
-4.188408	<s> 失礼	-0.057992
-2.855970	<s> 契約	-0.249306
-3.313347	<s> 女	-0.213075
-3.586348	<s> 女の子	-0.244277
-2.855970	<s> 女性	-0.277601
-2.015222	<s> 妹	-0.471463
-2.013767	<s> 姉	-0.449729
-4.489438	<s> 始まり	-0.277549
-4.489438	<s> 始め	-0.263241
-4.489438	<s> 姫	-0.051153
-3.887378	<s> 姿	0.096370
-2.855970	<s> 娘	-0.603013
-3.887378	<s> 媒介	-0.330993
-3.127710	<s> 子	-0.609579
-2.062927	<s> 子供	-0.128377
-4.489438	<s> 存在	-0.057992
-4.489438	<s> 季	-0.221849
-2.413891	<s> 学校	-0.449881
-2.163102	<s> 学生	-0.184985
-3.448045	<s> 宇宙	-0.120391
-4.489438	<s> 守る	-0.259637
-4.188408	<s> 安	-0.176091
-3.313347	<s> 安い	-0.343354
-4.489438	<s> 安心	-0.079181
-3.091498	<s> 完了	-0.753520
-3.644340	<s> 完全	-0.253696
-3.410257	<s> 宗教	0.009760
-3.489438	<s> 実在
-3.167219	<s> 実行	-0.711119
-3.188408	<s> 実際	0.115393
-3.711287	<s> 実験	-0.373515
-4.188408	<s> 宮	-0.191886
-2.480838	<s> 家	-0.688620
-2.177684	<s> 家族	-0.371591
-3.074465	<s> 宿題	0.754239
-3.210685	<s> 寒い	-0.344685
-3.790468	<s> 寝	0.012234
-4.188408	<s> 寝る	-0.441503
-3.188408	<s> 対応	-0.142885
-4.012317	<s> 対立	-0.176091
-3.887378	<s> 対象	-0.213880
-3.058074	<s> 将来	-0.231949
-3.535196	<s> 小	-0.110698
-2.970924	<s> 小さい	-0.389340
-3.644340	<s> 小さな	-0.181055
-4.012317	<s> 小林
-2.464132	<s> 少し	-0.052377
-3.448045	<s> 少年	-0.333468
-3.489438	<s> 尾	-0.204120
-2.530397	<s> 屋上	-0.257226
-2.718586	<s> 山	-0.359181
-2.855970	<s> 岐阜	-0.015680
-2.836226	<s> 岡山	-0.008955
-2.749075	<s> 川	0.003433
-4.012317	<s> 州都
-2.530397	<s> 工場	-0.064617
-3.887378	<s> 市	-0.279965
-4.489438	<s> 布団
-4.188408	<s> 師	-0.213880
-4.489438	<s> 帰る	-0.300301
-4.489438	<s> 帰省	-0.221849
-4.489438	<s> 常識	-0.266268
-2.808197	<s> 帽子	0.097436
-3.711287	<s> 幸せ	-0.187087
-3.234166	<s> 広い	-0.318104
-2.733563	<s> 広島	-0.193030
-4.188408	<s> 序	-0.255273
-2.516310	<s> 店	-0.504835
-4.489438	<s> 座っ
-2.485117	<s> 庭	-0.507066
-3.586348	<s> 廃	-0.356547
-4.012317	<s> 建物	-0.285966
-2.898374	<s> 弁当	0.362548
-4.012317	<s> 引き分け	-0.288796
-2.009431	<s> 弟	-0.498732
-4.012317	<s> 強い	-0.284431
-4.489438	<s> 強く	-0.281725
-4.012317	<s> 形	-0.187087
-2.163102	<s> 彼	-0.195173
-3.109227	<s> 彼ら	-0.074872
-2.210685	<s> 彼女	-0.003986
-3.711287	<s> 待っ	0.301030
-4.489438	<s> 待つ	-0.243038
-2.194972	<s> 後輩	-0.520928
-4.489438	<s> 徐
-4.188408	<s> 御	-0.204120
-4.489438	<s> 徳	-0.176091
-3.127710	<s> 徳島	0.146128
-3.448045	<s> 心	0.014358
-3.790468	<s> 心配	-0.141972
-4.188408	<s> 必ず	-0.255273
-3.887378	<s> 必要	-0.406265
-4.012317	<s> 忘れ	-0.075721
-2.898374	<s> 忘れ物	0.369385
-4.489438	<s> 忙しい	-0.243038
-4.188408	<s> 急	-0.124939
-4.489438	<s> 急い
-4.012317	<s> 性	-0.129960
-3.790468	<s> 怪我	0.021189
-4.012317	<s> 悪い	-0.256063
-4.489438	<s> 悪寒
-3.790468	<s> 悪魔	-0.124939
-2.389068	<s> 情報	-0.435729
-4.489438	<s> 想像	-0.268845
-3.887378	<s> 意識	-0.209260
-4.489438	<s> 愚
-3.109227	<s> 愛	-0.356981
-2.921236	<s> 愛知	0.010995
-4.489438	<s> 憎悪	-0.176091
-3.887378	<s> 成功	-0.019305
-2.876654	<s> 成績	0.091347
-3.711287	<s> 成長	-0.440692
-4.012317	<s> 我	-0.221849
-3.375495	<s> 我々	-0.084321
-3.448045	<s> 戦争	-0.239104
-4.489438	<s> 所	-0.283301
-3.448045	<s> 手	-0.320104
-2.876654	<s> 手紙	0.171446
-4.489438	<s> 手続き
-3.790468	<s> 手術	-0.200915
-3.210685	<s> 承認	-0.947760
-4.012317	<s> 技	-0.138303
-3.887378	<s> 技術	-0.271067
-4.489438	<s> 把
-2.355899	<s> 担当	-1.002683
-4.188408	<s> 挨拶	-0.228479
-4.012317	<s> 掃除	-0.279841
-3.644340	<s> 授業	-0.205249
-4.188408	<s> 探偵	-0.221849
-4.489438	<s> 接種
-2.876654	<s> 提案	-0.586820
-3.711287	<s> 携帯	-0.434924
-3.644340	<s> 改札	0.176091
-3.535196	<s> 政治	-0.297396
-4.489438	<s> 故	-0.176091
-4.489438	<s> 故に
-4.012317	<s> 教え	-0.255273
-2.511715	<s> 教室	-0.267711
-3.790468	<s> 教師	-0.176091
-2.197182	<s> 教授	-0.725321
-3.109227	<s> 教科書	0.808886
-3.586348	<s> 教育	-0.143422
-2.362333	<s> 数学	-0.298369
-3.711287	<s> 文化	-0.228479
-4.012317	<s> 文章	-0.104735
-4.489438	<s> 斗	-0.234083
-2.549919	<s> 料理	-0.418330
-4.489438	<s> 斬
-3.167219	<s> 新しい	-0.285217
-4.489438	<s> 新幹線	-0.221849
-2.887378	<s> 新潟	-0.062926
-2.826680	<s> 新聞	0.001636
-4.489438	<s> 方向	-0.271067
-4.188408	<s> 方法	-0.134082
-4.012317	<s> 旅行	-0.324511
-4.489438	<s> 旗	-0.255273
-4.188408	<s> 既に	-0.234083
-3.535196	<s> 日	-0.436981
-4.012317	<s> 日常
-2.246400	<s> 日本	-0.247820
-2.845985	<s> 日本人	-0.386945
-2.855970	<s> 日本語	-0.007361
-4.489438	<s> 早く	-0.263241
-4.489438	<s> 昇
-4.489438	<s> 明らか	0.247784
-2.165156	<s> 明日	-0.035510
-3.711287	<s> 昔	0.096910
-2.726010	<s> 星	-0.007687
-2.580953	<s> 映画	-0.225104
-2.181942	<s> 昨日	0.000000
-4.188408	<s> 是
-2.147015	<s> 昼	0.047547
-3.410257	<s> 時	-0.307746
-3.586348	<s> 時代	-0.238882
-2.909655	<s> 時計	0.153584
-3.586348	<s> 時間	-0.301030
-2.921236	<s> 晩	-0.549820
-3.343310	<s> 普通	-0.091515
-4.188408	<s> 暇	-0.255273
-3.127710	<s> 暑い	-0.363802
-4.489438	<s> 書い	0.096910
-4.489438	<s> 書く	-0.292531
-2.855970	<s> 書類	0.069636
-3.167219	<s> 最も	-0.212415
-3.285318	<s> 最初	0.009760
-3.586348	<s> 最大	-0.176091
-3.091498	<s> 最後	-0.255273
-3.887378	<s> 最高	-0.243038
-2.718586	<s> 月	-0.300719
-4.489438	<s> 月曜日	0.176091
-4.489438	<s> 有	-0.249877
-3.711287	<s> 有名	-0.781188
-2.876654	<s> 服	0.044038
-2.093239	<s> 朝	-0.010894
-2.757044	<s> 木	-0.001337
-3.535196	<s> 未来	-0.129095
-2.697046	<s> 本	-0.050410
-3.313347	<s> 本当に	-0.139497
-3.042280	<s> 材料	-0.491362
-3.644340	<s> 村	-0.022276
-4.188408	<s> 村長	-0.176091
-4.489438	<s> 来	-0.237361
-4.489438	<s> 来る	-0.300349
-3.489438	<s> 東	-0.161851
-1.665312	<s> 東京	-0.331465
-4.489438	<s> 林	-0.259637
-3.790468	<s> 柄	-0.439333
-4.489438	<s> 校庭
-4.188408	<s> 根	-0.146128
-4.012317	<s> 桜	-0.176091
-2.697046	<s> 森	-0.283057
-4.188408	<s> 検査	-0.057992
-3.210685	<s> 検討	-1.231247
-4.489438	<s> 業務	-0.261521
-4.012317	<s> 楽しい	-0.124939
-4.188408	<s> 楽しみ	-0.196295
-4.489438	<s> 概念	-0.285236
-3.790468	<s> 構造	-0.425969
-3.058074	<s> 横浜	0.449282
-4.188408	<s> 機	-0.256448
-2.876654	<s> 機械	0.023912
-2.845985	<s> 次	-0.301030
-4.489438	<s> 欧
-4.489438	<s> 止まる	-0.297752
-4.188408	<s> 歩き	-0.419129
-4.012317	<s> 歩く	-0.297377
-3.790468	<s> 歯	0.138303
-4.489438	<s> 歯医者
-3.644340	<s> 歴史	-0.216709
-3.586348	<s> 死	-0.163161
-4.188408	<s> 残っ	0.383217
-3.109227	<s> 母親	-0.319513
-2.219925	<s> 毎日	-0.064006
-2.163102	<s> 毎晩
-2.171375	<s> 毎朝	0.000000
-4.489438	<s> 比較	-0.297777
-2.998076	<s> 気	-0.116432
-3.147015	<s> 気持ち	-0.884607
-2.866189	<s> 水	0.015794
-4.489438	<s> 水族館	-0.221849
-4.489438	<s> 水泳	-0.283301
-4.489438	<s> 永	-0.243038
-3.234166	<s> 決定	-1.222435
-3.313347	<s> 沖縄	-0.158180
-4.012317	<s> 法律	-0.176091
-4.489438	<s> 泣く	-0.297650
-4.489438	<s> 注射
-3.887378	<s> 注意	-0.177645
-4.012317	<s> 注文	-0.193820
-3.887378	<s> 泳ぐ	-0.460480
-4.188408	<s> 洗濯
-2.676525	<s> 海	-0.030535
-4.188408	<s> 渋滞
-4.489438	<s> 渡
-3.234166	<s> 温泉	-0.033241
-4.489438	<s> 測定	-0.297302
-4.188408	<s> 湖	-0.221849
-4.489438	<s> 湯	-0.266268
-4.489438	<s> 満足	-0.037789
-2.855970	<s> 準備	-1.053578
-4.489438	<s> 瀬	-0.176091
-3.790468	<s> 火	-0.079181
-3.410257	<s> 炉	-0.243038
-4.012317	<s> 炎	-0.096910
-3.711287	<s> 無	-0.259637
-4.489438	<s> 無限	-0.176091
-4.489438	<s> 煮	-0.176091
-3.074465	<s> 熊本	-0.748188
-3.790468	<s> 熱
-2.945370	<s> 父	-0.587460
-3.711287	<s> 物事	0.087150
-2.421252	<s> 物理	-0.214670
-4.188408	<s> 物質	-0.176091
-3.012317	<s> 特に	-0.136190
-4.012317	<s> 特殊	-0.124939
-2.608625	<s> 犬	-0.762630
-3.790468	<s> 状態	-0.433370
-3.887378	<s> 状況	-0.234083
-3.234166	<s> 独立	-0.172682
-4.489438	<s> 狭い	-0.249877
-2.614377	<s> 猫	-0.739857
-2.560019	<s> 玄関	-0.251315
-3.586348	<s> 王	-0.308518
-2.120222	<s> 現在	-0.216208
-3.887378	<s> 現実	0.034762
-3.343310	<s> 理由	-0.618247
-3.790468	<s> 理論	-0.181844
-3.790468	<s> 環境	-0.109144
-3.343310	<s> 生まれ	-0.644164
-3.887378	<s> 生命	-0.233278
-4.188408	<s> 生活	-0.456437
-3.711287	<s> 生物	-0.261720
-4.012317	<s> 田
-3.887378	<s> 田舎	-0.171682
-4.188408	<s> 由乃
-3.234166	<s> 申請	-1.212376
-3.058074	<s> 男	-0.402136
-4.012317	<s> 町	-0.273001
-4.012317	<s> 画面	-0.146128
-4.489438	<s> 留守	-0.176091
-4.489438	<s> 疲れ	-0.259637
-3.586348	<s> 病気	-0.132427
-2.502666	<s> 病院	-0.249987
-4.489438	<s> 痔	-0.176091
-4.489438	<s> 痛い	-0.221849
-3.210685	<s> 登録	-0.961946
-4.012317	<s> 的	-0.161062
-3.535196	<s> 監督	-0.410857
-3.167219	<s> 目	-0.274296
-4.489438	<s> 目上
-2.799242	<s> 目標	-0.104018
-3.790468	<s> 目的	-0.394306
-4.188408	<s> 相	-0.187087
-3.210685	<s> 相手	-0.072551
-3.210685	<s> 相談	-0.954756
-3.127710	<s> 県	-0.921956
-4.188408	<s> 眼科
-2.773435	<s> 眼鏡	0.141329
-4.012317	<s> 瞬間	-0.301030
-4.188408	<s> 矢	-0.176091
-4.489438	<s> 知
-4.012317	<s> 知ら	-0.070038
-3.790468	<s> 知識	-0.136220
-3.887378	<s> 研究	-0.359113
-3.210685	<s> 確認	-0.952213
-2.410257	<s> 社長	-0.509306
-2.307595	<s> 神奈川	-0.465913
-2.549919	<s> 神社	-0.271795
-4.489438	<s> 禍	-0.176091
-2.620206	<s> 福岡	0.137289
-3.188408	<s> 福島	-0.583577
-2.540048	<s> 私	0.008433
-4.489438	<s> 科	-0.289749
-3.313347	<s> 科学	-0.116215
-4.188408	<s> 秘密	-0.022276
-3.127710	<s> 移動	-0.212608
-4.012317	<s> 種	-0.218843
-2.711287	<s> 空	0.034164
-4.489438	<s> 空気	-0.255273
-2.511715	<s> 空港	-0.370666
-2.575624	<s> 窓	-0.373137
-3.887378	<s> 立派	0.096910
-4.188408	<s> 笑う	-0.470116
-3.887378	<s> 笑顔	-0.176091
-3.210685	<s> 等	-0.371256
-3.887378	<s> 答え	-0.414973
-3.042280	<s> 管理	-0.667261
-4.489438	<s> 箭
-3.790468	<s> 簡単	-0.322219
-3.343310	<s> 精神	-0.255273
-3.887378	<s> 約束	-0.090177
-3.711287	<s> 紅葉
-4.012317	<s> 紗	-0.301030
-2.876654	<s> 紙	-0.071592
-4.188408	<s> 紳士	-0.124939
-4.489438	<s> 終わっ
-4.489438	<s> 終わり	-0.268845
-4.489438	<s> 経済	-0.252725
-4.489438	<s> 経験	-0.290035
-4.188408	<s> 結合	-0.176091
-3.210685	<s> 結婚	-0.085927
-4.489438	<s> 結婚式	-0.176091
-4.012317	<s> 結局	-0.096910
-3.091498	<s> 結果	-0.345234
-4.489438	<s> 統一	-0.243038
-3.258989	<s> 絵	-0.079181
-4.012317	<s> 絶対	-0.233130
-4.489438	<s> 続け	-0.072551
-4.188408	<s> 綺麗	-0.255273
-3.586348	<s> 緑	-0.342423
-3.711287	<s> 練習	-0.081510
-3.887378	<s> 美しい	-0.208276
-2.570360	<s> 美術館	-0.384022
-3.167219	<s> 群馬	0.037789
-3.586348	<s> 義	-0.133894
-3.887378	<s> 羽	-0.025554
-3.790468	<s> 考え	-0.081535
-4.489438	<s> 考える	-0.285236
-3.644340	<s> 耳	-0.079181
-4.489438	<s> 聞く	-0.255273
-3.711287	<s> 肉	-0.029963
-4.489438	<s> 肢
-4.489438	<s> 胃
-2.957959	<s> 背	0.044582
-3.109227	<s> 胸	-0.255273
-4.188408	<s> 膝	-0.191886
-4.188408	<s> 自	-0.124939
-2.808197	<s> 自分	-0.101070
-4.012317	<s> 自己	-0.313619
-3.489438	<s> 自由	-0.242260
-3.535196	<s> 自身	-0.057992
-3.448045	<s> 自転車	0.325854
-4.489438	<s> 興味	-0.198368
-4.489438	<s> 良	-0.243038
-4.489438	<s> 良い	-0.291485
-2.485117	<s> 花	-0.040277
-4.012317	<s> 芽	-0.096910
-4.188408	<s> 苦労	0.221849
-2.277251	<s> 英語	-0.683052
-3.285318	<s> 茨城
-3.887378	<s> 茶	-0.124939
-4.489438	<s> 茶々	-0.176091
-2.845985	<s> 荷物	0.347230
-3.410257	<s> 葉	-0.096910
-4.489438	<s> 蒼
-2.898374	<s> 薬	0.035633
-4.188408	<s> 藍	-0.124939
-2.656929	<s> 虫	-1.033102
-4.489438	<s> 蚊
-4.489438	<s> 血	-0.228479
-4.489438	<s> 行う	-0.260601
-4.489438	<s> 行っ	0.176091
-3.711287	<s> 行動	-0.323306
-3.644340	<s> 街	-0.228944
-4.489438	<s> 衣	-0.243038
-4.012317	<s> 表情
-4.489438	<s> 表現	-0.292912
-3.042280	<s> 装置	-0.677251
-3.644340	<s> 製作	-0.347135
-4.012317	<s> 西	-0.318759
-3.790468	<s> 要	-0.010995
-4.489438	<s> 要求	-0.096910
-4.489438	<s> 要素	-0.149762
-3.410257	<s> 見	-0.375326
-4.012317	<s> 見学	-0.176091
-2.876654	<s> 見積	0.316270
-4.489438	<s> 覚え	-0.041393
-3.535196	<s> 観光	0.103749
-4.489438	<s> 解決	-0.255273
-4.489438	<s> 言い	-0.279841
-4.489438	<s> 言う	-0.285236
-3.535196	<s> 言葉	-0.196430
-3.644340	<s> 言語	0.104735
-3.127710	<s> 計画	-0.742154
-3.535196	<s> 計算	-0.559736
-4.012317	<s> 記録	-0.279446
-3.586348	<s> 設計	0.383302
-3.711287	<s> 試合	-0.176091
-3.535196	<s> 試験	-0.025807
-3.489438	<s> 詩	-0.087150
-4.012317	<s> 話	-0.329224
-4.188408	<s> 話す	-0.273592
-4.489438	<s> 話者
-4.012317	<s> 誕生	-0.176091
-4.012317	<s> 語	-0.237361
-3.167219	<s> 説明	-0.712777
-3.644340	<s> 読み	-0.221849
-3.285318	<s> 読書	-0.422625
-3.188408	<s> 誰	0.027693
-2.417556	<s> 課長	-0.232488
-3.109227	<s> 課題	0.044017
-4.489438	<s> 調整	-0.297569
-3.074465	<s> 論文	0.160851
-4.489438	<s> 論理	-0.154902
-3.167219	<s> 謎	-0.504395
-4.489438	<s> 負ける	-0.243038
-2.855970	<s> 財布	0.258278
-4.188408	<s> 責任	-0.437613
-4.489438	<s> 貴
-4.188408	<s> 買い	1.010724
-4.188408	<s> 買い物	-0.243038
-4.489438	<s> 賀	-0.176091
-2.866189	<s> 資料	-0.734575
-4.489438	<s> 質問	-0.249877
-3.644340	<s> 赤	-0.148705
-2.998076	<s> 赤い	-0.399990
-3.790468	<s> 赤ちゃん	-0.066947
-4.188408	<s> 走っ
-4.012317	<s> 走る	-0.395827
-1.750658	<s> 趣味	-1.318860
-4.489438	<s> 路
-4.012317	<s> 身	-0.166331
-3.790468	<s> 身体	-0.215115
-3.644340	<s> 車	-0.122647
-4.188408	<s> 返事	0.176091
-4.489438	<s> 退院	-0.176091
-3.127710	<s> 連絡	-0.677939
-4.489438	<s> 週末	-0.176091
-4.489438	<s> 遊び	-0.293343
-4.489438	<s> 遊ぶ	-0.281434
-4.188408	<s> 運	-0.228479
-3.644340	<s> 運動	-0.243038
-3.790468	<s> 運転	-0.176091
-3.711287	<s> 道	-0.261102
-4.012317	<s> 道具	-0.337242
-3.410257	<s> 達成	-0.325389
-4.489438	<s> 違い	-0.266268
-4.012317	<s> 違う	-0.264307
-4.489438	<s> 適応	0.176091
-3.790468	<s> 選挙	0.695741
-4.012317	<s> 避暑
-2.406653	<s> 部下	-0.510644
-2.525650	<s> 部屋	-0.247447
-2.382228	<s> 部長	-0.817682
-3.887378	<s> 都	-0.291708
-3.058074	<s> 配線	-0.272066
-4.188408	<s> 酢	-0.255273
-3.147015	<s> 野球	-0.190332
-4.188408	<s> 野田	-0.176091
-2.876654	<s> 野菜	0.287242
-4.012317	<s> 金曜日	-0.301030
-3.887378	<s> 銀行	-0.249877
-4.012317	<s> 録音	-0.301030
-2.933136	<s> 鍵	0.165872
-3.210685	<s> 長い	-0.313608
-2.898374	<s> 長野	-0.681241
-4.188408	<s> 開け	0.124939
-3.448045	<s> 開発	-0.199572
-4.188408	<s> 間違い	-0.243038
-3.489438	<s> 関係	-0.713210
-4.188408	<s> 降り	-0.204120
-4.489438	<s> 限定	-0.283997
-4.489438	<s> 院	-0.176091
-2.197182	<s> 院生
-4.188408	<s> 陰
-3.887378	<s> 階段	-0.124939
-3.790468	<s> 隣	0.176091
-4.188408	<s> 雄	-0.176091
-4.489438	<s> 集め	-0.246672
-4.489438	<s> 雑魚
-4.012317	<s> 離れ	-0.238239
-4.188408	<s> 難しい	-0.230449
-2.697046	<s> 雨	-0.339948
-2.765162	<s> 雪	0.060481
-3.887378	<s> 雲	-0.176091
-4.489438	<s> 雷雨
-3.042280	<s> 電池	-0.248324
-3.027040	<s> 電源	0.025554
-2.909655	<s> 電話	-0.223425
-3.790468	<s> 電車	0.224940
-3.887378	<s> 青	-0.176091
-3.042280	<s> 青い	-0.424499
-3.285318	<s> 青森	0.176091
-4.188408	<s> 静か	-0.266268
-4.489438	<s> 非	-0.274701
-3.234166	<s> 非常	0.349879
-3.790468	<s> 面白い	-0.138303
-2.898374	<s> 靴	0.083546
-2.836226	<s> 鞄	0.318063
-3.790468	<s> 音声
-2.614377	<s> 音楽	0.040662
-2.790468	<s> 頭	-0.424774
-4.188408	<s> 頼	-0.162727
-2.733563	<s> 風	0.031714
-4.489438	<s> 風呂	-0.104735
-4.489438	<s> 風邪	-0.176091
-4.012317	<s> 飛ぶ	-0.351483
-4.012317	<s> 飛行機	-0.146128
-4.188408	<s> 食べ	-0.205458
-3.586348	<s> 食べる	-0.383143
-3.887378	<s> 食事	-0.231757
-2.540048	<s> 食堂	-0.310926
-2.898374	<s> 食材	0.065063
-4.489438	<s> 飢え	0.301030
-4.188408	<s> 飲む	-0.295498
-3.887378	<s> 首	-0.317420
-3.887378	<s> 首都	-0.146128
-4.012317	<s> 香	-0.531479
-2.676525	<s> 馬	-1.033836
-2.485117	<s> 駅	-0.491362
-3.167219	<s> 高い	-0.377715
-2.998076	<s> 高知	-0.012965
-4.489438	<s> 魅
-4.489438	<s> 魏
-4.012317	<s> 魔	-0.176091
-2.460054	<s> 魚	-0.018445
-2.570360	<s> 鳥	-0.758059
-4.489438	<s> 鳴く	-0.293606
-3.074465	<s> 鹿児島	-0.106053
-4.188408	<s> 黄	-0.249877
-3.711287	<s> 黒い	-0.204120
-3.343310	<s> 黒板	-0.000000
-0.812913	あ </s>
-0.812913	あ さ	-0.299257
-1.113943	あ そう	-0.297204
-1.113943	あ ば	-0.290565
-0.812913	あ や	-0.294690
-0.602060	あそこ は	-0.300783
-0.602060	あそこ まで	-0.300341
-0.845098	あたり </s>
-0.845098	あたり は	-0.299877
-0.544068	あたり も	-0.476286
-0.028194	あっ た	-0.568514
-2.243038	あっ たら	-0.271067
-1.397940	あっ て	-0.425663
-1.301030	あなた が	-0.300375
-1.602060	あなた と	-0.300550
-1.301030	あなた なら	-0.462643
-1.124939	あなた に	-0.298740
-0.698970	あなた の	-0.337679
-0.823909	あなた は	-0.394472
-1.301030	あなた も	-0.294724
-1.602060	あなた よ	0.243038
-1.602060	あなた ら	-0.209260
-1.301030	あなた を	-0.300826
-1.602060	あなた 自身	-0.288441
-1.361728	あの とき	-0.239512
-1.361728	あの よう	0.051918
-0.662758	あの 人	-0.180104
-1.361728	あの 子供	-0.212203
-1.060698	あの 日	-0.188803
-1.361728	あの 時代	-0.293343
-1.361728	あの 男	-0.288193
-1.361728	あの 経験	-0.290035
-1.361728	あの 美術館	-0.298201
-1.819544	あまり い	0.030097
-1.819544	あまり この	-0.299758
-1.819544	あまり でき	0.098610
-1.819544	あまり ない	0.279882
-0.916454	あまり よく	-0.680303
-1.518514	あまり 一般	-0.220159
-1.819544	あまり 上手	-0.176091
-1.819544	あまり 人気	-0.015794
-1.819544	あまり 似	0.062148
-1.041393	あまり 使わ	-0.457377
-1.518514	あまり 使用	-0.271149
-1.819544	あまり 元気	-0.299935
-1.819544	あまり 勉強	-0.286406
-1.819544	あまり 問題	-0.267045
-1.518514	あまり 変わら	0.159701
-1.819544	あまり 大きな	-0.291270
-1.518514	あまり 強く	-0.416423
-1.819544	あまり 日常	-0.109144
-1.819544	あまり 病気	-0.240332
-1.819544	あまり 目	-0.294499
-1.819544	あまり 科学	-0.287666
-1.819544	あまり 練習	-0.286790
-1.342423	あまり 見	-0.562413
-1.819544	あまり 高い	-0.287019
-0.653213	あまりに も	-0.300612
-0.954243	あまりに よく	-0.299622
-0.954243	あまりに 急	-0.249877
-0.954243	あまりに 早く	-0.263241
-0.471726	あり </s>
-1.602060	あり え	-0.367977
-1.602060	あり そう	-0.265314
-1.903090	あり ながら	-0.263241
-1.425969	あり まし	0.592917
-1.204120	あり ます	0.073980
-0.541362	あり ませ	-0.653213
-1.903090	あり ソ	-0.243038
-1.903090	あり 常識	-0.187087
-1.425969	あり 得	-0.538391
-1.903090	あり 研究	-0.276206
-0.020203	ありがとう ござい	0.156786
-0.079339	ある </s>
-3.042182	ある ある	-0.299846
-2.565060	ある か	-0.433974
-3.042182	ある から	-0.292817
-2.565060	ある が	-0.300448
-3.042182	ある くらい	-0.221849
-1.866090	ある こと	-0.140451
-3.042182	ある し	-0.296404
-3.042182	ある ため	-0.156998
-3.042182	ある だけ	-0.143766
-2.139092	ある と	-0.394330
-2.440122	ある という	-0.539040
-3.042182	ある とき	-0.292757
-3.042182	ある ところ	-0.219725
-3.042182	ある なら	-0.293851
-2.197084	ある の	-0.514569
-3.042182	ある もの	-0.235489
-3.042182	ある よ	0.243038
-2.440122	ある よう	1.073107
-2.197084	ある らしい	0.425969
-2.565060	ある ん	-0.219074
-3.042182	ある イベント	-0.261321
-3.042182	ある システム	-0.291270
-2.565060	ある ソフトウェア	-0.221849
-3.042182	ある チーム	-0.082535
-3.042182	ある ラーメン	-0.279841
-3.042182	ある 中	-0.209260
-3.042182	ある 人	-0.274976
-3.042182	ある 兄	-0.106455
-3.042182	ある 哲学	-0.070581
-2.741152	ある 国	-0.388180
-2.741152	ある 地域	-0.270541
-3.042182	ある 地球	-0.249877
-2.741152	ある 場所	-0.251342
-3.042182	ある 夜	-0.290522
-3.042182	ある 大学	-0.283656
-2.741152	ある 小さな	-0.269996
-3.042182	ある 山	-0.292373
-2.741152	ある 市	-0.176299
-3.042182	ある 店	-0.293930
-3.042182	ある 教育	-0.251056
-3.042182	ある 方向	-0.166331
-2.000789	ある 日	-0.683653
-3.042182	ある 時	-0.213880
-3.042182	ある 本	-0.294297
-3.042182	ある 様子	0.041393
-3.042182	ある 歴史	-0.292430
-3.042182	ある 海	-0.298324
-2.741152	ある 温泉	-0.435729
-3.042182	ある 町	-0.255273
-3.042182	ある 目的	-0.221849
-2.741152	ある 秘密	-0.239760
-2.741152	ある 種	-0.190815
-3.042182	ある 者	-0.295278
-3.042182	ある 街	-0.260913
-3.042182	ある 観光	0.090177
-3.042182	ある 週末	-0.176091
-3.042182	ある 部分	-0.273001
-3.042182	ある 雨	-0.273001
-3.042182	ある 雪	-0.297396
-1.204120	あるいは そう	-0.297204
-0.726999	あるいは その	-0.292731
-1.204120	あるいは と	-0.297899
-1.204120	あるいは 刃	-0.255273
-1.204120	あるいは 問題	-0.256826
-1.204120	あるいは 虫	-0.297542
-1.204120	あるいは 行っ	0.176091
-1.342423	あれ が	-0.300957
-1.342423	あれ だ	-0.259291
-0.564271	あれ は	-0.295402
-0.643453	あれ ば	-0.234083
-1.041393	あれ ほど	-0.267606
-1.342423	あれ も	-0.300821
-0.698970	あん ご	-0.273001
-0.397940	あん 子	-0.422764
-0.301030	あー </s>
-0.541729	い た	-0.274062
-2.665581	い たら	-0.271067
-2.665581	い だ	-0.299296
-2.665581	い つ	-0.263241
-1.323158	い て	-0.599826
-0.272884	い ない	-0.351689
-1.386827	い なかっ	0.822822
-2.063521	い なく	-0.105865
-2.665581	い ぬ	-0.243038
-2.063521	い まし	0.496007
-1.665581	い ます	0.026983
-2.364551	い ませ	0.249877
-2.188460	い られ	-0.414973
-2.665581	い 薬	-0.296952
-0.295829	いい </s>
-2.095169	いい か	-0.286655
-2.396199	いい こと	-0.300466
-2.095169	いい し	-0.472495
-2.396199	いい ぜ	0.176091
-2.396199	いい だろ	0.753328
-2.095169	いい で	-0.452098
-2.396199	いい でしょ	0.564271
-1.697229	いい です	0.697094
-1.794139	いい と	-0.470958
-2.396199	いい ところ	-0.290306
-2.095169	いい な	-0.471599
-1.697229	いい の	-0.418823
-2.095169	いい ゆ	-0.204120
-1.919078	いい よ	-0.057992
-1.919078	いい らしい	0.726999
-1.551101	いい ん	-0.220741
-2.095169	いい 人	-0.224261
-2.396199	いい 友人	-0.286790
-2.095169	いい 名前	-0.467470
-2.396199	いい 夢	-0.250620
-1.919078	いい 太陽	-0.236305
-1.919078	いい 子	-0.101990
-2.396199	いい 所	-0.264818
-2.095169	いい 日	-0.468435
-1.919078	いい 星	-0.312166
-2.396199	いい 時代	-0.293343
-1.919078	いい 月	-0.320213
-2.396199	いい 木	-0.027247
-2.396199	いい 森
-2.095169	いい 海	-0.156786
-2.396199	いい 湯	-0.266268
-2.095169	いい 男	-0.274965
-2.396199	いい 目	-0.267347
-1.919078	いい 花	-0.412663
-2.396199	いい 雨	-0.017729
-1.794139	いい 雪	-0.263241
-2.396199	いい 音楽	-0.298774
-2.396199	いい 風	0.031714
-2.396199	いい 馬	-0.294297
-0.301030	いくら か	-0.254149
-0.778151	いくら 走っ	-0.096910
-0.397940	いただき たい	-0.319053
-0.698970	いただき ます	0.275625
-0.263241	いっ た	-0.069393
-0.564271	いっ て	-0.295645
-0.602060	いっしょ </s>
-0.602060	いっしょ に	-0.300704
-1.041393	いっぱい </s>
-0.740363	いっぱい ある	0.478701
-1.041393	いっぱい いる	0.619696
-1.041393	いっぱい に	-0.293627
-1.041393	いっぱい まで	-0.296185
-1.361728	いつ だって	-0.255273
-0.458638	いつ でも	-0.371635
-1.361728	いつ なっ	-0.103070
-1.060698	いつ の	-0.476664
-0.759668	いつ まで	-0.693429
-1.361728	いつ 遊ぶ	-0.294596
-0.055530	いる </s>
-2.891537	いる か	-0.276088
-3.192567	いる から	-0.292817
-2.891537	いる が	-0.300666
-1.761204	いる こと	0.025405
-2.715446	いる ため	-0.121422
-3.192567	いる だけ	-0.143766
-3.192567	いる だろ	0.753328
-2.151175	いる と	-0.330028
-2.715446	いる という	-0.442130
-3.192567	いる とき	-0.292757
-2.891537	いる ところ	-0.420640
-3.192567	いる な	-0.295508
-3.192567	いる なら	-0.293851
-2.016476	いる の	-0.405008
-2.192567	いる もの	-0.197522
-3.192567	いる よ	0.243038
-2.891537	いる よう	-0.124173
-2.151175	いる らしい	0.249877
-2.715446	いる ん	0.034532
-3.192567	いる アパート	-0.293606
-3.192567	いる 一	-0.074001
-3.192567	いる 世界	-0.271928
-3.192567	いる 中	-0.209260
-2.715446	いる 人	-0.319857
-2.891537	いる 人々	-0.406540
-3.192567	いる 以上	-0.262112
-3.192567	いる 会社	-0.299560
-3.192567	いる 兄	-0.106455
-3.192567	いる 内容	-0.289131
-3.192567	いる 割	-0.096910
-3.192567	いる 化学	-0.295239
-2.891537	いる 場合	-0.313619
-3.192567	いる 場所	-0.251342
-3.192567	いる 女	-0.258478
-3.192567	いる 子供	-0.288293
-3.192567	いる 存在	-0.258907
-3.192567	いる 学校	-0.298977
-3.192567	いる 弟	-0.008194
-3.192567	いる 情報	-0.295734
-3.192567	いる 日本	-0.297583
-2.891537	いる 時	-0.447963
-2.715446	いる 普通	-0.361028
-3.192567	いる 最初	-0.124939
-3.192567	いる 本	-0.280508
-3.192567	いる 様子	0.041393
-3.192567	いる 様式	-0.176091
-3.192567	いる 相手	-0.291046
-3.192567	いる 研究	-0.296621
-3.192567	いる 者	-0.096910
-3.192567	いる 音楽	-0.284986
-1.230449	いろいろ と	-0.300670
-0.230449	いろいろ な	-0.329658
-1.230449	いろいろ 元気	0.394671
-1.230449	いろいろ 考え	-0.233033
-0.903090	いろんな こと	-0.282007
-0.903090	いろんな ところ	-0.268030
-0.903090	いろんな 愛	-0.290035
-0.903090	いろんな 経験	-0.230449
-0.954243	いわゆる で	-0.420976
-1.255273	いわゆる の	-0.299771
-1.255273	いわゆる テレビ	-0.290172
-1.255273	いわゆる 宇宙	-0.221849
-1.255273	いわゆる 斑	-0.221849
-1.255273	いわゆる 根	-0.204120
-0.954243	いわゆる 現実	-0.090177
-1.255273	いわゆる 瞬間
-0.211630	う </s>
-1.845098	う お前	-0.279841
-1.000000	う か	-0.735004
-1.544068	う が	-0.298989
-1.845098	う げ	-0.221849
-1.066947	う と	-0.327778
-1.367977	う ね	0.388180
-0.544068	うえ で	-0.300392
-0.845098	うえ なく	-0.294191
-0.845098	うえ ら	-0.209260
-0.245807	うさぎ が	-0.249223
-0.381686	うさぎ を	-0.331893
-0.301030	うまく いっ	0.342423
-0.778151	うまく やる	-0.283997
-0.954243	え だっ	-0.297426
-0.653213	え ない	-0.469249
-0.954243	え 座	0.500602
-0.954243	え 言葉	-0.145277
-1.919078	お </s>
-1.919078	お という	-0.298967
-1.015988	お とも	-0.867092
-1.441957	お ね	0.798355
-1.618048	お ひ	-0.410174
-1.618048	お 休み	-0.191886
-1.919078	お 元気	-0.296632
-1.441957	お 印	-0.505150
-1.618048	お 友達	-0.252725
-1.317018	お 天気	-0.360616
-1.919078	お 姉	-0.299883
-1.618048	お 店	-0.253966
-1.919078	お 弁当	-0.280046
-1.919078	お 教え	-0.278754
-1.919078	お 散歩	0.531479
-1.618048	お 料理	-0.372216
-1.919078	お 時間	-0.284640
-1.919078	お 杏	0.176091
-1.919078	お 栄	-0.176091
-1.919078	お 肉	-0.154902
-1.441957	お 花	-0.269996
-1.919078	お 買い物	-0.176091
-1.919078	お 頭	-0.250474
-0.877685	お 風呂	-0.007825
-1.919078	お 香	-0.278754
-1.919078	お 高い	-0.298726
-0.301030	おい と	-0.300910
-0.143562	おいしい </s>
-2.130334	おいしい と	-0.292180
-2.130334	おいしい らしい	1.028029
-1.653213	おいしい 太陽	-0.236305
-2.130334	おいしい 川	0.039346
-2.130334	おいしい 料理	-0.158983
-1.431364	おいしい 星	-0.488258
-1.653213	おいしい 月	-0.320213
-1.829304	おいしい 木	-0.203338
-1.829304	おいしい 空	-0.191225
-1.653213	おいしい 雨	-0.318759
-2.130334	おいしい 雪	0.134699
-1.829304	おいしい 風	-0.144377
-0.726999	おじいさん が	-0.542942
-0.353882	おじいさん と	-0.303812
-0.639849	おじいさん に	-0.275537
-2.283301	おじいさん は	-0.300948
-0.961082	おじいさん も	-0.228517
-1.041393	おそらく から	-0.298631
-0.740363	おそらく これ	-0.353128
-1.041393	おそらく これから	0.041393
-1.041393	おそらく 最も	-0.273878
-1.041393	おそらく 正しい	-0.204120
-0.096910	おはよう ござい	-0.502675
-0.761761	おばあさん が	-0.518667
-0.322428	おばあさん と	-0.236940
-0.636822	おばあさん に	-0.270442
-0.995844	おばあさん も	-0.228517
-0.698970	おめでとう あり	-0.273001
-0.397940	おめでとう ござい	0.916454
-0.698970	おん じ	-0.243038
-0.397940	おん や	-0.467576
-1.322219	お前 </s>
-1.322219	お前 が	-0.299135
-1.322219	お前 たち	-0.254033
-1.322219	お前 だけ	-0.289894
-1.322219	お前 と	-0.300910
-1.322219	お前 に	-0.300948
-1.322219	お前 の	-0.299312
-1.021189	お前 は	-0.297645
-1.322219	お前 ひとり	-0.255273
-1.322219	お前 も	-0.300821
-0.301030	お客様 に	-0.300867
-2.311754	お母さん </s>
-0.793240	お母さん が	-0.541662
-2.311754	お母さん でしょ	0.564271
-0.329483	お母さん と	-0.243003
-0.639656	お母さん に	-0.271054
-0.989535	お母さん も	-0.228517
-0.791515	お父さん が	-0.627267
-0.357146	お父さん と	-0.223626
-2.296665	お父さん なら	-0.286552
-0.580662	お父さん に	-0.276294
-0.974446	お父さん も	-0.228517
-0.176091	お疲れ様 でし	0.937852
-0.057992	お腹 が	-0.208785
-1.380211	お腹 の	-0.300916
-1.500602	お茶 </s>
-1.375664	お茶 が	-0.260756
-0.863780	お茶 と	-0.323304
-1.977724	お茶 の	-0.299082
-1.278754	お茶 は	-0.256559
-1.199572	お茶 も	-0.282483
-0.229536	お茶 を	-0.271832
-0.477121	お金 が	-0.509290
-1.021189	お金 に	-0.275154
-1.322219	お金 の	-0.299427
-1.322219	お金 は	-0.300948
-0.845098	お金 も	-0.395638
-1.322219	お金 を	-0.300785
-1.342423	お願い </s>
-1.342423	お願い が	-0.300594
-0.166331	お願い し	-0.908201
-1.342423	お願い です	0.370617
-0.493589	か </s>
-2.332438	か あっ	-0.298541
-2.332438	か ある	0.476334
-1.291046	か が	-0.296767
-2.332438	か け	-0.176091
-2.332438	か し	-0.298144
-2.332438	か できる	-0.285139
-1.633468	か と	-0.345532
-2.332438	か という	-0.243919
-1.554287	か どう	-0.757948
-1.487340	か な	-0.464214
-1.730378	か に	-0.292880
-2.332438	か について	-0.169142
-2.332438	か によって	-0.294191
-2.031408	か ね	0.513119
-1.291046	か の	-0.350726
-1.332438	か は	-0.293230
-2.332438	か はっきり	0.263241
-2.332438	か べ	-0.176091
-2.332438	か ほ
-2.332438	か ませ	-0.291887
-2.332438	か よ	-0.291623
-2.332438	か わ	-0.276206
-2.031408	か わかり	-0.367977
-1.487340	か を	-0.289241
-2.332438	か エレベーター	-0.061270
-2.332438	か 一方	-0.274701
-2.332438	か 似	-0.255273
-2.332438	か 少し	-0.298637
-2.332438	か 影響	-0.254033
-2.332438	か 心配	-0.264818
-2.332438	か 方法	-0.241716
-2.332438	か 村	-0.101458
-2.332438	か 来	-0.201645
-2.031408	か 来る	-0.475758
-2.332438	か 決める	-0.296104
-2.332438	か 知ら	-0.204120
-2.332438	か 秘密	-0.063669
-2.332438	か 話し	0.602060
-2.332438	か 負ける	-0.243038
-2.332438	か 車	-0.252725
-2.332438	か 違う	-0.147802
-2.332438	か 青	-0.196295
-2.031408	か 非	-0.422764
-2.332438	か 黄	-0.276206
-0.204120	かかっ た	0.009309
-0.903090	かかっ て	0.037011
-0.778151	かける </s>
-0.477121	かける こと	-0.127890
-1.079181	かける と	-0.300910
-1.079181	かける 瞬間	-0.176091
-1.727398	から </s>
-3.258877	から い	-0.297262
-3.258877	から いろいろ	0.084321
-2.413779	から お茶	-0.516431
-3.258877	から が	-0.300011
-3.258877	から この	-0.299758
-2.258877	から ごはん	-0.555919
-3.258877	から し	-0.299878
-3.258877	から ずっと	-0.273001
-3.258877	から そう	-0.297204
-2.480725	から だ	-0.210986
-2.413779	から で	-0.464796
-3.258877	から でき	-0.287242
-2.957847	から です	-0.429480
-3.258877	から とても	-0.297009
-3.258877	から な	-0.285061
-3.258877	から なる	0.101555
-2.559907	から ね	0.212089
-2.112749	から の	-0.399990
-2.304634	から は	-0.323227
-2.413779	から も	-0.297888
-2.179695	から カフェ	-1.072081
-2.656817	から ギター	-0.445613
-2.781755	から ケーキ	-0.092410
-3.258877	から コーヒー	-0.296284
-3.258877	から ゴルフ	-0.010465
-2.559907	から ジュース	-0.220673
-3.258877	から スタート	-0.277549
-1.767515	から タクシー	-0.716094
-3.258877	から テスト	-0.290172
-1.781755	から バス	-0.883907
-2.413779	から パン	-0.325103
-2.217484	から ピアノ	-0.702730
-2.355787	から プール	-0.918826
-2.559907	から ペン	-0.222743
-2.217484	から ホテル	-1.042779
-2.957847	から ホーム	-0.221849
-2.480725	から レストラン	-0.820274
-2.957847	から 下	-0.262401
-3.258877	から 乗る	-0.289037
-3.258877	から 九	-0.263241
-2.656817	から 五	-0.611820
-2.082785	から 京都	-1.188297
-3.258877	から 人気	-0.015794
-3.258877	から 人間	-0.270271
-2.480725	から 仕事	-0.540688
-3.258877	から 仕方	-0.216709
-2.144933	から 会社	-1.118881
-1.980123	から 体育館	-1.223037
-3.258877	から 何	-0.286307
-3.258877	から 使用	-0.249589
-2.781755	から 傘	-0.251056
-3.258877	から 八	-0.263241
-2.480725	から 公園	-0.812249
-2.656817	から 写真	-0.471258
-2.559907	から 出る	-0.273001
-3.258877	から 利用	-0.279311
-3.258877	から 削除	-0.079181
-3.258877	から 勉強	-0.298144
-2.112749	から 北海道	-1.121190
-2.781755	から 十	-0.273001
-3.258877	から 卒業	-0.285042
-3.258877	から 参加	-0.286944
-3.258877	から 口	-0.295200
-2.082785	から 台所	-1.138689
-2.258877	から 図書館	-1.012873
-3.258877	から 変化	-0.223864
-2.413779	から 大学	-0.888241
-2.112749	から 大阪	-0.867147
-1.916454	から 太陽	-0.995973
-2.656817	から 始まる	1.418301
-2.480725	から 学校	-0.821958
-2.413779	から 家	-0.883785
-3.258877	から 対応	-0.273001
-3.258877	から 少し	-0.298637
-2.480725	から 屋上	-0.812474
-1.860937	から 山	-1.157409
-1.980123	から 川	-0.960654
-2.179695	から 工場	-1.081332
-1.263241	から 帰る	-0.069852
-2.559907	から 帽子	-0.349722
-2.179695	から 店	-1.072081
-2.258877	から 庭	-1.001764
-2.781755	から 弁当	-0.133057
-2.304634	から 忘れ物	-0.434321
-3.258877	から 戻っ	0.066947
-2.957847	から 手紙	-0.088422
-2.304634	から 教室	-0.973441
-2.781755	から 料理	-0.460013
-2.781755	から 新聞	-0.198368
-3.258877	から 旅行	-0.291270
-3.258877	から 既に	-0.268845
-3.258877	から 日本	-0.196763
-1.897149	から 星	-1.090318
-2.957847	から 映画	-0.298875
-2.480725	から 昼	-0.713903
-2.413779	から 時計	-0.498164
-2.781755	から 晩	0.698970
-3.258877	から 最後	-0.247155
-1.936657	から 月	-1.060576
-2.781755	から 服	-0.132626
-2.480725	から 朝	-0.491445
-1.980123	から 木	-1.027247
-2.656817	から 本	-0.404571
-2.258877	から 来	-0.248642
-1.198179	から 来る	-0.490086
-3.258877	から 東	-0.286790
-2.179695	から 東京	-1.104235
-1.916454	から 森	-1.060698
-3.258877	から 楽しみ	-0.234083
-2.957847	から 次	0.630705
-1.250276	から 歩く	-0.191105
-2.957847	から 水	-0.183778
-3.258877	から 決める	-0.296104
-3.258877	から 沖縄	-0.287666
-3.258877	から 法律	-0.263241
-3.258877	から 流れ	-0.141329
-1.753727	から 海	-1.198179
-3.258877	から 炎	-0.243038
-2.781755	から 独立	-0.376400
-2.304634	から 玄関	-0.954243
-2.957847	から 現在	-0.432918
-3.258877	から 疲れ	-0.259637
-2.258877	から 病院	-0.997189
-3.258877	から 発展	0.176091
-2.656817	から 目標	-0.402219
-2.656817	から 眼鏡	-0.302806
-2.217484	から 神社	-1.032813
-1.936657	から 空	-1.056526
-2.355787	から 空港	-0.917678
-2.480725	から 窓	-0.809560
-2.957847	から 紙	-0.152091
-3.258877	から 練習	-0.286790
-2.355787	から 美術館	-0.915941
-1.767515	から 自転車	-0.661181
-1.843903	から 花	-0.725123
-3.258877	から 英語	0.066307
-2.781755	から 荷物	-0.069783
-2.355787	から 薬	-0.537643
-1.281153	から 行く	-0.621243
-3.258877	から 西	-0.282547
-3.258877	から 見	-0.261383
-3.258877	から 見る	-0.257964
-3.258877	から 覚え	-0.255273
-3.258877	から 言い	-0.154902
-3.258877	から 話す	-0.212894
-2.781755	から 読む	-0.391409
-2.258877	から 財布	-0.578995
-1.241843	から 走る	-0.344144
-3.258877	から 返事	-0.124939
-3.258877	から 通勤	0.124939
-2.355787	から 部屋	-0.915414
-3.258877	から 野球	-0.227244
-2.957847	から 野菜	-0.013788
-3.258877	から 金曜日	-0.221849
-3.258877	から 録音	-0.271067
-2.957847	から 鍵	-0.059998
-3.258877	から 開発	-0.217253
-2.957847	から 間違い	-0.352183
-2.656817	から 降りる	-0.443697
-3.258877	から 離れ	-0.187087
-1.860937	から 雨	-0.835294
-1.897149	から 雪	-0.944483
-2.480725	から 電話	-0.308855
-1.767515	から 電車	-0.545386
-3.258877	から 非常	0.592917
-2.559907	から 靴	-0.314394
-2.179695	から 鞄	-0.653213
-2.413779	から 音楽	-0.646916
-1.860937	から 風	-1.082229
-3.258877	から 風呂	-0.237361
-2.217484	から 食堂	-1.033424
-2.304634	から 食材	-0.541362
-3.258877	から 飲む	0.994537
-2.480725	から 駅	-0.820964
-2.480725	から 魚	-0.560305
-1.176091	かわいい </s>
-1.176091	かわいい と	-0.297778
-0.477121	かわいい もの	-0.232284
-0.875061	かわいい 女の子	-0.443263
-1.176091	かわいい 妹	0.021611
-2.998041	が </s>
-2.313795	が あっ	0.450646
-3.299071	が あまり	-0.229674
-2.998041	が あり	-0.414973
-3.776193	が ありがとう	1.041393
-1.364573	が ある	-0.357769
-3.776193	が あれ	-0.189056
-2.344829	が い	-0.001872
-2.630064	が いい	-0.298406
-3.299071	が いっぱい	-0.104735
-1.006815	が いる	-1.039880
-3.776193	が いろいろ	-0.274701
-3.776193	が うまく
-3.776193	が おいしい	-0.297801
-3.776193	が お前	-0.279841
-2.821950	が お茶	-0.613341
-3.299071	が かかっ	-0.176091
-3.776193	が かわいい	-0.271067
-3.475163	が が	-0.298697
-3.776193	が き	0.059586
-2.043799	が きれい	-0.829858
-3.776193	が こちら	-0.283997
-3.299071	が この	-0.292049
-3.776193	が ござい	-0.104735
-3.174133	が ごはん	-0.213497
-3.299071	が さ	0.002662
-3.174133	が し	0.224413
-3.776193	が すぐ	-0.281508
-3.475163	が すべて	-0.286307
-3.475163	が する	0.929658
-3.776193	が ずっと	-0.273001
-3.299071	が そう	-0.295278
-2.931094	が その	-0.245575
-3.077223	が それ	-0.461576
-3.776193	が た	0.222161
-3.776193	が たくさん	-0.298125
-2.776193	が で	-0.721643
-2.361219	が でき	0.257703
-1.895379	が できる	-0.173483
-3.776193	が と	-0.286758
-3.776193	が として	-0.242163
-2.776193	が とても	-0.450292
-3.776193	が ど	-0.176091
-3.299071	が どう	-0.322689
-3.475163	が どこ	-0.161368
-3.299071	が な	-0.350787
-2.060189	が ない	-0.046796
-3.776193	が なかっ	1.822822
-3.776193	が なかなか	-0.268845
-3.475163	が なく	-0.287242
-3.174133	が なくなっ	0.221849
-3.776193	が に	-0.298412
-3.776193	が ね	0.689210
-3.776193	が ひとつ	-0.268845
-3.299071	が ひとり	-0.176091
-3.776193	が ほとんど	-0.294690
-3.776193	が また	-0.298004
-3.776193	が まだ	-0.298831
-3.776193	が まったく	-0.273001
-3.475163	が やる	-0.423876
-2.821950	が よく	-0.275151
-3.776193	が わ	-0.276206
-3.776193	が わたし	-0.268845
-3.776193	が を	-0.300989
-3.776193	が アニメ	-0.215318
-3.174133	が アメリカ	-0.200486
-2.873103	が カフェ	-0.708260
-3.077223	が ギター	-0.524794
-2.873103	が ケーキ	-0.444592
-3.776193	が コーヒー	-0.296284
-3.776193	が ゴルフ	-0.298374
-3.776193	が サッカー	-0.284515
-3.299071	が ジュース	-0.044582
-3.776193	が ストップ	-0.294870
-3.776193	が ニュース	-0.295635
-3.475163	が バック
-2.931094	が パン	-0.325103
-3.776193	が ビール	-0.290565
-2.998041	が ピアノ	-0.468647
-3.776193	が プログラム	-0.298105
-2.873103	が プール	-0.763518
-2.998041	が ペン	-0.289690
-2.821950	が ホテル	-0.780328
-3.776193	が ミルク	-0.295567
-3.776193	が リセット	-0.288796
-2.600101	が レストラン	-0.932761
-3.776193	が ロケ	-0.243038
-3.776193	が ロボット	-0.293205
-1.901131	が 一	-1.355526
-3.299071	が 一つ	0.016390
-2.662249	が 一番	-0.104879
-2.931094	が 一般	-0.312473
-3.776193	が 上	-0.145277
-2.475163	が 上手	-0.086252
-3.776193	が 下	-0.291690
-3.776193	が 不足	-0.176091
-3.776193	が 与え	-0.221849
-3.776193	が 世界	-0.258832
-3.174133	が 中心	-0.213075
-3.776193	が 主人	-0.268845
-2.998041	が 主体	-0.623249
-3.776193	が 主観
-3.776193	が 事実	-0.268845
-2.271043	が 二	-0.905285
-3.475163	が 二つ	0.159701
-3.776193	が 五	-0.280827
-2.697011	が 京都	-1.070682
-3.776193	が 人	-0.244762
-3.475163	が 人気	0.016390
-3.776193	が 人間	-0.297302
-3.776193	が 今	-0.260285
-3.776193	が 今日	-0.297152
-2.821950	が 仕事	-0.695590
-3.776193	が 仕方	-0.216709
-1.826803	が 会社	-1.681608
-3.776193	が 似	0.062148
-2.600101	が 低い	-0.023481
-3.475163	が 住む	-0.264818
-2.998041	が 体育館	-0.697779
-3.077223	が 何	-0.249877
-3.475163	が 作っ	-0.322219
-2.378253	が 作成	-0.793608
-3.077223	が 使わ	0.477121
-2.998041	が 使用	-0.310173
-3.776193	が 便利	-0.176091
-3.475163	が 保存	-0.210853
-2.378253	が 修正	-0.722252
-3.174133	が 傘	-0.347966
-3.299071	が 僕	-0.176091
-1.211526	が 元気	-1.082179
-3.776193	が 兄	-0.094270
-2.520920	が 光る	-0.597512
-2.931094	が 入っ	-0.301030
-3.299071	が 入る	0.191886
-3.776193	が 入れる	-0.277549
-3.299071	が 全く	-0.260601
-3.299071	が 全て	-0.267925
-3.776193	が 全然	-0.228479
-3.776193	が 全部	-0.243038
-2.734800	が 公園	-0.588179
-3.299071	が 写真	-0.374348
-3.077223	が 出る	-0.209260
-2.600101	が 出来る	-0.139662
-3.077223	が 分析	0.473661
-3.299071	が 初めて	-0.258626
-3.299071	が 利用	-0.208402
-3.776193	が 加	-0.221849
-3.077223	が 勉強	-0.155477
-2.475163	が 動く	-0.615424
-3.776193	が 勝つ	-0.274701
-2.697011	が 北海道	-0.989005
-3.776193	が 卒業	-0.295766
-3.776193	が 博物館	-0.268845
-3.776193	が 印刷	-0.238882
-3.475163	が 原因	-0.249877
-3.475163	が 参加	-0.417807
-2.821950	が 台所	-0.848985
-3.776193	が 合格	-0.267606
-2.873103	が 同じ	-0.113943
-3.776193	が 名前	-0.222802
-2.873103	が 含ま	0.064458
-3.475163	が 呼ぶ	0.511883
-3.475163	が 咲い	0.124939
-1.998041	が 咲く	0.328614
-3.174133	が 問題	-0.183805
-1.851913	が 図書館	-1.581813
-3.776193	が 基	-0.204120
-2.284831	が 報告	-0.308999
-3.475163	が 増え	-0.176091
-3.776193	が 壷
-3.776193	が 変わら	0.335792
-3.174133	が 変化	-0.241593
-2.344829	が 変更	-0.716803
-1.884098	が 多い	-0.210200
-2.776193	が 夢	-0.700158
-3.776193	が 大	-0.288065
-2.433770	が 大きい	-0.275311
-3.299071	が 大きく	-0.208276
-3.077223	が 大事	-0.072551
-3.776193	が 大切	-0.273001
-3.475163	が 大変	-0.255273
-1.789421	が 大好き	-0.309630
-1.857114	が 大学	-1.717964
-2.998041	が 大阪	-0.312379
-3.776193	が 女	-0.238882
-3.299071	が 女性	-0.356849
-2.020318	が 始まる	0.353843
-3.776193	が 姿	0.062647
-2.453973	が 存在	-0.318905
-2.931094	が 学校	-0.434087
-2.378253	が 完了	-0.822601
-3.776193	が 宗教	-0.236089
-3.299071	が 実在	-0.251812
-2.378253	が 実行	-0.797233
-3.776193	が 実際	0.221849
-3.077223	が 実験	-0.102305
-2.821950	が 家	-0.877154
-2.094951	が 寝る	-0.665574
-2.361219	が 対応	-0.917440
-3.776193	が 対象	-0.213880
-3.776193	が 将来	0.189056
-2.414465	が 小さい	-0.296067
-3.776193	が 居	0.301030
-3.475163	が 届く	-0.124939
-2.497439	が 屋上	-1.068576
-3.776193	が 岐阜	-0.294596
-3.776193	が 岡山	-0.294956
-3.776193	が 川	-0.297597
-1.862379	が 工場	-1.597228
-3.475163	が 帰っ	0.221849
-2.020318	が 帰る	0.166720
-2.998041	が 帽子	-0.416669
-3.776193	が 広い	-0.297939
-2.630064	が 店	-1.019509
-2.051917	が 座る	0.357511
-2.821950	が 庭	-0.821376
-2.998041	が 弁当	-0.376095
-3.776193	が 引き分け	-0.276206
-2.329034	が 強い	-0.341599
-2.931094	が 強く	0.019305
-3.077223	が 彼	-0.500359
-3.776193	が 彼ら	-0.290306
-3.475163	が 彼女	-0.197767
-3.776193	が 待っ	0.425969
-3.299071	が 得	-0.538391
-3.776193	が 心	-0.206760
-2.232124	が 必要	-0.411728
-3.776193	が 忘れ	-0.154902
-3.299071	が 忘れ物	-0.036381
-3.475163	が 忙しい	-0.176091
-2.361219	が 悪い	-0.758738
-3.077223	が 成功	-0.180456
-2.600101	が 成立	0.066947
-3.776193	が 成長	-0.218843
-3.077223	が 手紙	-0.389452
-2.378253	が 承認	-0.731798
-2.998041	が 担当	-0.550142
-3.475163	が 持つ	0.585461
-3.776193	が 指示	-0.154902
-2.998041	が 提出	0.706149
-3.475163	が 提案	-0.467021
-3.475163	が 政治	-0.282547
-1.878565	が 教室	-1.579396
-3.776193	が 教育	-0.291485
-3.776193	が 文化	-0.283997
-3.174133	が 料理	-0.556923
-3.776193	が 新しい	0.135473
-2.821950	が 新聞	-0.596308
-3.776193	が 既に	-0.268845
-3.776193	が 日常	-0.109144
-3.174133	が 日本	-0.280827
-2.821950	が 日本人	-0.505150
-3.077223	が 明らか	-0.229337
-2.873103	が 映画	-0.510890
-2.998041	が 昼	-0.713903
-3.776193	が 時	-0.220719
-2.998041	が 時計	-0.440172
-3.776193	が 時間	-0.276206
-2.931094	が 晩	0.126873
-3.475163	が 普通	0.033424
-3.475163	が 書い	-0.079181
-3.299071	が 最も	-0.294399
-3.174133	が 最初	-0.238882
-2.662249	が 最後	-0.265211
-3.776193	が 最高	-0.273001
-2.028004	が 有名	-0.713947
-3.077223	が 服	-0.308717
-3.174133	が 朝	-0.591657
-3.077223	が 本	-0.104417
-3.776193	が 本当に	-0.288796
-2.873103	が 来	-0.243038
-2.051917	が 来る	-0.158022
-2.630064	が 東京	-0.371272
-3.776193	が 林	-0.259637
-3.776193	が 根	-0.204120
-2.378253	が 検討	-0.705703
-3.174133	が 楽しみ	-0.330993
-3.776193	が 次	0.558155
-2.012765	が 止まる	-0.345970
-3.776193	が 正しい	-0.271067
-2.020318	が 歩く	0.058304
-3.776193	が 歴史	-0.292430
-3.776193	が 死	-0.283301
-2.931094	が 残っ	-0.042752
-3.077223	が 比較	0.026734
-2.821950	が 気	0.258278
-3.299071	が 水	-0.308717
-3.299071	が 求め	-0.221849
-2.378253	が 決定	-0.812913
-3.776193	が 沖縄	-0.287666
-2.077223	が 泣く	-0.442079
-2.012765	が 泳ぐ	-0.647000
-2.931094	が 流れ	-0.743389
-3.077223	が 測定	0.591065
-2.378253	が 準備	-0.924405
-3.776193	が 火	-0.238882
-3.776193	が 無限	-0.176091
-3.475163	が 父	-0.226845
-3.299071	が 特に	-0.280096
-3.475163	が 独立	-0.425092
-3.776193	が 狭い	-0.045757
-2.697011	が 玄関	-0.922058
-2.998041	が 現在	-0.392300
-3.174133	が 理由	-0.266726
-3.299071	が 生まれ	-0.389463
-3.299071	が 生活	-0.199040
-3.776193	が 田舎	-0.259637
-2.378253	が 申請	-0.653592
-2.998041	が 病院	-0.696159
-3.776193	が 痛い	-0.221849
-3.776193	が 発展	0.176091
-2.931094	が 発表	0.392800
-2.378253	が 登録	-0.809989
-3.776193	が 監督	-0.275724
-3.077223	が 目標	-0.093745
-2.378253	が 相談	-0.757116
-3.174133	が 眼鏡	-0.302806
-3.475163	が 矛盾
-2.821950	が 知ら	-0.187521
-2.998041	が 研究	-0.174627
-2.329034	が 確認	-0.210152
-2.600101	が 神社	-1.018300
-3.776193	が 禁止	-0.111974
-3.776193	が 福島	-0.290035
-3.174133	が 私	-0.275831
-3.776193	が 移動	-0.293343
-3.776193	が 空	-0.278916
-2.043799	が 空く	0.360008
-2.821950	が 空港	-0.865056
-2.821950	が 窓	-0.845098
-2.085996	が 立つ	0.408240
-2.094951	が 笑う	-0.371437
-3.475163	が 答え	-0.271067
-2.299071	が 管理	-0.590313
-3.299071	が 簡単	0.096910
-2.873103	が 紙	-0.363956
-3.776193	が 紳士	-0.124939
-2.998041	が 終わっ	0.460731
-3.776193	が 終わり	-0.234083
-2.060189	が 終わる	-0.372093
-3.776193	が 結合	-0.243038
-3.475163	が 結婚	-0.133802
-3.776193	が 絵	-0.268237
-3.475163	が 続け	-0.435729
-3.776193	が 続ける	-0.243038
-2.520920	が 繋がる	0.043466
-3.475163	が 美しい	-0.208276
-2.697011	が 美術館	-0.951728
-3.776193	が 義	-0.282547
-2.931094	が 考え	-0.457816
-3.776193	が 聞こえ
-3.475163	が 自分	-0.149762
-3.776193	が 自己	-0.274701
-2.630064	が 良い	-0.147475
-3.475163	が 花	-0.342082
-3.299071	が 荷物	-0.069783
-3.174133	が 薬	-0.282370
-1.976852	が 行く	-0.445152
-3.077223	が 行っ	0.808114
-3.776193	が 行為	-0.278754
-2.998041	が 製作	0.005830
-3.475163	が 要求	-0.273001
-2.821950	が 見	-0.588366
-3.776193	が 観光	-0.287242
-3.077223	が 観察	-0.062148
-3.776193	が 解決	-0.255273
-3.475163	が 言い	-0.330993
-3.475163	が 言う	-0.461327
-3.776193	が 言え	-0.168404
-3.776193	が 言お	0.176091
-3.077223	が 言っ	-0.444121
-3.776193	が 言葉	-0.250620
-2.361219	が 計画	-0.639849
-2.998041	が 計算	0.112704
-2.998041	が 記録	-0.132764
-2.821950	が 設計	0.070038
-3.776193	が 試合	-0.286307
-2.873103	が 誕生	-0.166331
-2.361219	が 説明	-0.603278
-3.776193	が 読む	-0.296141
-2.998041	が 調整	0.720159
-3.475163	が 謎	-0.023481
-3.174133	が 財布	-0.236572
-1.970013	が 走る	-0.135868
-2.012765	が 起きる	0.307763
-1.912870	が 趣味	-1.231098
-3.776193	が 車	-0.289448
-3.776193	が 逃げ	-0.249877
-2.378253	が 連絡	-0.758932
-3.299071	が 進ん	0.146128
-2.077223	が 遊ぶ	-0.750123
-2.998041	が 違う	-0.691870
-3.475163	が 違っ
-2.697011	が 部屋	-0.932100
-3.776193	が 部長	-0.197686
-3.077223	が 重要	-0.216709
-2.931094	が 野菜	-0.439757
-3.299071	が 鍵	-0.184937
-2.873103	が 長い	-0.408798
-3.299071	が 開発	-0.265314
-3.475163	が 間違い	-0.434369
-3.299071	が 関係	-0.339948
-3.174133	が 降っ
-3.776193	が 降り	-0.255273
-2.028004	が 降る	0.131151
-3.299071	が 難しい	-0.447158
-3.776193	が 雨	-0.273001
-3.776193	が 雲	-0.243038
-3.174133	が 電話	-0.413452
-3.776193	が 青い	0.216019
-2.060189	が 静か	-1.025306
-2.776193	が 非常	-0.147446
-3.776193	が 面白い	-0.273001
-3.475163	が 靴	-0.013364
-2.931094	が 鞄	-0.442359
-3.776193	が 音楽	-0.044856
-2.060189	が 飛ぶ	-0.814846
-3.776193	が 食べ	-0.255868
-3.776193	が 食べる	0.594454
-2.776193	が 食堂	-0.866656
-2.931094	が 食材	-0.444452
-2.776193	が 駅	-0.909884
-2.378253	が 高い	-0.347304
-3.475163	が 高く	-0.124939
-3.174133	が 魚	-0.414177
-2.113435	が 鳴く	-0.202276
-3.776193	が 黄	-0.276206
-3.776193	が 黒い	-0.166331
-1.591065	き </s>
-1.591065	き さ	-0.298368
-1.591065	き そう	-0.269431
-0.248642	き た	0.019068
-1.591065	き たい	-0.142962
-1.290035	き て	-0.300418
-1.591065	き に	-0.299478
-1.290035	き まし	0.717855
-0.778151	きっと また	-0.298004
-0.778151	きっと 変わら	0.335792
-0.778151	きっと 英語	-0.299104
-0.303175	きれい </s>
-2.006466	きれい で	-0.464954
-0.583220	きれい です	-1.060747
-2.307496	きれい な	-0.300245
-2.307496	きれい に	-0.293710
-2.307496	きれい 太陽	0.064725
-1.830375	きれい 川	-0.261684
-2.006466	きれい 星	-0.187228
-1.705436	きれい 月	-0.417123
-2.307496	きれい 木	-0.027247
-2.006466	きれい 森	-0.176091
-1.705436	きれい 海	-0.378635
-1.830375	きれい 空	-0.316164
-2.006466	きれい 花	-0.287725
-1.830375	きれい 雨	-0.318759
-1.705436	きれい 雪	-0.263241
-0.301030	く ノ	-0.204120
-0.012589	ください </s>
-0.778151	くらい です	0.370617
-0.778151	くらい の	-0.299885
-0.778151	くらい 一般	-0.044068
-0.335792	くれる </s>
-1.113943	くれる ん	-0.138554
-1.113943	くれる 人	-0.293265
-1.113943	くれる 相手	-0.280827
-0.544068	ぐらい </s>
-0.845098	ぐらい で	-0.244885
-0.845098	ぐらい 入っ	0.301030
-0.602060	け </s>
-0.602060	け で	-0.244885
-0.196295	けど </s>
-0.740363	けど ね	0.513119
-0.301030	けれど 必ず	-0.278754
-0.301030	けれども </s>
-0.778151	げ </s>
-0.778151	げ だけ	-0.289894
-0.778151	げ も	-0.300612
-0.903090	こ </s>
-1.079181	こ な	-0.475551
-0.903090	こ ない	-0.021148
-1.380211	こ なかっ	1.822822
-0.602060	こ ば	-0.778151
-1.380211	こ ぶ	-0.221849
-1.380211	こ を	-0.300989
-0.505150	こういう こと	0.021980
-1.204120	こういう の	-0.295739
-1.204120	こういう 事実	-0.251812
-1.204120	こういう 人	-0.274976
-1.204120	こういう 仕事	-0.297650
-1.204120	こういう 映画	-0.298875
-1.185637	ここ から	-0.298390
-1.361728	ここ が	-0.476175
-0.340539	ここ で	-0.384108
-0.884607	ここ に	-0.316201
-1.361728	ここ は	-0.474978
-1.361728	ここ まで	-0.291286
-1.662758	ここ も	-0.300821
-1.662758	ここ よ	0.243038
-1.414973	こちら から	-0.299352
-1.113943	こちら で	-0.216292
-1.414973	こちら と	-0.286758
-1.414973	こちら として	-0.266013
-1.113943	こちら に	-0.300295
-1.414973	こちら の	-0.299771
-1.113943	こちら は	-0.299382
-1.414973	こちら へ	-0.225996
-0.812913	こちら も	-0.298098
-1.414973	こちら 海	-0.298324
-0.671647	こと </s>
-2.886491	こと かかっ	0.124939
-2.108339	こと から	-0.388751
-0.596456	こと が	-0.768322
-2.886491	こと しか	-0.263241
-2.886491	こと せ	-0.276206
-2.041393	こと だ	-0.004019
-2.585461	こと だけ	-0.278464
-2.108339	こと だっ	0.538717
-2.886491	こと だろ	-0.288065
-1.205249	こと で	-0.439969
-2.585461	こと でし	0.937852
-2.886491	こと でしょ	0.564271
-2.041393	こと です	0.600184
-2.187521	こと と	-0.277102
-2.886491	こと として	-0.266013
-2.409369	こと な	-0.360294
-2.187521	こと ない	0.266668
-2.886491	こと なく	-0.294191
-2.585461	こと なんて	-0.404571
-1.367977	こと に	-0.557976
-2.585461	こと によって	-0.287242
-2.886491	こと により	-0.280827
-2.187521	こと の	-0.348394
-0.937101	こと は	-0.503350
-0.962211	こと も	-0.691773
-2.886491	こと や	-0.291485
-2.886491	こと らしい	1.028029
-1.080311	こと を	-0.413289
-2.886491	こと 言っ	-0.135404
-2.534026	この うえ	-0.234083
-2.534026	この こ	-0.282547
-1.420083	この こと	-0.205659
-1.579784	この ため	-0.110698
-1.454845	この とき	-0.080545
-2.534026	この どちら	-0.115393
-2.534026	この は	-0.299960
-2.232996	この ほか	-0.130334
-1.278754	この よう	-0.078161
-2.534026	この を	-0.300499
-2.232996	この システム	-0.276206
-2.534026	この スケジュール	-0.296434
-2.232996	この チーム	-0.434717
-2.534026	この テスト	-0.290172
-2.232996	この ドラマ	-0.452988
-2.534026	この バッグ	-0.204120
-2.534026	この パン	-0.294226
-2.534026	この ビル	-0.294596
-2.534026	この プロジェクト	-0.296529
-2.534026	この 上	-0.295040
-1.931966	この 世界	-0.321325
-2.232996	この 中	-0.092754
-2.534026	この 事実	-0.268845
-2.232996	この 二	-0.158118
-2.534026	この 二つ	0.113943
-1.931966	この 人	-0.182999
-2.534026	この 仕事	-0.273226
-1.835056	この 他	-0.576253
-2.534026	この 企画	-0.297170
-2.534026	この 会社	-0.028395
-2.534026	この 使用	-0.298714
-2.534026	この 公園	-0.159480
-2.534026	この 創造	-0.255273
-2.534026	この 原因	-0.249877
-2.534026	この 句	-0.221849
-1.931966	この 名	-0.441316
-2.534026	この 名前	-0.286471
-2.056905	この 問題	-0.274555
-2.232996	この 国	-0.267606
-2.232996	この 地	-0.449969
-2.534026	この 地図	-0.283997
-1.931966	この 地域	-0.387510
-2.534026	この 城	-0.267606
-2.232996	この 場合	-0.403020
-2.232996	この 場所	-0.209950
-2.534026	この 墓地	-0.221849
-2.534026	この 変化	-0.247345
-2.534026	この 女	-0.258478
-2.534026	この 姉	-0.294100
-2.534026	この 姿	-0.287869
-2.232996	この 学校	-0.081904
-2.534026	この 宇宙	-0.263241
-2.534026	この 実験	-0.290730
-2.534026	この 差	-0.124939
-2.534026	この 帰省	-0.221849
-2.534026	この 建物	-0.237361
-2.534026	この 弟	-0.285236
-2.534026	この 形	-0.266268
-2.534026	この 影響	-0.254033
-2.534026	この 成長	-0.269996
-2.232996	この 手	-0.440138
-2.534026	この 技	-0.258278
-2.534026	この 授業	-0.221849
-2.534026	この 教授	-0.299113
-1.835056	この 方法	-0.111448
-2.534026	この 旗	-0.204120
-1.835056	この 日	-0.335461
-2.056905	この 星	-0.362708
-2.056905	この 映画	-0.269836
-1.755875	この 時	-0.227453
-2.534026	この 時代	-0.261158
-2.232996	この 木	-0.394804
-2.232996	この 本	-0.251545
-2.534026	この 村	-0.198368
-2.534026	この 概念	-0.285236
-2.534026	この 様子	-0.280827
-2.534026	この 歯	-0.037789
-2.534026	この 水	-0.285236
-2.534026	この 海	-0.298324
-2.534026	この 状態	-0.267172
-2.232996	この 現象	-0.414973
-2.056905	この 理由	-0.102373
-2.232996	この 町	-0.217484
-2.534026	この 病院	-0.298219
-2.534026	この 目	-0.287869
-2.534026	この 目標	-0.004279
-2.534026	この 研究	-0.294399
-2.534026	この 移動	-0.244125
-2.056905	この 種	-0.324708
-2.534026	この 立場	-0.221849
-2.056905	この 結婚	-0.345667
-2.534026	この 結果	-0.293205
-2.534026	この 行為	-0.255273
-2.232996	この 街	-0.231949
-2.056905	この 表現	-0.346787
-2.534026	この 装置	-0.290306
-2.534026	この 解決	-0.255273
-1.755875	この 言葉	0.029538
-2.534026	この 言語	0.133894
-1.931966	この 計画	-0.456918
-2.232996	この 記録	-0.466463
-2.534026	この 語	-0.259637
-2.534026	この 調整	-0.297569
-2.534026	この 遅れ	-0.243038
-2.534026	この 違い	-0.266268
-2.534026	この 部分	-0.273001
-2.534026	この 部屋	-0.298163
-2.534026	この 関係	-0.288796
-2.534026	この 電車	-0.296385
-2.534026	この 馬	-0.297676
-2.232996	この 駅	-0.231139
-2.534026	この 鳥	-0.288881
-2.485721	これ </s>
-0.604908	これ が	-0.382680
-2.485721	これ しか	-0.288796
-2.184691	これ だけ	-0.222947
-1.640623	これ で	-0.278558
-2.485721	これ でも	-0.298597
-2.485721	これ と	-0.298261
-1.255273	これ に	-0.701665
-2.008600	これ について	-0.140179
-2.008600	これ によって	-0.273001
-2.008600	これ により	-0.237361
-2.184691	これ による	-0.153228
-2.008600	これ に対して	-0.273001
-2.184691	これ の	-0.300458
-0.512594	これ は	-0.362243
-2.485721	これ ほど	-0.284640
-1.707570	これ まで	-0.321268
-1.444329	これ も	-0.296203
-2.485721	これ や	-0.297871
-0.813624	これ を	-0.372775
-2.008600	これ 以上	-0.099385
-1.041393	これから が	-0.300739
-1.041393	これから です	-0.253388
-0.263241	これから も	-0.387592
-1.041393	これら に	-0.458882
-0.388180	これら の	-0.303992
-0.497325	これら は	-0.324546
-1.342423	これら を	-0.299190
-1.643453	これら 地域	-0.293606
-0.497325	こんな こと	-0.395300
-1.342423	こんな ところ	-0.219725
-1.342423	こんな に	-0.300867
-1.342423	こんな 事実	-0.268845
-1.342423	こんな 空	-0.297939
-1.342423	こんな 野球	-0.294191
-1.342423	こんな 関係	-0.294956
-1.342423	こんな 風	-0.294870
-0.778151	こんなに 幸せ	-0.208276
-0.778151	こんなに 早く	-0.263241
-0.778151	こんなに 目	-0.281135
-1.204120	ご ら	-0.279841
-1.204120	ご 協力	-0.252725
-1.204120	ご 星	-0.292486
-0.249877	ご 注意	-0.591424
-0.239760	ござい まし	-0.106053
-0.439333	ござい ます	-0.248239
-1.294191	ごはん が	-0.658696
-1.219557	ごはん と	-0.317665
-1.100371	ごはん は	-0.277400
-0.954243	ごはん も	-0.359092
-0.171975	ごはん を	-0.611662
-2.197281	ごはん 食べ	-0.425969
-0.903090	ご飯 が	-0.293919
-0.903090	ご飯 でき	-0.262006
-0.903090	ご飯 は	-0.300124
-0.903090	ご飯 を	-0.299354
-2.390051	さ </s>
-1.992111	さ せ	-0.249877
-2.691081	さ た	-0.300092
-2.691081	さ だ	0.008739
-2.691081	さ て	-0.300112
-2.390051	さ で	-0.299221
-2.691081	さ と	-0.300790
-2.691081	さ ね	-0.296067
-2.691081	さ ひ	-0.268845
-2.691081	さ ぶ	-0.221849
-2.213960	さ ま	-0.237361
-2.691081	さ み	-0.282547
-0.124055	さ れ	-0.224082
-0.756583	さ れる	-0.210568
-2.691081	さ ソ	-0.243038
-0.301030	さすが は	-0.300042
-1.414973	さらに で	-0.244885
-0.937852	さらに は	-0.299382
-1.414973	さらに ゲーム	-0.296709
-1.414973	さらに 分析	0.950782
-1.414973	さらに 古い	0.194189
-1.414973	さらに 帽子	-0.297334
-1.414973	さらに 店	-0.293930
-1.414973	さらに 弟	-0.272173
-1.414973	さらに 次	-0.291690
-1.414973	さらに 特殊	0.176091
-1.414973	さらに 発展	0.176091
-1.414973	さらに 言お	0.176091
-1.974857	し </s>
-2.877947	し お	-0.295766
-2.877947	し すぎる	-0.221849
-0.627527	し た	0.143762
-1.731819	し たい	-0.113755
-2.576917	し たら	-0.204120
-2.877947	し ち	-0.045757
-2.877947	し つ	-0.263241
-0.309745	し て	-0.317043
-2.275887	し てる	-0.280827
-2.877947	し な	-0.271011
-0.938428	し ない	-0.158624
-1.764004	し なかっ	0.977724
-2.877947	し ながら	-0.263241
-2.099796	し なく	-0.397940
-2.178977	し なけれ	0.176091
-2.576917	し に	-0.299968
-2.877947	し はじめ	-0.176091
-2.576917	し まし	0.717855
-1.535524	し ます	-0.080922
-2.275887	し ませ	0.028029
-2.877947	し ゲーム	-0.285713
-2.877947	し 子供	-0.212203
-2.877947	し 技	-0.243038
-2.877947	し 母親	-0.268361
-2.877947	し 続け	-0.213880
-1.556303	しか あり	-0.153815
-0.778151	しか い	-0.513971
-1.079181	しか ない	0.326926
-1.556303	しか なかっ	1.822822
-1.556303	しか 使わ	-0.279841
-1.556303	しか 判断	-0.279841
-1.255273	しか 存在	-0.234083
-1.556303	しか 残っ	0.559308
-1.556303	しか 水	-0.277118
-1.556303	しか 知ら	-0.283301
-1.556303	しか 確認	-0.288709
-1.079181	しか 考え	-0.178184
-1.556303	しか 言い	-0.279841
-2.012837	しかし あまり	-0.294399
-1.711807	しかし この	-0.472012
-1.234686	しかし これ	0.195687
-1.711807	しかし そう	-0.198368
-1.535716	しかし その	-0.257853
-1.313867	しかし それ	-0.042446
-1.535716	しかし そんな	-0.450792
-2.012837	しかし どこ	-0.243038
-1.711807	しかし アメリカ	-0.414973
-2.012837	しかし 一つ	-0.243803
-2.012837	しかし 一方	-0.274701
-2.012837	しかし 一般	-0.256676
-2.012837	しかし 不思議	-0.266268
-2.012837	しかし 兄	-0.294399
-2.012837	しかし 全く	-0.291270
-2.012837	しかし 問題	-0.251625
-2.012837	しかし 国家	-0.266268
-2.012837	しかし 変化	-0.290811
-2.012837	しかし 大きな	-0.271067
-2.012837	しかし 失敗	-0.201645
-2.012837	しかし 子供	-0.202863
-2.012837	しかし 実行	-0.288531
-2.012837	しかし 実際	-0.221849
-2.012837	しかし 将来	-0.200915
-2.012837	しかし 常識	-0.187087
-1.711807	しかし 彼	-0.403449
-1.535716	しかし 彼女	-0.354379
-2.012837	しかし 思わ	-0.271067
-2.012837	しかし 情報	0.244356
-2.012837	しかし 政治	-0.176091
-1.711807	しかし 日本	-0.294109
-2.012837	しかし 次	0.558155
-2.012837	しかし 現在	-0.256826
-1.535716	しかし 私	-0.387599
-2.012837	しかし 結婚	-0.273300
-2.012837	しかし 結局	-0.243038
-1.410777	しかし 結果	-0.191331
-2.012837	しかし 言語	-0.282932
-2.012837	しかし 黄	-0.276206
-0.778151	しかも これら	-0.134699
-0.778151	しかも 原因	-0.267606
-0.778151	しかも 品	-0.176091
-0.397940	しばらく し	-0.184635
-0.698970	しばらく 考え	-0.202544
-0.191886	しまう </s>
-1.146128	しまう から	-0.299352
-1.146128	しまう もの	-0.204964
-0.116506	しまっ た	0.174178
-0.929419	しまっ て	0.047119
-0.045757	しよ う	-0.217484
-0.903090	じ </s>
-0.903090	じ か	-0.299005
-0.903090	じ の	-0.300687
-0.903090	じ も	-0.300821
-0.301030	じっと という	-0.141100
-0.698970	す </s>
-0.397940	す の	-0.300572
-0.778151	すぎる こと	-0.263344
-0.778151	すぎる の	-0.297932
-0.778151	すぎる 時	-0.283771
-2.260071	すぐ い	-0.297262
-1.356981	すぐ に	-0.297920
-2.260071	すぐ の	-0.300458
-1.959041	すぐ エアコン	0.136220
-1.782950	すぐ カメラ	-0.232675
-1.658011	すぐ カーテン	-0.079181
-2.260071	すぐ ギター	-0.047673
-2.260071	すぐ コップ	0.251812
-1.481920	すぐ コート	-0.327682
-2.260071	すぐ サンダル	0.295278
-2.260071	すぐ シャツ	0.355012
-1.658011	すぐ ジャケット	-0.255833
